SVM-light Version V6.02
2 # kernel type
3 # kernel parameter -d 
0.0094424585 # kernel parameter -g 
1 # kernel parameter -s 
1 # kernel parameter -r 
empty# kernel parameter -u 
102 # highest feature index 
628 # number of training documents 
84 # number of support vectors plus 1 
1.3189174 # threshold b, each following line is a SV (starting with alpha*y)
0.71397738405400956729351946705719 1:1.100171 2:1.3549761 3:-2.2271459 4:-1.816465 5:1.9628429 6:0.54907078 7:-0.95256001 8:-0.14586321 9:-0.26632169 10:0.35094309 11:-1.1249059 12:-0.90698719 13:-1.881449 14:0.69869518 15:0.290216 16:1.3906879 17:0.60724622 18:1.526247 19:-1.029012 20:-1.3615969 21:-0.8358022 22:0.74849248 23:-0.87745529 24:0.36787239 25:-1.029012 26:-1.3615969 27:-0.8358022 28:-1.816465 29:1.9628429 30:0.54907078 31:1.176623 32:0.2091741 33:-0.046295181 34:-1.816465 35:1.9628429 36:0.54907078 37:0.92050898 38:0.93538678 39:0.7173264 40:-1.881449 41:0.69869518 42:0.290216 43:-1.697965 44:-0.90435201 45:-0.66754657 46:0.2706688 47:-0.52241802 48:2.67168 49:0.74849248 50:-0.87745529 51:0.36787239 52:0.85170239 53:-2.883954 54:0.1931455 55:1.176623 56:0.2091741 57:-0.046295181 58:0.92050898 59:0.93538678 60:0.7173264 61:1.230139 62:0.77938551 63:0.54259938 64:-1.6023999 65:-0.55469412 66:-0.63518971 67:-0.53207511 68:1.247389 69:0.0054757739 70:0.85170239 71:-2.883954 72:0.1931455 73:-0.46709111 74:0.47276241 75:1.44212 76:0.35094309 77:-1.1249059 78:-0.90698719 79:1.176623 80:0.2091741 81:-0.046295181 82:0.02602301 83:-0.93124878 84:0.057246719 85:0.02602301 86:-0.93124878 87:0.057246719 88:-1.029012 89:-1.3615969 90:-0.8358022 91:1.3906879 92:0.60724622 93:1.526247 94:-1.029012 95:-1.3615969 96:-0.8358022 97:0.35094309 98:-1.1249059 99:-0.90698719 100:0.92050898 101:0.93538678 102:0.7173264 #
-0.1201634560797728568104503210634 1:1.100171 2:1.3549761 3:-2.2271459 4:-1.816465 5:1.9628429 6:0.54907078 7:0.83258939 8:0.28448501 9:-0.73873162 10:0.02602301 11:-0.93124878 12:0.057246719 13:-1.881449 14:0.69869518 15:0.290216 16:1.3906879 17:0.60724622 18:1.526247 19:-1.697965 20:-0.90435201 21:-0.66754657 22:0.74849248 23:-0.87745529 24:0.36787239 25:-1.029012 26:-1.3615969 27:-0.8358022 28:1.230139 29:0.77938551 30:0.54259938 31:1.176623 32:0.2091741 33:-0.046295181 34:-1.6023999 35:-0.55469412 36:-0.63518971 37:-0.53207511 38:1.247389 39:0.0054757739 40:-1.6023999 41:-0.55469412 42:-0.63518971 43:-1.816465 44:1.9628429 45:0.54907078 46:0.2706688 47:-0.52241802 48:2.67168 49:0.85170239 50:-2.883954 51:0.1931455 52:0.85170239 53:-2.883954 54:0.1931455 55:1.176623 56:0.2091741 57:-0.046295181 58:-0.53207511 59:1.247389 60:0.0054757739 61:0.92050898 62:0.93538678 63:0.7173264 64:0.85170239 65:-2.883954 66:0.1931455 67:-0.53207511 68:1.247389 69:0.0054757739 70:0.85170239 71:-2.883954 72:0.1931455 73:-0.46709111 74:0.47276241 75:1.44212 76:0.02602301 77:-0.93124878 78:0.057246719 79:1.176623 80:0.2091741 81:-0.046295181 82:0.02602301 83:-0.93124878 84:0.057246719 85:0.35094309 86:-1.1249059 87:-0.90698719 88:-1.697965 89:-0.90435201 90:-0.66754657 91:0.85170239 92:-2.883954 93:0.1931455 94:-1.029012 95:-1.3615969 96:-0.8358022 97:0.74849248 98:-0.87745529 99:0.36787239 100:0.92050898 101:0.93538678 102:0.7173264 #
-0.63118220324450713398789503116859 1:0.02602301 2:-0.93124878 3:0.057246719 4:0.85170239 5:-2.883954 6:0.1931455 7:-1.816465 8:1.9628429 9:0.54907078 10:0.02602301 11:-0.93124878 12:0.057246719 13:-1.881449 14:0.69869518 15:0.290216 16:1.3906879 17:0.60724622 18:1.526247 19:-1.029012 20:-1.3615969 21:-0.8358022 22:-1.881449 23:0.69869518 24:0.290216 25:0.02602301 26:-0.93124878 27:0.057246719 28:0.85170239 29:-2.883954 30:0.1931455 31:1.3906879 32:0.60724622 33:1.526247 34:1.100171 35:1.3549761 36:-2.2271459 37:1.176623 38:0.2091741 39:-0.046295181 40:-1.881449 41:0.69869518 42:0.290216 43:-1.029012 44:-1.3615969 45:-0.8358022 46:-1.029012 47:-1.3615969 48:-0.8358022 49:0.85170239 50:-2.883954 51:0.1931455 52:0.74849248 53:-0.87745529 54:0.36787239 55:1.3906879 56:0.60724622 57:1.526247 58:-1.697965 59:-0.90435201 60:-0.66754657 61:1.230139 62:0.77938551 63:0.54259938 64:0.74849248 65:-0.87745529 66:0.36787239 67:-0.53207511 68:1.247389 69:0.0054757739 70:0.85170239 71:-2.883954 72:0.1931455 73:-1.6023999 74:-0.55469412 75:-0.63518971 76:0.74849248 77:-0.87745529 78:0.36787239 79:1.176623 80:0.2091741 81:-0.046295181 82:0.02602301 83:-0.93124878 84:0.057246719 85:0.35094309 86:-1.1249059 87:-0.90698719 88:-1.697965 89:-0.90435201 90:-0.66754657 91:1.3906879 92:0.60724622 93:1.526247 94:0.74849248 95:-0.87745529 96:0.36787239 97:0.35094309 98:-1.1249059 99:-0.90698719 100:-0.53207511 101:1.247389 102:0.0054757739 #
-0.3391472315509118651277731260052 1:-0.53207511 2:1.247389 3:0.0054757739 4:-1.816465 5:1.9628429 6:0.54907078 7:0.92050898 8:0.93538678 9:0.7173264 10:-1.029012 11:-1.3615969 12:-0.8358022 13:-1.881449 14:0.69869518 15:0.290216 16:1.3906879 17:0.60724622 18:1.526247 19:-1.029012 20:-1.3615969 21:-0.8358022 22:0.02602301 23:-0.93124878 24:0.057246719 25:-1.029012 26:-1.3615969 27:-0.8358022 28:0.85170239 29:-2.883954 30:0.1931455 31:1.176623 32:0.2091741 33:-0.046295181 34:-0.46709111 35:0.47276241 36:1.44212 37:-0.53207511 38:1.247389 39:0.0054757739 40:-1.6023999 41:-0.55469412 42:-0.63518971 43:-1.6023999 44:-0.55469412 45:-0.63518971 46:-1.029012 47:-1.3615969 48:-0.8358022 49:-1.697965 50:-0.90435201 51:-0.66754657 52:0.85170239 53:-2.883954 54:0.1931455 55:1.3906879 56:0.60724622 57:1.526247 58:-1.6023999 59:-0.55469412 60:-0.63518971 61:1.230139 62:0.77938551 63:0.54259938 64:0.02602301 65:-0.93124878 66:0.057246719 67:-0.53207511 68:1.247389 69:0.0054757739 70:0.85170239 71:-2.883954 72:0.1931455 73:-0.46709111 74:0.47276241 75:1.44212 76:0.02602301 77:-0.93124878 78:0.057246719 79:1.176623 80:0.2091741 81:-0.046295181 82:0.02602301 83:-0.93124878 84:0.057246719 85:0.35094309 86:-1.1249059 87:-0.90698719 88:-1.029012 89:-1.3615969 90:-0.8358022 91:0.02602301 92:-0.93124878 93:0.057246719 94:0.02602301 95:-0.93124878 96:0.057246719 97:0.35094309 98:-1.1249059 99:-0.90698719 100:0.83258939 101:0.28448501 102:-0.73873162 #
1.0853608793563003231952279747929 1:-0.53207511 2:1.247389 3:0.0054757739 4:0.85170239 5:-2.883954 6:0.1931455 7:-0.95256001 8:-0.14586321 9:-0.26632169 10:0.35094309 11:-1.1249059 12:-0.90698719 13:-1.881449 14:0.69869518 15:0.290216 16:1.3906879 17:0.60724622 18:1.526247 19:-1.029012 20:-1.3615969 21:-0.8358022 22:0.74849248 23:-0.87745529 24:0.36787239 25:-1.029012 26:-1.3615969 27:-0.8358022 28:-0.53207511 29:1.247389 30:0.0054757739 31:1.176623 32:0.2091741 33:-0.046295181 34:-1.6023999 35:-0.55469412 36:-0.63518971 37:0.92050898 38:0.93538678 39:0.7173264 40:-0.95256001 41:-0.14586321 42:-0.26632169 43:-1.881449 44:0.69869518 45:0.290216 46:-1.029012 47:-1.3615969 48:-0.8358022 49:0.74849248 50:-0.87745529 51:0.36787239 52:0.85170239 53:-2.883954 54:0.1931455 55:1.176623 56:0.2091741 57:-0.046295181 58:-1.029012 59:-1.3615969 60:-0.8358022 61:1.230139 62:0.77938551 63:0.54259938 64:-1.6023999 65:-0.55469412 66:-0.63518971 67:-0.53207511 68:1.247389 69:0.0054757739 70:0.85170239 71:-2.883954 72:0.1931455 73:0.02602301 74:-0.93124878 75:0.057246719 76:0.35094309 77:-1.1249059 78:-0.90698719 79:1.176623 80:0.2091741 81:-0.046295181 82:-1.029012 83:-1.3615969 84:-0.8358022 85:0.74849248 86:-0.87745529 87:0.36787239 88:-1.029012 89:-1.3615969 90:-0.8358022 91:1.3906879 92:0.60724622 93:1.526247 94:0.74849248 95:-0.87745529 96:0.36787239 97:0.35094309 98:-1.1249059 99:-0.90698719 100:-1.816465 101:1.9628429 102:0.54907078 #
-0.1033207873083339389808088526479 1:-1.6023999 2:-0.55469412 3:-0.63518971 4:0.74849248 5:-0.87745529 6:0.36787239 7:1.176623 8:0.2091741 9:-0.046295181 10:0.02602301 11:-0.93124878 12:0.057246719 13:-1.881449 14:0.69869518 15:0.290216 16:1.3906879 17:0.60724622 18:1.526247 19:0.85170239 20:-2.883954 21:0.1931455 22:0.74849248 23:-0.87745529 24:0.36787239 25:-1.029012 26:-1.3615969 27:-0.8358022 28:-0.95256001 29:-0.14586321 30:-0.26632169 31:1.176623 32:0.2091741 33:-0.046295181 34:-1.6023999 35:-0.55469412 36:-0.63518971 37:0.92050898 38:0.93538678 39:0.7173264 40:-1.881449 41:0.69869518 42:0.290216 43:1.230139 44:0.77938551 45:0.54259938 46:-1.029012 47:-1.3615969 48:-0.8358022 49:-1.029012 50:-1.3615969 51:-0.8358022 52:0.85170239 53:-2.883954 54:0.1931455 55:1.3906879 56:0.60724622 57:1.526247 58:0.35094309 59:-1.1249059 60:-0.90698719 61:1.230139 62:0.77938551 63:0.54259938 64:0.85170239 65:-2.883954 66:0.1931455 67:-0.53207511 68:1.247389 69:0.0054757739 70:0.85170239 71:-2.883954 72:0.1931455 73:-0.46709111 74:0.47276241 75:1.44212 76:0.35094309 77:-1.1249059 78:-0.90698719 79:1.176623 80:0.2091741 81:-0.046295181 82:1.230139 83:0.77938551 84:0.54259938 85:0.74849248 86:-0.87745529 87:0.36787239 88:-1.697965 89:-0.90435201 90:-0.66754657 91:-1.697965 92:-0.90435201 93:-0.66754657 94:0.74849248 95:-0.87745529 96:0.36787239 97:0.35094309 98:-1.1249059 99:-0.90698719 100:0.74849248 101:-0.87745529 102:0.36787239 #
3.0171877170601817397255217656493 1:1.100171 2:1.3549761 3:-2.2271459 4:-1.816465 5:1.9628429 6:0.54907078 7:-0.95256001 8:-0.14586321 9:-0.26632169 10:0.35094309 11:-1.1249059 12:-0.90698719 13:-1.881449 14:0.69869518 15:0.290216 16:1.3906879 17:0.60724622 18:1.526247 19:-1.029012 20:-1.3615969 21:-0.8358022 22:0.02602301 23:-0.93124878 24:0.057246719 25:0.85170239 26:-2.883954 27:0.1931455 28:-1.816465 29:1.9628429 30:0.54907078 31:1.176623 32:0.2091741 33:-0.046295181 34:-1.816465 35:1.9628429 36:0.54907078 37:0.92050898 38:0.93538678 39:0.7173264 40:-1.881449 41:0.69869518 42:0.290216 43:-0.95256001 44:-0.14586321 45:-0.26632169 46:0.2706688 47:-0.52241802 48:2.67168 49:0.74849248 50:-0.87745529 51:0.36787239 52:0.85170239 53:-2.883954 54:0.1931455 55:1.176623 56:0.2091741 57:-0.046295181 58:0.92050898 59:0.93538678 60:0.7173264 61:1.230139 62:0.77938551 63:0.54259938 64:-1.6023999 65:-0.55469412 66:-0.63518971 67:-0.53207511 68:1.247389 69:0.0054757739 70:0.85170239 71:-2.883954 72:0.1931455 73:-0.46709111 74:0.47276241 75:1.44212 76:0.35094309 77:-1.1249059 78:-0.90698719 79:1.176623 80:0.2091741 81:-0.046295181 82:0.02602301 83:-0.93124878 84:0.057246719 85:0.02602301 86:-0.93124878 87:0.057246719 88:-1.697965 89:-0.90435201 90:-0.66754657 91:1.3906879 92:0.60724622 93:1.526247 94:-1.029012 95:-1.3615969 96:-0.8358022 97:0.35094309 98:-1.1249059 99:-0.90698719 100:0.02602301 101:-0.93124878 102:0.057246719 #
-0.0039547687109523499415786318422761 1:-0.53207511 2:1.247389 3:0.0054757739 4:1.100171 5:1.3549761 6:-2.2271459 7:0.74849248 8:-0.87745529 9:0.36787239 10:0.74849248 11:-0.87745529 12:0.36787239 13:-1.881449 14:0.69869518 15:0.290216 16:1.3906879 17:0.60724622 18:1.526247 19:-1.6023999 20:-0.55469412 21:-0.63518971 22:0.35094309 23:-1.1249059 24:-0.90698719 25:-1.029012 26:-1.3615969 27:-0.8358022 28:0.35094309 29:-1.1249059 30:-0.90698719 31:0.02602301 32:-0.93124878 33:0.057246719 34:0.35094309 35:-1.1249059 36:-0.90698719 37:1.08488 38:0.75786811 39:-2.033005 40:-1.029012 41:-1.3615969 42:-0.8358022 43:-1.029012 44:-1.3615969 45:-0.8358022 46:-1.6023999 47:-0.55469412 48:-0.63518971 49:0.85170239 50:-2.883954 51:0.1931455 52:0.85170239 53:-2.883954 54:0.1931455 55:1.176623 56:0.2091741 57:-0.046295181 58:-1.029012 59:-1.3615969 60:-0.8358022 61:1.230139 62:0.77938551 63:0.54259938 64:0.02602301 65:-0.93124878 66:0.057246719 67:-0.53207511 68:1.247389 69:0.0054757739 70:0.85170239 71:-2.883954 72:0.1931455 73:-0.46709111 74:0.47276241 75:1.44212 76:0.35094309 77:-1.1249059 78:-0.90698719 79:1.176623 80:0.2091741 81:-0.046295181 82:-1.6023999 83:-0.55469412 84:-0.63518971 85:0.35094309 86:-1.1249059 87:-0.90698719 88:-1.029012 89:-1.3615969 90:-0.8358022 91:1.230139 92:0.77938551 93:0.54259938 94:0.2706688 95:-0.52241802 96:2.67168 97:0.35094309 98:-1.1249059 99:-0.90698719 100:1.3906879 101:0.60724622 102:1.526247 #
0.62236131262985194823045276280027 1:1.100171 2:1.3549761 3:-2.2271459 4:-1.816465 5:1.9628429 6:0.54907078 7:-0.95256001 8:-0.14586321 9:-0.26632169 10:0.35094309 11:-1.1249059 12:-0.90698719 13:-1.881449 14:0.69869518 15:0.290216 16:1.3906879 17:0.60724622 18:1.526247 19:-1.029012 20:-1.3615969 21:-0.8358022 22:0.74849248 23:-0.87745529 24:0.36787239 25:-1.029012 26:-1.3615969 27:-0.8358022 28:-1.816465 29:1.9628429 30:0.54907078 31:1.176623 32:0.2091741 33:-0.046295181 34:-1.816465 35:1.9628429 36:0.54907078 37:0.92050898 38:0.93538678 39:0.7173264 40:-1.881449 41:0.69869518 42:0.290216 43:-1.881449 44:0.69869518 45:0.290216 46:0.02602301 47:-0.93124878 48:0.057246719 49:0.74849248 50:-0.87745529 51:0.36787239 52:0.85170239 53:-2.883954 54:0.1931455 55:1.176623 56:0.2091741 57:-0.046295181 58:-1.697965 59:-0.90435201 60:-0.66754657 61:1.230139 62:0.77938551 63:0.54259938 64:-1.6023999 65:-0.55469412 66:-0.63518971 67:-0.53207511 68:1.247389 69:0.0054757739 70:0.85170239 71:-2.883954 72:0.1931455 73:-0.46709111 74:0.47276241 75:1.44212 76:0.35094309 77:-1.1249059 78:-0.90698719 79:1.176623 80:0.2091741 81:-0.046295181 82:0.02602301 83:-0.93124878 84:0.057246719 85:0.35094309 86:-1.1249059 87:-0.90698719 88:-1.029012 89:-1.3615969 90:-0.8358022 91:1.3906879 92:0.60724622 93:1.526247 94:-1.029012 95:-1.3615969 96:-0.8358022 97:0.74849248 98:-0.87745529 99:0.36787239 100:-0.53207511 101:1.247389 102:0.0054757739 #
1.3785321319317080934752084431238 1:1.100171 2:1.3549761 3:-2.2271459 4:-1.816465 5:1.9628429 6:0.54907078 7:-0.95256001 8:-0.14586321 9:-0.26632169 10:0.35094309 11:-1.1249059 12:-0.90698719 13:-1.881449 14:0.69869518 15:0.290216 16:1.3906879 17:0.60724622 18:1.526247 19:-1.029012 20:-1.3615969 21:-0.8358022 22:0.74849248 23:-0.87745529 24:0.36787239 25:-1.029012 26:-1.3615969 27:-0.8358022 28:-1.816465 29:1.9628429 30:0.54907078 31:1.176623 32:0.2091741 33:-0.046295181 34:0.2706688 35:-0.52241802 36:2.67168 37:0.92050898 38:0.93538678 39:0.7173264 40:-1.881449 41:0.69869518 42:0.290216 43:-1.697965 44:-0.90435201 45:-0.66754657 46:0.2706688 47:-0.52241802 48:2.67168 49:0.74849248 50:-0.87745529 51:0.36787239 52:0.85170239 53:-2.883954 54:0.1931455 55:1.176623 56:0.2091741 57:-0.046295181 58:0.92050898 59:0.93538678 60:0.7173264 61:1.230139 62:0.77938551 63:0.54259938 64:-1.6023999 65:-0.55469412 66:-0.63518971 67:-0.53207511 68:1.247389 69:0.0054757739 70:0.85170239 71:-2.883954 72:0.1931455 73:-0.46709111 74:0.47276241 75:1.44212 76:0.35094309 77:-1.1249059 78:-0.90698719 79:1.176623 80:0.2091741 81:-0.046295181 82:0.02602301 83:-0.93124878 84:0.057246719 85:0.02602301 86:-0.93124878 87:0.057246719 88:-1.697965 89:-0.90435201 90:-0.66754657 91:1.3906879 92:0.60724622 93:1.526247 94:-1.029012 95:-1.3615969 96:-0.8358022 97:0.35094309 98:-1.1249059 99:-0.90698719 100:-0.53207511 101:1.247389 102:0.0054757739 #
-10 1:1.100171 2:1.3549761 3:-2.2271459 4:-1.816465 5:1.9628429 6:0.54907078 7:-0.95256001 8:-0.14586321 9:-0.26632169 10:0.35094309 11:-1.1249059 12:-0.90698719 13:-1.881449 14:0.69869518 15:0.290216 16:1.3906879 17:0.60724622 18:1.526247 19:-1.029012 20:-1.3615969 21:-0.8358022 22:0.74849248 23:-0.87745529 24:0.36787239 25:-1.029012 26:-1.3615969 27:-0.8358022 28:-1.816465 29:1.9628429 30:0.54907078 31:1.176623 32:0.2091741 33:-0.046295181 34:-1.816465 35:1.9628429 36:0.54907078 37:0.92050898 38:0.93538678 39:0.7173264 40:-1.881449 41:0.69869518 42:0.290216 43:-1.6023999 44:-0.55469412 45:-0.63518971 46:0.2706688 47:-0.52241802 48:2.67168 49:0.74849248 50:-0.87745529 51:0.36787239 52:0.85170239 53:-2.883954 54:0.1931455 55:1.176623 56:0.2091741 57:-0.046295181 58:0.92050898 59:0.93538678 60:0.7173264 61:1.230139 62:0.77938551 63:0.54259938 64:-1.6023999 65:-0.55469412 66:-0.63518971 67:-0.53207511 68:1.247389 69:0.0054757739 70:0.85170239 71:-2.883954 72:0.1931455 73:-0.46709111 74:0.47276241 75:1.44212 76:0.35094309 77:-1.1249059 78:-0.90698719 79:1.176623 80:0.2091741 81:-0.046295181 82:0.02602301 83:-0.93124878 84:0.057246719 85:0.02602301 86:-0.93124878 87:0.057246719 88:-1.029012 89:-1.3615969 90:-0.8358022 91:1.3906879 92:0.60724622 93:1.526247 94:-1.029012 95:-1.3615969 96:-0.8358022 97:0.74849248 98:-0.87745529 99:0.36787239 100:0.02602301 101:-0.93124878 102:0.057246719 #
-10 1:1.100171 2:1.3549761 3:-2.2271459 4:-1.816465 5:1.9628429 6:0.54907078 7:-0.95256001 8:-0.14586321 9:-0.26632169 10:0.35094309 11:-1.1249059 12:-0.90698719 13:-1.881449 14:0.69869518 15:0.290216 16:1.3906879 17:0.60724622 18:1.526247 19:-1.029012 20:-1.3615969 21:-0.8358022 22:0.74849248 23:-0.87745529 24:0.36787239 25:-1.029012 26:-1.3615969 27:-0.8358022 28:-1.816465 29:1.9628429 30:0.54907078 31:1.176623 32:0.2091741 33:-0.046295181 34:-1.816465 35:1.9628429 36:0.54907078 37:0.92050898 38:0.93538678 39:0.7173264 40:-1.881449 41:0.69869518 42:0.290216 43:-1.697965 44:-0.90435201 45:-0.66754657 46:0.2706688 47:-0.52241802 48:2.67168 49:0.74849248 50:-0.87745529 51:0.36787239 52:0.85170239 53:-2.883954 54:0.1931455 55:1.176623 56:0.2091741 57:-0.046295181 58:0.92050898 59:0.93538678 60:0.7173264 61:1.230139 62:0.77938551 63:0.54259938 64:-1.6023999 65:-0.55469412 66:-0.63518971 67:-0.53207511 68:1.247389 69:0.0054757739 70:0.85170239 71:-2.883954 72:0.1931455 73:-0.46709111 74:0.47276241 75:1.44212 76:0.35094309 77:-1.1249059 78:-0.90698719 79:1.176623 80:0.2091741 81:-0.046295181 82:0.02602301 83:-0.93124878 84:0.057246719 85:0.02602301 86:-0.93124878 87:0.057246719 88:-1.697965 89:-0.90435201 90:-0.66754657 91:1.176623 92:0.2091741 93:-0.046295181 94:0.02602301 95:-0.93124878 96:0.057246719 97:0.35094309 98:-1.1249059 99:-0.90698719 100:0.02602301 101:-0.93124878 102:0.057246719 #
-3.1119098205504669429899422539165 1:1.100171 2:1.3549761 3:-2.2271459 4:-1.816465 5:1.9628429 6:0.54907078 7:-0.95256001 8:-0.14586321 9:-0.26632169 10:0.02602301 11:-0.93124878 12:0.057246719 13:-1.881449 14:0.69869518 15:0.290216 16:1.3906879 17:0.60724622 18:1.526247 19:-1.029012 20:-1.3615969 21:-0.8358022 22:0.74849248 23:-0.87745529 24:0.36787239 25:-1.029012 26:-1.3615969 27:-0.8358022 28:-1.816465 29:1.9628429 30:0.54907078 31:1.176623 32:0.2091741 33:-0.046295181 34:-1.816465 35:1.9628429 36:0.54907078 37:0.92050898 38:0.93538678 39:0.7173264 40:-1.881449 41:0.69869518 42:0.290216 43:-1.881449 44:0.69869518 45:0.290216 46:0.74849248 47:-0.87745529 48:0.36787239 49:0.85170239 50:-2.883954 51:0.1931455 52:0.85170239 53:-2.883954 54:0.1931455 55:1.176623 56:0.2091741 57:-0.046295181 58:0.92050898 59:0.93538678 60:0.7173264 61:1.230139 62:0.77938551 63:0.54259938 64:1.100171 65:1.3549761 66:-2.2271459 67:-0.53207511 68:1.247389 69:0.0054757739 70:0.85170239 71:-2.883954 72:0.1931455 73:-0.46709111 74:0.47276241 75:1.44212 76:0.35094309 77:-1.1249059 78:-0.90698719 79:1.176623 80:0.2091741 81:-0.046295181 82:0.35094309 83:-1.1249059 84:-0.90698719 85:0.02602301 86:-0.93124878 87:0.057246719 88:-1.697965 89:-0.90435201 90:-0.66754657 91:1.230139 92:0.77938551 93:0.54259938 94:-1.029012 95:-1.3615969 96:-0.8358022 97:0.35094309 98:-1.1249059 99:-0.90698719 100:0.92050898 101:0.93538678 102:0.7173264 #
10 1:-1.6023999 2:-0.55469412 3:-0.63518971 4:1.230139 5:0.77938551 6:0.54259938 7:1.230139 8:0.77938551 9:0.54259938 10:0.74849248 11:-0.87745529 12:0.36787239 13:-1.881449 14:0.69869518 15:0.290216 16:1.3906879 17:0.60724622 18:1.526247 19:0.02602301 20:-0.93124878 21:0.057246719 22:0.74849248 23:-0.87745529 24:0.36787239 25:0.35094309 26:-1.1249059 27:-0.90698719 28:-1.6023999 29:-0.55469412 30:-0.63518971 31:1.176623 32:0.2091741 33:-0.046295181 34:0.02602301 35:-0.93124878 36:0.057246719 37:-1.816465 38:1.9628429 39:0.54907078 40:-1.6023999 41:-0.55469412 42:-0.63518971 43:-0.95256001 44:-0.14586321 45:-0.26632169 46:-1.029012 47:-1.3615969 48:-0.8358022 49:0.85170239 50:-2.883954 51:0.1931455 52:0.85170239 53:-2.883954 54:0.1931455 55:1.3906879 56:0.60724622 57:1.526247 58:-1.6023999 59:-0.55469412 60:-0.63518971 61:1.230139 62:0.77938551 63:0.54259938 64:0.85170239 65:-2.883954 66:0.1931455 67:-0.53207511 68:1.247389 69:0.0054757739 70:0.85170239 71:-2.883954 72:0.1931455 73:-0.46709111 74:0.47276241 75:1.44212 76:0.35094309 77:-1.1249059 78:-0.90698719 79:1.176623 80:0.2091741 81:-0.046295181 82:0.02602301 83:-0.93124878 84:0.057246719 85:0.35094309 86:-1.1249059 87:-0.90698719 88:0.35094309 89:-1.1249059 90:-0.90698719 91:-1.881449 92:0.69869518 93:0.290216 94:0.74849248 95:-0.87745529 96:0.36787239 97:0.35094309 98:-1.1249059 99:-0.90698719 100:0.35094309 101:-1.1249059 102:-0.90698719 #
7.2870093917158769158959330525249 1:1.230139 2:0.77938551 3:0.54259938 4:0.02602301 5:-0.93124878 6:0.057246719 7:-1.6023999 8:-0.55469412 9:-0.63518971 10:0.74849248 11:-0.87745529 12:0.36787239 13:-1.881449 14:0.69869518 15:0.290216 16:1.3906879 17:0.60724622 18:1.526247 19:-1.029012 20:-1.3615969 21:-0.8358022 22:0.74849248 23:-0.87745529 24:0.36787239 25:-1.029012 26:-1.3615969 27:-0.8358022 28:0.85170239 29:-2.883954 30:0.1931455 31:1.176623 32:0.2091741 33:-0.046295181 34:0.83258939 35:0.28448501 36:-0.73873162 37:-0.53207511 38:1.247389 39:0.0054757739 40:-1.6023999 41:-0.55469412 42:-0.63518971 43:-1.6023999 44:-0.55469412 45:-0.63518971 46:-1.6023999 47:-0.55469412 48:-0.63518971 49:0.02602301 50:-0.93124878 51:0.057246719 52:0.85170239 53:-2.883954 54:0.1931455 55:1.176623 56:0.2091741 57:-0.046295181 58:-1.697965 59:-0.90435201 60:-0.66754657 61:1.230139 62:0.77938551 63:0.54259938 64:0.02602301 65:-0.93124878 66:0.057246719 67:-1.816465 68:1.9628429 69:0.54907078 70:0.85170239 71:-2.883954 72:0.1931455 73:-0.46709111 74:0.47276241 75:1.44212 76:0.02602301 77:-0.93124878 78:0.057246719 79:1.176623 80:0.2091741 81:-0.046295181 82:0.35094309 83:-1.1249059 84:-0.90698719 85:0.2706688 86:-0.52241802 87:2.67168 88:-1.029012 89:-1.3615969 90:-0.8358022 91:-0.53207511 92:1.247389 93:0.0054757739 94:1.230139 95:0.77938551 96:0.54259938 97:0.35094309 98:-1.1249059 99:-0.90698719 100:-1.6023999 101:-0.55469412 102:-0.63518971 #
-0.38966138743510136954739664361114 1:-1.6023999 2:-0.55469412 3:-0.63518971 4:0.85170239 5:-2.883954 6:0.1931455 7:0.35094309 8:-1.1249059 9:-0.90698719 10:0.92050898 11:0.93538678 12:0.7173264 13:-1.881449 14:0.69869518 15:0.290216 16:1.3906879 17:0.60724622 18:1.526247 19:-1.881449 20:0.69869518 21:0.290216 22:0.74849248 23:-0.87745529 24:0.36787239 25:-1.029012 26:-1.3615969 27:-0.8358022 28:-1.816465 29:1.9628429 30:0.54907078 31:1.176623 32:0.2091741 33:-0.046295181 34:0.85170239 35:-2.883954 36:0.1931455 37:1.230139 38:0.77938551 39:0.54259938 40:0.83258939 41:0.28448501 42:-0.73873162 43:-1.697965 44:-0.90435201 45:-0.66754657 46:-1.881449 47:0.69869518 48:0.290216 49:0.85170239 50:-2.883954 51:0.1931455 52:0.85170239 53:-2.883954 54:0.1931455 55:1.176623 56:0.2091741 57:-0.046295181 58:-1.029012 59:-1.3615969 60:-0.8358022 61:1.230139 62:0.77938551 63:0.54259938 64:-0.95256001 65:-0.14586321 66:-0.26632169 67:-0.53207511 68:1.247389 69:0.0054757739 70:0.85170239 71:-2.883954 72:0.1931455 73:-1.697965 74:-0.90435201 75:-0.66754657 76:0.35094309 77:-1.1249059 78:-0.90698719 79:1.176623 80:0.2091741 81:-0.046295181 82:0.35094309 83:-1.1249059 84:-0.90698719 85:0.2706688 86:-0.52241802 87:2.67168 88:-1.029012 89:-1.3615969 90:-0.8358022 91:0.92050898 92:0.93538678 93:0.7173264 94:-1.029012 95:-1.3615969 96:-0.8358022 97:0.74849248 98:-0.87745529 99:0.36787239 100:0.92050898 101:0.93538678 102:0.7173264 #
-1.2415982955318329850058489682851 1:0.35094309 2:-1.1249059 3:-0.90698719 4:0.92050898 5:0.93538678 6:0.7173264 7:1.230139 8:0.77938551 9:0.54259938 10:0.74849248 11:-0.87745529 12:0.36787239 13:-1.881449 14:0.69869518 15:0.290216 16:1.3906879 17:0.60724622 18:1.526247 19:0.85170239 20:-2.883954 21:0.1931455 22:0.74849248 23:-0.87745529 24:0.36787239 25:0.35094309 26:-1.1249059 27:-0.90698719 28:-1.881449 29:0.69869518 30:0.290216 31:1.176623 32:0.2091741 33:-0.046295181 34:0.85170239 35:-2.883954 36:0.1931455 37:-1.881449 38:0.69869518 39:0.290216 40:-0.95256001 41:-0.14586321 42:-0.26632169 43:-1.6023999 44:-0.55469412 45:-0.63518971 46:-1.881449 47:0.69869518 48:0.290216 49:0.85170239 50:-2.883954 51:0.1931455 52:0.85170239 53:-2.883954 54:0.1931455 55:1.176623 56:0.2091741 57:-0.046295181 58:-1.697965 59:-0.90435201 60:-0.66754657 61:1.230139 62:0.77938551 63:0.54259938 64:-1.029012 65:-1.3615969 66:-0.8358022 67:-0.53207511 68:1.247389 69:0.0054757739 70:0.85170239 71:-2.883954 72:0.1931455 73:-0.46709111 74:0.47276241 75:1.44212 76:0.35094309 77:-1.1249059 78:-0.90698719 79:1.176623 80:0.2091741 81:-0.046295181 82:0.35094309 83:-1.1249059 84:-0.90698719 85:0.35094309 86:-1.1249059 87:-0.90698719 88:-1.029012 89:-1.3615969 90:-0.8358022 91:-0.53207511 92:1.247389 93:0.0054757739 94:0.02602301 95:-0.93124878 96:0.057246719 97:0.35094309 98:-1.1249059 99:-0.90698719 100:-0.53207511 101:1.247389 102:0.0054757739 #
-1.1818699380982660152028529410018 1:0.35094309 2:-1.1249059 3:-0.90698719 4:0.83258939 5:0.28448501 6:-0.73873162 7:-1.6023999 8:-0.55469412 9:-0.63518971 10:0.35094309 11:-1.1249059 12:-0.90698719 13:-1.881449 14:0.69869518 15:0.290216 16:1.3906879 17:0.60724622 18:1.526247 19:-1.029012 20:-1.3615969 21:-0.8358022 22:0.74849248 23:-0.87745529 24:0.36787239 25:-1.029012 26:-1.3615969 27:-0.8358022 28:0.35094309 29:-1.1249059 30:-0.90698719 31:1.176623 32:0.2091741 33:-0.046295181 34:0.85170239 35:-2.883954 36:0.1931455 37:1.230139 38:0.77938551 39:0.54259938 40:-1.881449 41:0.69869518 42:0.290216 43:-1.881449 44:0.69869518 45:0.290216 46:0.74849248 47:-0.87745529 48:0.36787239 49:0.02602301 50:-0.93124878 51:0.057246719 52:0.85170239 53:-2.883954 54:0.1931455 55:1.176623 56:0.2091741 57:-0.046295181 58:1.176623 59:0.2091741 60:-0.046295181 61:1.230139 62:0.77938551 63:0.54259938 64:-1.6023999 65:-0.55469412 66:-0.63518971 67:-0.53207511 68:1.247389 69:0.0054757739 70:0.85170239 71:-2.883954 72:0.1931455 73:-0.46709111 74:0.47276241 75:1.44212 76:0.35094309 77:-1.1249059 78:-0.90698719 79:1.176623 80:0.2091741 81:-0.046295181 82:0.74849248 83:-0.87745529 84:0.36787239 85:0.35094309 86:-1.1249059 87:-0.90698719 88:-1.697965 89:-0.90435201 90:-0.66754657 91:-0.53207511 92:1.247389 93:0.0054757739 94:0.02602301 95:-0.93124878 96:0.057246719 97:0.35094309 98:-1.1249059 99:-0.90698719 100:0.83258939 101:0.28448501 102:-0.73873162 #
9.6713816574871316333883441984653 1:1.100171 2:1.3549761 3:-2.2271459 4:-1.816465 5:1.9628429 6:0.54907078 7:-0.95256001 8:-0.14586321 9:-0.26632169 10:0.35094309 11:-1.1249059 12:-0.90698719 13:-1.881449 14:0.69869518 15:0.290216 16:1.3906879 17:0.60724622 18:1.526247 19:-1.029012 20:-1.3615969 21:-0.8358022 22:0.74849248 23:-0.87745529 24:0.36787239 25:-1.6023999 26:-0.55469412 27:-0.63518971 28:-1.816465 29:1.9628429 30:0.54907078 31:1.176623 32:0.2091741 33:-0.046295181 34:-1.816465 35:1.9628429 36:0.54907078 37:0.92050898 38:0.93538678 39:0.7173264 40:-1.881449 41:0.69869518 42:0.290216 43:-1.6023999 44:-0.55469412 45:-0.63518971 46:0.2706688 47:-0.52241802 48:2.67168 49:0.74849248 50:-0.87745529 51:0.36787239 52:0.85170239 53:-2.883954 54:0.1931455 55:1.176623 56:0.2091741 57:-0.046295181 58:0.92050898 59:0.93538678 60:0.7173264 61:1.230139 62:0.77938551 63:0.54259938 64:-1.6023999 65:-0.55469412 66:-0.63518971 67:-0.53207511 68:1.247389 69:0.0054757739 70:0.85170239 71:-2.883954 72:0.1931455 73:-0.46709111 74:0.47276241 75:1.44212 76:0.35094309 77:-1.1249059 78:-0.90698719 79:1.176623 80:0.2091741 81:-0.046295181 82:0.02602301 83:-0.93124878 84:0.057246719 85:0.74849248 86:-0.87745529 87:0.36787239 88:-1.697965 89:-0.90435201 90:-0.66754657 91:1.3906879 92:0.60724622 93:1.526247 94:-1.029012 95:-1.3615969 96:-0.8358022 97:0.35094309 98:-1.1249059 99:-0.90698719 100:0.02602301 101:-0.93124878 102:0.057246719 #
-1.3931256394024702505163304522284 1:0.92050898 2:0.93538678 3:0.7173264 4:-1.816465 5:1.9628429 6:0.54907078 7:-0.95256001 8:-0.14586321 9:-0.26632169 10:0.35094309 11:-1.1249059 12:-0.90698719 13:-1.881449 14:0.69869518 15:0.290216 16:1.3906879 17:0.60724622 18:1.526247 19:0.02602301 20:-0.93124878 21:0.057246719 22:0.74849248 23:-0.87745529 24:0.36787239 25:-1.029012 26:-1.3615969 27:-0.8358022 28:-1.816465 29:1.9628429 30:0.54907078 31:1.176623 32:0.2091741 33:-0.046295181 34:0.02602301 35:-0.93124878 36:0.057246719 37:0.83258939 38:0.28448501 39:-0.73873162 40:-1.6023999 41:-0.55469412 42:-0.63518971 43:-1.881449 44:0.69869518 45:0.290216 46:0.2706688 47:-0.52241802 48:2.67168 49:0.85170239 50:-2.883954 51:0.1931455 52:0.85170239 53:-2.883954 54:0.1931455 55:1.176623 56:0.2091741 57:-0.046295181 58:0.92050898 59:0.93538678 60:0.7173264 61:1.230139 62:0.77938551 63:0.54259938 64:-1.6023999 65:-0.55469412 66:-0.63518971 67:-0.53207511 68:1.247389 69:0.0054757739 70:0.85170239 71:-2.883954 72:0.1931455 73:-0.46709111 74:0.47276241 75:1.44212 76:0.35094309 77:-1.1249059 78:-0.90698719 79:1.176623 80:0.2091741 81:-0.046295181 82:0.02602301 83:-0.93124878 84:0.057246719 85:0.2706688 86:-0.52241802 87:2.67168 88:-1.697965 89:-0.90435201 90:-0.66754657 91:1.3906879 92:0.60724622 93:1.526247 94:0.02602301 95:-0.93124878 96:0.057246719 97:0.35094309 98:-1.1249059 99:-0.90698719 100:-1.881449 101:0.69869518 102:0.290216 #
-0.93295859732170050016009099635994 1:0.92050898 2:0.93538678 3:0.7173264 4:-1.816465 5:1.9628429 6:0.54907078 7:-0.95256001 8:-0.14586321 9:-0.26632169 10:0.35094309 11:-1.1249059 12:-0.90698719 13:-1.881449 14:0.69869518 15:0.290216 16:1.3906879 17:0.60724622 18:1.526247 19:0.02602301 20:-0.93124878 21:0.057246719 22:0.74849248 23:-0.87745529 24:0.36787239 25:-1.029012 26:-1.3615969 27:-0.8358022 28:-1.816465 29:1.9628429 30:0.54907078 31:1.176623 32:0.2091741 33:-0.046295181 34:-1.6023999 35:-0.55469412 36:-0.63518971 37:0.83258939 38:0.28448501 39:-0.73873162 40:-0.95256001 41:-0.14586321 42:-0.26632169 43:-1.881449 44:0.69869518 45:0.290216 46:0.2706688 47:-0.52241802 48:2.67168 49:0.85170239 50:-2.883954 51:0.1931455 52:0.85170239 53:-2.883954 54:0.1931455 55:1.176623 56:0.2091741 57:-0.046295181 58:-1.697965 59:-0.90435201 60:-0.66754657 61:1.230139 62:0.77938551 63:0.54259938 64:-1.6023999 65:-0.55469412 66:-0.63518971 67:-0.53207511 68:1.247389 69:0.0054757739 70:0.85170239 71:-2.883954 72:0.1931455 73:-0.46709111 74:0.47276241 75:1.44212 76:0.35094309 77:-1.1249059 78:-0.90698719 79:1.176623 80:0.2091741 81:-0.046295181 82:0.35094309 83:-1.1249059 84:-0.90698719 85:0.35094309 86:-1.1249059 87:-0.90698719 88:-1.697965 89:-0.90435201 90:-0.66754657 91:1.3906879 92:0.60724622 93:1.526247 94:0.02602301 95:-0.93124878 96:0.057246719 97:0.35094309 98:-1.1249059 99:-0.90698719 100:-0.53207511 101:1.247389 102:0.0054757739 #
7.8717840685409807832684236927889 1:-1.6023999 2:-0.55469412 3:-0.63518971 4:0.74849248 5:-0.87745529 6:0.36787239 7:0.35094309 8:-1.1249059 9:-0.90698719 10:0.92050898 11:0.93538678 12:0.7173264 13:-1.881449 14:0.69869518 15:0.290216 16:1.3906879 17:0.60724622 18:1.526247 19:-1.029012 20:-1.3615969 21:-0.8358022 22:0.74849248 23:-0.87745529 24:0.36787239 25:-1.029012 26:-1.3615969 27:-0.8358022 28:-1.816465 29:1.9628429 30:0.54907078 31:1.176623 32:0.2091741 33:-0.046295181 34:0.85170239 35:-2.883954 36:0.1931455 37:1.230139 38:0.77938551 39:0.54259938 40:0.83258939 41:0.28448501 42:-0.73873162 43:-1.029012 44:-1.3615969 45:-0.8358022 46:-1.881449 47:0.69869518 48:0.290216 49:0.02602301 50:-0.93124878 51:0.057246719 52:0.85170239 53:-2.883954 54:0.1931455 55:1.176623 56:0.2091741 57:-0.046295181 58:-1.029012 59:-1.3615969 60:-0.8358022 61:1.230139 62:0.77938551 63:0.54259938 64:-0.95256001 65:-0.14586321 66:-0.26632169 67:-0.53207511 68:1.247389 69:0.0054757739 70:0.85170239 71:-2.883954 72:0.1931455 73:-1.697965 74:-0.90435201 75:-0.66754657 76:0.35094309 77:-1.1249059 78:-0.90698719 79:1.176623 80:0.2091741 81:-0.046295181 82:0.35094309 83:-1.1249059 84:-0.90698719 85:0.35094309 86:-1.1249059 87:-0.90698719 88:-1.029012 89:-1.3615969 90:-0.8358022 91:0.92050898 92:0.93538678 93:0.7173264 94:0.74849248 95:-0.87745529 96:0.36787239 97:0.74849248 98:-0.87745529 99:0.36787239 100:-1.881449 101:0.69869518 102:0.290216 #
10 1:-1.6023999 2:-0.55469412 3:-0.63518971 4:0.85170239 5:-2.883954 6:0.1931455 7:0.35094309 8:-1.1249059 9:-0.90698719 10:0.92050898 11:0.93538678 12:0.7173264 13:-1.881449 14:0.69869518 15:0.290216 16:1.3906879 17:0.60724622 18:1.526247 19:-1.881449 20:0.69869518 21:0.290216 22:0.74849248 23:-0.87745529 24:0.36787239 25:-1.029012 26:-1.3615969 27:-0.8358022 28:-1.816465 29:1.9628429 30:0.54907078 31:1.176623 32:0.2091741 33:-0.046295181 34:0.85170239 35:-2.883954 36:0.1931455 37:1.230139 38:0.77938551 39:0.54259938 40:0.83258939 41:0.28448501 42:-0.73873162 43:-1.029012 44:-1.3615969 45:-0.8358022 46:-1.881449 47:0.69869518 48:0.290216 49:0.85170239 50:-2.883954 51:0.1931455 52:0.85170239 53:-2.883954 54:0.1931455 55:1.176623 56:0.2091741 57:-0.046295181 58:-1.029012 59:-1.3615969 60:-0.8358022 61:1.230139 62:0.77938551 63:0.54259938 64:-0.95256001 65:-0.14586321 66:-0.26632169 67:-0.53207511 68:1.247389 69:0.0054757739 70:0.85170239 71:-2.883954 72:0.1931455 73:-1.697965 74:-0.90435201 75:-0.66754657 76:0.35094309 77:-1.1249059 78:-0.90698719 79:1.176623 80:0.2091741 81:-0.046295181 82:0.35094309 83:-1.1249059 84:-0.90698719 85:0.35094309 86:-1.1249059 87:-0.90698719 88:-1.029012 89:-1.3615969 90:-0.8358022 91:0.92050898 92:0.93538678 93:0.7173264 94:-1.029012 95:-1.3615969 96:-0.8358022 97:0.74849248 98:-0.87745529 99:0.36787239 100:-0.53207511 101:1.247389 102:0.0054757739 #
10 1:0.35094309 2:-1.1249059 3:-0.90698719 4:0.35094309 5:-1.1249059 6:-0.90698719 7:-1.881449 8:0.69869518 9:0.290216 10:0.02602301 11:-0.93124878 12:0.057246719 13:0.2706688 14:-0.52241802 15:2.67168 16:1.3906879 17:0.60724622 18:1.526247 19:-0.95256001 20:-0.14586321 21:-0.26632169 22:0.74849248 23:-0.87745529 24:0.36787239 25:-1.029012 26:-1.3615969 27:-0.8358022 28:-1.6023999 29:-0.55469412 30:-0.63518971 31:1.3906879 32:0.60724622 33:1.526247 34:0.02602301 35:-0.93124878 36:0.057246719 37:1.230139 38:0.77938551 39:0.54259938 40:-1.881449 41:0.69869518 42:0.290216 43:0.02602301 44:-0.93124878 45:0.057246719 46:-1.029012 47:-1.3615969 48:-0.8358022 49:0.85170239 50:-2.883954 51:0.1931455 52:0.85170239 53:-2.883954 54:0.1931455 55:1.3906879 56:0.60724622 57:1.526247 58:0.02602301 59:-0.93124878 60:0.057246719 61:0.85170239 62:-2.883954 63:0.1931455 64:-1.6023999 65:-0.55469412 66:-0.63518971 67:0.85170239 68:-2.883954 69:0.1931455 70:0.85170239 71:-2.883954 72:0.1931455 73:0.02602301 74:-0.93124878 75:0.057246719 76:0.35094309 77:-1.1249059 78:-0.90698719 79:1.176623 80:0.2091741 81:-0.046295181 82:0.35094309 83:-1.1249059 84:-0.90698719 85:0.02602301 86:-0.93124878 87:0.057246719 88:-1.029012 89:-1.3615969 90:-0.8358022 91:0.92050898 92:0.93538678 93:0.7173264 94:0.02602301 95:-0.93124878 96:0.057246719 97:0.35094309 98:-1.1249059 99:-0.90698719 100:-1.697965 101:-0.90435201 102:-0.66754657 #
-7.0894074402868945128375344211236 1:-1.6023999 2:-0.55469412 3:-0.63518971 4:1.230139 5:0.77938551 6:0.54259938 7:1.230139 8:0.77938551 9:0.54259938 10:0.74849248 11:-0.87745529 12:0.36787239 13:-1.881449 14:0.69869518 15:0.290216 16:1.3906879 17:0.60724622 18:1.526247 19:0.02602301 20:-0.93124878 21:0.057246719 22:0.74849248 23:-0.87745529 24:0.36787239 25:0.35094309 26:-1.1249059 27:-0.90698719 28:-1.6023999 29:-0.55469412 30:-0.63518971 31:1.176623 32:0.2091741 33:-0.046295181 34:0.02602301 35:-0.93124878 36:0.057246719 37:-1.816465 38:1.9628429 39:0.54907078 40:-1.6023999 41:-0.55469412 42:-0.63518971 43:-0.95256001 44:-0.14586321 45:-0.26632169 46:-1.029012 47:-1.3615969 48:-0.8358022 49:0.85170239 50:-2.883954 51:0.1931455 52:0.85170239 53:-2.883954 54:0.1931455 55:1.3906879 56:0.60724622 57:1.526247 58:-1.6023999 59:-0.55469412 60:-0.63518971 61:1.230139 62:0.77938551 63:0.54259938 64:0.85170239 65:-2.883954 66:0.1931455 67:-0.53207511 68:1.247389 69:0.0054757739 70:0.85170239 71:-2.883954 72:0.1931455 73:-0.46709111 74:0.47276241 75:1.44212 76:0.35094309 77:-1.1249059 78:-0.90698719 79:1.176623 80:0.2091741 81:-0.046295181 82:0.02602301 83:-0.93124878 84:0.057246719 85:0.35094309 86:-1.1249059 87:-0.90698719 88:0.35094309 89:-1.1249059 90:-0.90698719 91:-1.881449 92:0.69869518 93:0.290216 94:0.74849248 95:-0.87745529 96:0.36787239 97:0.35094309 98:-1.1249059 99:-0.90698719 100:0.35094309 101:-1.1249059 102:-0.90698719 #
-9.5178647085106309333468743716367 1:0.35094309 2:-1.1249059 3:-0.90698719 4:0.35094309 5:-1.1249059 6:-0.90698719 7:-1.881449 8:0.69869518 9:0.290216 10:0.02602301 11:-0.93124878 12:0.057246719 13:0.2706688 14:-0.52241802 15:2.67168 16:1.3906879 17:0.60724622 18:1.526247 19:-0.95256001 20:-0.14586321 21:-0.26632169 22:0.74849248 23:-0.87745529 24:0.36787239 25:-1.029012 26:-1.3615969 27:-0.8358022 28:-1.6023999 29:-0.55469412 30:-0.63518971 31:1.3906879 32:0.60724622 33:1.526247 34:0.02602301 35:-0.93124878 36:0.057246719 37:1.230139 38:0.77938551 39:0.54259938 40:-1.881449 41:0.69869518 42:0.290216 43:0.02602301 44:-0.93124878 45:0.057246719 46:-1.029012 47:-1.3615969 48:-0.8358022 49:0.85170239 50:-2.883954 51:0.1931455 52:0.85170239 53:-2.883954 54:0.1931455 55:1.3906879 56:0.60724622 57:1.526247 58:0.02602301 59:-0.93124878 60:0.057246719 61:0.85170239 62:-2.883954 63:0.1931455 64:-1.6023999 65:-0.55469412 66:-0.63518971 67:0.85170239 68:-2.883954 69:0.1931455 70:0.85170239 71:-2.883954 72:0.1931455 73:0.02602301 74:-0.93124878 75:0.057246719 76:0.35094309 77:-1.1249059 78:-0.90698719 79:1.176623 80:0.2091741 81:-0.046295181 82:0.35094309 83:-1.1249059 84:-0.90698719 85:0.02602301 86:-0.93124878 87:0.057246719 88:-1.029012 89:-1.3615969 90:-0.8358022 91:0.92050898 92:0.93538678 93:0.7173264 94:0.02602301 95:-0.93124878 96:0.057246719 97:0.35094309 98:-1.1249059 99:-0.90698719 100:-1.697965 101:-0.90435201 102:-0.66754657 #
-10 1:-1.6023999 2:-0.55469412 3:-0.63518971 4:0.85170239 5:-2.883954 6:0.1931455 7:0.35094309 8:-1.1249059 9:-0.90698719 10:0.92050898 11:0.93538678 12:0.7173264 13:-1.881449 14:0.69869518 15:0.290216 16:1.3906879 17:0.60724622 18:1.526247 19:-1.881449 20:0.69869518 21:0.290216 22:0.74849248 23:-0.87745529 24:0.36787239 25:-1.029012 26:-1.3615969 27:-0.8358022 28:-1.816465 29:1.9628429 30:0.54907078 31:1.176623 32:0.2091741 33:-0.046295181 34:0.85170239 35:-2.883954 36:0.1931455 37:1.230139 38:0.77938551 39:0.54259938 40:0.83258939 41:0.28448501 42:-0.73873162 43:-1.029012 44:-1.3615969 45:-0.8358022 46:-1.881449 47:0.69869518 48:0.290216 49:0.85170239 50:-2.883954 51:0.1931455 52:0.85170239 53:-2.883954 54:0.1931455 55:1.176623 56:0.2091741 57:-0.046295181 58:-1.029012 59:-1.3615969 60:-0.8358022 61:1.230139 62:0.77938551 63:0.54259938 64:-0.95256001 65:-0.14586321 66:-0.26632169 67:-0.53207511 68:1.247389 69:0.0054757739 70:0.85170239 71:-2.883954 72:0.1931455 73:-1.697965 74:-0.90435201 75:-0.66754657 76:0.35094309 77:-1.1249059 78:-0.90698719 79:1.176623 80:0.2091741 81:-0.046295181 82:0.35094309 83:-1.1249059 84:-0.90698719 85:0.35094309 86:-1.1249059 87:-0.90698719 88:-1.029012 89:-1.3615969 90:-0.8358022 91:0.92050898 92:0.93538678 93:0.7173264 94:-1.029012 95:-1.3615969 96:-0.8358022 97:0.74849248 98:-0.87745529 99:0.36787239 100:-0.53207511 101:1.247389 102:0.0054757739 #
3.198882422035732808751617994858 1:1.100171 2:1.3549761 3:-2.2271459 4:-1.816465 5:1.9628429 6:0.54907078 7:0.02602301 8:-0.93124878 9:0.057246719 10:0.35094309 11:-1.1249059 12:-0.90698719 13:-1.881449 14:0.69869518 15:0.290216 16:1.3906879 17:0.60724622 18:1.526247 19:-1.6023999 20:-0.55469412 21:-0.63518971 22:0.74849248 23:-0.87745529 24:0.36787239 25:-1.029012 26:-1.3615969 27:-0.8358022 28:-1.816465 29:1.9628429 30:0.54907078 31:1.176623 32:0.2091741 33:-0.046295181 34:-1.6023999 35:-0.55469412 36:-0.63518971 37:0.92050898 38:0.93538678 39:0.7173264 40:-1.881449 41:0.69869518 42:0.290216 43:-1.6023999 44:-0.55469412 45:-0.63518971 46:0.2706688 47:-0.52241802 48:2.67168 49:0.74849248 50:-0.87745529 51:0.36787239 52:0.85170239 53:-2.883954 54:0.1931455 55:1.176623 56:0.2091741 57:-0.046295181 58:0.92050898 59:0.93538678 60:0.7173264 61:1.230139 62:0.77938551 63:0.54259938 64:-1.6023999 65:-0.55469412 66:-0.63518971 67:-0.53207511 68:1.247389 69:0.0054757739 70:0.85170239 71:-2.883954 72:0.1931455 73:-0.46709111 74:0.47276241 75:1.44212 76:0.35094309 77:-1.1249059 78:-0.90698719 79:1.176623 80:0.2091741 81:-0.046295181 82:0.02602301 83:-0.93124878 84:0.057246719 85:0.02602301 86:-0.93124878 87:0.057246719 88:-1.697965 89:-0.90435201 90:-0.66754657 91:1.3906879 92:0.60724622 93:1.526247 94:-1.029012 95:-1.3615969 96:-0.8358022 97:0.35094309 98:-1.1249059 99:-0.90698719 100:0.02602301 101:-0.93124878 102:0.057246719 #
1.6623745574612498465683074755361 1:1.100171 2:1.3549761 3:-2.2271459 4:-1.816465 5:1.9628429 6:0.54907078 7:-0.95256001 8:-0.14586321 9:-0.26632169 10:0.35094309 11:-1.1249059 12:-0.90698719 13:-1.881449 14:0.69869518 15:0.290216 16:1.3906879 17:0.60724622 18:1.526247 19:-1.029012 20:-1.3615969 21:-0.8358022 22:0.74849248 23:-0.87745529 24:0.36787239 25:-1.029012 26:-1.3615969 27:-0.8358022 28:-1.816465 29:1.9628429 30:0.54907078 31:1.176623 32:0.2091741 33:-0.046295181 34:-1.816465 35:1.9628429 36:0.54907078 37:0.92050898 38:0.93538678 39:0.7173264 40:-1.881449 41:0.69869518 42:0.290216 43:-1.881449 44:0.69869518 45:0.290216 46:-1.881449 47:0.69869518 48:0.290216 49:0.74849248 50:-0.87745529 51:0.36787239 52:0.85170239 53:-2.883954 54:0.1931455 55:1.176623 56:0.2091741 57:-0.046295181 58:0.92050898 59:0.93538678 60:0.7173264 61:1.230139 62:0.77938551 63:0.54259938 64:-1.6023999 65:-0.55469412 66:-0.63518971 67:-0.53207511 68:1.247389 69:0.0054757739 70:0.85170239 71:-2.883954 72:0.1931455 73:-0.46709111 74:0.47276241 75:1.44212 76:0.35094309 77:-1.1249059 78:-0.90698719 79:1.176623 80:0.2091741 81:-0.046295181 82:0.02602301 83:-0.93124878 84:0.057246719 85:0.02602301 86:-0.93124878 87:0.057246719 88:-1.029012 89:-1.3615969 90:-0.8358022 91:1.3906879 92:0.60724622 93:1.526247 94:-1.029012 95:-1.3615969 96:-0.8358022 97:0.74849248 98:-0.87745529 99:0.36787239 100:-1.881449 101:0.69869518 102:0.290216 #
-3.1020809764308272526989185280399 1:1.100171 2:1.3549761 3:-2.2271459 4:-1.816465 5:1.9628429 6:0.54907078 7:-0.95256001 8:-0.14586321 9:-0.26632169 10:0.35094309 11:-1.1249059 12:-0.90698719 13:0.02602301 14:-0.93124878 15:0.057246719 16:1.3906879 17:0.60724622 18:1.526247 19:0.02602301 20:-0.93124878 21:0.057246719 22:0.02602301 23:-0.93124878 24:0.057246719 25:-1.6023999 26:-0.55469412 27:-0.63518971 28:-1.816465 29:1.9628429 30:0.54907078 31:1.176623 32:0.2091741 33:-0.046295181 34:-1.816465 35:1.9628429 36:0.54907078 37:0.92050898 38:0.93538678 39:0.7173264 40:-1.881449 41:0.69869518 42:0.290216 43:-1.697965 44:-0.90435201 45:-0.66754657 46:0.2706688 47:-0.52241802 48:2.67168 49:0.74849248 50:-0.87745529 51:0.36787239 52:0.85170239 53:-2.883954 54:0.1931455 55:1.176623 56:0.2091741 57:-0.046295181 58:0.92050898 59:0.93538678 60:0.7173264 61:1.100171 62:1.3549761 63:-2.2271459 64:-1.6023999 65:-0.55469412 66:-0.63518971 67:-0.53207511 68:1.247389 69:0.0054757739 70:0.85170239 71:-2.883954 72:0.1931455 73:-0.46709111 74:0.47276241 75:1.44212 76:0.02602301 77:-0.93124878 78:0.057246719 79:1.176623 80:0.2091741 81:-0.046295181 82:0.35094309 83:-1.1249059 84:-0.90698719 85:0.02602301 86:-0.93124878 87:0.057246719 88:-0.95256001 89:-0.14586321 90:-0.26632169 91:1.3906879 92:0.60724622 93:1.526247 94:0.02602301 95:-0.93124878 96:0.057246719 97:0.35094309 98:-1.1249059 99:-0.90698719 100:0.02602301 101:-0.93124878 102:0.057246719 #
-0.70563352165231918444732173156808 1:1.100171 2:1.3549761 3:-2.2271459 4:-1.816465 5:1.9628429 6:0.54907078 7:-1.816465 8:1.9628429 9:0.54907078 10:0.02602301 11:-0.93124878 12:0.057246719 13:-1.881449 14:0.69869518 15:0.290216 16:1.3906879 17:0.60724622 18:1.526247 19:-1.697965 20:-0.90435201 21:-0.66754657 22:0.02602301 23:-0.93124878 24:0.057246719 25:-1.029012 26:-1.3615969 27:-0.8358022 28:-1.816465 29:1.9628429 30:0.54907078 31:1.176623 32:0.2091741 33:-0.046295181 34:0.02602301 35:-0.93124878 36:0.057246719 37:0.92050898 38:0.93538678 39:0.7173264 40:-1.881449 41:0.69869518 42:0.290216 43:-1.029012 44:-1.3615969 45:-0.8358022 46:0.2706688 47:-0.52241802 48:2.67168 49:0.85170239 50:-2.883954 51:0.1931455 52:0.85170239 53:-2.883954 54:0.1931455 55:1.176623 56:0.2091741 57:-0.046295181 58:-1.029012 59:-1.3615969 60:-0.8358022 61:0.92050898 62:0.93538678 63:0.7173264 64:0.02602301 65:-0.93124878 66:0.057246719 67:-0.53207511 68:1.247389 69:0.0054757739 70:0.85170239 71:-2.883954 72:0.1931455 73:-0.46709111 74:0.47276241 75:1.44212 76:0.35094309 77:-1.1249059 78:-0.90698719 79:1.176623 80:0.2091741 81:-0.046295181 82:0.35094309 83:-1.1249059 84:-0.90698719 85:0.35094309 86:-1.1249059 87:-0.90698719 88:-1.697965 89:-0.90435201 90:-0.66754657 91:0.35094309 92:-1.1249059 93:-0.90698719 94:-1.029012 95:-1.3615969 96:-0.8358022 97:-1.029012 98:-1.3615969 99:-0.8358022 100:0.92050898 101:0.93538678 102:0.7173264 #
-0.45533126904092591225037267577136 1:0.35094309 2:-1.1249059 3:-0.90698719 4:0.02602301 5:-0.93124878 6:0.057246719 7:-1.029012 8:-1.3615969 9:-0.8358022 10:0.74849248 11:-0.87745529 12:0.36787239 13:-1.881449 14:0.69869518 15:0.290216 16:1.3906879 17:0.60724622 18:1.526247 19:-1.6023999 20:-0.55469412 21:-0.63518971 22:0.74849248 23:-0.87745529 24:0.36787239 25:-1.029012 26:-1.3615969 27:-0.8358022 28:-0.53207511 29:1.247389 30:0.0054757739 31:1.3906879 32:0.60724622 33:1.526247 34:0.85170239 35:-2.883954 36:0.1931455 37:1.230139 38:0.77938551 39:0.54259938 40:0.35094309 41:-1.1249059 42:-0.90698719 43:-0.95256001 44:-0.14586321 45:-0.26632169 46:-1.6023999 47:-0.55469412 48:-0.63518971 49:0.74849248 50:-0.87745529 51:0.36787239 52:0.85170239 53:-2.883954 54:0.1931455 55:1.3906879 56:0.60724622 57:1.526247 58:-1.6023999 59:-0.55469412 60:-0.63518971 61:0.74849248 62:-0.87745529 63:0.36787239 64:-0.95256001 65:-0.14586321 66:-0.26632169 67:0.85170239 68:-2.883954 69:0.1931455 70:0.85170239 71:-2.883954 72:0.1931455 73:0.02602301 74:-0.93124878 75:0.057246719 76:0.35094309 77:-1.1249059 78:-0.90698719 79:1.176623 80:0.2091741 81:-0.046295181 82:0.85170239 83:-2.883954 84:0.1931455 85:0.74849248 86:-0.87745529 87:0.36787239 88:-1.697965 89:-0.90435201 90:-0.66754657 91:-1.816465 92:1.9628429 93:0.54907078 94:0.74849248 95:-0.87745529 96:0.36787239 97:-1.697965 98:-0.90435201 99:-0.66754657 100:-1.816465 101:1.9628429 102:0.54907078 #
3.4630232567250507358380673395004 1:-0.53207511 2:1.247389 3:0.0054757739 4:0.35094309 5:-1.1249059 6:-0.90698719 7:-1.6023999 8:-0.55469412 9:-0.63518971 10:0.74849248 11:-0.87745529 12:0.36787239 13:-1.881449 14:0.69869518 15:0.290216 16:1.3906879 17:0.60724622 18:1.526247 19:-1.029012 20:-1.3615969 21:-0.8358022 22:0.74849248 23:-0.87745529 24:0.36787239 25:-1.029012 26:-1.3615969 27:-0.8358022 28:1.100171 29:1.3549761 30:-2.2271459 31:1.176623 32:0.2091741 33:-0.046295181 34:-1.816465 35:1.9628429 36:0.54907078 37:0.92050898 38:0.93538678 39:0.7173264 40:-1.881449 41:0.69869518 42:0.290216 43:-0.95256001 44:-0.14586321 45:-0.26632169 46:0.35094309 47:-1.1249059 48:-0.90698719 49:0.74849248 50:-0.87745529 51:0.36787239 52:0.85170239 53:-2.883954 54:0.1931455 55:1.176623 56:0.2091741 57:-0.046295181 58:1.100171 59:1.3549761 60:-2.2271459 61:1.230139 62:0.77938551 63:0.54259938 64:-0.95256001 65:-0.14586321 66:-0.26632169 67:-0.53207511 68:1.247389 69:0.0054757739 70:0.85170239 71:-2.883954 72:0.1931455 73:-0.46709111 74:0.47276241 75:1.44212 76:0.35094309 77:-1.1249059 78:-0.90698719 79:1.176623 80:0.2091741 81:-0.046295181 82:0.35094309 83:-1.1249059 84:-0.90698719 85:0.35094309 86:-1.1249059 87:-0.90698719 88:-1.029012 89:-1.3615969 90:-0.8358022 91:1.176623 92:0.2091741 93:-0.046295181 94:-0.95256001 95:-0.14586321 96:-0.26632169 97:0.35094309 98:-1.1249059 99:-0.90698719 100:1.3906879 101:0.60724622 102:1.526247 #
-0.73828845055770742078493640292436 1:1.230139 2:0.77938551 3:0.54259938 4:1.100171 5:1.3549761 6:-2.2271459 7:0.35094309 8:-1.1249059 9:-0.90698719 10:0.85170239 11:-2.883954 12:0.1931455 13:-1.881449 14:0.69869518 15:0.290216 16:1.3906879 17:0.60724622 18:1.526247 19:-1.029012 20:-1.3615969 21:-0.8358022 22:0.74849248 23:-0.87745529 24:0.36787239 25:-1.029012 26:-1.3615969 27:-0.8358022 28:-1.816465 29:1.9628429 30:0.54907078 31:1.176623 32:0.2091741 33:-0.046295181 34:-1.816465 35:1.9628429 36:0.54907078 37:-1.881449 38:0.69869518 39:0.290216 40:-1.881449 41:0.69869518 42:0.290216 43:-1.881449 44:0.69869518 45:0.290216 46:0.74849248 47:-0.87745529 48:0.36787239 49:0.85170239 50:-2.883954 51:0.1931455 52:0.02602301 53:-0.93124878 54:0.057246719 55:1.176623 56:0.2091741 57:-0.046295181 58:0.92050898 59:0.93538678 60:0.7173264 61:1.230139 62:0.77938551 63:0.54259938 64:-1.6023999 65:-0.55469412 66:-0.63518971 67:-0.53207511 68:1.247389 69:0.0054757739 70:0.85170239 71:-2.883954 72:0.1931455 73:-0.46709111 74:0.47276241 75:1.44212 76:0.35094309 77:-1.1249059 78:-0.90698719 79:1.176623 80:0.2091741 81:-0.046295181 82:0.02602301 83:-0.93124878 84:0.057246719 85:0.02602301 86:-0.93124878 87:0.057246719 88:-1.029012 89:-1.3615969 90:-0.8358022 91:1.3906879 92:0.60724622 93:1.526247 94:0.02602301 95:-0.93124878 96:0.057246719 97:0.35094309 98:-1.1249059 99:-0.90698719 100:0.2706688 101:-0.52241802 102:2.67168 #
-0.16954348942945474121302140702028 1:-1.881449 2:0.69869518 3:0.290216 4:-1.816465 5:1.9628429 6:0.54907078 7:0.02602301 8:-0.93124878 9:0.057246719 10:0.35094309 11:-1.1249059 12:-0.90698719 13:-1.881449 14:0.69869518 15:0.290216 16:1.3906879 17:0.60724622 18:1.526247 19:-1.697965 20:-0.90435201 21:-0.66754657 22:0.74849248 23:-0.87745529 24:0.36787239 25:-1.029012 26:-1.3615969 27:-0.8358022 28:-1.881449 29:0.69869518 30:0.290216 31:1.176623 32:0.2091741 33:-0.046295181 34:0.02602301 35:-0.93124878 36:0.057246719 37:1.230139 38:0.77938551 39:0.54259938 40:0.35094309 41:-1.1249059 42:-0.90698719 43:1.230139 44:0.77938551 45:0.54259938 46:-1.6023999 47:-0.55469412 48:-0.63518971 49:0.02602301 50:-0.93124878 51:0.057246719 52:0.85170239 53:-2.883954 54:0.1931455 55:1.176623 56:0.2091741 57:-0.046295181 58:0.2706688 59:-0.52241802 60:2.67168 61:1.230139 62:0.77938551 63:0.54259938 64:-1.6023999 65:-0.55469412 66:-0.63518971 67:-0.53207511 68:1.247389 69:0.0054757739 70:0.85170239 71:-2.883954 72:0.1931455 73:-0.46709111 74:0.47276241 75:1.44212 76:0.74849248 77:-0.87745529 78:0.36787239 79:1.176623 80:0.2091741 81:-0.046295181 82:0.35094309 83:-1.1249059 84:-0.90698719 85:0.35094309 86:-1.1249059 87:-0.90698719 88:-1.697965 89:-0.90435201 90:-0.66754657 91:-0.53207511 92:1.247389 93:0.0054757739 94:0.74849248 95:-0.87745529 96:0.36787239 97:0.35094309 98:-1.1249059 99:-0.90698719 100:-1.816465 101:1.9628429 102:0.54907078 #
2.1712214591693843601660773856565 1:1.100171 2:1.3549761 3:-2.2271459 4:-1.816465 5:1.9628429 6:0.54907078 7:0.85170239 8:-2.883954 9:0.1931455 10:0.35094309 11:-1.1249059 12:-0.90698719 13:-1.881449 14:0.69869518 15:0.290216 16:1.3906879 17:0.60724622 18:1.526247 19:-1.029012 20:-1.3615969 21:-0.8358022 22:0.74849248 23:-0.87745529 24:0.36787239 25:-1.029012 26:-1.3615969 27:-0.8358022 28:-1.816465 29:1.9628429 30:0.54907078 31:1.176623 32:0.2091741 33:-0.046295181 34:-1.816465 35:1.9628429 36:0.54907078 37:0.92050898 38:0.93538678 39:0.7173264 40:-1.881449 41:0.69869518 42:0.290216 43:-1.881449 44:0.69869518 45:0.290216 46:0.2706688 47:-0.52241802 48:2.67168 49:0.74849248 50:-0.87745529 51:0.36787239 52:0.85170239 53:-2.883954 54:0.1931455 55:1.176623 56:0.2091741 57:-0.046295181 58:0.92050898 59:0.93538678 60:0.7173264 61:1.230139 62:0.77938551 63:0.54259938 64:-1.6023999 65:-0.55469412 66:-0.63518971 67:-0.53207511 68:1.247389 69:0.0054757739 70:0.85170239 71:-2.883954 72:0.1931455 73:-0.46709111 74:0.47276241 75:1.44212 76:0.35094309 77:-1.1249059 78:-0.90698719 79:1.176623 80:0.2091741 81:-0.046295181 82:0.02602301 83:-0.93124878 84:0.057246719 85:0.02602301 86:-0.93124878 87:0.057246719 88:-1.697965 89:-0.90435201 90:-0.66754657 91:1.176623 92:0.2091741 93:-0.046295181 94:-1.029012 95:-1.3615969 96:-0.8358022 97:0.35094309 98:-1.1249059 99:-0.90698719 100:0.92050898 101:0.93538678 102:0.7173264 #
-0.15872392119055930836957202245685 1:-1.6023999 2:-0.55469412 3:-0.63518971 4:1.3906879 5:0.60724622 6:1.526247 7:0.92050898 8:0.93538678 9:0.7173264 10:0.02602301 11:-0.93124878 12:0.057246719 13:-1.881449 14:0.69869518 15:0.290216 16:1.3906879 17:0.60724622 18:1.526247 19:-1.029012 20:-1.3615969 21:-0.8358022 22:0.74849248 23:-0.87745529 24:0.36787239 25:0.2706688 26:-0.52241802 27:2.67168 28:-0.53207511 29:1.247389 30:0.0054757739 31:1.176623 32:0.2091741 33:-0.046295181 34:-1.029012 35:-1.3615969 36:-0.8358022 37:0.92050898 38:0.93538678 39:0.7173264 40:-1.6023999 41:-0.55469412 42:-0.63518971 43:-1.6023999 44:-0.55469412 45:-0.63518971 46:0.35094309 47:-1.1249059 48:-0.90698719 49:0.85170239 50:-2.883954 51:0.1931455 52:0.85170239 53:-2.883954 54:0.1931455 55:1.3906879 56:0.60724622 57:1.526247 58:1.100171 59:1.3549761 60:-2.2271459 61:0.92050898 62:0.93538678 63:0.7173264 64:-1.6023999 65:-0.55469412 66:-0.63518971 67:-0.53207511 68:1.247389 69:0.0054757739 70:0.85170239 71:-2.883954 72:0.1931455 73:-0.46709111 74:0.47276241 75:1.44212 76:0.35094309 77:-1.1249059 78:-0.90698719 79:1.176623 80:0.2091741 81:-0.046295181 82:0.35094309 83:-1.1249059 84:-0.90698719 85:0.35094309 86:-1.1249059 87:-0.90698719 88:-1.6023999 89:-0.55469412 90:-0.63518971 91:0.2706688 92:-0.52241802 93:2.67168 94:-1.029012 95:-1.3615969 96:-0.8358022 97:0.35094309 98:-1.1249059 99:-0.90698719 100:0.83258939 101:0.28448501 102:-0.73873162 #
-0.50402506172593353195310328374035 1:-0.95256001 2:-0.14586321 3:-0.26632169 4:0.85170239 5:-2.883954 6:0.1931455 7:0.35094309 8:-1.1249059 9:-0.90698719 10:0.02602301 11:-0.93124878 12:0.057246719 13:-1.881449 14:0.69869518 15:0.290216 16:1.3906879 17:0.60724622 18:1.526247 19:0.85170239 20:-2.883954 21:0.1931455 22:0.02602301 23:-0.93124878 24:0.057246719 25:-1.6023999 26:-0.55469412 27:-0.63518971 28:1.176623 29:0.2091741 30:-0.046295181 31:-0.46709111 32:0.47276241 33:1.44212 34:0.92050898 35:0.93538678 36:0.7173264 37:1.3906879 38:0.60724622 39:1.526247 40:0.2706688 41:-0.52241802 42:2.67168 43:-1.029012 44:-1.3615969 45:-0.8358022 46:0.2706688 47:-0.52241802 48:2.67168 49:0.02602301 50:-0.93124878 51:0.057246719 52:0.85170239 53:-2.883954 54:0.1931455 55:1.176623 56:0.2091741 57:-0.046295181 58:-1.881449 59:0.69869518 60:0.290216 61:1.230139 62:0.77938551 63:0.54259938 64:0.02602301 65:-0.93124878 66:0.057246719 67:-0.53207511 68:1.247389 69:0.0054757739 70:0.85170239 71:-2.883954 72:0.1931455 73:-0.46709111 74:0.47276241 75:1.44212 76:0.35094309 77:-1.1249059 78:-0.90698719 79:1.176623 80:0.2091741 81:-0.046295181 82:0.74849248 83:-0.87745529 84:0.36787239 85:0.35094309 86:-1.1249059 87:-0.90698719 88:-1.029012 89:-1.3615969 90:-0.8358022 91:0.2706688 92:-0.52241802 93:2.67168 94:0.02602301 95:-0.93124878 96:0.057246719 97:0.35094309 98:-1.1249059 99:-0.90698719 100:0.35094309 101:-1.1249059 102:-0.90698719 #
-2.496802800408437050805332546588 1:-1.6023999 2:-0.55469412 3:-0.63518971 4:0.02602301 5:-0.93124878 6:0.057246719 7:0.35094309 8:-1.1249059 9:-0.90698719 10:0.92050898 11:0.93538678 12:0.7173264 13:-1.881449 14:0.69869518 15:0.290216 16:1.3906879 17:0.60724622 18:1.526247 19:-1.881449 20:0.69869518 21:0.290216 22:0.74849248 23:-0.87745529 24:0.36787239 25:-1.029012 26:-1.3615969 27:-0.8358022 28:-1.816465 29:1.9628429 30:0.54907078 31:1.176623 32:0.2091741 33:-0.046295181 34:0.85170239 35:-2.883954 36:0.1931455 37:1.230139 38:0.77938551 39:0.54259938 40:0.83258939 41:0.28448501 42:-0.73873162 43:-1.697965 44:-0.90435201 45:-0.66754657 46:-1.881449 47:0.69869518 48:0.290216 49:0.85170239 50:-2.883954 51:0.1931455 52:0.85170239 53:-2.883954 54:0.1931455 55:1.176623 56:0.2091741 57:-0.046295181 58:-1.029012 59:-1.3615969 60:-0.8358022 61:1.230139 62:0.77938551 63:0.54259938 64:-0.95256001 65:-0.14586321 66:-0.26632169 67:-0.53207511 68:1.247389 69:0.0054757739 70:0.85170239 71:-2.883954 72:0.1931455 73:-1.697965 74:-0.90435201 75:-0.66754657 76:0.35094309 77:-1.1249059 78:-0.90698719 79:1.176623 80:0.2091741 81:-0.046295181 82:0.35094309 83:-1.1249059 84:-0.90698719 85:0.35094309 86:-1.1249059 87:-0.90698719 88:-1.029012 89:-1.3615969 90:-0.8358022 91:0.92050898 92:0.93538678 93:0.7173264 94:-1.029012 95:-1.3615969 96:-0.8358022 97:0.35094309 98:-1.1249059 99:-0.90698719 100:-1.881449 101:0.69869518 102:0.290216 #
3.1557604322757453196857113653095 1:1.100171 2:1.3549761 3:-2.2271459 4:-1.816465 5:1.9628429 6:0.54907078 7:-0.95256001 8:-0.14586321 9:-0.26632169 10:0.35094309 11:-1.1249059 12:-0.90698719 13:-1.881449 14:0.69869518 15:0.290216 16:1.3906879 17:0.60724622 18:1.526247 19:-1.029012 20:-1.3615969 21:-0.8358022 22:0.74849248 23:-0.87745529 24:0.36787239 25:-1.029012 26:-1.3615969 27:-0.8358022 28:-1.816465 29:1.9628429 30:0.54907078 31:1.176623 32:0.2091741 33:-0.046295181 34:0.02602301 35:-0.93124878 36:0.057246719 37:0.92050898 38:0.93538678 39:0.7173264 40:-1.881449 41:0.69869518 42:0.290216 43:-1.881449 44:0.69869518 45:0.290216 46:0.2706688 47:-0.52241802 48:2.67168 49:0.74849248 50:-0.87745529 51:0.36787239 52:0.85170239 53:-2.883954 54:0.1931455 55:1.176623 56:0.2091741 57:-0.046295181 58:-1.697965 59:-0.90435201 60:-0.66754657 61:1.230139 62:0.77938551 63:0.54259938 64:-1.6023999 65:-0.55469412 66:-0.63518971 67:-0.53207511 68:1.247389 69:0.0054757739 70:0.85170239 71:-2.883954 72:0.1931455 73:-0.46709111 74:0.47276241 75:1.44212 76:0.35094309 77:-1.1249059 78:-0.90698719 79:1.176623 80:0.2091741 81:-0.046295181 82:0.02602301 83:-0.93124878 84:0.057246719 85:0.02602301 86:-0.93124878 87:0.057246719 88:-1.697965 89:-0.90435201 90:-0.66754657 91:1.176623 92:0.2091741 93:-0.046295181 94:-1.029012 95:-1.3615969 96:-0.8358022 97:0.35094309 98:-1.1249059 99:-0.90698719 100:-0.53207511 101:1.247389 102:0.0054757739 #
-0.32536532563443820720294752391055 1:-1.881449 2:0.69869518 3:0.290216 4:-1.816465 5:1.9628429 6:0.54907078 7:-0.95256001 8:-0.14586321 9:-0.26632169 10:-0.46709111 11:0.47276241 12:1.44212 13:-1.881449 14:0.69869518 15:0.290216 16:1.3906879 17:0.60724622 18:1.526247 19:-1.6023999 20:-0.55469412 21:-0.63518971 22:0.74849248 23:-0.87745529 24:0.36787239 25:-1.029012 26:-1.3615969 27:-0.8358022 28:-0.95256001 29:-0.14586321 30:-0.26632169 31:-0.53207511 32:1.247389 33:0.0054757739 34:-0.46709111 35:0.47276241 36:1.44212 37:1.3906879 38:0.60724622 39:1.526247 40:-1.697965 41:-0.90435201 42:-0.66754657 43:-0.53207511 44:1.247389 45:0.0054757739 46:-1.881449 47:0.69869518 48:0.290216 49:1.3906879 50:0.60724622 51:1.526247 52:0.85170239 53:-2.883954 54:0.1931455 55:1.176623 56:0.2091741 57:-0.046295181 58:-1.029012 59:-1.3615969 60:-0.8358022 61:1.230139 62:0.77938551 63:0.54259938 64:0.02602301 65:-0.93124878 66:0.057246719 67:-0.53207511 68:1.247389 69:0.0054757739 70:0.85170239 71:-2.883954 72:0.1931455 73:-0.46709111 74:0.47276241 75:1.44212 76:0.35094309 77:-1.1249059 78:-0.90698719 79:1.176623 80:0.2091741 81:-0.046295181 82:0.02602301 83:-0.93124878 84:0.057246719 85:0.35094309 86:-1.1249059 87:-0.90698719 88:-1.029012 89:-1.3615969 90:-0.8358022 91:0.02602301 92:-0.93124878 93:0.057246719 94:-1.6023999 95:-0.55469412 96:-0.63518971 97:0.74849248 98:-0.87745529 99:0.36787239 100:0.02602301 101:-0.93124878 102:0.057246719 #
2.9975976978053409105484661267838 1:1.100171 2:1.3549761 3:-2.2271459 4:-1.816465 5:1.9628429 6:0.54907078 7:-0.95256001 8:-0.14586321 9:-0.26632169 10:0.35094309 11:-1.1249059 12:-0.90698719 13:-1.881449 14:0.69869518 15:0.290216 16:1.3906879 17:0.60724622 18:1.526247 19:-1.029012 20:-1.3615969 21:-0.8358022 22:0.74849248 23:-0.87745529 24:0.36787239 25:-1.029012 26:-1.3615969 27:-0.8358022 28:-1.816465 29:1.9628429 30:0.54907078 31:1.176623 32:0.2091741 33:-0.046295181 34:-1.816465 35:1.9628429 36:0.54907078 37:0.92050898 38:0.93538678 39:0.7173264 40:-1.881449 41:0.69869518 42:0.290216 43:-1.029012 44:-1.3615969 45:-0.8358022 46:0.2706688 47:-0.52241802 48:2.67168 49:0.74849248 50:-0.87745529 51:0.36787239 52:0.85170239 53:-2.883954 54:0.1931455 55:1.176623 56:0.2091741 57:-0.046295181 58:0.92050898 59:0.93538678 60:0.7173264 61:1.230139 62:0.77938551 63:0.54259938 64:-1.6023999 65:-0.55469412 66:-0.63518971 67:-0.53207511 68:1.247389 69:0.0054757739 70:0.85170239 71:-2.883954 72:0.1931455 73:-0.46709111 74:0.47276241 75:1.44212 76:0.35094309 77:-1.1249059 78:-0.90698719 79:1.176623 80:0.2091741 81:-0.046295181 82:0.02602301 83:-0.93124878 84:0.057246719 85:0.74849248 86:-0.87745529 87:0.36787239 88:-1.029012 89:-1.3615969 90:-0.8358022 91:1.3906879 92:0.60724622 93:1.526247 94:-1.029012 95:-1.3615969 96:-0.8358022 97:0.35094309 98:-1.1249059 99:-0.90698719 100:0.02602301 101:-0.93124878 102:0.057246719 #
-4.264761830336653680717518000165 1:0.74849248 2:-0.87745529 3:0.36787239 4:0.02602301 5:-0.93124878 6:0.057246719 7:-1.697965 8:-0.90435201 9:-0.66754657 10:0.02602301 11:-0.93124878 12:0.057246719 13:-1.881449 14:0.69869518 15:0.290216 16:1.3906879 17:0.60724622 18:1.526247 19:-1.6023999 20:-0.55469412 21:-0.63518971 22:0.74849248 23:-0.87745529 24:0.36787239 25:-1.697965 26:-0.90435201 27:-0.66754657 28:0.85170239 29:-2.883954 30:0.1931455 31:1.176623 32:0.2091741 33:-0.046295181 34:0.02602301 35:-0.93124878 36:0.057246719 37:-0.53207511 38:1.247389 39:0.0054757739 40:-1.6023999 41:-0.55469412 42:-0.63518971 43:-1.6023999 44:-0.55469412 45:-0.63518971 46:-1.6023999 47:-0.55469412 48:-0.63518971 49:0.02602301 50:-0.93124878 51:0.057246719 52:0.85170239 53:-2.883954 54:0.1931455 55:1.176623 56:0.2091741 57:-0.046295181 58:-1.697965 59:-0.90435201 60:-0.66754657 61:1.230139 62:0.77938551 63:0.54259938 64:0.85170239 65:-2.883954 66:0.1931455 67:-1.816465 68:1.9628429 69:0.54907078 70:0.85170239 71:-2.883954 72:0.1931455 73:-0.46709111 74:0.47276241 75:1.44212 76:0.02602301 77:-0.93124878 78:0.057246719 79:1.176623 80:0.2091741 81:-0.046295181 82:0.35094309 83:-1.1249059 84:-0.90698719 85:0.2706688 86:-0.52241802 87:2.67168 88:-1.029012 89:-1.3615969 90:-0.8358022 91:-1.881449 92:0.69869518 93:0.290216 94:0.74849248 95:-0.87745529 96:0.36787239 97:0.35094309 98:-1.1249059 99:-0.90698719 100:-1.6023999 101:-0.55469412 102:-0.63518971 #
-0.16039003270540885814909870532574 1:-1.6023999 2:-0.55469412 3:-0.63518971 4:1.176623 5:0.2091741 6:-0.046295181 7:0.74849248 8:-0.87745529 9:0.36787239 10:0.02602301 11:-0.93124878 12:0.057246719 13:-1.881449 14:0.69869518 15:0.290216 16:1.3906879 17:0.60724622 18:1.526247 19:-1.697965 20:-0.90435201 21:-0.66754657 22:0.74849248 23:-0.87745529 24:0.36787239 25:-1.6023999 26:-0.55469412 27:-0.63518971 28:-1.881449 29:0.69869518 30:0.290216 31:1.176623 32:0.2091741 33:-0.046295181 34:-1.029012 35:-1.3615969 36:-0.8358022 37:0.92050898 38:0.93538678 39:0.7173264 40:-1.029012 41:-1.3615969 42:-0.8358022 43:-1.6023999 44:-0.55469412 45:-0.63518971 46:0.35094309 47:-1.1249059 48:-0.90698719 49:0.85170239 50:-2.883954 51:0.1931455 52:0.85170239 53:-2.883954 54:0.1931455 55:1.3906879 56:0.60724622 57:1.526247 58:1.100171 59:1.3549761 60:-2.2271459 61:0.92050898 62:0.93538678 63:0.7173264 64:-1.6023999 65:-0.55469412 66:-0.63518971 67:-0.53207511 68:1.247389 69:0.0054757739 70:0.85170239 71:-2.883954 72:0.1931455 73:-0.46709111 74:0.47276241 75:1.44212 76:0.35094309 77:-1.1249059 78:-0.90698719 79:1.176623 80:0.2091741 81:-0.046295181 82:0.74849248 83:-0.87745529 84:0.36787239 85:0.35094309 86:-1.1249059 87:-0.90698719 88:-1.6023999 89:-0.55469412 90:-0.63518971 91:0.2706688 92:-0.52241802 93:2.67168 94:0.02602301 95:-0.93124878 96:0.057246719 97:0.35094309 98:-1.1249059 99:-0.90698719 100:-1.816465 101:1.9628429 102:0.54907078 #
-0.50842143226502312103320946334861 1:0.74849248 2:-0.87745529 3:0.36787239 4:1.3906879 5:0.60724622 6:1.526247 7:-1.697965 8:-0.90435201 9:-0.66754657 10:0.74849248 11:-0.87745529 12:0.36787239 13:-1.881449 14:0.69869518 15:0.290216 16:1.3906879 17:0.60724622 18:1.526247 19:-1.029012 20:-1.3615969 21:-0.8358022 22:0.74849248 23:-0.87745529 24:0.36787239 25:-1.029012 26:-1.3615969 27:-0.8358022 28:0.85170239 29:-2.883954 30:0.1931455 31:1.176623 32:0.2091741 33:-0.046295181 34:-1.6023999 35:-0.55469412 36:-0.63518971 37:-1.881449 38:0.69869518 39:0.290216 40:-1.6023999 41:-0.55469412 42:-0.63518971 43:-1.029012 44:-1.3615969 45:-0.8358022 46:-1.6023999 47:-0.55469412 48:-0.63518971 49:0.02602301 50:-0.93124878 51:0.057246719 52:0.85170239 53:-2.883954 54:0.1931455 55:1.176623 56:0.2091741 57:-0.046295181 58:-1.029012 59:-1.3615969 60:-0.8358022 61:1.230139 62:0.77938551 63:0.54259938 64:0.85170239 65:-2.883954 66:0.1931455 67:-1.816465 68:1.9628429 69:0.54907078 70:0.85170239 71:-2.883954 72:0.1931455 73:-0.46709111 74:0.47276241 75:1.44212 76:0.02602301 77:-0.93124878 78:0.057246719 79:1.176623 80:0.2091741 81:-0.046295181 82:0.35094309 83:-1.1249059 84:-0.90698719 85:0.2706688 86:-0.52241802 87:2.67168 88:-1.029012 89:-1.3615969 90:-0.8358022 91:-1.6023999 92:-0.55469412 93:-0.63518971 94:0.74849248 95:-0.87745529 96:0.36787239 97:0.02602301 98:-0.93124878 99:0.057246719 100:-1.697965 101:-0.90435201 102:-0.66754657 #
1.3141677877232897930781518880394 1:1.100171 2:1.3549761 3:-2.2271459 4:-1.816465 5:1.9628429 6:0.54907078 7:-0.95256001 8:-0.14586321 9:-0.26632169 10:0.35094309 11:-1.1249059 12:-0.90698719 13:-1.881449 14:0.69869518 15:0.290216 16:1.3906879 17:0.60724622 18:1.526247 19:-1.029012 20:-1.3615969 21:-0.8358022 22:0.74849248 23:-0.87745529 24:0.36787239 25:-1.029012 26:-1.3615969 27:-0.8358022 28:-1.816465 29:1.9628429 30:0.54907078 31:1.176623 32:0.2091741 33:-0.046295181 34:-1.816465 35:1.9628429 36:0.54907078 37:0.92050898 38:0.93538678 39:0.7173264 40:-1.881449 41:0.69869518 42:0.290216 43:-1.029012 44:-1.3615969 45:-0.8358022 46:0.2706688 47:-0.52241802 48:2.67168 49:0.74849248 50:-0.87745529 51:0.36787239 52:0.85170239 53:-2.883954 54:0.1931455 55:1.176623 56:0.2091741 57:-0.046295181 58:-0.53207511 59:1.247389 60:0.0054757739 61:1.230139 62:0.77938551 63:0.54259938 64:-1.6023999 65:-0.55469412 66:-0.63518971 67:-0.53207511 68:1.247389 69:0.0054757739 70:0.85170239 71:-2.883954 72:0.1931455 73:-0.46709111 74:0.47276241 75:1.44212 76:0.35094309 77:-1.1249059 78:-0.90698719 79:1.176623 80:0.2091741 81:-0.046295181 82:0.02602301 83:-0.93124878 84:0.057246719 85:0.02602301 86:-0.93124878 87:0.057246719 88:-1.029012 89:-1.3615969 90:-0.8358022 91:1.3906879 92:0.60724622 93:1.526247 94:-1.029012 95:-1.3615969 96:-0.8358022 97:0.35094309 98:-1.1249059 99:-0.90698719 100:0.02602301 101:-0.93124878 102:0.057246719 #
7.1762556702786959306195058161393 1:-1.6023999 2:-0.55469412 3:-0.63518971 4:0.85170239 5:-2.883954 6:0.1931455 7:0.35094309 8:-1.1249059 9:-0.90698719 10:0.92050898 11:0.93538678 12:0.7173264 13:-1.881449 14:0.69869518 15:0.290216 16:1.3906879 17:0.60724622 18:1.526247 19:-0.95256001 20:-0.14586321 21:-0.26632169 22:0.74849248 23:-0.87745529 24:0.36787239 25:-1.029012 26:-1.3615969 27:-0.8358022 28:-1.816465 29:1.9628429 30:0.54907078 31:1.176623 32:0.2091741 33:-0.046295181 34:0.85170239 35:-2.883954 36:0.1931455 37:1.230139 38:0.77938551 39:0.54259938 40:0.83258939 41:0.28448501 42:-0.73873162 43:0.35094309 44:-1.1249059 45:-0.90698719 46:-1.6023999 47:-0.55469412 48:-0.63518971 49:0.85170239 50:-2.883954 51:0.1931455 52:0.85170239 53:-2.883954 54:0.1931455 55:1.176623 56:0.2091741 57:-0.046295181 58:-1.029012 59:-1.3615969 60:-0.8358022 61:1.230139 62:0.77938551 63:0.54259938 64:-1.6023999 65:-0.55469412 66:-0.63518971 67:-0.53207511 68:1.247389 69:0.0054757739 70:0.85170239 71:-2.883954 72:0.1931455 73:-1.697965 74:-0.90435201 75:-0.66754657 76:0.35094309 77:-1.1249059 78:-0.90698719 79:1.176623 80:0.2091741 81:-0.046295181 82:0.35094309 83:-1.1249059 84:-0.90698719 85:0.35094309 86:-1.1249059 87:-0.90698719 88:-1.029012 89:-1.3615969 90:-0.8358022 91:0.92050898 92:0.93538678 93:0.7173264 94:0.74849248 95:-0.87745529 96:0.36787239 97:0.35094309 98:-1.1249059 99:-0.90698719 100:-1.816465 101:1.9628429 102:0.54907078 #
-2.6173300544552744462123428093037 1:-1.6023999 2:-0.55469412 3:-0.63518971 4:0.74849248 5:-0.87745529 6:0.36787239 7:0.35094309 8:-1.1249059 9:-0.90698719 10:0.92050898 11:0.93538678 12:0.7173264 13:-1.881449 14:0.69869518 15:0.290216 16:1.3906879 17:0.60724622 18:1.526247 19:-1.881449 20:0.69869518 21:0.290216 22:0.74849248 23:-0.87745529 24:0.36787239 25:-1.029012 26:-1.3615969 27:-0.8358022 28:-1.816465 29:1.9628429 30:0.54907078 31:1.176623 32:0.2091741 33:-0.046295181 34:0.85170239 35:-2.883954 36:0.1931455 37:1.100171 38:1.3549761 39:-2.2271459 40:-1.6023999 41:-0.55469412 42:-0.63518971 43:-0.0007351134 44:-0.0006206946 45:-0.00099559524 46:-0.0007351134 47:-0.0006206946 48:-0.00099559524 49:-0.0007351134 50:-0.0006206946 51:-0.00099559524 52:0.85170239 53:-2.883954 54:0.1931455 55:0.02602301 56:-0.93124878 57:0.057246719 58:-1.697965 59:-0.90435201 60:-0.66754657 61:1.230139 62:0.77938551 63:0.54259938 64:-0.95256001 65:-0.14586321 66:-0.26632169 67:-0.53207511 68:1.247389 69:0.0054757739 70:0.85170239 71:-2.883954 72:0.1931455 73:-1.697965 74:-0.90435201 75:-0.66754657 76:0.35094309 77:-1.1249059 78:-0.90698719 79:1.176623 80:0.2091741 81:-0.046295181 82:0.02602301 83:-0.93124878 84:0.057246719 85:0.35094309 86:-1.1249059 87:-0.90698719 88:-1.029012 89:-1.3615969 90:-0.8358022 91:0.92050898 92:0.93538678 93:0.7173264 94:0.35094309 95:-1.1249059 96:-0.90698719 97:0.35094309 98:-1.1249059 99:-0.90698719 100:-1.881449 101:0.69869518 102:0.290216 #
-3.3449076869653602273046999471262 1:-1.6023999 2:-0.55469412 3:-0.63518971 4:0.02602301 5:-0.93124878 6:0.057246719 7:0.35094309 8:-1.1249059 9:-0.90698719 10:0.92050898 11:0.93538678 12:0.7173264 13:-1.881449 14:0.69869518 15:0.290216 16:1.3906879 17:0.60724622 18:1.526247 19:-1.881449 20:0.69869518 21:0.290216 22:0.74849248 23:-0.87745529 24:0.36787239 25:-1.029012 26:-1.3615969 27:-0.8358022 28:-1.816465 29:1.9628429 30:0.54907078 31:1.176623 32:0.2091741 33:-0.046295181 34:0.85170239 35:-2.883954 36:0.1931455 37:1.230139 38:0.77938551 39:0.54259938 40:0.83258939 41:0.28448501 42:-0.73873162 43:-1.029012 44:-1.3615969 45:-0.8358022 46:-1.881449 47:0.69869518 48:0.290216 49:0.85170239 50:-2.883954 51:0.1931455 52:0.85170239 53:-2.883954 54:0.1931455 55:1.176623 56:0.2091741 57:-0.046295181 58:-1.029012 59:-1.3615969 60:-0.8358022 61:1.230139 62:0.77938551 63:0.54259938 64:-0.95256001 65:-0.14586321 66:-0.26632169 67:-0.53207511 68:1.247389 69:0.0054757739 70:0.85170239 71:-2.883954 72:0.1931455 73:-1.697965 74:-0.90435201 75:-0.66754657 76:0.35094309 77:-1.1249059 78:-0.90698719 79:1.176623 80:0.2091741 81:-0.046295181 82:-1.697965 83:-0.90435201 84:-0.66754657 85:0.35094309 86:-1.1249059 87:-0.90698719 88:-1.029012 89:-1.3615969 90:-0.8358022 91:0.92050898 92:0.93538678 93:0.7173264 94:0.02602301 95:-0.93124878 96:0.057246719 97:0.35094309 98:-1.1249059 99:-0.90698719 100:-0.53207511 101:1.247389 102:0.0054757739 #
-1.7078506116844207607385897063068 1:-1.6023999 2:-0.55469412 3:-0.63518971 4:0.02602301 5:-0.93124878 6:0.057246719 7:-1.6023999 8:-0.55469412 9:-0.63518971 10:0.92050898 11:0.93538678 12:0.7173264 13:-1.881449 14:0.69869518 15:0.290216 16:1.3906879 17:0.60724622 18:1.526247 19:-1.029012 20:-1.3615969 21:-0.8358022 22:0.74849248 23:-0.87745529 24:0.36787239 25:-1.029012 26:-1.3615969 27:-0.8358022 28:-1.816465 29:1.9628429 30:0.54907078 31:1.176623 32:0.2091741 33:-0.046295181 34:0.85170239 35:-2.883954 36:0.1931455 37:0.2706688 38:-0.52241802 39:2.67168 40:0.83258939 41:0.28448501 42:-0.73873162 43:-1.697965 44:-0.90435201 45:-0.66754657 46:-1.029012 47:-1.3615969 48:-0.8358022 49:0.02602301 50:-0.93124878 51:0.057246719 52:0.85170239 53:-2.883954 54:0.1931455 55:1.176623 56:0.2091741 57:-0.046295181 58:-1.697965 59:-0.90435201 60:-0.66754657 61:1.230139 62:0.77938551 63:0.54259938 64:0.02602301 65:-0.93124878 66:0.057246719 67:-0.53207511 68:1.247389 69:0.0054757739 70:0.85170239 71:-2.883954 72:0.1931455 73:-0.46709111 74:0.47276241 75:1.44212 76:0.35094309 77:-1.1249059 78:-0.90698719 79:1.176623 80:0.2091741 81:-0.046295181 82:0.02602301 83:-0.93124878 84:0.057246719 85:0.35094309 86:-1.1249059 87:-0.90698719 88:-1.697965 89:-0.90435201 90:-0.66754657 91:-0.53207511 92:1.247389 93:0.0054757739 94:0.02602301 95:-0.93124878 96:0.057246719 97:0.02602301 98:-0.93124878 99:0.057246719 100:-0.95256001 101:-0.14586321 102:-0.26632169 #
-0.38580969249709662349800964875612 1:-1.6023999 2:-0.55469412 3:-0.63518971 4:0.85170239 5:-2.883954 6:0.1931455 7:-1.6023999 8:-0.55469412 9:-0.63518971 10:0.02602301 11:-0.93124878 12:0.057246719 13:-1.881449 14:0.69869518 15:0.290216 16:1.3906879 17:0.60724622 18:1.526247 19:0.02602301 20:-0.93124878 21:0.057246719 22:0.74849248 23:-0.87745529 24:0.36787239 25:-1.029012 26:-1.3615969 27:-0.8358022 28:1.08488 29:0.75786811 30:-2.033005 31:0.83258939 32:0.28448501 33:-0.73873162 34:0.02602301 35:-0.93124878 36:0.057246719 37:1.3906879 38:0.60724622 39:1.526247 40:-0.95256001 41:-0.14586321 42:-0.26632169 43:-1.697965 44:-0.90435201 45:-0.66754657 46:-1.029012 47:-1.3615969 48:-0.8358022 49:0.85170239 50:-2.883954 51:0.1931455 52:0.85170239 53:-2.883954 54:0.1931455 55:1.3906879 56:0.60724622 57:1.526247 58:0.35094309 59:-1.1249059 60:-0.90698719 61:1.230139 62:0.77938551 63:0.54259938 64:-1.029012 65:-1.3615969 66:-0.8358022 67:-0.53207511 68:1.247389 69:0.0054757739 70:0.85170239 71:-2.883954 72:0.1931455 73:-0.46709111 74:0.47276241 75:1.44212 76:0.35094309 77:-1.1249059 78:-0.90698719 79:1.176623 80:0.2091741 81:-0.046295181 82:0.2706688 83:-0.52241802 84:2.67168 85:0.2706688 86:-0.52241802 87:2.67168 88:-1.029012 89:-1.3615969 90:-0.8358022 91:1.3906879 92:0.60724622 93:1.526247 94:0.02602301 95:-0.93124878 96:0.057246719 97:0.02602301 98:-0.93124878 99:0.057246719 100:0.74849248 101:-0.87745529 102:0.36787239 #
-0.82003671994093885189158754656091 1:-1.881449 2:0.69869518 3:0.290216 4:-1.816465 5:1.9628429 6:0.54907078 7:0.02602301 8:-0.93124878 9:0.057246719 10:0.02602301 11:-0.93124878 12:0.057246719 13:-1.881449 14:0.69869518 15:0.290216 16:1.3906879 17:0.60724622 18:1.526247 19:-1.6023999 20:-0.55469412 21:-0.63518971 22:0.74849248 23:-0.87745529 24:0.36787239 25:-1.029012 26:-1.3615969 27:-0.8358022 28:-1.881449 29:0.69869518 30:0.290216 31:1.3906879 32:0.60724622 33:1.526247 34:0.02602301 35:-0.93124878 36:0.057246719 37:-0.53207511 38:1.247389 39:0.0054757739 40:0.74849248 41:-0.87745529 42:0.36787239 43:-1.029012 44:-1.3615969 45:-0.8358022 46:-1.881449 47:0.69869518 48:0.290216 49:0.02602301 50:-0.93124878 51:0.057246719 52:0.85170239 53:-2.883954 54:0.1931455 55:1.176623 56:0.2091741 57:-0.046295181 58:-1.6023999 59:-0.55469412 60:-0.63518971 61:1.230139 62:0.77938551 63:0.54259938 64:-1.816465 65:1.9628429 66:0.54907078 67:-0.53207511 68:1.247389 69:0.0054757739 70:0.85170239 71:-2.883954 72:0.1931455 73:-0.46709111 74:0.47276241 75:1.44212 76:0.35094309 77:-1.1249059 78:-0.90698719 79:1.176623 80:0.2091741 81:-0.046295181 82:0.35094309 83:-1.1249059 84:-0.90698719 85:1.230139 86:0.77938551 87:0.54259938 88:-1.029012 89:-1.3615969 90:-0.8358022 91:0.2706688 92:-0.52241802 93:2.67168 94:0.35094309 95:-1.1249059 96:-0.90698719 97:0.74849248 98:-0.87745529 99:0.36787239 100:-0.53207511 101:1.247389 102:0.0054757739 #
-1.0456144074860767023693597366218 1:0.35094309 2:-1.1249059 3:-0.90698719 4:0.02602301 5:-0.93124878 6:0.057246719 7:0.83258939 8:0.28448501 9:-0.73873162 10:0.02602301 11:-0.93124878 12:0.057246719 13:-1.881449 14:0.69869518 15:0.290216 16:1.3906879 17:0.60724622 18:1.526247 19:0.02602301 20:-0.93124878 21:0.057246719 22:0.02602301 23:-0.93124878 24:0.057246719 25:-1.029012 26:-1.3615969 27:-0.8358022 28:-1.816465 29:1.9628429 30:0.54907078 31:1.176623 32:0.2091741 33:-0.046295181 34:0.74849248 35:-0.87745529 36:0.36787239 37:0.02602301 38:-0.93124878 39:0.057246719 40:-1.6023999 41:-0.55469412 42:-0.63518971 43:-1.697965 44:-0.90435201 45:-0.66754657 46:-1.029012 47:-1.3615969 48:-0.8358022 49:0.02602301 50:-0.93124878 51:0.057246719 52:0.85170239 53:-2.883954 54:0.1931455 55:1.3906879 56:0.60724622 57:1.526247 58:-1.029012 59:-1.3615969 60:-0.8358022 61:1.230139 62:0.77938551 63:0.54259938 64:0.02602301 65:-0.93124878 66:0.057246719 67:-0.53207511 68:1.247389 69:0.0054757739 70:0.85170239 71:-2.883954 72:0.1931455 73:-1.6023999 74:-0.55469412 75:-0.63518971 76:0.35094309 77:-1.1249059 78:-0.90698719 79:1.176623 80:0.2091741 81:-0.046295181 82:0.35094309 83:-1.1249059 84:-0.90698719 85:0.35094309 86:-1.1249059 87:-0.90698719 88:-1.029012 89:-1.3615969 90:-0.8358022 91:0.2706688 92:-0.52241802 93:2.67168 94:0.02602301 95:-0.93124878 96:0.057246719 97:0.35094309 98:-1.1249059 99:-0.90698719 100:-0.95256001 101:-0.14586321 102:-0.26632169 #
-0.2472261175798236010336950130295 1:-1.881449 2:0.69869518 3:0.290216 4:0.02602301 5:-0.93124878 6:0.057246719 7:-1.697965 8:-0.90435201 9:-0.66754657 10:-1.029012 11:-1.3615969 12:-0.8358022 13:-1.881449 14:0.69869518 15:0.290216 16:1.3906879 17:0.60724622 18:1.526247 19:0.85170239 20:-2.883954 21:0.1931455 22:-1.816465 23:1.9628429 24:0.54907078 25:-1.6023999 26:-0.55469412 27:-0.63518971 28:-1.816465 29:1.9628429 30:0.54907078 31:0.2706688 32:-0.52241802 33:2.67168 34:-1.6023999 35:-0.55469412 36:-0.63518971 37:0.2706688 38:-0.52241802 39:2.67168 40:-1.6023999 41:-0.55469412 42:-0.63518971 43:-1.029012 44:-1.3615969 45:-0.8358022 46:-1.029012 47:-1.3615969 48:-0.8358022 49:0.02602301 50:-0.93124878 51:0.057246719 52:0.85170239 53:-2.883954 54:0.1931455 55:1.176623 56:0.2091741 57:-0.046295181 58:-1.6023999 59:-0.55469412 60:-0.63518971 61:1.230139 62:0.77938551 63:0.54259938 64:-1.029012 65:-1.3615969 66:-0.8358022 67:-0.53207511 68:1.247389 69:0.0054757739 70:0.85170239 71:-2.883954 72:0.1931455 73:-0.46709111 74:0.47276241 75:1.44212 76:0.35094309 77:-1.1249059 78:-0.90698719 79:1.176623 80:0.2091741 81:-0.046295181 82:0.02602301 83:-0.93124878 84:0.057246719 85:0.35094309 86:-1.1249059 87:-0.90698719 88:-1.697965 89:-0.90435201 90:-0.66754657 91:0.02602301 92:-0.93124878 93:0.057246719 94:0.02602301 95:-0.93124878 96:0.057246719 97:0.35094309 98:-1.1249059 99:-0.90698719 100:-1.816465 101:1.9628429 102:0.54907078 #
0.99599162412312125525204464793205 1:1.100171 2:1.3549761 3:-2.2271459 4:-1.816465 5:1.9628429 6:0.54907078 7:-0.95256001 8:-0.14586321 9:-0.26632169 10:0.35094309 11:-1.1249059 12:-0.90698719 13:-1.881449 14:0.69869518 15:0.290216 16:1.3906879 17:0.60724622 18:1.526247 19:-1.029012 20:-1.3615969 21:-0.8358022 22:0.74849248 23:-0.87745529 24:0.36787239 25:-1.029012 26:-1.3615969 27:-0.8358022 28:-1.816465 29:1.9628429 30:0.54907078 31:1.176623 32:0.2091741 33:-0.046295181 34:-1.6023999 35:-0.55469412 36:-0.63518971 37:0.92050898 38:0.93538678 39:0.7173264 40:-1.881449 41:0.69869518 42:0.290216 43:-1.881449 44:0.69869518 45:0.290216 46:0.35094309 47:-1.1249059 48:-0.90698719 49:0.74849248 50:-0.87745529 51:0.36787239 52:0.85170239 53:-2.883954 54:0.1931455 55:1.176623 56:0.2091741 57:-0.046295181 58:0.92050898 59:0.93538678 60:0.7173264 61:1.230139 62:0.77938551 63:0.54259938 64:-1.6023999 65:-0.55469412 66:-0.63518971 67:-0.53207511 68:1.247389 69:0.0054757739 70:0.85170239 71:-2.883954 72:0.1931455 73:-0.46709111 74:0.47276241 75:1.44212 76:0.35094309 77:-1.1249059 78:-0.90698719 79:1.176623 80:0.2091741 81:-0.046295181 82:0.02602301 83:-0.93124878 84:0.057246719 85:0.02602301 86:-0.93124878 87:0.057246719 88:-1.029012 89:-1.3615969 90:-0.8358022 91:1.3906879 92:0.60724622 93:1.526247 94:-1.029012 95:-1.3615969 96:-0.8358022 97:0.35094309 98:-1.1249059 99:-0.90698719 100:-0.53207511 101:1.247389 102:0.0054757739 #
-1.0013851673288955979046477295924 1:-1.881449 2:0.69869518 3:0.290216 4:0.85170239 5:-2.883954 6:0.1931455 7:-0.95256001 8:-0.14586321 9:-0.26632169 10:0.35094309 11:-1.1249059 12:-0.90698719 13:-1.881449 14:0.69869518 15:0.290216 16:1.3906879 17:0.60724622 18:1.526247 19:0.02602301 20:-0.93124878 21:0.057246719 22:0.74849248 23:-0.87745529 24:0.36787239 25:-1.029012 26:-1.3615969 27:-0.8358022 28:-1.816465 29:1.9628429 30:0.54907078 31:0.83258939 32:0.28448501 33:-0.73873162 34:-1.816465 35:1.9628429 36:0.54907078 37:0.92050898 38:0.93538678 39:0.7173264 40:-1.881449 41:0.69869518 42:0.290216 43:-1.881449 44:0.69869518 45:0.290216 46:0.02602301 47:-0.93124878 48:0.057246719 49:0.85170239 50:-2.883954 51:0.1931455 52:0.85170239 53:-2.883954 54:0.1931455 55:1.176623 56:0.2091741 57:-0.046295181 58:-1.029012 59:-1.3615969 60:-0.8358022 61:0.92050898 62:0.93538678 63:0.7173264 64:0.85170239 65:-2.883954 66:0.1931455 67:-0.53207511 68:1.247389 69:0.0054757739 70:0.85170239 71:-2.883954 72:0.1931455 73:-0.46709111 74:0.47276241 75:1.44212 76:0.35094309 77:-1.1249059 78:-0.90698719 79:1.176623 80:0.2091741 81:-0.046295181 82:0.02602301 83:-0.93124878 84:0.057246719 85:0.35094309 86:-1.1249059 87:-0.90698719 88:-1.029012 89:-1.3615969 90:-0.8358022 91:1.3906879 92:0.60724622 93:1.526247 94:0.02602301 95:-0.93124878 96:0.057246719 97:0.02602301 98:-0.93124878 99:0.057246719 100:-1.881449 101:0.69869518 102:0.290216 #
-0.70653245314633661422476507141255 1:-1.6023999 2:-0.55469412 3:-0.63518971 4:0.85170239 5:-2.883954 6:0.1931455 7:-1.6023999 8:-0.55469412 9:-0.63518971 10:0.02602301 11:-0.93124878 12:0.057246719 13:-1.881449 14:0.69869518 15:0.290216 16:1.3906879 17:0.60724622 18:1.526247 19:0.02602301 20:-0.93124878 21:0.057246719 22:0.74849248 23:-0.87745529 24:0.36787239 25:-1.029012 26:-1.3615969 27:-0.8358022 28:0.83258939 29:0.28448501 30:-0.73873162 31:0.83258939 32:0.28448501 33:-0.73873162 34:0.02602301 35:-0.93124878 36:0.057246719 37:1.3906879 38:0.60724622 39:1.526247 40:0.85170239 41:-2.883954 42:0.1931455 43:-1.6023999 44:-0.55469412 45:-0.63518971 46:-1.697965 47:-0.90435201 48:-0.66754657 49:0.85170239 50:-2.883954 51:0.1931455 52:0.85170239 53:-2.883954 54:0.1931455 55:1.176623 56:0.2091741 57:-0.046295181 58:0.35094309 59:-1.1249059 60:-0.90698719 61:1.230139 62:0.77938551 63:0.54259938 64:-1.029012 65:-1.3615969 66:-0.8358022 67:-0.53207511 68:1.247389 69:0.0054757739 70:0.85170239 71:-2.883954 72:0.1931455 73:-0.46709111 74:0.47276241 75:1.44212 76:0.35094309 77:-1.1249059 78:-0.90698719 79:1.176623 80:0.2091741 81:-0.046295181 82:0.35094309 83:-1.1249059 84:-0.90698719 85:0.2706688 86:-0.52241802 87:2.67168 88:-1.029012 89:-1.3615969 90:-0.8358022 91:1.3906879 92:0.60724622 93:1.526247 94:0.02602301 95:-0.93124878 96:0.057246719 97:0.74849248 98:-0.87745529 99:0.36787239 100:-1.6023999 101:-0.55469412 102:-0.63518971 #
-0.48981656858823541256242606323212 1:-1.6023999 2:-0.55469412 3:-0.63518971 4:0.35094309 5:-1.1249059 6:-0.90698719 7:-1.6023999 8:-0.55469412 9:-0.63518971 10:0.92050898 11:0.93538678 12:0.7173264 13:-1.881449 14:0.69869518 15:0.290216 16:1.3906879 17:0.60724622 18:1.526247 19:-0.53207511 20:1.247389 21:0.0054757739 22:0.74849248 23:-0.87745529 24:0.36787239 25:-1.029012 26:-1.3615969 27:-0.8358022 28:-1.816465 29:1.9628429 30:0.54907078 31:1.176623 32:0.2091741 33:-0.046295181 34:0.85170239 35:-2.883954 36:0.1931455 37:0.74849248 38:-0.87745529 39:0.36787239 40:0.83258939 41:0.28448501 42:-0.73873162 43:-1.029012 44:-1.3615969 45:-0.8358022 46:-1.881449 47:0.69869518 48:0.290216 49:0.85170239 50:-2.883954 51:0.1931455 52:0.85170239 53:-2.883954 54:0.1931455 55:1.176623 56:0.2091741 57:-0.046295181 58:-1.697965 59:-0.90435201 60:-0.66754657 61:1.230139 62:0.77938551 63:0.54259938 64:-0.95256001 65:-0.14586321 66:-0.26632169 67:-0.53207511 68:1.247389 69:0.0054757739 70:0.85170239 71:-2.883954 72:0.1931455 73:-1.697965 74:-0.90435201 75:-0.66754657 76:0.35094309 77:-1.1249059 78:-0.90698719 79:1.176623 80:0.2091741 81:-0.046295181 82:0.35094309 83:-1.1249059 84:-0.90698719 85:0.35094309 86:-1.1249059 87:-0.90698719 88:-1.029012 89:-1.3615969 90:-0.8358022 91:0.92050898 92:0.93538678 93:0.7173264 94:0.02602301 95:-0.93124878 96:0.057246719 97:0.74849248 98:-0.87745529 99:0.36787239 100:-1.881449 101:0.69869518 102:0.290216 #
-0.53009741569085733203792187850922 1:0.35094309 2:-1.1249059 3:-0.90698719 4:0.02602301 5:-0.93124878 6:0.057246719 7:-1.029012 8:-1.3615969 9:-0.8358022 10:0.74849248 11:-0.87745529 12:0.36787239 13:-1.881449 14:0.69869518 15:0.290216 16:1.3906879 17:0.60724622 18:1.526247 19:0.02602301 20:-0.93124878 21:0.057246719 22:0.74849248 23:-0.87745529 24:0.36787239 25:-1.029012 26:-1.3615969 27:-0.8358022 28:-0.53207511 29:1.247389 30:0.0054757739 31:1.3906879 32:0.60724622 33:1.526247 34:0.85170239 35:-2.883954 36:0.1931455 37:1.230139 38:0.77938551 39:0.54259938 40:0.2706688 41:-0.52241802 42:2.67168 43:0.35094309 44:-1.1249059 45:-0.90698719 46:-1.6023999 47:-0.55469412 48:-0.63518971 49:0.85170239 50:-2.883954 51:0.1931455 52:0.85170239 53:-2.883954 54:0.1931455 55:1.3906879 56:0.60724622 57:1.526247 58:0.74849248 59:-0.87745529 60:0.36787239 61:0.85170239 62:-2.883954 63:0.1931455 64:-1.6023999 65:-0.55469412 66:-0.63518971 67:0.85170239 68:-2.883954 69:0.1931455 70:0.85170239 71:-2.883954 72:0.1931455 73:0.02602301 74:-0.93124878 75:0.057246719 76:0.35094309 77:-1.1249059 78:-0.90698719 79:1.176623 80:0.2091741 81:-0.046295181 82:0.35094309 83:-1.1249059 84:-0.90698719 85:0.74849248 86:-0.87745529 87:0.36787239 88:-1.697965 89:-0.90435201 90:-0.66754657 91:0.92050898 92:0.93538678 93:0.7173264 94:1.230139 95:0.77938551 96:0.54259938 97:0.35094309 98:-1.1249059 99:-0.90698719 100:-1.697965 101:-0.90435201 102:-0.66754657 #
-0.52521344379795142920386297191726 1:-1.6023999 2:-0.55469412 3:-0.63518971 4:1.3906879 5:0.60724622 6:1.526247 7:0.35094309 8:-1.1249059 9:-0.90698719 10:0.74849248 11:-0.87745529 12:0.36787239 13:-1.816465 14:1.9628429 15:0.54907078 16:1.3906879 17:0.60724622 18:1.526247 19:0.02602301 20:-0.93124878 21:0.057246719 22:0.02602301 23:-0.93124878 24:0.057246719 25:0.35094309 26:-1.1249059 27:-0.90698719 28:-1.816465 29:1.9628429 30:0.54907078 31:1.176623 32:0.2091741 33:-0.046295181 34:0.35094309 35:-1.1249059 36:-0.90698719 37:-1.881449 38:0.69869518 39:0.290216 40:-1.881449 41:0.69869518 42:0.290216 43:0.92050898 44:0.93538678 45:0.7173264 46:0.35094309 47:-1.1249059 48:-0.90698719 49:0.02602301 50:-0.93124878 51:0.057246719 52:0.85170239 53:-2.883954 54:0.1931455 55:1.3906879 56:0.60724622 57:1.526247 58:-1.881449 59:0.69869518 60:0.290216 61:1.230139 62:0.77938551 63:0.54259938 64:-1.029012 65:-1.3615969 66:-0.8358022 67:-1.6023999 68:-0.55469412 69:-0.63518971 70:0.85170239 71:-2.883954 72:0.1931455 73:0.92050898 74:0.93538678 75:0.7173264 76:0.35094309 77:-1.1249059 78:-0.90698719 79:1.176623 80:0.2091741 81:-0.046295181 82:1.230139 83:0.77938551 84:0.54259938 85:0.35094309 86:-1.1249059 87:-0.90698719 88:0.02602301 89:-0.93124878 90:0.057246719 91:-0.53207511 92:1.247389 93:0.0054757739 94:0.74849248 95:-0.87745529 96:0.36787239 97:0.35094309 98:-1.1249059 99:-0.90698719 100:-1.881449 101:0.69869518 102:0.290216 #
-0.27200456313441767619565325730946 1:-1.6023999 2:-0.55469412 3:-0.63518971 4:-0.95256001 5:-0.14586321 6:-0.26632169 7:0.02602301 8:-0.93124878 9:0.057246719 10:0.02602301 11:-0.93124878 12:0.057246719 13:-1.881449 14:0.69869518 15:0.290216 16:1.3906879 17:0.60724622 18:1.526247 19:0.02602301 20:-0.93124878 21:0.057246719 22:0.74849248 23:-0.87745529 24:0.36787239 25:-1.029012 26:-1.3615969 27:-0.8358022 28:0.85170239 29:-2.883954 30:0.1931455 31:1.176623 32:0.2091741 33:-0.046295181 34:0.92050898 35:0.93538678 36:0.7173264 37:-1.881449 38:0.69869518 39:0.290216 40:-1.697965 41:-0.90435201 42:-0.66754657 43:0.74849248 44:-0.87745529 45:0.36787239 46:0.35094309 47:-1.1249059 48:-0.90698719 49:0.85170239 50:-2.883954 51:0.1931455 52:0.85170239 53:-2.883954 54:0.1931455 55:1.176623 56:0.2091741 57:-0.046295181 58:-1.6023999 59:-0.55469412 60:-0.63518971 61:1.230139 62:0.77938551 63:0.54259938 64:0.02602301 65:-0.93124878 66:0.057246719 67:-0.53207511 68:1.247389 69:0.0054757739 70:0.85170239 71:-2.883954 72:0.1931455 73:-0.46709111 74:0.47276241 75:1.44212 76:0.35094309 77:-1.1249059 78:-0.90698719 79:1.176623 80:0.2091741 81:-0.046295181 82:0.35094309 83:-1.1249059 84:-0.90698719 85:0.35094309 86:-1.1249059 87:-0.90698719 88:-1.029012 89:-1.3615969 90:-0.8358022 91:1.3906879 92:0.60724622 93:1.526247 94:0.02602301 95:-0.93124878 96:0.057246719 97:0.35094309 98:-1.1249059 99:-0.90698719 100:-1.697965 101:-0.90435201 102:-0.66754657 #
-0.1678547860972602889795268765738 1:-1.029012 2:-1.3615969 3:-0.8358022 4:0.85170239 5:-2.883954 6:0.1931455 7:-0.95256001 8:-0.14586321 9:-0.26632169 10:0.35094309 11:-1.1249059 12:-0.90698719 13:-1.881449 14:0.69869518 15:0.290216 16:1.3906879 17:0.60724622 18:1.526247 19:-1.697965 20:-0.90435201 21:-0.66754657 22:0.74849248 23:-0.87745529 24:0.36787239 25:-1.029012 26:-1.3615969 27:-0.8358022 28:0.02602301 29:-0.93124878 30:0.057246719 31:1.176623 32:0.2091741 33:-0.046295181 34:0.85170239 35:-2.883954 36:0.1931455 37:1.230139 38:0.77938551 39:0.54259938 40:-1.881449 41:0.69869518 42:0.290216 43:-1.6023999 44:-0.55469412 45:-0.63518971 46:0.02602301 47:-0.93124878 48:0.057246719 49:0.2706688 50:-0.52241802 51:2.67168 52:0.85170239 53:-2.883954 54:0.1931455 55:1.176623 56:0.2091741 57:-0.046295181 58:1.176623 59:0.2091741 60:-0.046295181 61:1.230139 62:0.77938551 63:0.54259938 64:-1.697965 65:-0.90435201 66:-0.66754657 67:-0.53207511 68:1.247389 69:0.0054757739 70:0.85170239 71:-2.883954 72:0.1931455 73:-0.46709111 74:0.47276241 75:1.44212 76:0.35094309 77:-1.1249059 78:-0.90698719 79:1.176623 80:0.2091741 81:-0.046295181 82:0.02602301 83:-0.93124878 84:0.057246719 85:0.35094309 86:-1.1249059 87:-0.90698719 88:-1.697965 89:-0.90435201 90:-0.66754657 91:-0.53207511 92:1.247389 93:0.0054757739 94:0.02602301 95:-0.93124878 96:0.057246719 97:0.74849248 98:-0.87745529 99:0.36787239 100:1.100171 101:1.3549761 102:-2.2271459 #
-0.66620236227048634791714221137227 1:1.100171 2:1.3549761 3:-2.2271459 4:0.2706688 5:-0.52241802 6:2.67168 7:-0.95256001 8:-0.14586321 9:-0.26632169 10:0.02602301 11:-0.93124878 12:0.057246719 13:-1.881449 14:0.69869518 15:0.290216 16:1.3906879 17:0.60724622 18:1.526247 19:-1.029012 20:-1.3615969 21:-0.8358022 22:0.74849248 23:-0.87745529 24:0.36787239 25:-1.029012 26:-1.3615969 27:-0.8358022 28:-1.816465 29:1.9628429 30:0.54907078 31:1.176623 32:0.2091741 33:-0.046295181 34:-1.816465 35:1.9628429 36:0.54907078 37:0.92050898 38:0.93538678 39:0.7173264 40:-1.881449 41:0.69869518 42:0.290216 43:-1.881449 44:0.69869518 45:0.290216 46:0.74849248 47:-0.87745529 48:0.36787239 49:0.85170239 50:-2.883954 51:0.1931455 52:0.85170239 53:-2.883954 54:0.1931455 55:1.08488 56:0.75786811 57:-2.033005 58:0.92050898 59:0.93538678 60:0.7173264 61:1.230139 62:0.77938551 63:0.54259938 64:1.100171 65:1.3549761 66:-2.2271459 67:-0.53207511 68:1.247389 69:0.0054757739 70:0.85170239 71:-2.883954 72:0.1931455 73:-0.46709111 74:0.47276241 75:1.44212 76:0.35094309 77:-1.1249059 78:-0.90698719 79:1.176623 80:0.2091741 81:-0.046295181 82:0.35094309 83:-1.1249059 84:-0.90698719 85:0.02602301 86:-0.93124878 87:0.057246719 88:-1.697965 89:-0.90435201 90:-0.66754657 91:1.230139 92:0.77938551 93:0.54259938 94:-1.029012 95:-1.3615969 96:-0.8358022 97:0.35094309 98:-1.1249059 99:-0.90698719 100:0.92050898 101:0.93538678 102:0.7173264 #
-1.0171364803280646960104149911785 1:-1.6023999 2:-0.55469412 3:-0.63518971 4:0.74849248 5:-0.87745529 6:0.36787239 7:0.35094309 8:-1.1249059 9:-0.90698719 10:0.92050898 11:0.93538678 12:0.7173264 13:-1.881449 14:0.69869518 15:0.290216 16:1.3906879 17:0.60724622 18:1.526247 19:-1.881449 20:0.69869518 21:0.290216 22:0.74849248 23:-0.87745529 24:0.36787239 25:-1.029012 26:-1.3615969 27:-0.8358022 28:-1.816465 29:1.9628429 30:0.54907078 31:1.176623 32:0.2091741 33:-0.046295181 34:0.85170239 35:-2.883954 36:0.1931455 37:0.74849248 38:-0.87745529 39:0.36787239 40:0.83258939 41:0.28448501 42:-0.73873162 43:-1.029012 44:-1.3615969 45:-0.8358022 46:-1.6023999 47:-0.55469412 48:-0.63518971 49:0.85170239 50:-2.883954 51:0.1931455 52:0.85170239 53:-2.883954 54:0.1931455 55:1.176623 56:0.2091741 57:-0.046295181 58:-1.697965 59:-0.90435201 60:-0.66754657 61:1.230139 62:0.77938551 63:0.54259938 64:-0.95256001 65:-0.14586321 66:-0.26632169 67:-0.53207511 68:1.247389 69:0.0054757739 70:0.85170239 71:-2.883954 72:0.1931455 73:-1.697965 74:-0.90435201 75:-0.66754657 76:0.35094309 77:-1.1249059 78:-0.90698719 79:1.176623 80:0.2091741 81:-0.046295181 82:0.02602301 83:-0.93124878 84:0.057246719 85:0.35094309 86:-1.1249059 87:-0.90698719 88:-1.029012 89:-1.3615969 90:-0.8358022 91:0.92050898 92:0.93538678 93:0.7173264 94:0.35094309 95:-1.1249059 96:-0.90698719 97:0.35094309 98:-1.1249059 99:-0.90698719 100:-1.881449 101:0.69869518 102:0.290216 #
-0.18003477018034974577176399179734 1:-1.697965 2:-0.90435201 3:-0.66754657 4:1.176623 5:0.2091741 6:-0.046295181 7:0.02602301 8:-0.93124878 9:0.057246719 10:-0.53207511 11:1.247389 12:0.0054757739 13:-1.881449 14:0.69869518 15:0.290216 16:1.3906879 17:0.60724622 18:1.526247 19:0.85170239 20:-2.883954 21:0.1931455 22:0.85170239 23:-2.883954 24:0.1931455 25:-1.029012 26:-1.3615969 27:-0.8358022 28:-1.816465 29:1.9628429 30:0.54907078 31:1.176623 32:0.2091741 33:-0.046295181 34:-1.6023999 35:-0.55469412 36:-0.63518971 37:0.35094309 38:-1.1249059 39:-0.90698719 40:-1.6023999 41:-0.55469412 42:-0.63518971 43:0.85170239 44:-2.883954 45:0.1931455 46:-1.6023999 47:-0.55469412 48:-0.63518971 49:0.02602301 50:-0.93124878 51:0.057246719 52:0.85170239 53:-2.883954 54:0.1931455 55:1.3906879 56:0.60724622 57:1.526247 58:-1.881449 59:0.69869518 60:0.290216 61:1.230139 62:0.77938551 63:0.54259938 64:-1.697965 65:-0.90435201 66:-0.66754657 67:-0.53207511 68:1.247389 69:0.0054757739 70:0.85170239 71:-2.883954 72:0.1931455 73:-0.46709111 74:0.47276241 75:1.44212 76:0.74849248 77:-0.87745529 78:0.36787239 79:1.176623 80:0.2091741 81:-0.046295181 82:0.02602301 83:-0.93124878 84:0.057246719 85:0.35094309 86:-1.1249059 87:-0.90698719 88:-1.6023999 89:-0.55469412 90:-0.63518971 91:0.74849248 92:-0.87745529 93:0.36787239 94:-1.029012 95:-1.3615969 96:-0.8358022 97:0.02602301 98:-0.93124878 99:0.057246719 100:-1.6023999 101:-0.55469412 102:-0.63518971 #
-0.30812624840108787660497569049767 1:-1.881449 2:0.69869518 3:0.290216 4:0.02602301 5:-0.93124878 6:0.057246719 7:-0.95256001 8:-0.14586321 9:-0.26632169 10:0.35094309 11:-1.1249059 12:-0.90698719 13:-1.881449 14:0.69869518 15:0.290216 16:1.3906879 17:0.60724622 18:1.526247 19:-1.697965 20:-0.90435201 21:-0.66754657 22:0.74849248 23:-0.87745529 24:0.36787239 25:0.02602301 26:-0.93124878 27:0.057246719 28:-1.6023999 29:-0.55469412 30:-0.63518971 31:1.176623 32:0.2091741 33:-0.046295181 34:-1.6023999 35:-0.55469412 36:-0.63518971 37:0.83258939 38:0.28448501 39:-0.73873162 40:0.02602301 41:-0.93124878 42:0.057246719 43:-1.6023999 44:-0.55469412 45:-0.63518971 46:-1.029012 47:-1.3615969 48:-0.8358022 49:0.85170239 50:-2.883954 51:0.1931455 52:0.85170239 53:-2.883954 54:0.1931455 55:1.176623 56:0.2091741 57:-0.046295181 58:0.35094309 59:-1.1249059 60:-0.90698719 61:1.230139 62:0.77938551 63:0.54259938 64:-1.6023999 65:-0.55469412 66:-0.63518971 67:-0.53207511 68:1.247389 69:0.0054757739 70:0.85170239 71:-2.883954 72:0.1931455 73:-0.46709111 74:0.47276241 75:1.44212 76:0.35094309 77:-1.1249059 78:-0.90698719 79:1.176623 80:0.2091741 81:-0.046295181 82:0.35094309 83:-1.1249059 84:-0.90698719 85:0.35094309 86:-1.1249059 87:-0.90698719 88:-1.697965 89:-0.90435201 90:-0.66754657 91:-1.816465 92:1.9628429 93:0.54907078 94:0.74849248 95:-0.87745529 96:0.36787239 97:0.35094309 98:-1.1249059 99:-0.90698719 100:-1.881449 101:0.69869518 102:0.290216 #
-1.2826618218809984206529861694435 1:-1.6023999 2:-0.55469412 3:-0.63518971 4:0.74849248 5:-0.87745529 6:0.36787239 7:0.35094309 8:-1.1249059 9:-0.90698719 10:0.92050898 11:0.93538678 12:0.7173264 13:-1.881449 14:0.69869518 15:0.290216 16:1.3906879 17:0.60724622 18:1.526247 19:-1.881449 20:0.69869518 21:0.290216 22:0.74849248 23:-0.87745529 24:0.36787239 25:-1.029012 26:-1.3615969 27:-0.8358022 28:-1.816465 29:1.9628429 30:0.54907078 31:1.176623 32:0.2091741 33:-0.046295181 34:0.85170239 35:-2.883954 36:0.1931455 37:1.230139 38:0.77938551 39:0.54259938 40:0.83258939 41:0.28448501 42:-0.73873162 43:-1.029012 44:-1.3615969 45:-0.8358022 46:-1.881449 47:0.69869518 48:0.290216 49:0.85170239 50:-2.883954 51:0.1931455 52:0.85170239 53:-2.883954 54:0.1931455 55:1.176623 56:0.2091741 57:-0.046295181 58:-1.697965 59:-0.90435201 60:-0.66754657 61:1.230139 62:0.77938551 63:0.54259938 64:-0.95256001 65:-0.14586321 66:-0.26632169 67:-0.53207511 68:1.247389 69:0.0054757739 70:0.85170239 71:-2.883954 72:0.1931455 73:-1.697965 74:-0.90435201 75:-0.66754657 76:0.35094309 77:-1.1249059 78:-0.90698719 79:1.176623 80:0.2091741 81:-0.046295181 82:0.35094309 83:-1.1249059 84:-0.90698719 85:0.35094309 86:-1.1249059 87:-0.90698719 88:-1.029012 89:-1.3615969 90:-0.8358022 91:0.92050898 92:0.93538678 93:0.7173264 94:-1.029012 95:-1.3615969 96:-0.8358022 97:0.74849248 98:-0.87745529 99:0.36787239 100:-0.53207511 101:1.247389 102:0.0054757739 #
-0.2323433608406376693622519269411 1:-1.6023999 2:-0.55469412 3:-0.63518971 4:0.85170239 5:-2.883954 6:0.1931455 7:0.92050898 8:0.93538678 9:0.7173264 10:0.02602301 11:-0.93124878 12:0.057246719 13:-1.881449 14:0.69869518 15:0.290216 16:1.3906879 17:0.60724622 18:1.526247 19:0.02602301 20:-0.93124878 21:0.057246719 22:0.74849248 23:-0.87745529 24:0.36787239 25:-1.816465 26:1.9628429 27:0.54907078 28:1.3906879 29:0.60724622 30:1.526247 31:-0.46709111 32:0.47276241 33:1.44212 34:-1.816465 35:1.9628429 36:0.54907078 37:1.3906879 38:0.60724622 39:1.526247 40:-1.029012 41:-1.3615969 42:-0.8358022 43:-1.029012 44:-1.3615969 45:-0.8358022 46:-1.029012 47:-1.3615969 48:-0.8358022 49:0.85170239 50:-2.883954 51:0.1931455 52:0.85170239 53:-2.883954 54:0.1931455 55:1.176623 56:0.2091741 57:-0.046295181 58:-1.029012 59:-1.3615969 60:-0.8358022 61:1.230139 62:0.77938551 63:0.54259938 64:-1.6023999 65:-0.55469412 66:-0.63518971 67:-0.53207511 68:1.247389 69:0.0054757739 70:0.85170239 71:-2.883954 72:0.1931455 73:-0.46709111 74:0.47276241 75:1.44212 76:0.35094309 77:-1.1249059 78:-0.90698719 79:1.176623 80:0.2091741 81:-0.046295181 82:0.35094309 83:-1.1249059 84:-0.90698719 85:0.35094309 86:-1.1249059 87:-0.90698719 88:-1.029012 89:-1.3615969 90:-0.8358022 91:1.3906879 92:0.60724622 93:1.526247 94:0.02602301 95:-0.93124878 96:0.057246719 97:-0.53207511 98:1.247389 99:0.0054757739 100:-0.53207511 101:1.247389 102:0.0054757739 #
-0.5253654604248958470691377442563 1:1.230139 2:0.77938551 3:0.54259938 4:1.100171 5:1.3549761 6:-2.2271459 7:0.35094309 8:-1.1249059 9:-0.90698719 10:0.74849248 11:-0.87745529 12:0.36787239 13:-1.881449 14:0.69869518 15:0.290216 16:1.3906879 17:0.60724622 18:1.526247 19:0.02602301 20:-0.93124878 21:0.057246719 22:0.74849248 23:-0.87745529 24:0.36787239 25:-1.029012 26:-1.3615969 27:-0.8358022 28:-1.6023999 29:-0.55469412 30:-0.63518971 31:1.3906879 32:0.60724622 33:1.526247 34:-1.816465 35:1.9628429 36:0.54907078 37:-1.881449 38:0.69869518 39:0.290216 40:-1.881449 41:0.69869518 42:0.290216 43:-1.881449 44:0.69869518 45:0.290216 46:0.2706688 47:-0.52241802 48:2.67168 49:0.85170239 50:-2.883954 51:0.1931455 52:0.85170239 53:-2.883954 54:0.1931455 55:1.176623 56:0.2091741 57:-0.046295181 58:0.92050898 59:0.93538678 60:0.7173264 61:1.230139 62:0.77938551 63:0.54259938 64:-1.6023999 65:-0.55469412 66:-0.63518971 67:-0.53207511 68:1.247389 69:0.0054757739 70:0.85170239 71:-2.883954 72:0.1931455 73:-0.46709111 74:0.47276241 75:1.44212 76:0.35094309 77:-1.1249059 78:-0.90698719 79:1.176623 80:0.2091741 81:-0.046295181 82:0.35094309 83:-1.1249059 84:-0.90698719 85:0.74849248 86:-0.87745529 87:0.36787239 88:-1.029012 89:-1.3615969 90:-0.8358022 91:1.3906879 92:0.60724622 93:1.526247 94:0.02602301 95:-0.93124878 96:0.057246719 97:0.35094309 98:-1.1249059 99:-0.90698719 100:0.2706688 101:-0.52241802 102:2.67168 #
