SVM-light Version V6.02
2 # kernel type
3 # kernel parameter -d 
0.0094402711 # kernel parameter -g 
1 # kernel parameter -s 
1 # kernel parameter -r 
empty# kernel parameter -u 
102 # highest feature index 
608 # number of training documents 
43 # number of support vectors plus 1 
1.1802633 # threshold b, each following line is a SV (starting with alpha*y)
-0.13304999977519416098914462054381 1:-1.6023999 2:-0.55469412 3:-0.63518971 4:-0.95256001 5:-0.14586321 6:-0.26632169 7:0.02602301 8:-0.93124878 9:0.057246719 10:0.02602301 11:-0.93124878 12:0.057246719 13:-1.881449 14:0.69869518 15:0.290216 16:1.3906879 17:0.60724622 18:1.526247 19:0.02602301 20:-0.93124878 21:0.057246719 22:0.74849248 23:-0.87745529 24:0.36787239 25:-1.029012 26:-1.3615969 27:-0.8358022 28:0.85170239 29:-2.883954 30:0.1931455 31:1.176623 32:0.2091741 33:-0.046295181 34:0.92050898 35:0.93538678 36:0.7173264 37:-1.881449 38:0.69869518 39:0.290216 40:-1.697965 41:-0.90435201 42:-0.66754657 43:0.74849248 44:-0.87745529 45:0.36787239 46:0.35094309 47:-1.1249059 48:-0.90698719 49:0.85170239 50:-2.883954 51:0.1931455 52:0.85170239 53:-2.883954 54:0.1931455 55:1.176623 56:0.2091741 57:-0.046295181 58:-1.6023999 59:-0.55469412 60:-0.63518971 61:1.230139 62:0.77938551 63:0.54259938 64:0.02602301 65:-0.93124878 66:0.057246719 67:-0.53207511 68:1.247389 69:0.0054757739 70:0.85170239 71:-2.883954 72:0.1931455 73:-0.46709111 74:0.47276241 75:1.44212 76:0.35094309 77:-1.1249059 78:-0.90698719 79:1.176623 80:0.2091741 81:-0.046295181 82:0.35094309 83:-1.1249059 84:-0.90698719 85:0.35094309 86:-1.1249059 87:-0.90698719 88:-1.029012 89:-1.3615969 90:-0.8358022 91:1.3906879 92:0.60724622 93:1.526247 94:0.02602301 95:-0.93124878 96:0.057246719 97:0.35094309 98:-1.1249059 99:-0.90698719 100:-1.697965 101:-0.90435201 102:-0.66754657 #
1.7318232745294006580394352567964 1:0.74849248 2:-0.87745529 3:0.36787239 4:0.85170239 5:-2.883954 6:0.1931455 7:0.74849248 8:-0.87745529 9:0.36787239 10:-1.6023999 11:-0.55469412 12:-0.63518971 13:-1.881449 14:0.69869518 15:0.290216 16:-0.46709111 17:0.47276241 18:1.44212 19:-1.6023999 20:-0.55469412 21:-0.63518971 22:0.74849248 23:-0.87745529 24:0.36787239 25:0.74849248 26:-0.87745529 27:0.36787239 28:-0.46709111 29:0.47276241 30:1.44212 31:0.85170239 32:-2.883954 33:0.1931455 34:0.85170239 35:-2.883954 36:0.1931455 37:0.02602301 38:-0.93124878 39:0.057246719 40:-1.6023999 41:-0.55469412 42:-0.63518971 43:0.83258939 44:0.28448501 45:-0.73873162 46:-1.029012 47:-1.3615969 48:-0.8358022 49:0.85170239 50:-2.883954 51:0.1931455 52:0.85170239 53:-2.883954 54:0.1931455 55:0.02602301 56:-0.93124878 57:0.057246719 58:0.83258939 59:0.28448501 60:-0.73873162 61:0.83258939 62:0.28448501 63:-0.73873162 64:-1.029012 65:-1.3615969 66:-0.8358022 67:-0.53207511 68:1.247389 69:0.0054757739 70:0.85170239 71:-2.883954 72:0.1931455 73:-0.95256001 74:-0.14586321 75:-0.26632169 76:0.02602301 77:-0.93124878 78:0.057246719 79:1.176623 80:0.2091741 81:-0.046295181 82:0.85170239 83:-2.883954 84:0.1931455 85:-1.6023999 86:-0.55469412 87:-0.63518971 88:-1.029012 89:-1.3615969 90:-0.8358022 91:1.230139 92:0.77938551 93:0.54259938 94:-0.53207511 95:1.247389 96:0.0054757739 97:0.35094309 98:-1.1249059 99:-0.90698719 100:1.100171 101:1.3549761 102:-2.2271459 #
-0.15884808400953198681548883541836 1:-1.6023999 2:-0.55469412 3:-0.63518971 4:0.85170239 5:-2.883954 6:0.1931455 7:0.35094309 8:-1.1249059 9:-0.90698719 10:0.74849248 11:-0.87745529 12:0.36787239 13:-1.881449 14:0.69869518 15:0.290216 16:1.3906879 17:0.60724622 18:1.526247 19:-1.029012 20:-1.3615969 21:-0.8358022 22:0.74849248 23:-0.87745529 24:0.36787239 25:0.74849248 26:-0.87745529 27:0.36787239 28:-1.029012 29:-1.3615969 30:-0.8358022 31:1.176623 32:0.2091741 33:-0.046295181 34:0.85170239 35:-2.883954 36:0.1931455 37:-1.6023999 38:-0.55469412 39:-0.63518971 40:-1.6023999 41:-0.55469412 42:-0.63518971 43:-0.95256001 44:-0.14586321 45:-0.26632169 46:-1.029012 47:-1.3615969 48:-0.8358022 49:0.85170239 50:-2.883954 51:0.1931455 52:0.85170239 53:-2.883954 54:0.1931455 55:1.176623 56:0.2091741 57:-0.046295181 58:0.35094309 59:-1.1249059 60:-0.90698719 61:1.230139 62:0.77938551 63:0.54259938 64:0.02602301 65:-0.93124878 66:0.057246719 67:-0.53207511 68:1.247389 69:0.0054757739 70:0.85170239 71:-2.883954 72:0.1931455 73:-0.46709111 74:0.47276241 75:1.44212 76:0.35094309 77:-1.1249059 78:-0.90698719 79:1.176623 80:0.2091741 81:-0.046295181 82:0.2706688 83:-0.52241802 84:2.67168 85:0.74849248 86:-0.87745529 87:0.36787239 88:0.35094309 89:-1.1249059 90:-0.90698719 91:-0.95256001 92:-0.14586321 93:-0.26632169 94:-1.029012 95:-1.3615969 96:-0.8358022 97:0.35094309 98:-1.1249059 99:-0.90698719 100:1.100171 101:1.3549761 102:-2.2271459 #
-0.0037955685973665165278134736581706 1:-1.6023999 2:-0.55469412 3:-0.63518971 4:0.85170239 5:-2.883954 6:0.1931455 7:-1.6023999 8:-0.55469412 9:-0.63518971 10:0.02602301 11:-0.93124878 12:0.057246719 13:-1.881449 14:0.69869518 15:0.290216 16:1.3906879 17:0.60724622 18:1.526247 19:0.02602301 20:-0.93124878 21:0.057246719 22:0.74849248 23:-0.87745529 24:0.36787239 25:-1.029012 26:-1.3615969 27:-0.8358022 28:0.83258939 29:0.28448501 30:-0.73873162 31:0.83258939 32:0.28448501 33:-0.73873162 34:0.35094309 35:-1.1249059 36:-0.90698719 37:1.3906879 38:0.60724622 39:1.526247 40:0.85170239 41:-2.883954 42:0.1931455 43:-1.6023999 44:-0.55469412 45:-0.63518971 46:-1.029012 47:-1.3615969 48:-0.8358022 49:0.85170239 50:-2.883954 51:0.1931455 52:0.85170239 53:-2.883954 54:0.1931455 55:1.176623 56:0.2091741 57:-0.046295181 58:0.35094309 59:-1.1249059 60:-0.90698719 61:1.230139 62:0.77938551 63:0.54259938 64:-1.029012 65:-1.3615969 66:-0.8358022 67:-0.53207511 68:1.247389 69:0.0054757739 70:0.85170239 71:-2.883954 72:0.1931455 73:-0.46709111 74:0.47276241 75:1.44212 76:0.35094309 77:-1.1249059 78:-0.90698719 79:1.176623 80:0.2091741 81:-0.046295181 82:0.35094309 83:-1.1249059 84:-0.90698719 85:0.2706688 86:-0.52241802 87:2.67168 88:-1.029012 89:-1.3615969 90:-0.8358022 91:1.3906879 92:0.60724622 93:1.526247 94:0.02602301 95:-0.93124878 96:0.057246719 97:0.74849248 98:-0.87745529 99:0.36787239 100:0.74849248 101:-0.87745529 102:0.36787239 #
10 1:0.74849248 2:-0.87745529 3:0.36787239 4:1.08488 5:0.75786811 6:-2.033005 7:0.74849248 8:-0.87745529 9:0.36787239 10:-1.6023999 11:-0.55469412 12:-0.63518971 13:-1.881449 14:0.69869518 15:0.290216 16:0.35094309 17:-1.1249059 18:-0.90698719 19:-0.95256001 20:-0.14586321 21:-0.26632169 22:0.74849248 23:-0.87745529 24:0.36787239 25:0.74849248 26:-0.87745529 27:0.36787239 28:-0.46709111 29:0.47276241 30:1.44212 31:0.85170239 32:-2.883954 33:0.1931455 34:0.85170239 35:-2.883954 36:0.1931455 37:0.74849248 38:-0.87745529 39:0.36787239 40:-1.6023999 41:-0.55469412 42:-0.63518971 43:0.83258939 44:0.28448501 45:-0.73873162 46:-1.029012 47:-1.3615969 48:-0.8358022 49:0.85170239 50:-2.883954 51:0.1931455 52:0.85170239 53:-2.883954 54:0.1931455 55:0.02602301 56:-0.93124878 57:0.057246719 58:0.83258939 59:0.28448501 60:-0.73873162 61:0.83258939 62:0.28448501 63:-0.73873162 64:-1.029012 65:-1.3615969 66:-0.8358022 67:-1.881449 68:0.69869518 69:0.290216 70:0.85170239 71:-2.883954 72:0.1931455 73:-0.95256001 74:-0.14586321 75:-0.26632169 76:0.02602301 77:-0.93124878 78:0.057246719 79:1.176623 80:0.2091741 81:-0.046295181 82:0.85170239 83:-2.883954 84:0.1931455 85:-1.6023999 86:-0.55469412 87:-0.63518971 88:-1.029012 89:-1.3615969 90:-0.8358022 91:1.230139 92:0.77938551 93:0.54259938 94:-0.53207511 95:1.247389 96:0.0054757739 97:0.35094309 98:-1.1249059 99:-0.90698719 100:1.100171 101:1.3549761 102:-2.2271459 #
1.5842052820068475149639652954647 1:0.74849248 2:-0.87745529 3:0.36787239 4:0.02602301 5:-0.93124878 6:0.057246719 7:0.74849248 8:-0.87745529 9:0.36787239 10:-1.6023999 11:-0.55469412 12:-0.63518971 13:-0.53207511 14:1.247389 15:0.0054757739 16:-0.46709111 17:0.47276241 18:1.44212 19:-0.95256001 20:-0.14586321 21:-0.26632169 22:0.74849248 23:-0.87745529 24:0.36787239 25:0.74849248 26:-0.87745529 27:0.36787239 28:-0.46709111 29:0.47276241 30:1.44212 31:0.02602301 32:-0.93124878 33:0.057246719 34:0.74849248 35:-0.87745529 36:0.36787239 37:0.02602301 38:-0.93124878 39:0.057246719 40:-1.6023999 41:-0.55469412 42:-0.63518971 43:0.83258939 44:0.28448501 45:-0.73873162 46:-1.029012 47:-1.3615969 48:-0.8358022 49:0.85170239 50:-2.883954 51:0.1931455 52:0.85170239 53:-2.883954 54:0.1931455 55:0.02602301 56:-0.93124878 57:0.057246719 58:0.83258939 59:0.28448501 60:-0.73873162 61:0.83258939 62:0.28448501 63:-0.73873162 64:-1.029012 65:-1.3615969 66:-0.8358022 67:-1.881449 68:0.69869518 69:0.290216 70:0.85170239 71:-2.883954 72:0.1931455 73:-0.95256001 74:-0.14586321 75:-0.26632169 76:0.02602301 77:-0.93124878 78:0.057246719 79:1.176623 80:0.2091741 81:-0.046295181 82:0.85170239 83:-2.883954 84:0.1931455 85:-1.6023999 86:-0.55469412 87:-0.63518971 88:-1.029012 89:-1.3615969 90:-0.8358022 91:1.230139 92:0.77938551 93:0.54259938 94:-0.53207511 95:1.247389 96:0.0054757739 97:0.35094309 98:-1.1249059 99:-0.90698719 100:1.100171 101:1.3549761 102:-2.2271459 #
10 1:0.74849248 2:-0.87745529 3:0.36787239 4:1.100171 5:1.3549761 6:-2.2271459 7:0.74849248 8:-0.87745529 9:0.36787239 10:-1.6023999 11:-0.55469412 12:-0.63518971 13:-0.53207511 14:1.247389 15:0.0054757739 16:-0.46709111 17:0.47276241 18:1.44212 19:-1.6023999 20:-0.55469412 21:-0.63518971 22:0.74849248 23:-0.87745529 24:0.36787239 25:0.74849248 26:-0.87745529 27:0.36787239 28:-0.46709111 29:0.47276241 30:1.44212 31:0.85170239 32:-2.883954 33:0.1931455 34:0.85170239 35:-2.883954 36:0.1931455 37:0.02602301 38:-0.93124878 39:0.057246719 40:-1.6023999 41:-0.55469412 42:-0.63518971 43:0.83258939 44:0.28448501 45:-0.73873162 46:-1.029012 47:-1.3615969 48:-0.8358022 49:0.85170239 50:-2.883954 51:0.1931455 52:0.85170239 53:-2.883954 54:0.1931455 55:0.02602301 56:-0.93124878 57:0.057246719 58:0.83258939 59:0.28448501 60:-0.73873162 61:0.83258939 62:0.28448501 63:-0.73873162 64:-1.029012 65:-1.3615969 66:-0.8358022 67:-1.881449 68:0.69869518 69:0.290216 70:0.85170239 71:-2.883954 72:0.1931455 73:-0.95256001 74:-0.14586321 75:-0.26632169 76:0.02602301 77:-0.93124878 78:0.057246719 79:1.176623 80:0.2091741 81:-0.046295181 82:0.85170239 83:-2.883954 84:0.1931455 85:-1.6023999 86:-0.55469412 87:-0.63518971 88:-1.029012 89:-1.3615969 90:-0.8358022 91:1.230139 92:0.77938551 93:0.54259938 94:-0.53207511 95:1.247389 96:0.0054757739 97:0.35094309 98:-1.1249059 99:-0.90698719 100:1.100171 101:1.3549761 102:-2.2271459 #
10 1:1.230139 2:0.77938551 3:0.54259938 4:0.02602301 5:-0.93124878 6:0.057246719 7:0.74849248 8:-0.87745529 9:0.36787239 10:-1.6023999 11:-0.55469412 12:-0.63518971 13:-1.881449 14:0.69869518 15:0.290216 16:0.35094309 17:-1.1249059 18:-0.90698719 19:-1.6023999 20:-0.55469412 21:-0.63518971 22:0.2706688 23:-0.52241802 24:2.67168 25:0.2706688 26:-0.52241802 27:2.67168 28:-0.46709111 29:0.47276241 30:1.44212 31:0.85170239 32:-2.883954 33:0.1931455 34:0.85170239 35:-2.883954 36:0.1931455 37:0.02602301 38:-0.93124878 39:0.057246719 40:-1.6023999 41:-0.55469412 42:-0.63518971 43:0.83258939 44:0.28448501 45:-0.73873162 46:-1.029012 47:-1.3615969 48:-0.8358022 49:0.85170239 50:-2.883954 51:0.1931455 52:0.85170239 53:-2.883954 54:0.1931455 55:0.74849248 56:-0.87745529 57:0.36787239 58:0.83258939 59:0.28448501 60:-0.73873162 61:0.83258939 62:0.28448501 63:-0.73873162 64:-1.029012 65:-1.3615969 66:-0.8358022 67:-1.6023999 68:-0.55469412 69:-0.63518971 70:0.85170239 71:-2.883954 72:0.1931455 73:-0.95256001 74:-0.14586321 75:-0.26632169 76:0.02602301 77:-0.93124878 78:0.057246719 79:1.176623 80:0.2091741 81:-0.046295181 82:0.85170239 83:-2.883954 84:0.1931455 85:-1.6023999 86:-0.55469412 87:-0.63518971 88:-1.697965 89:-0.90435201 90:-0.66754657 91:0.2706688 92:-0.52241802 93:2.67168 94:-0.53207511 95:1.247389 96:0.0054757739 97:0.35094309 98:-1.1249059 99:-0.90698719 100:1.100171 101:1.3549761 102:-2.2271459 #
-10 1:0.74849248 2:-0.87745529 3:0.36787239 4:1.100171 5:1.3549761 6:-2.2271459 7:0.74849248 8:-0.87745529 9:0.36787239 10:-1.6023999 11:-0.55469412 12:-0.63518971 13:-0.53207511 14:1.247389 15:0.0054757739 16:-0.46709111 17:0.47276241 18:1.44212 19:-1.6023999 20:-0.55469412 21:-0.63518971 22:0.74849248 23:-0.87745529 24:0.36787239 25:0.74849248 26:-0.87745529 27:0.36787239 28:-0.46709111 29:0.47276241 30:1.44212 31:0.85170239 32:-2.883954 33:0.1931455 34:0.85170239 35:-2.883954 36:0.1931455 37:0.02602301 38:-0.93124878 39:0.057246719 40:-1.6023999 41:-0.55469412 42:-0.63518971 43:0.83258939 44:0.28448501 45:-0.73873162 46:-1.029012 47:-1.3615969 48:-0.8358022 49:0.85170239 50:-2.883954 51:0.1931455 52:0.85170239 53:-2.883954 54:0.1931455 55:0.02602301 56:-0.93124878 57:0.057246719 58:0.83258939 59:0.28448501 60:-0.73873162 61:0.83258939 62:0.28448501 63:-0.73873162 64:-1.029012 65:-1.3615969 66:-0.8358022 67:-1.881449 68:0.69869518 69:0.290216 70:0.85170239 71:-2.883954 72:0.1931455 73:-0.95256001 74:-0.14586321 75:-0.26632169 76:0.02602301 77:-0.93124878 78:0.057246719 79:1.176623 80:0.2091741 81:-0.046295181 82:0.85170239 83:-2.883954 84:0.1931455 85:-1.6023999 86:-0.55469412 87:-0.63518971 88:-1.029012 89:-1.3615969 90:-0.8358022 91:1.230139 92:0.77938551 93:0.54259938 94:-0.53207511 95:1.247389 96:0.0054757739 97:0.35094309 98:-1.1249059 99:-0.90698719 100:1.100171 101:1.3549761 102:-2.2271459 #
-10 1:1.230139 2:0.77938551 3:0.54259938 4:0.02602301 5:-0.93124878 6:0.057246719 7:0.74849248 8:-0.87745529 9:0.36787239 10:-1.6023999 11:-0.55469412 12:-0.63518971 13:-1.881449 14:0.69869518 15:0.290216 16:0.35094309 17:-1.1249059 18:-0.90698719 19:-1.6023999 20:-0.55469412 21:-0.63518971 22:0.2706688 23:-0.52241802 24:2.67168 25:0.2706688 26:-0.52241802 27:2.67168 28:-0.46709111 29:0.47276241 30:1.44212 31:0.85170239 32:-2.883954 33:0.1931455 34:0.85170239 35:-2.883954 36:0.1931455 37:0.02602301 38:-0.93124878 39:0.057246719 40:-1.6023999 41:-0.55469412 42:-0.63518971 43:0.83258939 44:0.28448501 45:-0.73873162 46:-1.029012 47:-1.3615969 48:-0.8358022 49:0.85170239 50:-2.883954 51:0.1931455 52:0.85170239 53:-2.883954 54:0.1931455 55:0.74849248 56:-0.87745529 57:0.36787239 58:0.83258939 59:0.28448501 60:-0.73873162 61:0.83258939 62:0.28448501 63:-0.73873162 64:-1.029012 65:-1.3615969 66:-0.8358022 67:-1.6023999 68:-0.55469412 69:-0.63518971 70:0.85170239 71:-2.883954 72:0.1931455 73:-0.95256001 74:-0.14586321 75:-0.26632169 76:0.02602301 77:-0.93124878 78:0.057246719 79:1.176623 80:0.2091741 81:-0.046295181 82:0.85170239 83:-2.883954 84:0.1931455 85:-1.6023999 86:-0.55469412 87:-0.63518971 88:-1.697965 89:-0.90435201 90:-0.66754657 91:0.2706688 92:-0.52241802 93:2.67168 94:-0.53207511 95:1.247389 96:0.0054757739 97:0.35094309 98:-1.1249059 99:-0.90698719 100:1.100171 101:1.3549761 102:-2.2271459 #
-7.603607606178716338263257057406 1:1.230139 2:0.77938551 3:0.54259938 4:0.02602301 5:-0.93124878 6:0.057246719 7:0.74849248 8:-0.87745529 9:0.36787239 10:-1.6023999 11:-0.55469412 12:-0.63518971 13:-1.881449 14:0.69869518 15:0.290216 16:-0.46709111 17:0.47276241 18:1.44212 19:-1.6023999 20:-0.55469412 21:-0.63518971 22:0.02602301 23:-0.93124878 24:0.057246719 25:0.2706688 26:-0.52241802 27:2.67168 28:-0.46709111 29:0.47276241 30:1.44212 31:0.85170239 32:-2.883954 33:0.1931455 34:0.85170239 35:-2.883954 36:0.1931455 37:0.02602301 38:-0.93124878 39:0.057246719 40:-1.6023999 41:-0.55469412 42:-0.63518971 43:0.83258939 44:0.28448501 45:-0.73873162 46:-1.029012 47:-1.3615969 48:-0.8358022 49:0.85170239 50:-2.883954 51:0.1931455 52:0.85170239 53:-2.883954 54:0.1931455 55:0.74849248 56:-0.87745529 57:0.36787239 58:0.83258939 59:0.28448501 60:-0.73873162 61:0.83258939 62:0.28448501 63:-0.73873162 64:-1.029012 65:-1.3615969 66:-0.8358022 67:-1.881449 68:0.69869518 69:0.290216 70:0.85170239 71:-2.883954 72:0.1931455 73:-0.95256001 74:-0.14586321 75:-0.26632169 76:0.02602301 77:-0.93124878 78:0.057246719 79:1.176623 80:0.2091741 81:-0.046295181 82:0.85170239 83:-2.883954 84:0.1931455 85:-1.6023999 86:-0.55469412 87:-0.63518971 88:-1.6023999 89:-0.55469412 90:-0.63518971 91:1.230139 92:0.77938551 93:0.54259938 94:-1.881449 95:0.69869518 96:0.290216 97:0.35094309 98:-1.1249059 99:-0.90698719 100:1.100171 101:1.3549761 102:-2.2271459 #
1.5961107988581917371817553430446 1:0.74849248 2:-0.87745529 3:0.36787239 4:1.176623 5:0.2091741 6:-0.046295181 7:0.74849248 8:-0.87745529 9:0.36787239 10:-1.6023999 11:-0.55469412 12:-0.63518971 13:-1.881449 14:0.69869518 15:0.290216 16:0.74849248 17:-0.87745529 18:0.36787239 19:-0.95256001 20:-0.14586321 21:-0.26632169 22:0.74849248 23:-0.87745529 24:0.36787239 25:0.74849248 26:-0.87745529 27:0.36787239 28:0.02602301 29:-0.93124878 30:0.057246719 31:0.85170239 32:-2.883954 33:0.1931455 34:0.85170239 35:-2.883954 36:0.1931455 37:0.2706688 38:-0.52241802 39:2.67168 40:-1.6023999 41:-0.55469412 42:-0.63518971 43:0.83258939 44:0.28448501 45:-0.73873162 46:-1.029012 47:-1.3615969 48:-0.8358022 49:0.85170239 50:-2.883954 51:0.1931455 52:0.85170239 53:-2.883954 54:0.1931455 55:0.02602301 56:-0.93124878 57:0.057246719 58:0.83258939 59:0.28448501 60:-0.73873162 61:0.83258939 62:0.28448501 63:-0.73873162 64:-1.029012 65:-1.3615969 66:-0.8358022 67:-1.881449 68:0.69869518 69:0.290216 70:0.85170239 71:-2.883954 72:0.1931455 73:-0.95256001 74:-0.14586321 75:-0.26632169 76:0.02602301 77:-0.93124878 78:0.057246719 79:1.176623 80:0.2091741 81:-0.046295181 82:0.85170239 83:-2.883954 84:0.1931455 85:-1.6023999 86:-0.55469412 87:-0.63518971 88:-1.029012 89:-1.3615969 90:-0.8358022 91:1.230139 92:0.77938551 93:0.54259938 94:-0.53207511 95:1.247389 96:0.0054757739 97:0.35094309 98:-1.1249059 99:-0.90698719 100:1.100171 101:1.3549761 102:-2.2271459 #
10 1:1.230139 2:0.77938551 3:0.54259938 4:0.02602301 5:-0.93124878 6:0.057246719 7:0.74849248 8:-0.87745529 9:0.36787239 10:-1.6023999 11:-0.55469412 12:-0.63518971 13:-1.881449 14:0.69869518 15:0.290216 16:-0.46709111 17:0.47276241 18:1.44212 19:-1.6023999 20:-0.55469412 21:-0.63518971 22:0.02602301 23:-0.93124878 24:0.057246719 25:0.2706688 26:-0.52241802 27:2.67168 28:-0.46709111 29:0.47276241 30:1.44212 31:0.85170239 32:-2.883954 33:0.1931455 34:0.85170239 35:-2.883954 36:0.1931455 37:0.02602301 38:-0.93124878 39:0.057246719 40:-1.6023999 41:-0.55469412 42:-0.63518971 43:0.83258939 44:0.28448501 45:-0.73873162 46:0.02602301 47:-0.93124878 48:0.057246719 49:0.85170239 50:-2.883954 51:0.1931455 52:0.85170239 53:-2.883954 54:0.1931455 55:0.02602301 56:-0.93124878 57:0.057246719 58:0.83258939 59:0.28448501 60:-0.73873162 61:0.83258939 62:0.28448501 63:-0.73873162 64:-1.029012 65:-1.3615969 66:-0.8358022 67:-1.881449 68:0.69869518 69:0.290216 70:0.85170239 71:-2.883954 72:0.1931455 73:-0.95256001 74:-0.14586321 75:-0.26632169 76:0.02602301 77:-0.93124878 78:0.057246719 79:1.176623 80:0.2091741 81:-0.046295181 82:0.85170239 83:-2.883954 84:0.1931455 85:-1.6023999 86:-0.55469412 87:-0.63518971 88:-1.6023999 89:-0.55469412 90:-0.63518971 91:0.2706688 92:-0.52241802 93:2.67168 94:-1.881449 95:0.69869518 96:0.290216 97:0.35094309 98:-1.1249059 99:-0.90698719 100:1.100171 101:1.3549761 102:-2.2271459 #
-10 1:0.74849248 2:-0.87745529 3:0.36787239 4:1.08488 5:0.75786811 6:-2.033005 7:0.74849248 8:-0.87745529 9:0.36787239 10:-1.6023999 11:-0.55469412 12:-0.63518971 13:-1.881449 14:0.69869518 15:0.290216 16:0.35094309 17:-1.1249059 18:-0.90698719 19:-0.95256001 20:-0.14586321 21:-0.26632169 22:0.74849248 23:-0.87745529 24:0.36787239 25:0.74849248 26:-0.87745529 27:0.36787239 28:-0.46709111 29:0.47276241 30:1.44212 31:0.85170239 32:-2.883954 33:0.1931455 34:0.85170239 35:-2.883954 36:0.1931455 37:0.74849248 38:-0.87745529 39:0.36787239 40:-1.6023999 41:-0.55469412 42:-0.63518971 43:0.83258939 44:0.28448501 45:-0.73873162 46:-1.029012 47:-1.3615969 48:-0.8358022 49:0.85170239 50:-2.883954 51:0.1931455 52:0.85170239 53:-2.883954 54:0.1931455 55:0.02602301 56:-0.93124878 57:0.057246719 58:0.83258939 59:0.28448501 60:-0.73873162 61:0.83258939 62:0.28448501 63:-0.73873162 64:-1.029012 65:-1.3615969 66:-0.8358022 67:-1.881449 68:0.69869518 69:0.290216 70:0.85170239 71:-2.883954 72:0.1931455 73:-0.95256001 74:-0.14586321 75:-0.26632169 76:0.02602301 77:-0.93124878 78:0.057246719 79:1.176623 80:0.2091741 81:-0.046295181 82:0.85170239 83:-2.883954 84:0.1931455 85:-1.6023999 86:-0.55469412 87:-0.63518971 88:-1.029012 89:-1.3615969 90:-0.8358022 91:1.230139 92:0.77938551 93:0.54259938 94:-0.53207511 95:1.247389 96:0.0054757739 97:0.35094309 98:-1.1249059 99:-0.90698719 100:1.100171 101:1.3549761 102:-2.2271459 #
-10 1:1.230139 2:0.77938551 3:0.54259938 4:0.02602301 5:-0.93124878 6:0.057246719 7:0.74849248 8:-0.87745529 9:0.36787239 10:-1.6023999 11:-0.55469412 12:-0.63518971 13:-1.881449 14:0.69869518 15:0.290216 16:-0.46709111 17:0.47276241 18:1.44212 19:-1.6023999 20:-0.55469412 21:-0.63518971 22:0.02602301 23:-0.93124878 24:0.057246719 25:0.2706688 26:-0.52241802 27:2.67168 28:-0.46709111 29:0.47276241 30:1.44212 31:0.85170239 32:-2.883954 33:0.1931455 34:0.85170239 35:-2.883954 36:0.1931455 37:0.02602301 38:-0.93124878 39:0.057246719 40:-1.6023999 41:-0.55469412 42:-0.63518971 43:0.83258939 44:0.28448501 45:-0.73873162 46:0.02602301 47:-0.93124878 48:0.057246719 49:0.85170239 50:-2.883954 51:0.1931455 52:0.85170239 53:-2.883954 54:0.1931455 55:0.02602301 56:-0.93124878 57:0.057246719 58:0.83258939 59:0.28448501 60:-0.73873162 61:0.83258939 62:0.28448501 63:-0.73873162 64:-1.029012 65:-1.3615969 66:-0.8358022 67:-1.881449 68:0.69869518 69:0.290216 70:0.85170239 71:-2.883954 72:0.1931455 73:-0.95256001 74:-0.14586321 75:-0.26632169 76:0.02602301 77:-0.93124878 78:0.057246719 79:1.176623 80:0.2091741 81:-0.046295181 82:0.85170239 83:-2.883954 84:0.1931455 85:-1.6023999 86:-0.55469412 87:-0.63518971 88:-1.6023999 89:-0.55469412 90:-0.63518971 91:0.2706688 92:-0.52241802 93:2.67168 94:-1.881449 95:0.69869518 96:0.290216 97:0.35094309 98:-1.1249059 99:-0.90698719 100:1.100171 101:1.3549761 102:-2.2271459 #
-10 1:0.74849248 2:-0.87745529 3:0.36787239 4:1.100171 5:1.3549761 6:-2.2271459 7:0.74849248 8:-0.87745529 9:0.36787239 10:-1.697965 11:-0.90435201 12:-0.66754657 13:-0.53207511 14:1.247389 15:0.0054757739 16:0.02602301 17:-0.93124878 18:0.057246719 19:-0.95256001 20:-0.14586321 21:-0.26632169 22:0.74849248 23:-0.87745529 24:0.36787239 25:0.74849248 26:-0.87745529 27:0.36787239 28:-0.46709111 29:0.47276241 30:1.44212 31:0.85170239 32:-2.883954 33:0.1931455 34:0.85170239 35:-2.883954 36:0.1931455 37:0.02602301 38:-0.93124878 39:0.057246719 40:-1.6023999 41:-0.55469412 42:-0.63518971 43:0.83258939 44:0.28448501 45:-0.73873162 46:-1.029012 47:-1.3615969 48:-0.8358022 49:0.85170239 50:-2.883954 51:0.1931455 52:0.85170239 53:-2.883954 54:0.1931455 55:0.02602301 56:-0.93124878 57:0.057246719 58:0.83258939 59:0.28448501 60:-0.73873162 61:0.83258939 62:0.28448501 63:-0.73873162 64:-1.029012 65:-1.3615969 66:-0.8358022 67:-1.881449 68:0.69869518 69:0.290216 70:0.85170239 71:-2.883954 72:0.1931455 73:-0.95256001 74:-0.14586321 75:-0.26632169 76:0.02602301 77:-0.93124878 78:0.057246719 79:1.176623 80:0.2091741 81:-0.046295181 82:0.85170239 83:-2.883954 84:0.1931455 85:-1.6023999 86:-0.55469412 87:-0.63518971 88:-1.029012 89:-1.3615969 90:-0.8358022 91:1.230139 92:0.77938551 93:0.54259938 94:-0.53207511 95:1.247389 96:0.0054757739 97:0.35094309 98:-1.1249059 99:-0.90698719 100:1.100171 101:1.3549761 102:-2.2271459 #
0.82311865928604399655910128785763 1:0.74849248 2:-0.87745529 3:0.36787239 4:-1.029012 5:-1.3615969 6:-0.8358022 7:0.74849248 8:-0.87745529 9:0.36787239 10:-1.6023999 11:-0.55469412 12:-0.63518971 13:-0.53207511 14:1.247389 15:0.0054757739 16:-0.46709111 17:0.47276241 18:1.44212 19:-0.95256001 20:-0.14586321 21:-0.26632169 22:0.74849248 23:-0.87745529 24:0.36787239 25:0.74849248 26:-0.87745529 27:0.36787239 28:-0.46709111 29:0.47276241 30:1.44212 31:0.85170239 32:-2.883954 33:0.1931455 34:0.85170239 35:-2.883954 36:0.1931455 37:0.02602301 38:-0.93124878 39:0.057246719 40:-1.6023999 41:-0.55469412 42:-0.63518971 43:0.83258939 44:0.28448501 45:-0.73873162 46:-1.029012 47:-1.3615969 48:-0.8358022 49:0.85170239 50:-2.883954 51:0.1931455 52:0.85170239 53:-2.883954 54:0.1931455 55:0.02602301 56:-0.93124878 57:0.057246719 58:0.83258939 59:0.28448501 60:-0.73873162 61:0.83258939 62:0.28448501 63:-0.73873162 64:-1.029012 65:-1.3615969 66:-0.8358022 67:-1.881449 68:0.69869518 69:0.290216 70:0.85170239 71:-2.883954 72:0.1931455 73:-0.95256001 74:-0.14586321 75:-0.26632169 76:0.02602301 77:-0.93124878 78:0.057246719 79:1.176623 80:0.2091741 81:-0.046295181 82:0.85170239 83:-2.883954 84:0.1931455 85:-1.6023999 86:-0.55469412 87:-0.63518971 88:-1.029012 89:-1.3615969 90:-0.8358022 91:1.230139 92:0.77938551 93:0.54259938 94:-0.53207511 95:1.247389 96:0.0054757739 97:0.35094309 98:-1.1249059 99:-0.90698719 100:1.100171 101:1.3549761 102:-2.2271459 #
-0.1410165476831837239046762988437 1:-1.6023999 2:-0.55469412 3:-0.63518971 4:0.02602301 5:-0.93124878 6:0.057246719 7:-1.6023999 8:-0.55469412 9:-0.63518971 10:0.74849248 11:-0.87745529 12:0.36787239 13:-1.881449 14:0.69869518 15:0.290216 16:1.3906879 17:0.60724622 18:1.526247 19:-1.881449 20:0.69869518 21:0.290216 22:0.74849248 23:-0.87745529 24:0.36787239 25:-1.029012 26:-1.3615969 27:-0.8358022 28:1.176623 29:0.2091741 30:-0.046295181 31:0.83258939 32:0.28448501 33:-0.73873162 34:-1.6023999 35:-0.55469412 36:-0.63518971 37:0.74849248 38:-0.87745529 39:0.36787239 40:0.85170239 41:-2.883954 42:0.1931455 43:0.35094309 44:-1.1249059 45:-0.90698719 46:0.02602301 47:-0.93124878 48:0.057246719 49:0.02602301 50:-0.93124878 51:0.057246719 52:0.85170239 53:-2.883954 54:0.1931455 55:1.176623 56:0.2091741 57:-0.046295181 58:-0.53207511 59:1.247389 60:0.0054757739 61:1.230139 62:0.77938551 63:0.54259938 64:0.02602301 65:-0.93124878 66:0.057246719 67:-0.53207511 68:1.247389 69:0.0054757739 70:0.85170239 71:-2.883954 72:0.1931455 73:-1.029012 74:-1.3615969 75:-0.8358022 76:0.35094309 77:-1.1249059 78:-0.90698719 79:1.176623 80:0.2091741 81:-0.046295181 82:0.35094309 83:-1.1249059 84:-0.90698719 85:0.35094309 86:-1.1249059 87:-0.90698719 88:-1.029012 89:-1.3615969 90:-0.8358022 91:-0.53207511 92:1.247389 93:0.0054757739 94:1.230139 95:0.77938551 96:0.54259938 97:-1.697965 98:-0.90435201 99:-0.66754657 100:-1.697965 101:-0.90435201 102:-0.66754657 #
10 1:0.74849248 2:-0.87745529 3:0.36787239 4:1.100171 5:1.3549761 6:-2.2271459 7:0.74849248 8:-0.87745529 9:0.36787239 10:-1.697965 11:-0.90435201 12:-0.66754657 13:-0.53207511 14:1.247389 15:0.0054757739 16:0.02602301 17:-0.93124878 18:0.057246719 19:-0.95256001 20:-0.14586321 21:-0.26632169 22:0.74849248 23:-0.87745529 24:0.36787239 25:0.74849248 26:-0.87745529 27:0.36787239 28:-0.46709111 29:0.47276241 30:1.44212 31:0.85170239 32:-2.883954 33:0.1931455 34:0.85170239 35:-2.883954 36:0.1931455 37:0.02602301 38:-0.93124878 39:0.057246719 40:-1.6023999 41:-0.55469412 42:-0.63518971 43:0.83258939 44:0.28448501 45:-0.73873162 46:-1.029012 47:-1.3615969 48:-0.8358022 49:0.85170239 50:-2.883954 51:0.1931455 52:0.85170239 53:-2.883954 54:0.1931455 55:0.02602301 56:-0.93124878 57:0.057246719 58:0.83258939 59:0.28448501 60:-0.73873162 61:0.83258939 62:0.28448501 63:-0.73873162 64:-1.029012 65:-1.3615969 66:-0.8358022 67:-1.881449 68:0.69869518 69:0.290216 70:0.85170239 71:-2.883954 72:0.1931455 73:-0.95256001 74:-0.14586321 75:-0.26632169 76:0.02602301 77:-0.93124878 78:0.057246719 79:1.176623 80:0.2091741 81:-0.046295181 82:0.85170239 83:-2.883954 84:0.1931455 85:-1.6023999 86:-0.55469412 87:-0.63518971 88:-1.029012 89:-1.3615969 90:-0.8358022 91:1.230139 92:0.77938551 93:0.54259938 94:-0.53207511 95:1.247389 96:0.0054757739 97:0.35094309 98:-1.1249059 99:-0.90698719 100:1.100171 101:1.3549761 102:-2.2271459 #
-0.36584249817091646361788548347249 1:-1.029012 2:-1.3615969 3:-0.8358022 4:0.85170239 5:-2.883954 6:0.1931455 7:-0.95256001 8:-0.14586321 9:-0.26632169 10:0.35094309 11:-1.1249059 12:-0.90698719 13:-1.881449 14:0.69869518 15:0.290216 16:1.3906879 17:0.60724622 18:1.526247 19:-1.697965 20:-0.90435201 21:-0.66754657 22:0.74849248 23:-0.87745529 24:0.36787239 25:-1.029012 26:-1.3615969 27:-0.8358022 28:0.02602301 29:-0.93124878 30:0.057246719 31:1.176623 32:0.2091741 33:-0.046295181 34:0.85170239 35:-2.883954 36:0.1931455 37:1.230139 38:0.77938551 39:0.54259938 40:-1.881449 41:0.69869518 42:0.290216 43:-1.6023999 44:-0.55469412 45:-0.63518971 46:0.02602301 47:-0.93124878 48:0.057246719 49:0.2706688 50:-0.52241802 51:2.67168 52:0.85170239 53:-2.883954 54:0.1931455 55:1.176623 56:0.2091741 57:-0.046295181 58:1.176623 59:0.2091741 60:-0.046295181 61:1.230139 62:0.77938551 63:0.54259938 64:-1.697965 65:-0.90435201 66:-0.66754657 67:-0.53207511 68:1.247389 69:0.0054757739 70:0.85170239 71:-2.883954 72:0.1931455 73:-0.46709111 74:0.47276241 75:1.44212 76:0.35094309 77:-1.1249059 78:-0.90698719 79:1.176623 80:0.2091741 81:-0.046295181 82:0.02602301 83:-0.93124878 84:0.057246719 85:0.35094309 86:-1.1249059 87:-0.90698719 88:-1.697965 89:-0.90435201 90:-0.66754657 91:-0.53207511 92:1.247389 93:0.0054757739 94:0.02602301 95:-0.93124878 96:0.057246719 97:0.74849248 98:-0.87745529 99:0.36787239 100:1.100171 101:1.3549761 102:-2.2271459 #
-0.37196920891497109451506730692927 1:-1.6023999 2:-0.55469412 3:-0.63518971 4:0.85170239 5:-2.883954 6:0.1931455 7:0.35094309 8:-1.1249059 9:-0.90698719 10:0.92050898 11:0.93538678 12:0.7173264 13:-1.881449 14:0.69869518 15:0.290216 16:1.3906879 17:0.60724622 18:1.526247 19:-0.95256001 20:-0.14586321 21:-0.26632169 22:0.74849248 23:-0.87745529 24:0.36787239 25:-1.029012 26:-1.3615969 27:-0.8358022 28:-1.816465 29:1.9628429 30:0.54907078 31:1.176623 32:0.2091741 33:-0.046295181 34:0.85170239 35:-2.883954 36:0.1931455 37:1.230139 38:0.77938551 39:0.54259938 40:0.83258939 41:0.28448501 42:-0.73873162 43:0.35094309 44:-1.1249059 45:-0.90698719 46:-1.6023999 47:-0.55469412 48:-0.63518971 49:0.85170239 50:-2.883954 51:0.1931455 52:0.85170239 53:-2.883954 54:0.1931455 55:1.176623 56:0.2091741 57:-0.046295181 58:-1.029012 59:-1.3615969 60:-0.8358022 61:1.230139 62:0.77938551 63:0.54259938 64:-1.6023999 65:-0.55469412 66:-0.63518971 67:-0.53207511 68:1.247389 69:0.0054757739 70:0.85170239 71:-2.883954 72:0.1931455 73:-1.697965 74:-0.90435201 75:-0.66754657 76:0.35094309 77:-1.1249059 78:-0.90698719 79:1.176623 80:0.2091741 81:-0.046295181 82:0.35094309 83:-1.1249059 84:-0.90698719 85:0.35094309 86:-1.1249059 87:-0.90698719 88:-1.029012 89:-1.3615969 90:-0.8358022 91:0.92050898 92:0.93538678 93:0.7173264 94:0.74849248 95:-0.87745529 96:0.36787239 97:0.35094309 98:-1.1249059 99:-0.90698719 100:-1.816465 101:1.9628429 102:0.54907078 #
-0.02129492004014366113295864124666 1:0.35094309 2:-1.1249059 3:-0.90698719 4:0.35094309 5:-1.1249059 6:-0.90698719 7:-1.881449 8:0.69869518 9:0.290216 10:0.02602301 11:-0.93124878 12:0.057246719 13:0.2706688 14:-0.52241802 15:2.67168 16:1.3906879 17:0.60724622 18:1.526247 19:-0.95256001 20:-0.14586321 21:-0.26632169 22:0.74849248 23:-0.87745529 24:0.36787239 25:-1.029012 26:-1.3615969 27:-0.8358022 28:-1.6023999 29:-0.55469412 30:-0.63518971 31:1.3906879 32:0.60724622 33:1.526247 34:0.02602301 35:-0.93124878 36:0.057246719 37:1.230139 38:0.77938551 39:0.54259938 40:-1.881449 41:0.69869518 42:0.290216 43:0.02602301 44:-0.93124878 45:0.057246719 46:-1.029012 47:-1.3615969 48:-0.8358022 49:0.85170239 50:-2.883954 51:0.1931455 52:0.85170239 53:-2.883954 54:0.1931455 55:1.3906879 56:0.60724622 57:1.526247 58:0.02602301 59:-0.93124878 60:0.057246719 61:0.85170239 62:-2.883954 63:0.1931455 64:-1.6023999 65:-0.55469412 66:-0.63518971 67:0.85170239 68:-2.883954 69:0.1931455 70:0.85170239 71:-2.883954 72:0.1931455 73:0.02602301 74:-0.93124878 75:0.057246719 76:0.35094309 77:-1.1249059 78:-0.90698719 79:1.176623 80:0.2091741 81:-0.046295181 82:0.35094309 83:-1.1249059 84:-0.90698719 85:0.02602301 86:-0.93124878 87:0.057246719 88:-1.029012 89:-1.3615969 90:-0.8358022 91:0.92050898 92:0.93538678 93:0.7173264 94:0.02602301 95:-0.93124878 96:0.057246719 97:0.35094309 98:-1.1249059 99:-0.90698719 100:-1.697965 101:-0.90435201 102:-0.66754657 #
-0.16120684232026313842389697583712 1:-1.6023999 2:-0.55469412 3:-0.63518971 4:1.230139 5:0.77938551 6:0.54259938 7:0.35094309 8:-1.1249059 9:-0.90698719 10:0.02602301 11:-0.93124878 12:0.057246719 13:-1.881449 14:0.69869518 15:0.290216 16:1.3906879 17:0.60724622 18:1.526247 19:0.02602301 20:-0.93124878 21:0.057246719 22:0.74849248 23:-0.87745529 24:0.36787239 25:0.35094309 26:-1.1249059 27:-0.90698719 28:-1.881449 29:0.69869518 30:0.290216 31:1.176623 32:0.2091741 33:-0.046295181 34:0.85170239 35:-2.883954 36:0.1931455 37:-1.816465 38:1.9628429 39:0.54907078 40:-1.6023999 41:-0.55469412 42:-0.63518971 43:-1.6023999 44:-0.55469412 45:-0.63518971 46:0.35094309 47:-1.1249059 48:-0.90698719 49:0.85170239 50:-2.883954 51:0.1931455 52:0.85170239 53:-2.883954 54:0.1931455 55:1.3906879 56:0.60724622 57:1.526247 58:0.35094309 59:-1.1249059 60:-0.90698719 61:-1.697965 62:-0.90435201 63:-0.66754657 64:0.02602301 65:-0.93124878 66:0.057246719 67:-0.53207511 68:1.247389 69:0.0054757739 70:0.85170239 71:-2.883954 72:0.1931455 73:-0.46709111 74:0.47276241 75:1.44212 76:0.35094309 77:-1.1249059 78:-0.90698719 79:1.176623 80:0.2091741 81:-0.046295181 82:0.85170239 83:-2.883954 84:0.1931455 85:0.35094309 86:-1.1249059 87:-0.90698719 88:-1.029012 89:-1.3615969 90:-0.8358022 91:-1.881449 92:0.69869518 93:0.290216 94:0.35094309 95:-1.1249059 96:-0.90698719 97:0.35094309 98:-1.1249059 99:-0.90698719 100:0.02602301 101:-0.93124878 102:0.057246719 #
5.1000597036349049062664562370628 1:0.74849248 2:-0.87745529 3:0.36787239 4:0.02602301 5:-0.93124878 6:0.057246719 7:0.74849248 8:-0.87745529 9:0.36787239 10:-1.6023999 11:-0.55469412 12:-0.63518971 13:-1.881449 14:0.69869518 15:0.290216 16:-0.46709111 17:0.47276241 18:1.44212 19:-1.6023999 20:-0.55469412 21:-0.63518971 22:0.74849248 23:-0.87745529 24:0.36787239 25:0.74849248 26:-0.87745529 27:0.36787239 28:-0.46709111 29:0.47276241 30:1.44212 31:0.85170239 32:-2.883954 33:0.1931455 34:0.85170239 35:-2.883954 36:0.1931455 37:0.02602301 38:-0.93124878 39:0.057246719 40:-1.6023999 41:-0.55469412 42:-0.63518971 43:0.83258939 44:0.28448501 45:-0.73873162 46:-1.029012 47:-1.3615969 48:-0.8358022 49:0.85170239 50:-2.883954 51:0.1931455 52:0.85170239 53:-2.883954 54:0.1931455 55:0.02602301 56:-0.93124878 57:0.057246719 58:0.83258939 59:0.28448501 60:-0.73873162 61:0.83258939 62:0.28448501 63:-0.73873162 64:-1.029012 65:-1.3615969 66:-0.8358022 67:-1.881449 68:0.69869518 69:0.290216 70:0.85170239 71:-2.883954 72:0.1931455 73:-0.95256001 74:-0.14586321 75:-0.26632169 76:0.02602301 77:-0.93124878 78:0.057246719 79:1.176623 80:0.2091741 81:-0.046295181 82:0.85170239 83:-2.883954 84:0.1931455 85:-1.6023999 86:-0.55469412 87:-0.63518971 88:-1.029012 89:-1.3615969 90:-0.8358022 91:1.230139 92:0.77938551 93:0.54259938 94:-0.53207511 95:1.247389 96:0.0054757739 97:0.35094309 98:-1.1249059 99:-0.90698719 100:1.100171 101:1.3549761 102:-2.2271459 #
-0.68134497956485595704378965820069 1:0.83258939 2:0.28448501 3:-0.73873162 4:-1.029012 5:-1.3615969 6:-0.8358022 7:0.35094309 8:-1.1249059 9:-0.90698719 10:-1.6023999 11:-0.55469412 12:-0.63518971 13:-1.881449 14:0.69869518 15:0.290216 16:-0.46709111 17:0.47276241 18:1.44212 19:-1.881449 20:0.69869518 21:0.290216 22:0.85170239 23:-2.883954 24:0.1931455 25:0.2706688 26:-0.52241802 27:2.67168 28:-0.46709111 29:0.47276241 30:1.44212 31:0.85170239 32:-2.883954 33:0.1931455 34:0.85170239 35:-2.883954 36:0.1931455 37:0.74849248 38:-0.87745529 39:0.36787239 40:-1.029012 41:-1.3615969 42:-0.8358022 43:0.83258939 44:0.28448501 45:-0.73873162 46:-1.029012 47:-1.3615969 48:-0.8358022 49:0.85170239 50:-2.883954 51:0.1931455 52:0.74849248 53:-0.87745529 54:0.36787239 55:0.02602301 56:-0.93124878 57:0.057246719 58:0.83258939 59:0.28448501 60:-0.73873162 61:0.83258939 62:0.28448501 63:-0.73873162 64:-1.029012 65:-1.3615969 66:-0.8358022 67:-1.881449 68:0.69869518 69:0.290216 70:0.85170239 71:-2.883954 72:0.1931455 73:-0.95256001 74:-0.14586321 75:-0.26632169 76:0.02602301 77:-0.93124878 78:0.057246719 79:1.176623 80:0.2091741 81:-0.046295181 82:0.85170239 83:-2.883954 84:0.1931455 85:-1.6023999 86:-0.55469412 87:-0.63518971 88:-1.6023999 89:-0.55469412 90:-0.63518971 91:0.35094309 92:-1.1249059 93:-0.90698719 94:-1.881449 95:0.69869518 96:0.290216 97:0.35094309 98:-1.1249059 99:-0.90698719 100:1.100171 101:1.3549761 102:-2.2271459 #
-0.17098294480102341208471727895812 1:0.85170239 2:-2.883954 3:0.1931455 4:1.176623 5:0.2091741 6:-0.046295181 7:0.92050898 8:0.93538678 9:0.7173264 10:0.02602301 11:-0.93124878 12:0.057246719 13:-1.881449 14:0.69869518 15:0.290216 16:1.3906879 17:0.60724622 18:1.526247 19:0.02602301 20:-0.93124878 21:0.057246719 22:0.74849248 23:-0.87745529 24:0.36787239 25:-1.697965 26:-0.90435201 27:-0.66754657 28:0.85170239 29:-2.883954 30:0.1931455 31:1.3906879 32:0.60724622 33:1.526247 34:0.35094309 35:-1.1249059 36:-0.90698719 37:0.85170239 38:-2.883954 39:0.1931455 40:-1.697965 41:-0.90435201 42:-0.66754657 43:0.2706688 44:-0.52241802 45:2.67168 46:-1.029012 47:-1.3615969 48:-0.8358022 49:0.02602301 50:-0.93124878 51:0.057246719 52:0.85170239 53:-2.883954 54:0.1931455 55:1.176623 56:0.2091741 57:-0.046295181 58:-1.697965 59:-0.90435201 60:-0.66754657 61:1.230139 62:0.77938551 63:0.54259938 64:-0.95256001 65:-0.14586321 66:-0.26632169 67:-0.53207511 68:1.247389 69:0.0054757739 70:0.85170239 71:-2.883954 72:0.1931455 73:-0.46709111 74:0.47276241 75:1.44212 76:0.35094309 77:-1.1249059 78:-0.90698719 79:1.176623 80:0.2091741 81:-0.046295181 82:0.02602301 83:-0.93124878 84:0.057246719 85:0.35094309 86:-1.1249059 87:-0.90698719 88:-1.029012 89:-1.3615969 90:-0.8358022 91:0.02602301 92:-0.93124878 93:0.057246719 94:0.2706688 95:-0.52241802 96:2.67168 97:-1.697965 98:-0.90435201 99:-0.66754657 100:0.02602301 101:-0.93124878 102:0.057246719 #
-0.13955140108423433331630292286718 1:-1.6023999 2:-0.55469412 3:-0.63518971 4:1.3906879 5:0.60724622 6:1.526247 7:1.230139 8:0.77938551 9:0.54259938 10:0.74849248 11:-0.87745529 12:0.36787239 13:-1.881449 14:0.69869518 15:0.290216 16:1.3906879 17:0.60724622 18:1.526247 19:0.02602301 20:-0.93124878 21:0.057246719 22:0.74849248 23:-0.87745529 24:0.36787239 25:0.74849248 26:-0.87745529 27:0.36787239 28:-0.46709111 29:0.47276241 30:1.44212 31:1.176623 32:0.2091741 33:-0.046295181 34:0.85170239 35:-2.883954 36:0.1931455 37:-1.881449 38:0.69869518 39:0.290216 40:0.74849248 41:-0.87745529 42:0.36787239 43:1.176623 44:0.2091741 45:-0.046295181 46:0.2706688 47:-0.52241802 48:2.67168 49:0.85170239 50:-2.883954 51:0.1931455 52:0.85170239 53:-2.883954 54:0.1931455 55:1.176623 56:0.2091741 57:-0.046295181 58:-1.881449 59:0.69869518 60:0.290216 61:1.230139 62:0.77938551 63:0.54259938 64:0.85170239 65:-2.883954 66:0.1931455 67:-0.53207511 68:1.247389 69:0.0054757739 70:0.85170239 71:-2.883954 72:0.1931455 73:-0.46709111 74:0.47276241 75:1.44212 76:0.35094309 77:-1.1249059 78:-0.90698719 79:1.176623 80:0.2091741 81:-0.046295181 82:0.02602301 83:-0.93124878 84:0.057246719 85:0.35094309 86:-1.1249059 87:-0.90698719 88:0.35094309 89:-1.1249059 90:-0.90698719 91:0.2706688 92:-0.52241802 93:2.67168 94:0.02602301 95:-0.93124878 96:0.057246719 97:0.35094309 98:-1.1249059 99:-0.90698719 100:1.100171 101:1.3549761 102:-2.2271459 #
-0.2982573194230705437846040695149 1:0.35094309 2:-1.1249059 3:-0.90698719 4:0.83258939 5:0.28448501 6:-0.73873162 7:-1.6023999 8:-0.55469412 9:-0.63518971 10:0.35094309 11:-1.1249059 12:-0.90698719 13:-1.881449 14:0.69869518 15:0.290216 16:1.3906879 17:0.60724622 18:1.526247 19:-1.881449 20:0.69869518 21:0.290216 22:0.74849248 23:-0.87745529 24:0.36787239 25:-1.029012 26:-1.3615969 27:-0.8358022 28:-0.46709111 29:0.47276241 30:1.44212 31:1.176623 32:0.2091741 33:-0.046295181 34:0.2706688 35:-0.52241802 36:2.67168 37:1.230139 38:0.77938551 39:0.54259938 40:-1.6023999 41:-0.55469412 42:-0.63518971 43:-1.881449 44:0.69869518 45:0.290216 46:0.02602301 47:-0.93124878 48:0.057246719 49:0.2706688 50:-0.52241802 51:2.67168 52:0.85170239 53:-2.883954 54:0.1931455 55:1.176623 56:0.2091741 57:-0.046295181 58:1.176623 59:0.2091741 60:-0.046295181 61:1.230139 62:0.77938551 63:0.54259938 64:-1.697965 65:-0.90435201 66:-0.66754657 67:-0.53207511 68:1.247389 69:0.0054757739 70:0.85170239 71:-2.883954 72:0.1931455 73:-0.46709111 74:0.47276241 75:1.44212 76:0.35094309 77:-1.1249059 78:-0.90698719 79:1.176623 80:0.2091741 81:-0.046295181 82:0.02602301 83:-0.93124878 84:0.057246719 85:0.02602301 86:-0.93124878 87:0.057246719 88:-1.029012 89:-1.3615969 90:-0.8358022 91:-0.53207511 92:1.247389 93:0.0054757739 94:0.02602301 95:-0.93124878 96:0.057246719 97:0.35094309 98:-1.1249059 99:-0.90698719 100:1.100171 101:1.3549761 102:-2.2271459 #
-0.064513668962227210812443445320241 1:0.35094309 2:-1.1249059 3:-0.90698719 4:-0.53207511 5:1.247389 6:0.0054757739 7:1.230139 8:0.77938551 9:0.54259938 10:0.35094309 11:-1.1249059 12:-0.90698719 13:-1.881449 14:0.69869518 15:0.290216 16:1.3906879 17:0.60724622 18:1.526247 19:-1.029012 20:-1.3615969 21:-0.8358022 22:0.74849248 23:-0.87745529 24:0.36787239 25:-1.029012 26:-1.3615969 27:-0.8358022 28:-1.816465 29:1.9628429 30:0.54907078 31:1.176623 32:0.2091741 33:-0.046295181 34:0.74849248 35:-0.87745529 36:0.36787239 37:0.35094309 38:-1.1249059 39:-0.90698719 40:0.2706688 41:-0.52241802 42:2.67168 43:-1.697965 44:-0.90435201 45:-0.66754657 46:-1.029012 47:-1.3615969 48:-0.8358022 49:0.85170239 50:-2.883954 51:0.1931455 52:0.85170239 53:-2.883954 54:0.1931455 55:1.176623 56:0.2091741 57:-0.046295181 58:-0.53207511 59:1.247389 60:0.0054757739 61:1.230139 62:0.77938551 63:0.54259938 64:0.02602301 65:-0.93124878 66:0.057246719 67:-0.53207511 68:1.247389 69:0.0054757739 70:0.85170239 71:-2.883954 72:0.1931455 73:-0.46709111 74:0.47276241 75:1.44212 76:0.35094309 77:-1.1249059 78:-0.90698719 79:1.176623 80:0.2091741 81:-0.046295181 82:-1.029012 83:-1.3615969 84:-0.8358022 85:0.02602301 86:-0.93124878 87:0.057246719 88:-1.029012 89:-1.3615969 90:-0.8358022 91:1.3906879 92:0.60724622 93:1.526247 94:0.02602301 95:-0.93124878 96:0.057246719 97:0.35094309 98:-1.1249059 99:-0.90698719 100:-1.029012 101:-1.3615969 102:-0.8358022 #
-0.068049086204418629542090002360055 1:0.74849248 2:-0.87745529 3:0.36787239 4:-1.816465 5:1.9628429 6:0.54907078 7:1.230139 8:0.77938551 9:0.54259938 10:-1.6023999 11:-0.55469412 12:-0.63518971 13:-1.881449 14:0.69869518 15:0.290216 16:1.3906879 17:0.60724622 18:1.526247 19:0.02602301 20:-0.93124878 21:0.057246719 22:-1.881449 23:0.69869518 24:0.290216 25:0.02602301 26:-0.93124878 27:0.057246719 28:-1.6023999 29:-0.55469412 30:-0.63518971 31:0.35094309 32:-1.1249059 33:-0.90698719 34:0.35094309 35:-1.1249059 36:-0.90698719 37:-1.029012 38:-1.3615969 39:-0.8358022 40:-1.881449 41:0.69869518 42:0.290216 43:-0.95256001 44:-0.14586321 45:-0.26632169 46:-1.6023999 47:-0.55469412 48:-0.63518971 49:0.85170239 50:-2.883954 51:0.1931455 52:0.85170239 53:-2.883954 54:0.1931455 55:1.176623 56:0.2091741 57:-0.046295181 58:-0.95256001 59:-0.14586321 60:-0.26632169 61:1.230139 62:0.77938551 63:0.54259938 64:0.02602301 65:-0.93124878 66:0.057246719 67:-0.53207511 68:1.247389 69:0.0054757739 70:0.85170239 71:-2.883954 72:0.1931455 73:-0.46709111 74:0.47276241 75:1.44212 76:0.35094309 77:-1.1249059 78:-0.90698719 79:1.176623 80:0.2091741 81:-0.046295181 82:0.74849248 83:-0.87745529 84:0.36787239 85:0.74849248 86:-0.87745529 87:0.36787239 88:-1.029012 89:-1.3615969 90:-0.8358022 91:-0.95256001 92:-0.14586321 93:-0.26632169 94:0.02602301 95:-0.93124878 96:0.057246719 97:0.35094309 98:-1.1249059 99:-0.90698719 100:-0.53207511 101:1.247389 102:0.0054757739 #
-0.080549781335346279376175004927063 1:0.35094309 2:-1.1249059 3:-0.90698719 4:0.02602301 5:-0.93124878 6:0.057246719 7:-1.029012 8:-1.3615969 9:-0.8358022 10:0.74849248 11:-0.87745529 12:0.36787239 13:-1.881449 14:0.69869518 15:0.290216 16:1.3906879 17:0.60724622 18:1.526247 19:0.02602301 20:-0.93124878 21:0.057246719 22:0.74849248 23:-0.87745529 24:0.36787239 25:-1.029012 26:-1.3615969 27:-0.8358022 28:-0.53207511 29:1.247389 30:0.0054757739 31:1.3906879 32:0.60724622 33:1.526247 34:0.85170239 35:-2.883954 36:0.1931455 37:1.230139 38:0.77938551 39:0.54259938 40:0.2706688 41:-0.52241802 42:2.67168 43:0.35094309 44:-1.1249059 45:-0.90698719 46:-1.6023999 47:-0.55469412 48:-0.63518971 49:0.85170239 50:-2.883954 51:0.1931455 52:0.85170239 53:-2.883954 54:0.1931455 55:1.3906879 56:0.60724622 57:1.526247 58:0.74849248 59:-0.87745529 60:0.36787239 61:0.85170239 62:-2.883954 63:0.1931455 64:-1.6023999 65:-0.55469412 66:-0.63518971 67:0.85170239 68:-2.883954 69:0.1931455 70:0.85170239 71:-2.883954 72:0.1931455 73:0.02602301 74:-0.93124878 75:0.057246719 76:0.35094309 77:-1.1249059 78:-0.90698719 79:1.176623 80:0.2091741 81:-0.046295181 82:0.35094309 83:-1.1249059 84:-0.90698719 85:0.74849248 86:-0.87745529 87:0.36787239 88:-1.697965 89:-0.90435201 90:-0.66754657 91:0.92050898 92:0.93538678 93:0.7173264 94:1.230139 95:0.77938551 96:0.54259938 97:0.35094309 98:-1.1249059 99:-0.90698719 100:-1.697965 101:-0.90435201 102:-0.66754657 #
-0.059071106883118229546880684210919 1:0.35094309 2:-1.1249059 3:-0.90698719 4:0.92050898 5:0.93538678 6:0.7173264 7:1.230139 8:0.77938551 9:0.54259938 10:0.74849248 11:-0.87745529 12:0.36787239 13:-1.881449 14:0.69869518 15:0.290216 16:1.3906879 17:0.60724622 18:1.526247 19:0.85170239 20:-2.883954 21:0.1931455 22:0.74849248 23:-0.87745529 24:0.36787239 25:0.35094309 26:-1.1249059 27:-0.90698719 28:-1.881449 29:0.69869518 30:0.290216 31:1.176623 32:0.2091741 33:-0.046295181 34:0.85170239 35:-2.883954 36:0.1931455 37:-1.881449 38:0.69869518 39:0.290216 40:-0.95256001 41:-0.14586321 42:-0.26632169 43:-1.6023999 44:-0.55469412 45:-0.63518971 46:-1.881449 47:0.69869518 48:0.290216 49:0.85170239 50:-2.883954 51:0.1931455 52:0.85170239 53:-2.883954 54:0.1931455 55:1.176623 56:0.2091741 57:-0.046295181 58:-1.697965 59:-0.90435201 60:-0.66754657 61:1.230139 62:0.77938551 63:0.54259938 64:-1.029012 65:-1.3615969 66:-0.8358022 67:-0.53207511 68:1.247389 69:0.0054757739 70:0.85170239 71:-2.883954 72:0.1931455 73:-0.46709111 74:0.47276241 75:1.44212 76:0.35094309 77:-1.1249059 78:-0.90698719 79:1.176623 80:0.2091741 81:-0.046295181 82:0.35094309 83:-1.1249059 84:-0.90698719 85:0.35094309 86:-1.1249059 87:-0.90698719 88:-1.029012 89:-1.3615969 90:-0.8358022 91:-0.53207511 92:1.247389 93:0.0054757739 94:0.02602301 95:-0.93124878 96:0.057246719 97:0.35094309 98:-1.1249059 99:-0.90698719 100:-0.53207511 101:1.247389 102:0.0054757739 #
-0.043983719740700588651804991968675 1:-0.95256001 2:-0.14586321 3:-0.26632169 4:-1.816465 5:1.9628429 6:0.54907078 7:0.74849248 8:-0.87745529 9:0.36787239 10:0.35094309 11:-1.1249059 12:-0.90698719 13:-1.881449 14:0.69869518 15:0.290216 16:1.3906879 17:0.60724622 18:1.526247 19:-1.6023999 20:-0.55469412 21:-0.63518971 22:0.74849248 23:-0.87745529 24:0.36787239 25:-1.029012 26:-1.3615969 27:-0.8358022 28:-1.881449 29:0.69869518 30:0.290216 31:1.176623 32:0.2091741 33:-0.046295181 34:-1.6023999 35:-0.55469412 36:-0.63518971 37:1.230139 38:0.77938551 39:0.54259938 40:0.35094309 41:-1.1249059 42:-0.90698719 43:1.230139 44:0.77938551 45:0.54259938 46:-1.6023999 47:-0.55469412 48:-0.63518971 49:0.02602301 50:-0.93124878 51:0.057246719 52:0.85170239 53:-2.883954 54:0.1931455 55:1.176623 56:0.2091741 57:-0.046295181 58:-0.53207511 59:1.247389 60:0.0054757739 61:1.230139 62:0.77938551 63:0.54259938 64:-1.6023999 65:-0.55469412 66:-0.63518971 67:-0.53207511 68:1.247389 69:0.0054757739 70:0.85170239 71:-2.883954 72:0.1931455 73:-0.46709111 74:0.47276241 75:1.44212 76:0.74849248 77:-0.87745529 78:0.36787239 79:1.176623 80:0.2091741 81:-0.046295181 82:0.02602301 83:-0.93124878 84:0.057246719 85:0.35094309 86:-1.1249059 87:-0.90698719 88:0.35094309 89:-1.1249059 90:-0.90698719 91:-0.53207511 92:1.247389 93:0.0054757739 94:0.74849248 95:-0.87745529 96:0.36787239 97:0.35094309 98:-1.1249059 99:-0.90698719 100:0.74849248 101:-0.87745529 102:0.36787239 #
-0.026236039662933606508854467165293 1:-1.881449 2:0.69869518 3:0.290216 4:0.92050898 5:0.93538678 6:0.7173264 7:0.2706688 8:-0.52241802 9:2.67168 10:0.74849248 11:-0.87745529 12:0.36787239 13:-1.881449 14:0.69869518 15:0.290216 16:1.3906879 17:0.60724622 18:1.526247 19:0.83258939 20:0.28448501 21:-0.73873162 22:0.74849248 23:-0.87745529 24:0.36787239 25:-1.029012 26:-1.3615969 27:-0.8358022 28:0.85170239 29:-2.883954 30:0.1931455 31:0.74849248 32:-0.87745529 33:0.36787239 34:0.02602301 35:-0.93124878 36:0.057246719 37:1.08488 38:0.75786811 39:-2.033005 40:0.85170239 41:-2.883954 42:0.1931455 43:0.35094309 44:-1.1249059 45:-0.90698719 46:-1.6023999 47:-0.55469412 48:-0.63518971 49:0.85170239 50:-2.883954 51:0.1931455 52:0.85170239 53:-2.883954 54:0.1931455 55:1.176623 56:0.2091741 57:-0.046295181 58:-1.029012 59:-1.3615969 60:-0.8358022 61:1.230139 62:0.77938551 63:0.54259938 64:-1.029012 65:-1.3615969 66:-0.8358022 67:-0.53207511 68:1.247389 69:0.0054757739 70:0.85170239 71:-2.883954 72:0.1931455 73:-0.46709111 74:0.47276241 75:1.44212 76:0.35094309 77:-1.1249059 78:-0.90698719 79:1.176623 80:0.2091741 81:-0.046295181 82:0.02602301 83:-0.93124878 84:0.057246719 85:0.35094309 86:-1.1249059 87:-0.90698719 88:0.85170239 89:-2.883954 90:0.1931455 91:0.92050898 92:0.93538678 93:0.7173264 94:0.2706688 95:-0.52241802 96:2.67168 97:-1.6023999 98:-0.55469412 99:-0.63518971 100:1.176623 101:0.2091741 102:-0.046295181 #
-0.060755434288770948647595560032642 1:-1.6023999 2:-0.55469412 3:-0.63518971 4:-1.816465 5:1.9628429 6:0.54907078 7:0.02602301 8:-0.93124878 9:0.057246719 10:0.35094309 11:-1.1249059 12:-0.90698719 13:-1.881449 14:0.69869518 15:0.290216 16:1.3906879 17:0.60724622 18:1.526247 19:-1.029012 20:-1.3615969 21:-0.8358022 22:0.74849248 23:-0.87745529 24:0.36787239 25:-1.029012 26:-1.3615969 27:-0.8358022 28:-1.881449 29:0.69869518 30:0.290216 31:1.176623 32:0.2091741 33:-0.046295181 34:0.85170239 35:-2.883954 36:0.1931455 37:0.74849248 38:-0.87745529 39:0.36787239 40:0.02602301 41:-0.93124878 42:0.057246719 43:-1.029012 44:-1.3615969 45:-0.8358022 46:-1.6023999 47:-0.55469412 48:-0.63518971 49:0.02602301 50:-0.93124878 51:0.057246719 52:0.85170239 53:-2.883954 54:0.1931455 55:1.176623 56:0.2091741 57:-0.046295181 58:0.02602301 59:-0.93124878 60:0.057246719 61:1.230139 62:0.77938551 63:0.54259938 64:-1.029012 65:-1.3615969 66:-0.8358022 67:-0.53207511 68:1.247389 69:0.0054757739 70:0.85170239 71:-2.883954 72:0.1931455 73:-0.46709111 74:0.47276241 75:1.44212 76:0.35094309 77:-1.1249059 78:-0.90698719 79:1.176623 80:0.2091741 81:-0.046295181 82:0.02602301 83:-0.93124878 84:0.057246719 85:0.35094309 86:-1.1249059 87:-0.90698719 88:-1.029012 89:-1.3615969 90:-0.8358022 91:-0.53207511 92:1.247389 93:0.0054757739 94:0.02602301 95:-0.93124878 96:0.057246719 97:0.02602301 98:-0.93124878 99:0.057246719 100:1.100171 101:1.3549761 102:-2.2271459 #
-0.013122325218735894636346017705364 1:-1.6023999 2:-0.55469412 3:-0.63518971 4:0.92050898 5:0.93538678 6:0.7173264 7:0.92050898 8:0.93538678 9:0.7173264 10:0.02602301 11:-0.93124878 12:0.057246719 13:-1.881449 14:0.69869518 15:0.290216 16:1.3906879 17:0.60724622 18:1.526247 19:0.02602301 20:-0.93124878 21:0.057246719 22:0.74849248 23:-0.87745529 24:0.36787239 25:-1.6023999 26:-0.55469412 27:-0.63518971 28:1.3906879 29:0.60724622 30:1.526247 31:0.83258939 32:0.28448501 33:-0.73873162 34:-1.816465 35:1.9628429 36:0.54907078 37:1.3906879 38:0.60724622 39:1.526247 40:0.35094309 41:-1.1249059 42:-0.90698719 43:-1.029012 44:-1.3615969 45:-0.8358022 46:-1.029012 47:-1.3615969 48:-0.8358022 49:0.85170239 50:-2.883954 51:0.1931455 52:0.85170239 53:-2.883954 54:0.1931455 55:1.176623 56:0.2091741 57:-0.046295181 58:1.100171 59:1.3549761 60:-2.2271459 61:1.230139 62:0.77938551 63:0.54259938 64:-1.6023999 65:-0.55469412 66:-0.63518971 67:-0.53207511 68:1.247389 69:0.0054757739 70:0.85170239 71:-2.883954 72:0.1931455 73:-0.46709111 74:0.47276241 75:1.44212 76:0.35094309 77:-1.1249059 78:-0.90698719 79:1.176623 80:0.2091741 81:-0.046295181 82:0.35094309 83:-1.1249059 84:-0.90698719 85:0.35094309 86:-1.1249059 87:-0.90698719 88:-1.029012 89:-1.3615969 90:-0.8358022 91:1.3906879 92:0.60724622 93:1.526247 94:0.02602301 95:-0.93124878 96:0.057246719 97:-1.697965 98:-0.90435201 99:-0.66754657 100:0.02602301 101:-0.93124878 102:0.057246719 #
-0.038399609136440304713033810912748 1:-1.6023999 2:-0.55469412 3:-0.63518971 4:1.230139 5:0.77938551 6:0.54259938 7:1.230139 8:0.77938551 9:0.54259938 10:0.02602301 11:-0.93124878 12:0.057246719 13:-1.881449 14:0.69869518 15:0.290216 16:1.3906879 17:0.60724622 18:1.526247 19:0.02602301 20:-0.93124878 21:0.057246719 22:0.74849248 23:-0.87745529 24:0.36787239 25:0.35094309 26:-1.1249059 27:-0.90698719 28:-1.881449 29:0.69869518 30:0.290216 31:1.176623 32:0.2091741 33:-0.046295181 34:0.35094309 35:-1.1249059 36:-0.90698719 37:-1.816465 38:1.9628429 39:0.54907078 40:-1.6023999 41:-0.55469412 42:-0.63518971 43:-1.697965 44:-0.90435201 45:-0.66754657 46:-1.697965 47:-0.90435201 48:-0.66754657 49:0.85170239 50:-2.883954 51:0.1931455 52:0.85170239 53:-2.883954 54:0.1931455 55:1.3906879 56:0.60724622 57:1.526247 58:-1.6023999 59:-0.55469412 60:-0.63518971 61:1.230139 62:0.77938551 63:0.54259938 64:0.85170239 65:-2.883954 66:0.1931455 67:-0.53207511 68:1.247389 69:0.0054757739 70:0.85170239 71:-2.883954 72:0.1931455 73:-0.46709111 74:0.47276241 75:1.44212 76:0.35094309 77:-1.1249059 78:-0.90698719 79:1.176623 80:0.2091741 81:-0.046295181 82:0.85170239 83:-2.883954 84:0.1931455 85:0.35094309 86:-1.1249059 87:-0.90698719 88:0.35094309 89:-1.1249059 90:-0.90698719 91:-1.881449 92:0.69869518 93:0.290216 94:0.35094309 95:-1.1249059 96:-0.90698719 97:0.35094309 98:-1.1249059 99:-0.90698719 100:0.35094309 101:-1.1249059 102:-0.90698719 #
-0.018552709757266194756653021613602 1:0.74849248 2:-0.87745529 3:0.36787239 4:0.02602301 5:-0.93124878 6:0.057246719 7:-0.95256001 8:-0.14586321 9:-0.26632169 10:0.02602301 11:-0.93124878 12:0.057246719 13:-1.881449 14:0.69869518 15:0.290216 16:1.3906879 17:0.60724622 18:1.526247 19:-0.95256001 20:-0.14586321 21:-0.26632169 22:0.74849248 23:-0.87745529 24:0.36787239 25:-1.029012 26:-1.3615969 27:-0.8358022 28:0.85170239 29:-2.883954 30:0.1931455 31:1.176623 32:0.2091741 33:-0.046295181 34:-0.46709111 35:0.47276241 36:1.44212 37:-1.881449 38:0.69869518 39:0.290216 40:-1.881449 41:0.69869518 42:0.290216 43:-1.6023999 44:-0.55469412 45:-0.63518971 46:-1.697965 47:-0.90435201 48:-0.66754657 49:0.85170239 50:-2.883954 51:0.1931455 52:0.85170239 53:-2.883954 54:0.1931455 55:1.176623 56:0.2091741 57:-0.046295181 58:-1.697965 59:-0.90435201 60:-0.66754657 61:1.230139 62:0.77938551 63:0.54259938 64:0.85170239 65:-2.883954 66:0.1931455 67:-1.816465 68:1.9628429 69:0.54907078 70:0.85170239 71:-2.883954 72:0.1931455 73:-0.46709111 74:0.47276241 75:1.44212 76:-1.029012 77:-1.3615969 78:-0.8358022 79:1.176623 80:0.2091741 81:-0.046295181 82:0.35094309 83:-1.1249059 84:-0.90698719 85:0.2706688 86:-0.52241802 87:2.67168 88:-1.029012 89:-1.3615969 90:-0.8358022 91:0.2706688 92:-0.52241802 93:2.67168 94:0.74849248 95:-0.87745529 96:0.36787239 97:0.74849248 98:-0.87745529 99:0.36787239 100:-1.816465 101:1.9628429 102:0.54907078 #
-0.040568817307545516903655169471676 1:-1.697965 2:-0.90435201 3:-0.66754657 4:0.02602301 5:-0.93124878 6:0.057246719 7:-1.6023999 8:-0.55469412 9:-0.63518971 10:0.35094309 11:-1.1249059 12:-0.90698719 13:-1.881449 14:0.69869518 15:0.290216 16:1.3906879 17:0.60724622 18:1.526247 19:-1.029012 20:-1.3615969 21:-0.8358022 22:0.74849248 23:-0.87745529 24:0.36787239 25:-1.029012 26:-1.3615969 27:-0.8358022 28:0.02602301 29:-0.93124878 30:0.057246719 31:1.176623 32:0.2091741 33:-0.046295181 34:0.85170239 35:-2.883954 36:0.1931455 37:1.230139 38:0.77938551 39:0.54259938 40:-1.881449 41:0.69869518 42:0.290216 43:-1.881449 44:0.69869518 45:0.290216 46:0.02602301 47:-0.93124878 48:0.057246719 49:0.02602301 50:-0.93124878 51:0.057246719 52:0.85170239 53:-2.883954 54:0.1931455 55:1.176623 56:0.2091741 57:-0.046295181 58:1.176623 59:0.2091741 60:-0.046295181 61:1.230139 62:0.77938551 63:0.54259938 64:-1.697965 65:-0.90435201 66:-0.66754657 67:-0.53207511 68:1.247389 69:0.0054757739 70:0.85170239 71:-2.883954 72:0.1931455 73:-0.46709111 74:0.47276241 75:1.44212 76:0.35094309 77:-1.1249059 78:-0.90698719 79:1.176623 80:0.2091741 81:-0.046295181 82:0.74849248 83:-0.87745529 84:0.36787239 85:0.35094309 86:-1.1249059 87:-0.90698719 88:-1.697965 89:-0.90435201 90:-0.66754657 91:-0.53207511 92:1.247389 93:0.0054757739 94:0.02602301 95:-0.93124878 96:0.057246719 97:0.35094309 98:-1.1249059 99:-0.90698719 100:1.08488 101:0.75786811 102:-2.033005 #
-0.039276131151742277314298235069145 1:-1.6023999 2:-0.55469412 3:-0.63518971 4:1.3906879 5:0.60724622 6:1.526247 7:1.230139 8:0.77938551 9:0.54259938 10:0.74849248 11:-0.87745529 12:0.36787239 13:-1.881449 14:0.69869518 15:0.290216 16:1.3906879 17:0.60724622 18:1.526247 19:0.02602301 20:-0.93124878 21:0.057246719 22:0.74849248 23:-0.87745529 24:0.36787239 25:0.35094309 26:-1.1249059 27:-0.90698719 28:-0.46709111 29:0.47276241 30:1.44212 31:1.176623 32:0.2091741 33:-0.046295181 34:0.85170239 35:-2.883954 36:0.1931455 37:-1.697965 38:-0.90435201 39:-0.66754657 40:0.74849248 41:-0.87745529 42:0.36787239 43:-0.95256001 44:-0.14586321 45:-0.26632169 46:0.2706688 47:-0.52241802 48:2.67168 49:0.85170239 50:-2.883954 51:0.1931455 52:0.85170239 53:-2.883954 54:0.1931455 55:1.176623 56:0.2091741 57:-0.046295181 58:-1.881449 59:0.69869518 60:0.290216 61:1.230139 62:0.77938551 63:0.54259938 64:0.85170239 65:-2.883954 66:0.1931455 67:-0.53207511 68:1.247389 69:0.0054757739 70:0.85170239 71:-2.883954 72:0.1931455 73:-0.46709111 74:0.47276241 75:1.44212 76:0.35094309 77:-1.1249059 78:-0.90698719 79:1.176623 80:0.2091741 81:-0.046295181 82:0.85170239 83:-2.883954 84:0.1931455 85:0.35094309 86:-1.1249059 87:-0.90698719 88:0.35094309 89:-1.1249059 90:-0.90698719 91:0.2706688 92:-0.52241802 93:2.67168 94:0.02602301 95:-0.93124878 96:0.057246719 97:0.35094309 98:-1.1249059 99:-0.90698719 100:0.74849248 101:-0.87745529 102:0.36787239 #
-0.016963382845917029939641906821635 1:0.35094309 2:-1.1249059 3:-0.90698719 4:0.02602301 5:-0.93124878 6:0.057246719 7:0.83258939 8:0.28448501 9:-0.73873162 10:0.02602301 11:-0.93124878 12:0.057246719 13:-1.881449 14:0.69869518 15:0.290216 16:1.3906879 17:0.60724622 18:1.526247 19:0.02602301 20:-0.93124878 21:0.057246719 22:0.02602301 23:-0.93124878 24:0.057246719 25:-1.029012 26:-1.3615969 27:-0.8358022 28:-1.816465 29:1.9628429 30:0.54907078 31:1.176623 32:0.2091741 33:-0.046295181 34:0.74849248 35:-0.87745529 36:0.36787239 37:0.02602301 38:-0.93124878 39:0.057246719 40:-1.6023999 41:-0.55469412 42:-0.63518971 43:-1.697965 44:-0.90435201 45:-0.66754657 46:-1.029012 47:-1.3615969 48:-0.8358022 49:0.02602301 50:-0.93124878 51:0.057246719 52:0.85170239 53:-2.883954 54:0.1931455 55:1.3906879 56:0.60724622 57:1.526247 58:-1.029012 59:-1.3615969 60:-0.8358022 61:1.230139 62:0.77938551 63:0.54259938 64:0.02602301 65:-0.93124878 66:0.057246719 67:-0.53207511 68:1.247389 69:0.0054757739 70:0.85170239 71:-2.883954 72:0.1931455 73:-1.6023999 74:-0.55469412 75:-0.63518971 76:0.35094309 77:-1.1249059 78:-0.90698719 79:1.176623 80:0.2091741 81:-0.046295181 82:0.35094309 83:-1.1249059 84:-0.90698719 85:0.35094309 86:-1.1249059 87:-0.90698719 88:-1.029012 89:-1.3615969 90:-0.8358022 91:0.2706688 92:-0.52241802 93:2.67168 94:0.02602301 95:-0.93124878 96:0.057246719 97:0.35094309 98:-1.1249059 99:-0.90698719 100:-0.95256001 101:-0.14586321 102:-0.26632169 #
-0.014507985256733524348504715817398 1:-1.6023999 2:-0.55469412 3:-0.63518971 4:1.3906879 5:0.60724622 6:1.526247 7:0.83258939 8:0.28448501 9:-0.73873162 10:-1.697965 11:-0.90435201 12:-0.66754657 13:-1.881449 14:0.69869518 15:0.290216 16:1.3906879 17:0.60724622 18:1.526247 19:-1.029012 20:-1.3615969 21:-0.8358022 22:-1.881449 23:0.69869518 24:0.290216 25:-1.029012 26:-1.3615969 27:-0.8358022 28:0.74849248 29:-0.87745529 30:0.36787239 31:1.176623 32:0.2091741 33:-0.046295181 34:-0.95256001 35:-0.14586321 36:-0.26632169 37:0.74849248 38:-0.87745529 39:0.36787239 40:-1.6023999 41:-0.55469412 42:-0.63518971 43:-1.697965 44:-0.90435201 45:-0.66754657 46:-1.029012 47:-1.3615969 48:-0.8358022 49:0.85170239 50:-2.883954 51:0.1931455 52:0.85170239 53:-2.883954 54:0.1931455 55:1.176623 56:0.2091741 57:-0.046295181 58:-1.029012 59:-1.3615969 60:-0.8358022 61:1.230139 62:0.77938551 63:0.54259938 64:0.02602301 65:-0.93124878 66:0.057246719 67:-0.53207511 68:1.247389 69:0.0054757739 70:0.85170239 71:-2.883954 72:0.1931455 73:-0.46709111 74:0.47276241 75:1.44212 76:0.35094309 77:-1.1249059 78:-0.90698719 79:1.176623 80:0.2091741 81:-0.046295181 82:0.35094309 83:-1.1249059 84:-0.90698719 85:0.35094309 86:-1.1249059 87:-0.90698719 88:-1.029012 89:-1.3615969 90:-0.8358022 91:1.176623 92:0.2091741 93:-0.046295181 94:0.02602301 95:-0.93124878 96:0.057246719 97:0.35094309 98:-1.1249059 99:-0.90698719 100:0.02602301 101:-0.93124878 102:0.057246719 #
