SVM-light Version V6.02
2 # kernel type
3 # kernel parameter -d 
0.00094402711 # kernel parameter -g 
1 # kernel parameter -s 
1 # kernel parameter -r 
empty# kernel parameter -u 
102 # highest feature index 
608 # number of training documents 
38 # number of support vectors plus 1 
2.2805167 # threshold b, each following line is a SV (starting with alpha*y)
-9.0411295672404357048890233272687 1:-1.881449 2:0.69869518 3:0.290216 4:0.02602301 5:-0.93124878 6:0.057246719 7:-0.95256001 8:-0.14586321 9:-0.26632169 10:0.35094309 11:-1.1249059 12:-0.90698719 13:-1.881449 14:0.69869518 15:0.290216 16:1.3906879 17:0.60724622 18:1.526247 19:-1.697965 20:-0.90435201 21:-0.66754657 22:0.74849248 23:-0.87745529 24:0.36787239 25:0.02602301 26:-0.93124878 27:0.057246719 28:-1.6023999 29:-0.55469412 30:-0.63518971 31:1.176623 32:0.2091741 33:-0.046295181 34:-1.6023999 35:-0.55469412 36:-0.63518971 37:0.83258939 38:0.28448501 39:-0.73873162 40:0.02602301 41:-0.93124878 42:0.057246719 43:-1.6023999 44:-0.55469412 45:-0.63518971 46:-1.029012 47:-1.3615969 48:-0.8358022 49:0.85170239 50:-2.883954 51:0.1931455 52:0.85170239 53:-2.883954 54:0.1931455 55:1.176623 56:0.2091741 57:-0.046295181 58:0.35094309 59:-1.1249059 60:-0.90698719 61:1.230139 62:0.77938551 63:0.54259938 64:-1.6023999 65:-0.55469412 66:-0.63518971 67:-0.53207511 68:1.247389 69:0.0054757739 70:0.85170239 71:-2.883954 72:0.1931455 73:-0.46709111 74:0.47276241 75:1.44212 76:0.35094309 77:-1.1249059 78:-0.90698719 79:1.176623 80:0.2091741 81:-0.046295181 82:0.35094309 83:-1.1249059 84:-0.90698719 85:0.35094309 86:-1.1249059 87:-0.90698719 88:-1.697965 89:-0.90435201 90:-0.66754657 91:-1.816465 92:1.9628429 93:0.54907078 94:0.74849248 95:-0.87745529 96:0.36787239 97:0.35094309 98:-1.1249059 99:-0.90698719 100:-1.881449 101:0.69869518 102:0.290216 #
55.879189555287325674726162105799 1:-1.6023999 2:-0.55469412 3:-0.63518971 4:1.176623 5:0.2091741 6:-0.046295181 7:0.74849248 8:-0.87745529 9:0.36787239 10:0.02602301 11:-0.93124878 12:0.057246719 13:-1.881449 14:0.69869518 15:0.290216 16:1.3906879 17:0.60724622 18:1.526247 19:-1.697965 20:-0.90435201 21:-0.66754657 22:0.74849248 23:-0.87745529 24:0.36787239 25:-1.6023999 26:-0.55469412 27:-0.63518971 28:-1.881449 29:0.69869518 30:0.290216 31:1.176623 32:0.2091741 33:-0.046295181 34:-1.029012 35:-1.3615969 36:-0.8358022 37:0.92050898 38:0.93538678 39:0.7173264 40:-1.029012 41:-1.3615969 42:-0.8358022 43:-1.6023999 44:-0.55469412 45:-0.63518971 46:0.35094309 47:-1.1249059 48:-0.90698719 49:0.85170239 50:-2.883954 51:0.1931455 52:0.85170239 53:-2.883954 54:0.1931455 55:1.3906879 56:0.60724622 57:1.526247 58:1.100171 59:1.3549761 60:-2.2271459 61:0.92050898 62:0.93538678 63:0.7173264 64:-1.6023999 65:-0.55469412 66:-0.63518971 67:-0.53207511 68:1.247389 69:0.0054757739 70:0.85170239 71:-2.883954 72:0.1931455 73:-0.46709111 74:0.47276241 75:1.44212 76:0.35094309 77:-1.1249059 78:-0.90698719 79:1.176623 80:0.2091741 81:-0.046295181 82:0.74849248 83:-0.87745529 84:0.36787239 85:0.35094309 86:-1.1249059 87:-0.90698719 88:-1.6023999 89:-0.55469412 90:-0.63518971 91:0.2706688 92:-0.52241802 93:2.67168 94:0.02602301 95:-0.93124878 96:0.057246719 97:0.35094309 98:-1.1249059 99:-0.90698719 100:-1.816465 101:1.9628429 102:0.54907078 #
41.601753835026599404045555274934 1:1.100171 2:1.3549761 3:-2.2271459 4:-1.816465 5:1.9628429 6:0.54907078 7:-1.816465 8:1.9628429 9:0.54907078 10:0.02602301 11:-0.93124878 12:0.057246719 13:-1.881449 14:0.69869518 15:0.290216 16:1.3906879 17:0.60724622 18:1.526247 19:-1.697965 20:-0.90435201 21:-0.66754657 22:0.02602301 23:-0.93124878 24:0.057246719 25:-1.029012 26:-1.3615969 27:-0.8358022 28:-1.816465 29:1.9628429 30:0.54907078 31:1.176623 32:0.2091741 33:-0.046295181 34:0.02602301 35:-0.93124878 36:0.057246719 37:0.92050898 38:0.93538678 39:0.7173264 40:-1.881449 41:0.69869518 42:0.290216 43:-1.029012 44:-1.3615969 45:-0.8358022 46:0.2706688 47:-0.52241802 48:2.67168 49:0.85170239 50:-2.883954 51:0.1931455 52:0.85170239 53:-2.883954 54:0.1931455 55:1.176623 56:0.2091741 57:-0.046295181 58:-1.029012 59:-1.3615969 60:-0.8358022 61:0.92050898 62:0.93538678 63:0.7173264 64:0.02602301 65:-0.93124878 66:0.057246719 67:-0.53207511 68:1.247389 69:0.0054757739 70:0.85170239 71:-2.883954 72:0.1931455 73:-0.46709111 74:0.47276241 75:1.44212 76:0.35094309 77:-1.1249059 78:-0.90698719 79:1.176623 80:0.2091741 81:-0.046295181 82:0.35094309 83:-1.1249059 84:-0.90698719 85:0.35094309 86:-1.1249059 87:-0.90698719 88:-1.697965 89:-0.90435201 90:-0.66754657 91:0.35094309 92:-1.1249059 93:-0.90698719 94:-1.029012 95:-1.3615969 96:-0.8358022 97:-1.029012 98:-1.3615969 99:-0.8358022 100:0.92050898 101:0.93538678 102:0.7173264 #
100 1:-1.6023999 2:-0.55469412 3:-0.63518971 4:1.3906879 5:0.60724622 6:1.526247 7:-0.46709111 8:0.47276241 9:1.44212 10:0.02602301 11:-0.93124878 12:0.057246719 13:-1.881449 14:0.69869518 15:0.290216 16:1.3906879 17:0.60724622 18:1.526247 19:0.02602301 20:-0.93124878 21:0.057246719 22:0.74849248 23:-0.87745529 24:0.36787239 25:-1.6023999 26:-0.55469412 27:-0.63518971 28:-1.6023999 29:-0.55469412 30:-0.63518971 31:1.176623 32:0.2091741 33:-0.046295181 34:-1.029012 35:-1.3615969 36:-0.8358022 37:0.92050898 38:0.93538678 39:0.7173264 40:-1.6023999 41:-0.55469412 42:-0.63518971 43:-1.6023999 44:-0.55469412 45:-0.63518971 46:0.35094309 47:-1.1249059 48:-0.90698719 49:0.85170239 50:-2.883954 51:0.1931455 52:0.85170239 53:-2.883954 54:0.1931455 55:1.3906879 56:0.60724622 57:1.526247 58:1.100171 59:1.3549761 60:-2.2271459 61:0.92050898 62:0.93538678 63:0.7173264 64:-1.6023999 65:-0.55469412 66:-0.63518971 67:-0.53207511 68:1.247389 69:0.0054757739 70:0.85170239 71:-2.883954 72:0.1931455 73:-0.46709111 74:0.47276241 75:1.44212 76:0.35094309 77:-1.1249059 78:-0.90698719 79:1.176623 80:0.2091741 81:-0.046295181 82:0.35094309 83:-1.1249059 84:-0.90698719 85:0.35094309 86:-1.1249059 87:-0.90698719 88:-1.6023999 89:-0.55469412 90:-0.63518971 91:0.2706688 92:-0.52241802 93:2.67168 94:0.02602301 95:-0.93124878 96:0.057246719 97:0.35094309 98:-1.1249059 99:-0.90698719 100:-1.816465 101:1.9628429 102:0.54907078 #
-4.8572310048849658414837904274464 1:1.100171 2:1.3549761 3:-2.2271459 4:-1.816465 5:1.9628429 6:0.54907078 7:-0.95256001 8:-0.14586321 9:-0.26632169 10:0.35094309 11:-1.1249059 12:-0.90698719 13:-1.881449 14:0.69869518 15:0.290216 16:1.3906879 17:0.60724622 18:1.526247 19:-1.029012 20:-1.3615969 21:-0.8358022 22:0.74849248 23:-0.87745529 24:0.36787239 25:-1.029012 26:-1.3615969 27:-0.8358022 28:-1.816465 29:1.9628429 30:0.54907078 31:1.176623 32:0.2091741 33:-0.046295181 34:-1.816465 35:1.9628429 36:0.54907078 37:0.92050898 38:0.93538678 39:0.7173264 40:-1.881449 41:0.69869518 42:0.290216 43:-1.697965 44:-0.90435201 45:-0.66754657 46:0.2706688 47:-0.52241802 48:2.67168 49:0.74849248 50:-0.87745529 51:0.36787239 52:0.85170239 53:-2.883954 54:0.1931455 55:1.176623 56:0.2091741 57:-0.046295181 58:0.92050898 59:0.93538678 60:0.7173264 61:1.230139 62:0.77938551 63:0.54259938 64:-1.6023999 65:-0.55469412 66:-0.63518971 67:-0.53207511 68:1.247389 69:0.0054757739 70:0.85170239 71:-2.883954 72:0.1931455 73:-0.46709111 74:0.47276241 75:1.44212 76:0.35094309 77:-1.1249059 78:-0.90698719 79:1.176623 80:0.2091741 81:-0.046295181 82:0.02602301 83:-0.93124878 84:0.057246719 85:0.02602301 86:-0.93124878 87:0.057246719 88:-1.029012 89:-1.3615969 90:-0.8358022 91:1.3906879 92:0.60724622 93:1.526247 94:-1.029012 95:-1.3615969 96:-0.8358022 97:0.35094309 98:-1.1249059 99:-0.90698719 100:0.92050898 101:0.93538678 102:0.7173264 #
11.372580137613738315849332138896 1:-1.6023999 2:-0.55469412 3:-0.63518971 4:1.3906879 5:0.60724622 6:1.526247 7:0.92050898 8:0.93538678 9:0.7173264 10:0.02602301 11:-0.93124878 12:0.057246719 13:-1.881449 14:0.69869518 15:0.290216 16:1.3906879 17:0.60724622 18:1.526247 19:-1.029012 20:-1.3615969 21:-0.8358022 22:0.74849248 23:-0.87745529 24:0.36787239 25:0.2706688 26:-0.52241802 27:2.67168 28:-0.53207511 29:1.247389 30:0.0054757739 31:1.176623 32:0.2091741 33:-0.046295181 34:-1.029012 35:-1.3615969 36:-0.8358022 37:0.92050898 38:0.93538678 39:0.7173264 40:-1.6023999 41:-0.55469412 42:-0.63518971 43:-1.6023999 44:-0.55469412 45:-0.63518971 46:0.35094309 47:-1.1249059 48:-0.90698719 49:0.85170239 50:-2.883954 51:0.1931455 52:0.85170239 53:-2.883954 54:0.1931455 55:1.3906879 56:0.60724622 57:1.526247 58:1.100171 59:1.3549761 60:-2.2271459 61:0.92050898 62:0.93538678 63:0.7173264 64:-1.6023999 65:-0.55469412 66:-0.63518971 67:-0.53207511 68:1.247389 69:0.0054757739 70:0.85170239 71:-2.883954 72:0.1931455 73:-0.46709111 74:0.47276241 75:1.44212 76:0.35094309 77:-1.1249059 78:-0.90698719 79:1.176623 80:0.2091741 81:-0.046295181 82:0.35094309 83:-1.1249059 84:-0.90698719 85:0.35094309 86:-1.1249059 87:-0.90698719 88:-1.6023999 89:-0.55469412 90:-0.63518971 91:0.2706688 92:-0.52241802 93:2.67168 94:-1.029012 95:-1.3615969 96:-0.8358022 97:0.35094309 98:-1.1249059 99:-0.90698719 100:0.83258939 101:0.28448501 102:-0.73873162 #
-0.24141163243427854467881843447685 1:-1.6023999 2:-0.55469412 3:-0.63518971 4:0.02602301 5:-0.93124878 6:0.057246719 7:0.02602301 8:-0.93124878 9:0.057246719 10:0.92050898 11:0.93538678 12:0.7173264 13:-1.881449 14:0.69869518 15:0.290216 16:1.3906879 17:0.60724622 18:1.526247 19:-1.881449 20:0.69869518 21:0.290216 22:0.74849248 23:-0.87745529 24:0.36787239 25:-1.029012 26:-1.3615969 27:-0.8358022 28:-1.816465 29:1.9628429 30:0.54907078 31:1.176623 32:0.2091741 33:-0.046295181 34:0.85170239 35:-2.883954 36:0.1931455 37:1.230139 38:0.77938551 39:0.54259938 40:0.83258939 41:0.28448501 42:-0.73873162 43:-1.697965 44:-0.90435201 45:-0.66754657 46:-1.881449 47:0.69869518 48:0.290216 49:0.85170239 50:-2.883954 51:0.1931455 52:0.85170239 53:-2.883954 54:0.1931455 55:1.176623 56:0.2091741 57:-0.046295181 58:-1.029012 59:-1.3615969 60:-0.8358022 61:1.230139 62:0.77938551 63:0.54259938 64:-0.95256001 65:-0.14586321 66:-0.26632169 67:-0.53207511 68:1.247389 69:0.0054757739 70:0.02602301 71:-0.93124878 72:0.057246719 73:-0.46709111 74:0.47276241 75:1.44212 76:0.35094309 77:-1.1249059 78:-0.90698719 79:1.176623 80:0.2091741 81:-0.046295181 82:0.35094309 83:-1.1249059 84:-0.90698719 85:0.35094309 86:-1.1249059 87:-0.90698719 88:-1.029012 89:-1.3615969 90:-0.8358022 91:-1.029012 92:-1.3615969 93:-0.8358022 94:0.2706688 95:-0.52241802 96:2.67168 97:0.35094309 98:-1.1249059 99:-0.90698719 100:0.02602301 101:-0.93124878 102:0.057246719 #
49.863972985079421107457164907828 1:0.83258939 2:0.28448501 3:-0.73873162 4:-1.816465 5:1.9628429 6:0.54907078 7:0.74849248 8:-0.87745529 9:0.36787239 10:0.02602301 11:-0.93124878 12:0.057246719 13:-1.881449 14:0.69869518 15:0.290216 16:1.3906879 17:0.60724622 18:1.526247 19:-1.697965 20:-0.90435201 21:-0.66754657 22:0.74849248 23:-0.87745529 24:0.36787239 25:-1.6023999 26:-0.55469412 27:-0.63518971 28:-1.816465 29:1.9628429 30:0.54907078 31:1.176623 32:0.2091741 33:-0.046295181 34:0.92050898 35:0.93538678 36:0.7173264 37:0.92050898 38:0.93538678 39:0.7173264 40:-1.6023999 41:-0.55469412 42:-0.63518971 43:-1.029012 44:-1.3615969 45:-0.8358022 46:0.2706688 47:-0.52241802 48:2.67168 49:0.85170239 50:-2.883954 51:0.1931455 52:0.85170239 53:-2.883954 54:0.1931455 55:1.176623 56:0.2091741 57:-0.046295181 58:1.230139 59:0.77938551 60:0.54259938 61:0.92050898 62:0.93538678 63:0.7173264 64:0.35094309 65:-1.1249059 66:-0.90698719 67:-0.53207511 68:1.247389 69:0.0054757739 70:0.85170239 71:-2.883954 72:0.1931455 73:-0.46709111 74:0.47276241 75:1.44212 76:0.35094309 77:-1.1249059 78:-0.90698719 79:1.176623 80:0.2091741 81:-0.046295181 82:0.02602301 83:-0.93124878 84:0.057246719 85:0.74849248 86:-0.87745529 87:0.36787239 88:-1.697965 89:-0.90435201 90:-0.66754657 91:-1.697965 92:-0.90435201 93:-0.66754657 94:-1.029012 95:-1.3615969 96:-0.8358022 97:0.35094309 98:-1.1249059 99:-0.90698719 100:0.92050898 101:0.93538678 102:0.7173264 #
-100 1:-1.6023999 2:-0.55469412 3:-0.63518971 4:1.3906879 5:0.60724622 6:1.526247 7:-0.46709111 8:0.47276241 9:1.44212 10:0.74849248 11:-0.87745529 12:0.36787239 13:-1.881449 14:0.69869518 15:0.290216 16:1.3906879 17:0.60724622 18:1.526247 19:0.02602301 20:-0.93124878 21:0.057246719 22:0.74849248 23:-0.87745529 24:0.36787239 25:-1.6023999 26:-0.55469412 27:-0.63518971 28:-1.881449 29:0.69869518 30:0.290216 31:1.176623 32:0.2091741 33:-0.046295181 34:0.35094309 35:-1.1249059 36:-0.90698719 37:-0.53207511 38:1.247389 39:0.0054757739 40:-1.6023999 41:-0.55469412 42:-0.63518971 43:-1.6023999 44:-0.55469412 45:-0.63518971 46:0.35094309 47:-1.1249059 48:-0.90698719 49:0.85170239 50:-2.883954 51:0.1931455 52:0.85170239 53:-2.883954 54:0.1931455 55:1.3906879 56:0.60724622 57:1.526247 58:1.100171 59:1.3549761 60:-2.2271459 61:1.230139 62:0.77938551 63:0.54259938 64:-0.95256001 65:-0.14586321 66:-0.26632169 67:-0.53207511 68:1.247389 69:0.0054757739 70:0.85170239 71:-2.883954 72:0.1931455 73:-0.46709111 74:0.47276241 75:1.44212 76:0.35094309 77:-1.1249059 78:-0.90698719 79:1.176623 80:0.2091741 81:-0.046295181 82:0.02602301 83:-0.93124878 84:0.057246719 85:0.35094309 86:-1.1249059 87:-0.90698719 88:-0.95256001 89:-0.14586321 90:-0.26632169 91:0.2706688 92:-0.52241802 93:2.67168 94:0.02602301 95:-0.93124878 96:0.057246719 97:0.35094309 98:-1.1249059 99:-0.90698719 100:-1.816465 101:1.9628429 102:0.54907078 #
-16.88026350952826248885685345158 1:-1.6023999 2:-0.55469412 3:-0.63518971 4:1.3906879 5:0.60724622 6:1.526247 7:0.02602301 8:-0.93124878 9:0.057246719 10:0.74849248 11:-0.87745529 12:0.36787239 13:-1.881449 14:0.69869518 15:0.290216 16:1.3906879 17:0.60724622 18:1.526247 19:0.02602301 20:-0.93124878 21:0.057246719 22:0.74849248 23:-0.87745529 24:0.36787239 25:-1.6023999 26:-0.55469412 27:-0.63518971 28:-1.881449 29:0.69869518 30:0.290216 31:1.176623 32:0.2091741 33:-0.046295181 34:-0.95256001 35:-0.14586321 36:-0.26632169 37:-0.53207511 38:1.247389 39:0.0054757739 40:-1.6023999 41:-0.55469412 42:-0.63518971 43:-1.6023999 44:-0.55469412 45:-0.63518971 46:0.35094309 47:-1.1249059 48:-0.90698719 49:0.85170239 50:-2.883954 51:0.1931455 52:0.85170239 53:-2.883954 54:0.1931455 55:1.3906879 56:0.60724622 57:1.526247 58:1.100171 59:1.3549761 60:-2.2271459 61:1.230139 62:0.77938551 63:0.54259938 64:-0.95256001 65:-0.14586321 66:-0.26632169 67:-0.53207511 68:1.247389 69:0.0054757739 70:0.85170239 71:-2.883954 72:0.1931455 73:-0.46709111 74:0.47276241 75:1.44212 76:0.35094309 77:-1.1249059 78:-0.90698719 79:1.176623 80:0.2091741 81:-0.046295181 82:0.02602301 83:-0.93124878 84:0.057246719 85:0.35094309 86:-1.1249059 87:-0.90698719 88:-0.95256001 89:-0.14586321 90:-0.26632169 91:0.2706688 92:-0.52241802 93:2.67168 94:0.02602301 95:-0.93124878 96:0.057246719 97:0.35094309 98:-1.1249059 99:-0.90698719 100:-1.816465 101:1.9628429 102:0.54907078 #
-100 1:-1.6023999 2:-0.55469412 3:-0.63518971 4:1.3906879 5:0.60724622 6:1.526247 7:-0.46709111 8:0.47276241 9:1.44212 10:0.02602301 11:-0.93124878 12:0.057246719 13:-1.881449 14:0.69869518 15:0.290216 16:1.3906879 17:0.60724622 18:1.526247 19:0.02602301 20:-0.93124878 21:0.057246719 22:0.74849248 23:-0.87745529 24:0.36787239 25:-1.6023999 26:-0.55469412 27:-0.63518971 28:-1.029012 29:-1.3615969 30:-0.8358022 31:1.176623 32:0.2091741 33:-0.046295181 34:0.02602301 35:-0.93124878 36:0.057246719 37:0.92050898 38:0.93538678 39:0.7173264 40:-1.6023999 41:-0.55469412 42:-0.63518971 43:-1.6023999 44:-0.55469412 45:-0.63518971 46:0.35094309 47:-1.1249059 48:-0.90698719 49:0.85170239 50:-2.883954 51:0.1931455 52:0.85170239 53:-2.883954 54:0.1931455 55:1.3906879 56:0.60724622 57:1.526247 58:1.100171 59:1.3549761 60:-2.2271459 61:0.92050898 62:0.93538678 63:0.7173264 64:-1.6023999 65:-0.55469412 66:-0.63518971 67:-0.53207511 68:1.247389 69:0.0054757739 70:0.85170239 71:-2.883954 72:0.1931455 73:-0.46709111 74:0.47276241 75:1.44212 76:0.35094309 77:-1.1249059 78:-0.90698719 79:1.176623 80:0.2091741 81:-0.046295181 82:0.35094309 83:-1.1249059 84:-0.90698719 85:0.35094309 86:-1.1249059 87:-0.90698719 88:-1.6023999 89:-0.55469412 90:-0.63518971 91:0.2706688 92:-0.52241802 93:2.67168 94:0.02602301 95:-0.93124878 96:0.057246719 97:0.35094309 98:-1.1249059 99:-0.90698719 100:-1.816465 101:1.9628429 102:0.54907078 #
19.094301974169127333880169317126 1:-1.6023999 2:-0.55469412 3:-0.63518971 4:1.3906879 5:0.60724622 6:1.526247 7:-0.46709111 8:0.47276241 9:1.44212 10:0.02602301 11:-0.93124878 12:0.057246719 13:-1.881449 14:0.69869518 15:0.290216 16:1.3906879 17:0.60724622 18:1.526247 19:0.02602301 20:-0.93124878 21:0.057246719 22:0.74849248 23:-0.87745529 24:0.36787239 25:-1.6023999 26:-0.55469412 27:-0.63518971 28:-1.029012 29:-1.3615969 30:-0.8358022 31:1.176623 32:0.2091741 33:-0.046295181 34:-1.029012 35:-1.3615969 36:-0.8358022 37:0.92050898 38:0.93538678 39:0.7173264 40:-1.6023999 41:-0.55469412 42:-0.63518971 43:-1.6023999 44:-0.55469412 45:-0.63518971 46:0.35094309 47:-1.1249059 48:-0.90698719 49:0.85170239 50:-2.883954 51:0.1931455 52:0.85170239 53:-2.883954 54:0.1931455 55:1.3906879 56:0.60724622 57:1.526247 58:1.100171 59:1.3549761 60:-2.2271459 61:0.83258939 62:0.28448501 63:-0.73873162 64:-1.6023999 65:-0.55469412 66:-0.63518971 67:-0.53207511 68:1.247389 69:0.0054757739 70:0.85170239 71:-2.883954 72:0.1931455 73:-0.46709111 74:0.47276241 75:1.44212 76:0.35094309 77:-1.1249059 78:-0.90698719 79:1.176623 80:0.2091741 81:-0.046295181 82:-1.697965 83:-0.90435201 84:-0.66754657 85:0.35094309 86:-1.1249059 87:-0.90698719 88:-1.6023999 89:-0.55469412 90:-0.63518971 91:0.2706688 92:-0.52241802 93:2.67168 94:0.02602301 95:-0.93124878 96:0.057246719 97:0.35094309 98:-1.1249059 99:-0.90698719 100:-1.816465 101:1.9628429 102:0.54907078 #
48.252976988054328444377460982651 1:-1.6023999 2:-0.55469412 3:-0.63518971 4:1.3906879 5:0.60724622 6:1.526247 7:-0.46709111 8:0.47276241 9:1.44212 10:0.02602301 11:-0.93124878 12:0.057246719 13:-1.881449 14:0.69869518 15:0.290216 16:1.3906879 17:0.60724622 18:1.526247 19:0.02602301 20:-0.93124878 21:0.057246719 22:0.74849248 23:-0.87745529 24:0.36787239 25:-1.6023999 26:-0.55469412 27:-0.63518971 28:0.2706688 29:-0.52241802 30:2.67168 31:1.176623 32:0.2091741 33:-0.046295181 34:-1.029012 35:-1.3615969 36:-0.8358022 37:0.92050898 38:0.93538678 39:0.7173264 40:-1.6023999 41:-0.55469412 42:-0.63518971 43:-1.6023999 44:-0.55469412 45:-0.63518971 46:0.35094309 47:-1.1249059 48:-0.90698719 49:0.85170239 50:-2.883954 51:0.1931455 52:0.85170239 53:-2.883954 54:0.1931455 55:1.3906879 56:0.60724622 57:1.526247 58:1.100171 59:1.3549761 60:-2.2271459 61:0.92050898 62:0.93538678 63:0.7173264 64:-1.6023999 65:-0.55469412 66:-0.63518971 67:-0.53207511 68:1.247389 69:0.0054757739 70:0.85170239 71:-2.883954 72:0.1931455 73:-0.46709111 74:0.47276241 75:1.44212 76:0.35094309 77:-1.1249059 78:-0.90698719 79:1.176623 80:0.2091741 81:-0.046295181 82:0.35094309 83:-1.1249059 84:-0.90698719 85:0.35094309 86:-1.1249059 87:-0.90698719 88:-1.6023999 89:-0.55469412 90:-0.63518971 91:0.2706688 92:-0.52241802 93:2.67168 94:0.02602301 95:-0.93124878 96:0.057246719 97:0.35094309 98:-1.1249059 99:-0.90698719 100:-1.816465 101:1.9628429 102:0.54907078 #
-23.820032086944479488010983914137 1:1.100171 2:1.3549761 3:-2.2271459 4:-1.816465 5:1.9628429 6:0.54907078 7:0.02602301 8:-0.93124878 9:0.057246719 10:0.35094309 11:-1.1249059 12:-0.90698719 13:-1.881449 14:0.69869518 15:0.290216 16:1.3906879 17:0.60724622 18:1.526247 19:-1.6023999 20:-0.55469412 21:-0.63518971 22:0.74849248 23:-0.87745529 24:0.36787239 25:-1.029012 26:-1.3615969 27:-0.8358022 28:-1.816465 29:1.9628429 30:0.54907078 31:1.176623 32:0.2091741 33:-0.046295181 34:-1.6023999 35:-0.55469412 36:-0.63518971 37:0.92050898 38:0.93538678 39:0.7173264 40:-1.881449 41:0.69869518 42:0.290216 43:-1.6023999 44:-0.55469412 45:-0.63518971 46:0.2706688 47:-0.52241802 48:2.67168 49:0.74849248 50:-0.87745529 51:0.36787239 52:0.85170239 53:-2.883954 54:0.1931455 55:1.176623 56:0.2091741 57:-0.046295181 58:0.92050898 59:0.93538678 60:0.7173264 61:1.230139 62:0.77938551 63:0.54259938 64:-1.6023999 65:-0.55469412 66:-0.63518971 67:-0.53207511 68:1.247389 69:0.0054757739 70:0.85170239 71:-2.883954 72:0.1931455 73:-0.46709111 74:0.47276241 75:1.44212 76:0.35094309 77:-1.1249059 78:-0.90698719 79:1.176623 80:0.2091741 81:-0.046295181 82:0.02602301 83:-0.93124878 84:0.057246719 85:0.02602301 86:-0.93124878 87:0.057246719 88:-1.697965 89:-0.90435201 90:-0.66754657 91:1.3906879 92:0.60724622 93:1.526247 94:-1.029012 95:-1.3615969 96:-0.8358022 97:0.35094309 98:-1.1249059 99:-0.90698719 100:0.02602301 101:-0.93124878 102:0.057246719 #
-2.0220684529882220203944598324597 1:0.74849248 2:-0.87745529 3:0.36787239 4:-1.816465 5:1.9628429 6:0.54907078 7:1.08488 8:0.75786811 9:-2.033005 10:-1.6023999 11:-0.55469412 12:-0.63518971 13:-1.881449 14:0.69869518 15:0.290216 16:1.3906879 17:0.60724622 18:1.526247 19:0.02602301 20:-0.93124878 21:0.057246719 22:-1.881449 23:0.69869518 24:0.290216 25:-1.029012 26:-1.3615969 27:-0.8358022 28:-1.6023999 29:-0.55469412 30:-0.63518971 31:1.230139 32:0.77938551 33:0.54259938 34:0.85170239 35:-2.883954 36:0.1931455 37:0.02602301 38:-0.93124878 39:0.057246719 40:0.02602301 41:-0.93124878 42:0.057246719 43:-1.029012 44:-1.3615969 45:-0.8358022 46:-1.029012 47:-1.3615969 48:-0.8358022 49:0.85170239 50:-2.883954 51:0.1931455 52:0.85170239 53:-2.883954 54:0.1931455 55:1.176623 56:0.2091741 57:-0.046295181 58:1.230139 59:0.77938551 60:0.54259938 61:1.230139 62:0.77938551 63:0.54259938 64:0.83258939 65:0.28448501 66:-0.73873162 67:-0.53207511 68:1.247389 69:0.0054757739 70:0.85170239 71:-2.883954 72:0.1931455 73:-0.46709111 74:0.47276241 75:1.44212 76:0.35094309 77:-1.1249059 78:-0.90698719 79:1.176623 80:0.2091741 81:-0.046295181 82:1.230139 83:0.77938551 84:0.54259938 85:0.74849248 86:-0.87745529 87:0.36787239 88:-1.029012 89:-1.3615969 90:-0.8358022 91:-1.029012 92:-1.3615969 93:-0.8358022 94:0.74849248 95:-0.87745529 96:0.36787239 97:0.35094309 98:-1.1249059 99:-0.90698719 100:-0.53207511 101:1.247389 102:0.0054757739 #
46.44931352528487877862062305212 1:-1.6023999 2:-0.55469412 3:-0.63518971 4:1.3906879 5:0.60724622 6:1.526247 7:-0.46709111 8:0.47276241 9:1.44212 10:0.02602301 11:-0.93124878 12:0.057246719 13:-1.881449 14:0.69869518 15:0.290216 16:1.3906879 17:0.60724622 18:1.526247 19:0.02602301 20:-0.93124878 21:0.057246719 22:0.74849248 23:-0.87745529 24:0.36787239 25:-1.6023999 26:-0.55469412 27:-0.63518971 28:-1.6023999 29:-0.55469412 30:-0.63518971 31:1.176623 32:0.2091741 33:-0.046295181 34:-1.029012 35:-1.3615969 36:-0.8358022 37:0.92050898 38:0.93538678 39:0.7173264 40:-1.6023999 41:-0.55469412 42:-0.63518971 43:-1.6023999 44:-0.55469412 45:-0.63518971 46:0.35094309 47:-1.1249059 48:-0.90698719 49:0.85170239 50:-2.883954 51:0.1931455 52:0.85170239 53:-2.883954 54:0.1931455 55:1.3906879 56:0.60724622 57:1.526247 58:1.100171 59:1.3549761 60:-2.2271459 61:1.176623 62:0.2091741 63:-0.046295181 64:-1.6023999 65:-0.55469412 66:-0.63518971 67:-0.53207511 68:1.247389 69:0.0054757739 70:0.85170239 71:-2.883954 72:0.1931455 73:-0.46709111 74:0.47276241 75:1.44212 76:0.35094309 77:-1.1249059 78:-0.90698719 79:1.176623 80:0.2091741 81:-0.046295181 82:-1.029012 83:-1.3615969 84:-0.8358022 85:0.35094309 86:-1.1249059 87:-0.90698719 88:-1.6023999 89:-0.55469412 90:-0.63518971 91:0.2706688 92:-0.52241802 93:2.67168 94:0.02602301 95:-0.93124878 96:0.057246719 97:0.35094309 98:-1.1249059 99:-0.90698719 100:-1.816465 101:1.9628429 102:0.54907078 #
34.033999851935249125745031051338 1:-1.6023999 2:-0.55469412 3:-0.63518971 4:1.3906879 5:0.60724622 6:1.526247 7:-0.46709111 8:0.47276241 9:1.44212 10:0.02602301 11:-0.93124878 12:0.057246719 13:-1.881449 14:0.69869518 15:0.290216 16:1.3906879 17:0.60724622 18:1.526247 19:0.02602301 20:-0.93124878 21:0.057246719 22:0.74849248 23:-0.87745529 24:0.36787239 25:-1.6023999 26:-0.55469412 27:-0.63518971 28:-1.881449 29:0.69869518 30:0.290216 31:1.176623 32:0.2091741 33:-0.046295181 34:0.02602301 35:-0.93124878 36:0.057246719 37:0.92050898 38:0.93538678 39:0.7173264 40:-1.6023999 41:-0.55469412 42:-0.63518971 43:-1.6023999 44:-0.55469412 45:-0.63518971 46:0.35094309 47:-1.1249059 48:-0.90698719 49:0.85170239 50:-2.883954 51:0.1931455 52:0.85170239 53:-2.883954 54:0.1931455 55:1.3906879 56:0.60724622 57:1.526247 58:1.100171 59:1.3549761 60:-2.2271459 61:0.92050898 62:0.93538678 63:0.7173264 64:-1.6023999 65:-0.55469412 66:-0.63518971 67:-0.53207511 68:1.247389 69:0.0054757739 70:0.85170239 71:-2.883954 72:0.1931455 73:-0.46709111 74:0.47276241 75:1.44212 76:0.35094309 77:-1.1249059 78:-0.90698719 79:1.176623 80:0.2091741 81:-0.046295181 82:0.35094309 83:-1.1249059 84:-0.90698719 85:0.35094309 86:-1.1249059 87:-0.90698719 88:-1.6023999 89:-0.55469412 90:-0.63518971 91:0.2706688 92:-0.52241802 93:2.67168 94:0.85170239 95:-2.883954 96:0.1931455 97:0.35094309 98:-1.1249059 99:-0.90698719 100:-1.816465 101:1.9628429 102:0.54907078 #
-49.006267454925804827325919177383 1:-1.6023999 2:-0.55469412 3:-0.63518971 4:1.3906879 5:0.60724622 6:1.526247 7:0.02602301 8:-0.93124878 9:0.057246719 10:0.02602301 11:-0.93124878 12:0.057246719 13:-1.881449 14:0.69869518 15:0.290216 16:1.3906879 17:0.60724622 18:1.526247 19:0.02602301 20:-0.93124878 21:0.057246719 22:0.74849248 23:-0.87745529 24:0.36787239 25:-1.6023999 26:-0.55469412 27:-0.63518971 28:-0.53207511 29:1.247389 30:0.0054757739 31:1.176623 32:0.2091741 33:-0.046295181 34:-1.029012 35:-1.3615969 36:-0.8358022 37:0.92050898 38:0.93538678 39:0.7173264 40:-1.6023999 41:-0.55469412 42:-0.63518971 43:0.85170239 44:-2.883954 45:0.1931455 46:0.35094309 47:-1.1249059 48:-0.90698719 49:0.85170239 50:-2.883954 51:0.1931455 52:0.85170239 53:-2.883954 54:0.1931455 55:1.3906879 56:0.60724622 57:1.526247 58:1.100171 59:1.3549761 60:-2.2271459 61:1.230139 62:0.77938551 63:0.54259938 64:0.35094309 65:-1.1249059 66:-0.90698719 67:-0.53207511 68:1.247389 69:0.0054757739 70:0.85170239 71:-2.883954 72:0.1931455 73:-0.46709111 74:0.47276241 75:1.44212 76:0.35094309 77:-1.1249059 78:-0.90698719 79:1.176623 80:0.2091741 81:-0.046295181 82:0.35094309 83:-1.1249059 84:-0.90698719 85:0.35094309 86:-1.1249059 87:-0.90698719 88:-1.6023999 89:-0.55469412 90:-0.63518971 91:0.2706688 92:-0.52241802 93:2.67168 94:0.02602301 95:-0.93124878 96:0.057246719 97:0.35094309 98:-1.1249059 99:-0.90698719 100:-1.816465 101:1.9628429 102:0.54907078 #
-4.7453615128746058360320603242144 1:-1.6023999 2:-0.55469412 3:-0.63518971 4:1.3906879 5:0.60724622 6:1.526247 7:1.176623 8:0.2091741 9:-0.046295181 10:0.02602301 11:-0.93124878 12:0.057246719 13:-1.881449 14:0.69869518 15:0.290216 16:1.3906879 17:0.60724622 18:1.526247 19:-0.46709111 20:0.47276241 21:1.44212 22:0.74849248 23:-0.87745529 24:0.36787239 25:-1.6023999 26:-0.55469412 27:-0.63518971 28:-0.53207511 29:1.247389 30:0.0054757739 31:0.02602301 32:-0.93124878 33:0.057246719 34:-1.029012 35:-1.3615969 36:-0.8358022 37:0.92050898 38:0.93538678 39:0.7173264 40:-1.6023999 41:-0.55469412 42:-0.63518971 43:0.85170239 44:-2.883954 45:0.1931455 46:0.35094309 47:-1.1249059 48:-0.90698719 49:0.85170239 50:-2.883954 51:0.1931455 52:0.85170239 53:-2.883954 54:0.1931455 55:1.3906879 56:0.60724622 57:1.526247 58:1.100171 59:1.3549761 60:-2.2271459 61:1.230139 62:0.77938551 63:0.54259938 64:0.35094309 65:-1.1249059 66:-0.90698719 67:-0.53207511 68:1.247389 69:0.0054757739 70:0.85170239 71:-2.883954 72:0.1931455 73:-0.46709111 74:0.47276241 75:1.44212 76:0.35094309 77:-1.1249059 78:-0.90698719 79:1.176623 80:0.2091741 81:-0.046295181 82:0.35094309 83:-1.1249059 84:-0.90698719 85:0.35094309 86:-1.1249059 87:-0.90698719 88:-1.6023999 89:-0.55469412 90:-0.63518971 91:0.2706688 92:-0.52241802 93:2.67168 94:0.02602301 95:-0.93124878 96:0.057246719 97:0.35094309 98:-1.1249059 99:-0.90698719 100:-1.816465 101:1.9628429 102:0.54907078 #
-17.430955796243161159964074613526 1:1.100171 2:1.3549761 3:-2.2271459 4:-1.816465 5:1.9628429 6:0.54907078 7:0.83258939 8:0.28448501 9:-0.73873162 10:0.02602301 11:-0.93124878 12:0.057246719 13:-1.881449 14:0.69869518 15:0.290216 16:1.3906879 17:0.60724622 18:1.526247 19:-1.697965 20:-0.90435201 21:-0.66754657 22:0.74849248 23:-0.87745529 24:0.36787239 25:-1.697965 26:-0.90435201 27:-0.66754657 28:1.230139 29:0.77938551 30:0.54259938 31:1.176623 32:0.2091741 33:-0.046295181 34:-1.6023999 35:-0.55469412 36:-0.63518971 37:-0.53207511 38:1.247389 39:0.0054757739 40:-1.6023999 41:-0.55469412 42:-0.63518971 43:-1.816465 44:1.9628429 45:0.54907078 46:0.2706688 47:-0.52241802 48:2.67168 49:0.85170239 50:-2.883954 51:0.1931455 52:0.85170239 53:-2.883954 54:0.1931455 55:1.176623 56:0.2091741 57:-0.046295181 58:-0.53207511 59:1.247389 60:0.0054757739 61:0.92050898 62:0.93538678 63:0.7173264 64:0.85170239 65:-2.883954 66:0.1931455 67:-0.53207511 68:1.247389 69:0.0054757739 70:0.85170239 71:-2.883954 72:0.1931455 73:-0.46709111 74:0.47276241 75:1.44212 76:0.02602301 77:-0.93124878 78:0.057246719 79:1.176623 80:0.2091741 81:-0.046295181 82:0.35094309 83:-1.1249059 84:-0.90698719 85:0.35094309 86:-1.1249059 87:-0.90698719 88:-1.697965 89:-0.90435201 90:-0.66754657 91:0.85170239 92:-2.883954 93:0.1931455 94:-1.029012 95:-1.3615969 96:-0.8358022 97:0.74849248 98:-0.87745529 99:0.36787239 100:0.92050898 101:0.93538678 102:0.7173264 #
-5.2401362858882407635974232107401 1:-1.6023999 2:-0.55469412 3:-0.63518971 4:0.02602301 5:-0.93124878 6:0.057246719 7:0.2706688 8:-0.52241802 9:2.67168 10:0.92050898 11:0.93538678 12:0.7173264 13:-1.881449 14:0.69869518 15:0.290216 16:1.3906879 17:0.60724622 18:1.526247 19:-1.881449 20:0.69869518 21:0.290216 22:0.74849248 23:-0.87745529 24:0.36787239 25:-1.029012 26:-1.3615969 27:-0.8358022 28:-1.816465 29:1.9628429 30:0.54907078 31:1.176623 32:0.2091741 33:-0.046295181 34:0.85170239 35:-2.883954 36:0.1931455 37:0.74849248 38:-0.87745529 39:0.36787239 40:0.83258939 41:0.28448501 42:-0.73873162 43:-1.029012 44:-1.3615969 45:-0.8358022 46:-1.881449 47:0.69869518 48:0.290216 49:0.85170239 50:-2.883954 51:0.1931455 52:0.85170239 53:-2.883954 54:0.1931455 55:1.176623 56:0.2091741 57:-0.046295181 58:-1.029012 59:-1.3615969 60:-0.8358022 61:1.230139 62:0.77938551 63:0.54259938 64:-0.95256001 65:-0.14586321 66:-0.26632169 67:-0.53207511 68:1.247389 69:0.0054757739 70:0.85170239 71:-2.883954 72:0.1931455 73:-1.697965 74:-0.90435201 75:-0.66754657 76:0.35094309 77:-1.1249059 78:-0.90698719 79:1.176623 80:0.2091741 81:-0.046295181 82:0.35094309 83:-1.1249059 84:-0.90698719 85:0.35094309 86:-1.1249059 87:-0.90698719 88:-1.029012 89:-1.3615969 90:-0.8358022 91:0.92050898 92:0.93538678 93:0.7173264 94:-1.029012 95:-1.3615969 96:-0.8358022 97:0.35094309 98:-1.1249059 99:-0.90698719 100:0.92050898 101:0.93538678 102:0.7173264 #
-3.7554637661165752859915301087312 1:-1.6023999 2:-0.55469412 3:-0.63518971 4:0.74849248 5:-0.87745529 6:0.36787239 7:1.3906879 8:0.60724622 9:1.526247 10:-1.881449 11:0.69869518 12:0.290216 13:-1.881449 14:0.69869518 15:0.290216 16:1.3906879 17:0.60724622 18:1.526247 19:0.85170239 20:-2.883954 21:0.1931455 22:0.02602301 23:-0.93124878 24:0.057246719 25:-1.697965 26:-0.90435201 27:-0.66754657 28:-1.816465 29:1.9628429 30:0.54907078 31:1.176623 32:0.2091741 33:-0.046295181 34:-1.816465 35:1.9628429 36:0.54907078 37:-1.881449 38:0.69869518 39:0.290216 40:-1.881449 41:0.69869518 42:0.290216 43:-1.697965 44:-0.90435201 45:-0.66754657 46:-1.029012 47:-1.3615969 48:-0.8358022 49:0.85170239 50:-2.883954 51:0.1931455 52:0.85170239 53:-2.883954 54:0.1931455 55:1.176623 56:0.2091741 57:-0.046295181 58:0.02602301 59:-0.93124878 60:0.057246719 61:1.230139 62:0.77938551 63:0.54259938 64:-1.697965 65:-0.90435201 66:-0.66754657 67:-0.53207511 68:1.247389 69:0.0054757739 70:0.85170239 71:-2.883954 72:0.1931455 73:-0.46709111 74:0.47276241 75:1.44212 76:0.35094309 77:-1.1249059 78:-0.90698719 79:1.176623 80:0.2091741 81:-0.046295181 82:0.02602301 83:-0.93124878 84:0.057246719 85:0.85170239 86:-2.883954 87:0.1931455 88:-1.697965 89:-0.90435201 90:-0.66754657 91:-1.697965 92:-0.90435201 93:-0.66754657 94:0.74849248 95:-0.87745529 96:0.36787239 97:0.35094309 98:-1.1249059 99:-0.90698719 100:0.2706688 101:-0.52241802 102:2.67168 #
-2.7709540605833105075817002216354 1:-1.6023999 2:-0.55469412 3:-0.63518971 4:-1.816465 5:1.9628429 6:0.54907078 7:0.2706688 8:-0.52241802 9:2.67168 10:0.35094309 11:-1.1249059 12:-0.90698719 13:-1.881449 14:0.69869518 15:0.290216 16:1.3906879 17:0.60724622 18:1.526247 19:-1.6023999 20:-0.55469412 21:-0.63518971 22:0.74849248 23:-0.87745529 24:0.36787239 25:-1.029012 26:-1.3615969 27:-0.8358022 28:-1.881449 29:0.69869518 30:0.290216 31:1.3906879 32:0.60724622 33:1.526247 34:0.85170239 35:-2.883954 36:0.1931455 37:1.230139 38:0.77938551 39:0.54259938 40:0.74849248 41:-0.87745529 42:0.36787239 43:-1.881449 44:0.69869518 45:0.290216 46:-1.6023999 47:-0.55469412 48:-0.63518971 49:0.74849248 50:-0.87745529 51:0.36787239 52:0.85170239 53:-2.883954 54:0.1931455 55:1.3906879 56:0.60724622 57:1.526247 58:-1.697965 59:-0.90435201 60:-0.66754657 61:0.74849248 62:-0.87745529 63:0.36787239 64:-1.6023999 65:-0.55469412 66:-0.63518971 67:0.85170239 68:-2.883954 69:0.1931455 70:0.85170239 71:-2.883954 72:0.1931455 73:0.02602301 74:-0.93124878 75:0.057246719 76:0.35094309 77:-1.1249059 78:-0.90698719 79:1.176623 80:0.2091741 81:-0.046295181 82:0.02602301 83:-0.93124878 84:0.057246719 85:0.35094309 86:-1.1249059 87:-0.90698719 88:-1.029012 89:-1.3615969 90:-0.8358022 91:-1.816465 92:1.9628429 93:0.54907078 94:0.74849248 95:-0.87745529 96:0.36787239 97:1.230139 98:0.77938551 99:0.54259938 100:-1.816465 101:1.9628429 102:0.54907078 #
-2.0742814844209362945548491552472 1:1.100171 2:1.3549761 3:-2.2271459 4:-1.816465 5:1.9628429 6:0.54907078 7:-0.95256001 8:-0.14586321 9:-0.26632169 10:0.02602301 11:-0.93124878 12:0.057246719 13:-1.881449 14:0.69869518 15:0.290216 16:1.3906879 17:0.60724622 18:1.526247 19:-1.029012 20:-1.3615969 21:-0.8358022 22:0.74849248 23:-0.87745529 24:0.36787239 25:-1.029012 26:-1.3615969 27:-0.8358022 28:-1.816465 29:1.9628429 30:0.54907078 31:1.176623 32:0.2091741 33:-0.046295181 34:-1.816465 35:1.9628429 36:0.54907078 37:0.92050898 38:0.93538678 39:0.7173264 40:-1.881449 41:0.69869518 42:0.290216 43:-1.881449 44:0.69869518 45:0.290216 46:0.74849248 47:-0.87745529 48:0.36787239 49:0.85170239 50:-2.883954 51:0.1931455 52:0.85170239 53:-2.883954 54:0.1931455 55:1.176623 56:0.2091741 57:-0.046295181 58:0.92050898 59:0.93538678 60:0.7173264 61:1.230139 62:0.77938551 63:0.54259938 64:1.100171 65:1.3549761 66:-2.2271459 67:-0.53207511 68:1.247389 69:0.0054757739 70:0.85170239 71:-2.883954 72:0.1931455 73:-0.46709111 74:0.47276241 75:1.44212 76:0.35094309 77:-1.1249059 78:-0.90698719 79:1.176623 80:0.2091741 81:-0.046295181 82:0.35094309 83:-1.1249059 84:-0.90698719 85:0.02602301 86:-0.93124878 87:0.057246719 88:-1.697965 89:-0.90435201 90:-0.66754657 91:1.230139 92:0.77938551 93:0.54259938 94:-1.029012 95:-1.3615969 96:-0.8358022 97:0.35094309 98:-1.1249059 99:-0.90698719 100:0.92050898 101:0.93538678 102:0.7173264 #
-17.043014406029705298806220525876 1:-1.6023999 2:-0.55469412 3:-0.63518971 4:1.3906879 5:0.60724622 6:1.526247 7:-0.46709111 8:0.47276241 9:1.44212 10:0.02602301 11:-0.93124878 12:0.057246719 13:-1.881449 14:0.69869518 15:0.290216 16:1.3906879 17:0.60724622 18:1.526247 19:0.02602301 20:-0.93124878 21:0.057246719 22:0.74849248 23:-0.87745529 24:0.36787239 25:-1.6023999 26:-0.55469412 27:-0.63518971 28:-0.53207511 29:1.247389 30:0.0054757739 31:1.3906879 32:0.60724622 33:1.526247 34:-1.029012 35:-1.3615969 36:-0.8358022 37:1.230139 38:0.77938551 39:0.54259938 40:-1.881449 41:0.69869518 42:0.290216 43:-1.6023999 44:-0.55469412 45:-0.63518971 46:0.02602301 47:-0.93124878 48:0.057246719 49:0.85170239 50:-2.883954 51:0.1931455 52:0.85170239 53:-2.883954 54:0.1931455 55:1.3906879 56:0.60724622 57:1.526247 58:-1.816465 59:1.9628429 60:0.54907078 61:0.92050898 62:0.93538678 63:0.7173264 64:0.35094309 65:-1.1249059 66:-0.90698719 67:-0.53207511 68:1.247389 69:0.0054757739 70:0.85170239 71:-2.883954 72:0.1931455 73:-0.46709111 74:0.47276241 75:1.44212 76:0.35094309 77:-1.1249059 78:-0.90698719 79:1.176623 80:0.2091741 81:-0.046295181 82:0.35094309 83:-1.1249059 84:-0.90698719 85:0.35094309 86:-1.1249059 87:-0.90698719 88:-1.6023999 89:-0.55469412 90:-0.63518971 91:0.2706688 92:-0.52241802 93:2.67168 94:0.02602301 95:-0.93124878 96:0.057246719 97:0.35094309 98:-1.1249059 99:-0.90698719 100:-1.816465 101:1.9628429 102:0.54907078 #
-17.731796841202196901576826348901 1:1.100171 2:1.3549761 3:-2.2271459 4:-1.816465 5:1.9628429 6:0.54907078 7:-0.95256001 8:-0.14586321 9:-0.26632169 10:0.35094309 11:-1.1249059 12:-0.90698719 13:-1.881449 14:0.69869518 15:0.290216 16:1.3906879 17:0.60724622 18:1.526247 19:-1.029012 20:-1.3615969 21:-0.8358022 22:0.74849248 23:-0.87745529 24:0.36787239 25:-1.029012 26:-1.3615969 27:-0.8358022 28:-1.816465 29:1.9628429 30:0.54907078 31:1.176623 32:0.2091741 33:-0.046295181 34:0.02602301 35:-0.93124878 36:0.057246719 37:0.92050898 38:0.93538678 39:0.7173264 40:-1.881449 41:0.69869518 42:0.290216 43:-1.881449 44:0.69869518 45:0.290216 46:0.2706688 47:-0.52241802 48:2.67168 49:0.74849248 50:-0.87745529 51:0.36787239 52:0.85170239 53:-2.883954 54:0.1931455 55:1.176623 56:0.2091741 57:-0.046295181 58:-1.697965 59:-0.90435201 60:-0.66754657 61:1.230139 62:0.77938551 63:0.54259938 64:-1.6023999 65:-0.55469412 66:-0.63518971 67:-0.53207511 68:1.247389 69:0.0054757739 70:0.85170239 71:-2.883954 72:0.1931455 73:-0.46709111 74:0.47276241 75:1.44212 76:0.35094309 77:-1.1249059 78:-0.90698719 79:1.176623 80:0.2091741 81:-0.046295181 82:0.02602301 83:-0.93124878 84:0.057246719 85:0.02602301 86:-0.93124878 87:0.057246719 88:-1.697965 89:-0.90435201 90:-0.66754657 91:1.176623 92:0.2091741 93:-0.046295181 94:-1.029012 95:-1.3615969 96:-0.8358022 97:0.35094309 98:-1.1249059 99:-0.90698719 100:-0.53207511 101:1.247389 102:0.0054757739 #
-5.3672368017341565149536108947359 1:0.83258939 2:0.28448501 3:-0.73873162 4:-1.029012 5:-1.3615969 6:-0.8358022 7:0.35094309 8:-1.1249059 9:-0.90698719 10:-1.6023999 11:-0.55469412 12:-0.63518971 13:-1.881449 14:0.69869518 15:0.290216 16:-0.46709111 17:0.47276241 18:1.44212 19:-1.881449 20:0.69869518 21:0.290216 22:0.85170239 23:-2.883954 24:0.1931455 25:0.2706688 26:-0.52241802 27:2.67168 28:-0.46709111 29:0.47276241 30:1.44212 31:0.85170239 32:-2.883954 33:0.1931455 34:0.85170239 35:-2.883954 36:0.1931455 37:0.74849248 38:-0.87745529 39:0.36787239 40:-1.029012 41:-1.3615969 42:-0.8358022 43:0.83258939 44:0.28448501 45:-0.73873162 46:-1.029012 47:-1.3615969 48:-0.8358022 49:0.85170239 50:-2.883954 51:0.1931455 52:0.74849248 53:-0.87745529 54:0.36787239 55:0.02602301 56:-0.93124878 57:0.057246719 58:0.83258939 59:0.28448501 60:-0.73873162 61:0.83258939 62:0.28448501 63:-0.73873162 64:-1.029012 65:-1.3615969 66:-0.8358022 67:-1.881449 68:0.69869518 69:0.290216 70:0.85170239 71:-2.883954 72:0.1931455 73:-0.95256001 74:-0.14586321 75:-0.26632169 76:0.02602301 77:-0.93124878 78:0.057246719 79:1.176623 80:0.2091741 81:-0.046295181 82:0.85170239 83:-2.883954 84:0.1931455 85:-1.6023999 86:-0.55469412 87:-0.63518971 88:-1.6023999 89:-0.55469412 90:-0.63518971 91:0.35094309 92:-1.1249059 93:-0.90698719 94:-1.881449 95:0.69869518 96:0.290216 97:0.35094309 98:-1.1249059 99:-0.90698719 100:1.100171 101:1.3549761 102:-2.2271459 #
-16.738761275846577802894898923114 1:-1.6023999 2:-0.55469412 3:-0.63518971 4:0.92050898 5:0.93538678 6:0.7173264 7:0.92050898 8:0.93538678 9:0.7173264 10:0.02602301 11:-0.93124878 12:0.057246719 13:-1.881449 14:0.69869518 15:0.290216 16:1.3906879 17:0.60724622 18:1.526247 19:0.02602301 20:-0.93124878 21:0.057246719 22:0.74849248 23:-0.87745529 24:0.36787239 25:-1.6023999 26:-0.55469412 27:-0.63518971 28:1.3906879 29:0.60724622 30:1.526247 31:0.83258939 32:0.28448501 33:-0.73873162 34:-1.816465 35:1.9628429 36:0.54907078 37:1.3906879 38:0.60724622 39:1.526247 40:0.35094309 41:-1.1249059 42:-0.90698719 43:-1.029012 44:-1.3615969 45:-0.8358022 46:-1.029012 47:-1.3615969 48:-0.8358022 49:0.85170239 50:-2.883954 51:0.1931455 52:0.85170239 53:-2.883954 54:0.1931455 55:1.176623 56:0.2091741 57:-0.046295181 58:1.100171 59:1.3549761 60:-2.2271459 61:1.230139 62:0.77938551 63:0.54259938 64:-1.6023999 65:-0.55469412 66:-0.63518971 67:-0.53207511 68:1.247389 69:0.0054757739 70:0.85170239 71:-2.883954 72:0.1931455 73:-0.46709111 74:0.47276241 75:1.44212 76:0.35094309 77:-1.1249059 78:-0.90698719 79:1.176623 80:0.2091741 81:-0.046295181 82:0.35094309 83:-1.1249059 84:-0.90698719 85:0.35094309 86:-1.1249059 87:-0.90698719 88:-1.029012 89:-1.3615969 90:-0.8358022 91:1.3906879 92:0.60724622 93:1.526247 94:0.02602301 95:-0.93124878 96:0.057246719 97:-1.697965 98:-0.90435201 99:-0.66754657 100:0.02602301 101:-0.93124878 102:0.057246719 #
-4.0747697187623543868539854884148 1:-1.6023999 2:-0.55469412 3:-0.63518971 4:1.3906879 5:0.60724622 6:1.526247 7:1.100171 8:1.3549761 9:-2.2271459 10:0.74849248 11:-0.87745529 12:0.36787239 13:-1.881449 14:0.69869518 15:0.290216 16:1.3906879 17:0.60724622 18:1.526247 19:-1.697965 20:-0.90435201 21:-0.66754657 22:0.74849248 23:-0.87745529 24:0.36787239 25:0.35094309 26:-1.1249059 27:-0.90698719 28:-1.881449 29:0.69869518 30:0.290216 31:1.176623 32:0.2091741 33:-0.046295181 34:0.02602301 35:-0.93124878 36:0.057246719 37:-1.6023999 38:-0.55469412 39:-0.63518971 40:-1.6023999 41:-0.55469412 42:-0.63518971 43:-1.816465 44:1.9628429 45:0.54907078 46:0.35094309 47:-1.1249059 48:-0.90698719 49:0.85170239 50:-2.883954 51:0.1931455 52:0.85170239 53:-2.883954 54:0.1931455 55:1.3906879 56:0.60724622 57:1.526247 58:1.08488 59:0.75786811 60:-2.033005 61:0.35094309 62:-1.1249059 63:-0.90698719 64:-1.6023999 65:-0.55469412 66:-0.63518971 67:-0.53207511 68:1.247389 69:0.0054757739 70:0.85170239 71:-2.883954 72:0.1931455 73:-0.46709111 74:0.47276241 75:1.44212 76:0.35094309 77:-1.1249059 78:-0.90698719 79:1.176623 80:0.2091741 81:-0.046295181 82:0.35094309 83:-1.1249059 84:-0.90698719 85:0.35094309 86:-1.1249059 87:-0.90698719 88:-1.6023999 89:-0.55469412 90:-0.63518971 91:0.85170239 92:-2.883954 93:0.1931455 94:0.2706688 95:-0.52241802 96:2.67168 97:0.35094309 98:-1.1249059 99:-0.90698719 100:-1.816465 101:1.9628429 102:0.54907078 #
-2.4152250348970483173616230487823 1:1.100171 2:1.3549761 3:-2.2271459 4:-1.816465 5:1.9628429 6:0.54907078 7:-0.95256001 8:-0.14586321 9:-0.26632169 10:0.35094309 11:-1.1249059 12:-0.90698719 13:-1.881449 14:0.69869518 15:0.290216 16:1.3906879 17:0.60724622 18:1.526247 19:-1.029012 20:-1.3615969 21:-0.8358022 22:0.74849248 23:-0.87745529 24:0.36787239 25:-1.029012 26:-1.3615969 27:-0.8358022 28:-1.816465 29:1.9628429 30:0.54907078 31:1.176623 32:0.2091741 33:-0.046295181 34:-1.816465 35:1.9628429 36:0.54907078 37:0.92050898 38:0.93538678 39:0.7173264 40:-1.881449 41:0.69869518 42:0.290216 43:-1.881449 44:0.69869518 45:0.290216 46:0.2706688 47:-0.52241802 48:2.67168 49:0.74849248 50:-0.87745529 51:0.36787239 52:0.85170239 53:-2.883954 54:0.1931455 55:1.176623 56:0.2091741 57:-0.046295181 58:0.92050898 59:0.93538678 60:0.7173264 61:1.230139 62:0.77938551 63:0.54259938 64:-1.6023999 65:-0.55469412 66:-0.63518971 67:-0.53207511 68:1.247389 69:0.0054757739 70:0.85170239 71:-2.883954 72:0.1931455 73:-0.46709111 74:0.47276241 75:1.44212 76:0.35094309 77:-1.1249059 78:-0.90698719 79:1.176623 80:0.2091741 81:-0.046295181 82:0.02602301 83:-0.93124878 84:0.057246719 85:0.74849248 86:-0.87745529 87:0.36787239 88:-1.697965 89:-0.90435201 90:-0.66754657 91:1.3906879 92:0.60724622 93:1.526247 94:-1.029012 95:-1.3615969 96:-0.8358022 97:-1.6023999 98:-0.55469412 99:-0.63518971 100:0.92050898 101:0.93538678 102:0.7173264 #
-7.4882910110782745505275670439005 1:-1.029012 2:-1.3615969 3:-0.8358022 4:0.92050898 5:0.93538678 6:0.7173264 7:-1.881449 8:0.69869518 9:0.290216 10:0.35094309 11:-1.1249059 12:-0.90698719 13:-1.881449 14:0.69869518 15:0.290216 16:1.3906879 17:0.60724622 18:1.526247 19:-1.697965 20:-0.90435201 21:-0.66754657 22:0.74849248 23:-0.87745529 24:0.36787239 25:0.02602301 26:-0.93124878 27:0.057246719 28:-1.6023999 29:-0.55469412 30:-0.63518971 31:1.176623 32:0.2091741 33:-0.046295181 34:-1.6023999 35:-0.55469412 36:-0.63518971 37:0.83258939 38:0.28448501 39:-0.73873162 40:0.02602301 41:-0.93124878 42:0.057246719 43:-1.029012 44:-1.3615969 45:-0.8358022 46:0.2706688 47:-0.52241802 48:2.67168 49:0.85170239 50:-2.883954 51:0.1931455 52:0.85170239 53:-2.883954 54:0.1931455 55:1.176623 56:0.2091741 57:-0.046295181 58:-1.6023999 59:-0.55469412 60:-0.63518971 61:1.230139 62:0.77938551 63:0.54259938 64:-1.029012 65:-1.3615969 66:-0.8358022 67:-0.53207511 68:1.247389 69:0.0054757739 70:0.85170239 71:-2.883954 72:0.1931455 73:-0.46709111 74:0.47276241 75:1.44212 76:0.74849248 77:-0.87745529 78:0.36787239 79:1.176623 80:0.2091741 81:-0.046295181 82:0.35094309 83:-1.1249059 84:-0.90698719 85:0.35094309 86:-1.1249059 87:-0.90698719 88:-1.697965 89:-0.90435201 90:-0.66754657 91:-1.816465 92:1.9628429 93:0.54907078 94:0.74849248 95:-0.87745529 96:0.36787239 97:0.35094309 98:-1.1249059 99:-0.90698719 100:0.74849248 101:-0.87745529 102:0.36787239 #
-6.024185230346517982980003580451 1:-1.6023999 2:-0.55469412 3:-0.63518971 4:1.3906879 5:0.60724622 6:1.526247 7:-1.881449 8:0.69869518 9:0.290216 10:0.35094309 11:-1.1249059 12:-0.90698719 13:-1.881449 14:0.69869518 15:0.290216 16:1.3906879 17:0.60724622 18:1.526247 19:-1.697965 20:-0.90435201 21:-0.66754657 22:0.74849248 23:-0.87745529 24:0.36787239 25:1.230139 26:0.77938551 27:0.54259938 28:-1.6023999 29:-0.55469412 30:-0.63518971 31:1.176623 32:0.2091741 33:-0.046295181 34:-1.6023999 35:-0.55469412 36:-0.63518971 37:0.83258939 38:0.28448501 39:-0.73873162 40:0.02602301 41:-0.93124878 42:0.057246719 43:-1.6023999 44:-0.55469412 45:-0.63518971 46:-1.029012 47:-1.3615969 48:-0.8358022 49:0.85170239 50:-2.883954 51:0.1931455 52:0.85170239 53:-2.883954 54:0.1931455 55:1.176623 56:0.2091741 57:-0.046295181 58:0.35094309 59:-1.1249059 60:-0.90698719 61:1.230139 62:0.77938551 63:0.54259938 64:-1.029012 65:-1.3615969 66:-0.8358022 67:-0.53207511 68:1.247389 69:0.0054757739 70:0.85170239 71:-2.883954 72:0.1931455 73:-0.46709111 74:0.47276241 75:1.44212 76:0.35094309 77:-1.1249059 78:-0.90698719 79:1.176623 80:0.2091741 81:-0.046295181 82:0.35094309 83:-1.1249059 84:-0.90698719 85:0.35094309 86:-1.1249059 87:-0.90698719 88:-1.697965 89:-0.90435201 90:-0.66754657 91:-1.816465 92:1.9628429 93:0.54907078 94:0.74849248 95:-0.87745529 96:0.36787239 97:0.35094309 98:-1.1249059 99:-0.90698719 100:0.02602301 101:-0.93124878 102:0.057246719 #
-0.29550821895657009008573368191719 1:-1.6023999 2:-0.55469412 3:-0.63518971 4:0.02602301 5:-0.93124878 6:0.057246719 7:0.02602301 8:-0.93124878 9:0.057246719 10:0.92050898 11:0.93538678 12:0.7173264 13:-1.881449 14:0.69869518 15:0.290216 16:1.3906879 17:0.60724622 18:1.526247 19:-1.881449 20:0.69869518 21:0.290216 22:0.74849248 23:-0.87745529 24:0.36787239 25:-1.029012 26:-1.3615969 27:-0.8358022 28:-1.816465 29:1.9628429 30:0.54907078 31:1.176623 32:0.2091741 33:-0.046295181 34:0.85170239 35:-2.883954 36:0.1931455 37:1.230139 38:0.77938551 39:0.54259938 40:0.83258939 41:0.28448501 42:-0.73873162 43:-1.697965 44:-0.90435201 45:-0.66754657 46:-1.881449 47:0.69869518 48:0.290216 49:0.85170239 50:-2.883954 51:0.1931455 52:0.85170239 53:-2.883954 54:0.1931455 55:1.176623 56:0.2091741 57:-0.046295181 58:-1.029012 59:-1.3615969 60:-0.8358022 61:1.230139 62:0.77938551 63:0.54259938 64:-0.95256001 65:-0.14586321 66:-0.26632169 67:-0.53207511 68:1.247389 69:0.0054757739 70:0.02602301 71:-0.93124878 72:0.057246719 73:-0.46709111 74:0.47276241 75:1.44212 76:0.35094309 77:-1.1249059 78:-0.90698719 79:1.176623 80:0.2091741 81:-0.046295181 82:0.35094309 83:-1.1249059 84:-0.90698719 85:0.35094309 86:-1.1249059 87:-0.90698719 88:-1.029012 89:-1.3615969 90:-0.8358022 91:-1.029012 92:-1.3615969 93:-0.8358022 94:0.2706688 95:-0.52241802 96:2.67168 97:0.35094309 98:-1.1249059 99:-0.90698719 100:0.02602301 101:-0.93124878 102:0.057246719 #
-0.66586520857777209414507524343207 1:-1.029012 2:-1.3615969 3:-0.8358022 4:0.85170239 5:-2.883954 6:0.1931455 7:-0.95256001 8:-0.14586321 9:-0.26632169 10:0.35094309 11:-1.1249059 12:-0.90698719 13:-1.881449 14:0.69869518 15:0.290216 16:1.3906879 17:0.60724622 18:1.526247 19:-1.697965 20:-0.90435201 21:-0.66754657 22:0.74849248 23:-0.87745529 24:0.36787239 25:-1.029012 26:-1.3615969 27:-0.8358022 28:0.02602301 29:-0.93124878 30:0.057246719 31:1.176623 32:0.2091741 33:-0.046295181 34:0.85170239 35:-2.883954 36:0.1931455 37:1.230139 38:0.77938551 39:0.54259938 40:-1.881449 41:0.69869518 42:0.290216 43:-1.6023999 44:-0.55469412 45:-0.63518971 46:0.02602301 47:-0.93124878 48:0.057246719 49:0.2706688 50:-0.52241802 51:2.67168 52:0.85170239 53:-2.883954 54:0.1931455 55:1.176623 56:0.2091741 57:-0.046295181 58:1.176623 59:0.2091741 60:-0.046295181 61:1.230139 62:0.77938551 63:0.54259938 64:-1.697965 65:-0.90435201 66:-0.66754657 67:-0.53207511 68:1.247389 69:0.0054757739 70:0.85170239 71:-2.883954 72:0.1931455 73:-0.46709111 74:0.47276241 75:1.44212 76:0.35094309 77:-1.1249059 78:-0.90698719 79:1.176623 80:0.2091741 81:-0.046295181 82:0.02602301 83:-0.93124878 84:0.057246719 85:0.35094309 86:-1.1249059 87:-0.90698719 88:-1.697965 89:-0.90435201 90:-0.66754657 91:-0.53207511 92:1.247389 93:0.0054757739 94:0.02602301 95:-0.93124878 96:0.057246719 97:0.74849248 98:-0.87745529 99:0.36787239 100:1.100171 101:1.3549761 102:-2.2271459 #
9.2302462290085713902954012155533 1:-1.6023999 2:-0.55469412 3:-0.63518971 4:1.3906879 5:0.60724622 6:1.526247 7:-0.46709111 8:0.47276241 9:1.44212 10:0.02602301 11:-0.93124878 12:0.057246719 13:-1.881449 14:0.69869518 15:0.290216 16:1.3906879 17:0.60724622 18:1.526247 19:-1.697965 20:-0.90435201 21:-0.66754657 22:0.74849248 23:-0.87745529 24:0.36787239 25:1.3906879 26:0.60724622 27:1.526247 28:-0.53207511 29:1.247389 30:0.0054757739 31:1.176623 32:0.2091741 33:-0.046295181 34:-1.029012 35:-1.3615969 36:-0.8358022 37:0.92050898 38:0.93538678 39:0.7173264 40:-1.881449 41:0.69869518 42:0.290216 43:-1.6023999 44:-0.55469412 45:-0.63518971 46:0.35094309 47:-1.1249059 48:-0.90698719 49:0.85170239 50:-2.883954 51:0.1931455 52:0.85170239 53:-2.883954 54:0.1931455 55:1.3906879 56:0.60724622 57:1.526247 58:1.100171 59:1.3549761 60:-2.2271459 61:0.83258939 62:0.28448501 63:-0.73873162 64:-1.6023999 65:-0.55469412 66:-0.63518971 67:-0.53207511 68:1.247389 69:0.0054757739 70:0.85170239 71:-2.883954 72:0.1931455 73:-0.46709111 74:0.47276241 75:1.44212 76:0.35094309 77:-1.1249059 78:-0.90698719 79:1.176623 80:0.2091741 81:-0.046295181 82:-1.029012 83:-1.3615969 84:-0.8358022 85:0.35094309 86:-1.1249059 87:-0.90698719 88:-1.6023999 89:-0.55469412 90:-0.63518971 91:0.2706688 92:-0.52241802 93:2.67168 94:0.02602301 95:-0.93124878 96:0.057246719 97:0.35094309 98:-1.1249059 99:-0.90698719 100:0.83258939 101:0.28448501 102:-0.73873162 #
4.5500077694991887256037443876266 1:-1.6023999 2:-0.55469412 3:-0.63518971 4:1.3906879 5:0.60724622 6:1.526247 7:-0.46709111 8:0.47276241 9:1.44212 10:0.02602301 11:-0.93124878 12:0.057246719 13:-1.881449 14:0.69869518 15:0.290216 16:1.3906879 17:0.60724622 18:1.526247 19:0.02602301 20:-0.93124878 21:0.057246719 22:0.74849248 23:-0.87745529 24:0.36787239 25:-1.6023999 26:-0.55469412 27:-0.63518971 28:-1.881449 29:0.69869518 30:0.290216 31:1.176623 32:0.2091741 33:-0.046295181 34:-1.029012 35:-1.3615969 36:-0.8358022 37:0.92050898 38:0.93538678 39:0.7173264 40:-1.6023999 41:-0.55469412 42:-0.63518971 43:-1.6023999 44:-0.55469412 45:-0.63518971 46:0.35094309 47:-1.1249059 48:-0.90698719 49:0.85170239 50:-2.883954 51:0.1931455 52:0.85170239 53:-2.883954 54:0.1931455 55:1.3906879 56:0.60724622 57:1.526247 58:1.100171 59:1.3549761 60:-2.2271459 61:0.92050898 62:0.93538678 63:0.7173264 64:-1.6023999 65:-0.55469412 66:-0.63518971 67:-0.53207511 68:1.247389 69:0.0054757739 70:0.85170239 71:-2.883954 72:0.1931455 73:-0.46709111 74:0.47276241 75:1.44212 76:0.35094309 77:-1.1249059 78:-0.90698719 79:1.176623 80:0.2091741 81:-0.046295181 82:0.35094309 83:-1.1249059 84:-0.90698719 85:0.35094309 86:-1.1249059 87:-0.90698719 88:-1.6023999 89:-0.55469412 90:-0.63518971 91:0.2706688 92:-0.52241802 93:2.67168 94:0.02602301 95:-0.93124878 96:0.057246719 97:0.35094309 98:-1.1249059 99:-0.90698719 100:-1.816465 101:1.9628429 102:0.54907078 #
-0.5981324884533094632388383615762 1:-1.029012 2:-1.3615969 3:-0.8358022 4:0.02602301 5:-0.93124878 6:0.057246719 7:-1.816465 8:1.9628429 9:0.54907078 10:0.02602301 11:-0.93124878 12:0.057246719 13:-1.881449 14:0.69869518 15:0.290216 16:1.3906879 17:0.60724622 18:1.526247 19:-1.029012 20:-1.3615969 21:-0.8358022 22:-1.881449 23:0.69869518 24:0.290216 25:0.74849248 26:-0.87745529 27:0.36787239 28:0.02602301 29:-0.93124878 30:0.057246719 31:1.3906879 32:0.60724622 33:1.526247 34:1.100171 35:1.3549761 36:-2.2271459 37:1.3906879 38:0.60724622 39:1.526247 40:-1.881449 41:0.69869518 42:0.290216 43:-1.029012 44:-1.3615969 45:-0.8358022 46:0.2706688 47:-0.52241802 48:2.67168 49:0.85170239 50:-2.883954 51:0.1931455 52:0.74849248 53:-0.87745529 54:0.36787239 55:1.3906879 56:0.60724622 57:1.526247 58:-1.029012 59:-1.3615969 60:-0.8358022 61:0.83258939 62:0.28448501 63:-0.73873162 64:0.02602301 65:-0.93124878 66:0.057246719 67:-0.53207511 68:1.247389 69:0.0054757739 70:0.85170239 71:-2.883954 72:0.1931455 73:-1.029012 74:-1.3615969 75:-0.8358022 76:0.35094309 77:-1.1249059 78:-0.90698719 79:1.176623 80:0.2091741 81:-0.046295181 82:0.02602301 83:-0.93124878 84:0.057246719 85:0.74849248 86:-0.87745529 87:0.36787239 88:-1.697965 89:-0.90435201 90:-0.66754657 91:1.3906879 92:0.60724622 93:1.526247 94:0.74849248 95:-0.87745529 96:0.36787239 97:0.35094309 98:-1.1249059 99:-0.90698719 100:0.2706688 101:-0.52241802 102:2.67168 #
