SVM-light Version V6.02
2 # kernel type
3 # kernel parameter -d 
0.00094402711 # kernel parameter -g 
1 # kernel parameter -s 
1 # kernel parameter -r 
empty# kernel parameter -u 
102 # highest feature index 
608 # number of training documents 
45 # number of support vectors plus 1 
2.2203296 # threshold b, each following line is a SV (starting with alpha*y)
-3.9924692616366002084760111756623 1:0.2706688 2:-0.52241802 3:2.67168 4:-1.816465 5:1.9628429 6:0.54907078 7:1.100171 8:1.3549761 9:-2.2271459 10:-1.881449 11:0.69869518 12:0.290216 13:-1.881449 14:0.69869518 15:0.290216 16:1.3906879 17:0.60724622 18:1.526247 19:0.85170239 20:-2.883954 21:0.1931455 22:-1.881449 23:0.69869518 24:0.290216 25:-1.029012 26:-1.3615969 27:-0.8358022 28:0.02602301 29:-0.93124878 30:0.057246719 31:0.74849248 32:-0.87745529 33:0.36787239 34:0.02602301 35:-0.93124878 36:0.057246719 37:-0.53207511 38:1.247389 39:0.0054757739 40:0.85170239 41:-2.883954 42:0.1931455 43:0.35094309 44:-1.1249059 45:-0.90698719 46:-1.6023999 47:-0.55469412 48:-0.63518971 49:0.85170239 50:-2.883954 51:0.1931455 52:0.85170239 53:-2.883954 54:0.1931455 55:1.176623 56:0.2091741 57:-0.046295181 58:1.230139 59:0.77938551 60:0.54259938 61:1.230139 62:0.77938551 63:0.54259938 64:1.176623 65:0.2091741 66:-0.046295181 67:-0.53207511 68:1.247389 69:0.0054757739 70:0.85170239 71:-2.883954 72:0.1931455 73:-0.46709111 74:0.47276241 75:1.44212 76:0.35094309 77:-1.1249059 78:-0.90698719 79:1.176623 80:0.2091741 81:-0.046295181 82:1.230139 83:0.77938551 84:0.54259938 85:0.74849248 86:-0.87745529 87:0.36787239 88:-1.029012 89:-1.3615969 90:-0.8358022 91:-1.029012 92:-1.3615969 93:-0.8358022 94:0.35094309 95:-1.1249059 96:-0.90698719 97:0.35094309 98:-1.1249059 99:-0.90698719 100:-1.697965 101:-0.90435201 102:-0.66754657 #
-42.308241320010097297199536114931 1:-1.6023999 2:-0.55469412 3:-0.63518971 4:0.83258939 5:0.28448501 6:-0.73873162 7:1.230139 8:0.77938551 9:0.54259938 10:0.85170239 11:-2.883954 12:0.1931455 13:-1.881449 14:0.69869518 15:0.290216 16:1.3906879 17:0.60724622 18:1.526247 19:0.02602301 20:-0.93124878 21:0.057246719 22:0.02602301 23:-0.93124878 24:0.057246719 25:0.35094309 26:-1.1249059 27:-0.90698719 28:-1.881449 29:0.69869518 30:0.290216 31:1.176623 32:0.2091741 33:-0.046295181 34:0.85170239 35:-2.883954 36:0.1931455 37:-1.816465 38:1.9628429 39:0.54907078 40:-1.6023999 41:-0.55469412 42:-0.63518971 43:-1.6023999 44:-0.55469412 45:-0.63518971 46:-1.697965 47:-0.90435201 48:-0.66754657 49:0.85170239 50:-2.883954 51:0.1931455 52:0.85170239 53:-2.883954 54:0.1931455 55:1.176623 56:0.2091741 57:-0.046295181 58:-1.697965 59:-0.90435201 60:-0.66754657 61:1.230139 62:0.77938551 63:0.54259938 64:0.85170239 65:-2.883954 66:0.1931455 67:-0.53207511 68:1.247389 69:0.0054757739 70:0.85170239 71:-2.883954 72:0.1931455 73:-0.46709111 74:0.47276241 75:1.44212 76:0.35094309 77:-1.1249059 78:-0.90698719 79:1.176623 80:0.2091741 81:-0.046295181 82:1.230139 83:0.77938551 84:0.54259938 85:0.35094309 86:-1.1249059 87:-0.90698719 88:0.35094309 89:-1.1249059 90:-0.90698719 91:-1.881449 92:0.69869518 93:0.290216 94:0.35094309 95:-1.1249059 96:-0.90698719 97:0.35094309 98:-1.1249059 99:-0.90698719 100:0.35094309 101:-1.1249059 102:-0.90698719 #
-41.797444617441726677498081699014 1:-1.6023999 2:-0.55469412 3:-0.63518971 4:1.3906879 5:0.60724622 6:1.526247 7:0.35094309 8:-1.1249059 9:-0.90698719 10:0.74849248 11:-0.87745529 12:0.36787239 13:-1.881449 14:0.69869518 15:0.290216 16:1.3906879 17:0.60724622 18:1.526247 19:0.02602301 20:-0.93124878 21:0.057246719 22:0.02602301 23:-0.93124878 24:0.057246719 25:0.35094309 26:-1.1249059 27:-0.90698719 28:-1.881449 29:0.69869518 30:0.290216 31:1.176623 32:0.2091741 33:-0.046295181 34:0.35094309 35:-1.1249059 36:-0.90698719 37:-1.816465 38:1.9628429 39:0.54907078 40:-1.6023999 41:-0.55469412 42:-0.63518971 43:-1.6023999 44:-0.55469412 45:-0.63518971 46:0.35094309 47:-1.1249059 48:-0.90698719 49:0.85170239 50:-2.883954 51:0.1931455 52:0.85170239 53:-2.883954 54:0.1931455 55:1.176623 56:0.2091741 57:-0.046295181 58:-1.697965 59:-0.90435201 60:-0.66754657 61:1.230139 62:0.77938551 63:0.54259938 64:0.02602301 65:-0.93124878 66:0.057246719 67:-0.53207511 68:1.247389 69:0.0054757739 70:0.85170239 71:-2.883954 72:0.1931455 73:-0.46709111 74:0.47276241 75:1.44212 76:0.35094309 77:-1.1249059 78:-0.90698719 79:1.176623 80:0.2091741 81:-0.046295181 82:0.74849248 83:-0.87745529 84:0.36787239 85:0.35094309 86:-1.1249059 87:-0.90698719 88:0.35094309 89:-1.1249059 90:-0.90698719 91:-1.881449 92:0.69869518 93:0.290216 94:0.35094309 95:-1.1249059 96:-0.90698719 97:0.35094309 98:-1.1249059 99:-0.90698719 100:-1.881449 101:0.69869518 102:0.290216 #
-20.139186789388077158946543931961 1:-1.6023999 2:-0.55469412 3:-0.63518971 4:0.74849248 5:-0.87745529 6:0.36787239 7:0.35094309 8:-1.1249059 9:-0.90698719 10:0.92050898 11:0.93538678 12:0.7173264 13:-1.881449 14:0.69869518 15:0.290216 16:1.3906879 17:0.60724622 18:1.526247 19:-1.029012 20:-1.3615969 21:-0.8358022 22:0.74849248 23:-0.87745529 24:0.36787239 25:-1.029012 26:-1.3615969 27:-0.8358022 28:-1.816465 29:1.9628429 30:0.54907078 31:1.176623 32:0.2091741 33:-0.046295181 34:0.85170239 35:-2.883954 36:0.1931455 37:1.230139 38:0.77938551 39:0.54259938 40:0.83258939 41:0.28448501 42:-0.73873162 43:-1.029012 44:-1.3615969 45:-0.8358022 46:-1.881449 47:0.69869518 48:0.290216 49:0.02602301 50:-0.93124878 51:0.057246719 52:0.85170239 53:-2.883954 54:0.1931455 55:1.176623 56:0.2091741 57:-0.046295181 58:-1.029012 59:-1.3615969 60:-0.8358022 61:1.230139 62:0.77938551 63:0.54259938 64:-0.95256001 65:-0.14586321 66:-0.26632169 67:-0.53207511 68:1.247389 69:0.0054757739 70:0.85170239 71:-2.883954 72:0.1931455 73:-1.697965 74:-0.90435201 75:-0.66754657 76:0.35094309 77:-1.1249059 78:-0.90698719 79:1.176623 80:0.2091741 81:-0.046295181 82:0.35094309 83:-1.1249059 84:-0.90698719 85:0.35094309 86:-1.1249059 87:-0.90698719 88:-1.029012 89:-1.3615969 90:-0.8358022 91:0.92050898 92:0.93538678 93:0.7173264 94:0.74849248 95:-0.87745529 96:0.36787239 97:0.74849248 98:-0.87745529 99:0.36787239 100:-1.881449 101:0.69869518 102:0.290216 #
-29.261498083387166957436420489103 1:-1.6023999 2:-0.55469412 3:-0.63518971 4:0.83258939 5:0.28448501 6:-0.73873162 7:1.230139 8:0.77938551 9:0.54259938 10:0.74849248 11:-0.87745529 12:0.36787239 13:-1.881449 14:0.69869518 15:0.290216 16:1.3906879 17:0.60724622 18:1.526247 19:0.02602301 20:-0.93124878 21:0.057246719 22:0.74849248 23:-0.87745529 24:0.36787239 25:-1.029012 26:-1.3615969 27:-0.8358022 28:-1.816465 29:1.9628429 30:0.54907078 31:1.176623 32:0.2091741 33:-0.046295181 34:0.35094309 35:-1.1249059 36:-0.90698719 37:-1.6023999 38:-0.55469412 39:-0.63518971 40:-1.6023999 41:-0.55469412 42:-0.63518971 43:-0.53207511 44:1.247389 45:0.0054757739 46:-1.697965 47:-0.90435201 48:-0.66754657 49:0.85170239 50:-2.883954 51:0.1931455 52:0.85170239 53:-2.883954 54:0.1931455 55:1.3906879 56:0.60724622 57:1.526247 58:-0.53207511 59:1.247389 60:0.0054757739 61:1.230139 62:0.77938551 63:0.54259938 64:0.02602301 65:-0.93124878 66:0.057246719 67:-0.53207511 68:1.247389 69:0.0054757739 70:0.85170239 71:-2.883954 72:0.1931455 73:-0.46709111 74:0.47276241 75:1.44212 76:0.35094309 77:-1.1249059 78:-0.90698719 79:1.176623 80:0.2091741 81:-0.046295181 82:1.230139 83:0.77938551 84:0.54259938 85:0.74849248 86:-0.87745529 87:0.36787239 88:-1.029012 89:-1.3615969 90:-0.8358022 91:-0.95256001 92:-0.14586321 93:-0.26632169 94:0.74849248 95:-0.87745529 96:0.36787239 97:0.35094309 98:-1.1249059 99:-0.90698719 100:-1.697965 101:-0.90435201 102:-0.66754657 #
100 1:-1.6023999 2:-0.55469412 3:-0.63518971 4:0.85170239 5:-2.883954 6:0.1931455 7:-1.6023999 8:-0.55469412 9:-0.63518971 10:0.92050898 11:0.93538678 12:0.7173264 13:-1.881449 14:0.69869518 15:0.290216 16:1.3906879 17:0.60724622 18:1.526247 19:-1.881449 20:0.69869518 21:0.290216 22:0.74849248 23:-0.87745529 24:0.36787239 25:-1.029012 26:-1.3615969 27:-0.8358022 28:-1.6023999 29:-0.55469412 30:-0.63518971 31:1.176623 32:0.2091741 33:-0.046295181 34:-0.53207511 35:1.247389 36:0.0054757739 37:0.2706688 38:-0.52241802 39:2.67168 40:0.83258939 41:0.28448501 42:-0.73873162 43:-1.6023999 44:-0.55469412 45:-0.63518971 46:-1.6023999 47:-0.55469412 48:-0.63518971 49:0.85170239 50:-2.883954 51:0.1931455 52:0.85170239 53:-2.883954 54:0.1931455 55:1.3906879 56:0.60724622 57:1.526247 58:0.02602301 59:-0.93124878 60:0.057246719 61:1.230139 62:0.77938551 63:0.54259938 64:-1.029012 65:-1.3615969 66:-0.8358022 67:-0.53207511 68:1.247389 69:0.0054757739 70:0.85170239 71:-2.883954 72:0.1931455 73:-1.697965 74:-0.90435201 75:-0.66754657 76:0.35094309 77:-1.1249059 78:-0.90698719 79:1.176623 80:0.2091741 81:-0.046295181 82:0.35094309 83:-1.1249059 84:-0.90698719 85:0.35094309 86:-1.1249059 87:-0.90698719 88:-1.029012 89:-1.3615969 90:-0.8358022 91:-1.697965 92:-0.90435201 93:-0.66754657 94:0.35094309 95:-1.1249059 96:-0.90698719 97:0.35094309 98:-1.1249059 99:-0.90698719 100:-1.881449 101:0.69869518 102:0.290216 #
41.293170015524992777500301599503 1:-1.029012 2:-1.3615969 3:-0.8358022 4:1.230139 5:0.77938551 6:0.54259938 7:0.35094309 8:-1.1249059 9:-0.90698719 10:0.74849248 11:-0.87745529 12:0.36787239 13:-1.881449 14:0.69869518 15:0.290216 16:1.3906879 17:0.60724622 18:1.526247 19:0.85170239 20:-2.883954 21:0.1931455 22:0.74849248 23:-0.87745529 24:0.36787239 25:-1.029012 26:-1.3615969 27:-0.8358022 28:-1.881449 29:0.69869518 30:0.290216 31:1.3906879 32:0.60724622 33:1.526247 34:0.85170239 35:-2.883954 36:0.1931455 37:-1.881449 38:0.69869518 39:0.290216 40:-1.697965 41:-0.90435201 42:-0.66754657 43:-1.881449 44:0.69869518 45:0.290216 46:-1.6023999 47:-0.55469412 48:-0.63518971 49:0.85170239 50:-2.883954 51:0.1931455 52:0.85170239 53:-2.883954 54:0.1931455 55:1.176623 56:0.2091741 57:-0.046295181 58:-1.697965 59:-0.90435201 60:-0.66754657 61:0.92050898 62:0.93538678 63:0.7173264 64:-1.029012 65:-1.3615969 66:-0.8358022 67:-0.53207511 68:1.247389 69:0.0054757739 70:0.85170239 71:-2.883954 72:0.1931455 73:-0.46709111 74:0.47276241 75:1.44212 76:0.35094309 77:-1.1249059 78:-0.90698719 79:1.176623 80:0.2091741 81:-0.046295181 82:0.74849248 83:-0.87745529 84:0.36787239 85:0.35094309 86:-1.1249059 87:-0.90698719 88:-1.029012 89:-1.3615969 90:-0.8358022 91:-0.53207511 92:1.247389 93:0.0054757739 94:0.02602301 95:-0.93124878 96:0.057246719 97:0.35094309 98:-1.1249059 99:-0.90698719 100:-0.53207511 101:1.247389 102:0.0054757739 #
100 1:-1.6023999 2:-0.55469412 3:-0.63518971 4:1.230139 5:0.77938551 6:0.54259938 7:0.35094309 8:-1.1249059 9:-0.90698719 10:0.02602301 11:-0.93124878 12:0.057246719 13:-1.881449 14:0.69869518 15:0.290216 16:1.3906879 17:0.60724622 18:1.526247 19:0.02602301 20:-0.93124878 21:0.057246719 22:0.74849248 23:-0.87745529 24:0.36787239 25:0.35094309 26:-1.1249059 27:-0.90698719 28:-1.881449 29:0.69869518 30:0.290216 31:1.176623 32:0.2091741 33:-0.046295181 34:0.85170239 35:-2.883954 36:0.1931455 37:-1.816465 38:1.9628429 39:0.54907078 40:-1.6023999 41:-0.55469412 42:-0.63518971 43:-1.6023999 44:-0.55469412 45:-0.63518971 46:0.35094309 47:-1.1249059 48:-0.90698719 49:0.85170239 50:-2.883954 51:0.1931455 52:0.85170239 53:-2.883954 54:0.1931455 55:1.3906879 56:0.60724622 57:1.526247 58:0.35094309 59:-1.1249059 60:-0.90698719 61:-1.697965 62:-0.90435201 63:-0.66754657 64:0.02602301 65:-0.93124878 66:0.057246719 67:-0.53207511 68:1.247389 69:0.0054757739 70:0.85170239 71:-2.883954 72:0.1931455 73:-0.46709111 74:0.47276241 75:1.44212 76:0.35094309 77:-1.1249059 78:-0.90698719 79:1.176623 80:0.2091741 81:-0.046295181 82:0.85170239 83:-2.883954 84:0.1931455 85:0.35094309 86:-1.1249059 87:-0.90698719 88:-1.029012 89:-1.3615969 90:-0.8358022 91:-1.881449 92:0.69869518 93:0.290216 94:0.35094309 95:-1.1249059 96:-0.90698719 97:0.35094309 98:-1.1249059 99:-0.90698719 100:0.02602301 101:-0.93124878 102:0.057246719 #
-41.550011592445116548333317041397 1:-1.6023999 2:-0.55469412 3:-0.63518971 4:0.85170239 5:-2.883954 6:0.1931455 7:0.35094309 8:-1.1249059 9:-0.90698719 10:0.02602301 11:-0.93124878 12:0.057246719 13:-1.881449 14:0.69869518 15:0.290216 16:1.3906879 17:0.60724622 18:1.526247 19:0.02602301 20:-0.93124878 21:0.057246719 22:0.74849248 23:-0.87745529 24:0.36787239 25:0.35094309 26:-1.1249059 27:-0.90698719 28:-1.881449 29:0.69869518 30:0.290216 31:1.176623 32:0.2091741 33:-0.046295181 34:0.85170239 35:-2.883954 36:0.1931455 37:-1.816465 38:1.9628429 39:0.54907078 40:-1.6023999 41:-0.55469412 42:-0.63518971 43:-1.6023999 44:-0.55469412 45:-0.63518971 46:0.35094309 47:-1.1249059 48:-0.90698719 49:0.85170239 50:-2.883954 51:0.1931455 52:0.85170239 53:-2.883954 54:0.1931455 55:1.3906879 56:0.60724622 57:1.526247 58:0.35094309 59:-1.1249059 60:-0.90698719 61:-1.697965 62:-0.90435201 63:-0.66754657 64:0.2706688 65:-0.52241802 66:2.67168 67:-0.53207511 68:1.247389 69:0.0054757739 70:0.85170239 71:-2.883954 72:0.1931455 73:-0.46709111 74:0.47276241 75:1.44212 76:0.35094309 77:-1.1249059 78:-0.90698719 79:1.176623 80:0.2091741 81:-0.046295181 82:0.85170239 83:-2.883954 84:0.1931455 85:0.35094309 86:-1.1249059 87:-0.90698719 88:-1.029012 89:-1.3615969 90:-0.8358022 91:-1.881449 92:0.69869518 93:0.290216 94:0.35094309 95:-1.1249059 96:-0.90698719 97:0.35094309 98:-1.1249059 99:-0.90698719 100:0.02602301 101:-0.93124878 102:0.057246719 #
-8.8669201401395127959403907880187 1:-1.6023999 2:-0.55469412 3:-0.63518971 4:1.3906879 5:0.60724622 6:1.526247 7:0.02602301 8:-0.93124878 9:0.057246719 10:0.74849248 11:-0.87745529 12:0.36787239 13:-1.881449 14:0.69869518 15:0.290216 16:1.3906879 17:0.60724622 18:1.526247 19:0.02602301 20:-0.93124878 21:0.057246719 22:0.02602301 23:-0.93124878 24:0.057246719 25:0.35094309 26:-1.1249059 27:-0.90698719 28:-1.881449 29:0.69869518 30:0.290216 31:1.176623 32:0.2091741 33:-0.046295181 34:0.85170239 35:-2.883954 36:0.1931455 37:-1.816465 38:1.9628429 39:0.54907078 40:-1.6023999 41:-0.55469412 42:-0.63518971 43:-1.6023999 44:-0.55469412 45:-0.63518971 46:-1.029012 47:-1.3615969 48:-0.8358022 49:0.85170239 50:-2.883954 51:0.1931455 52:0.85170239 53:-2.883954 54:0.1931455 55:1.3906879 56:0.60724622 57:1.526247 58:-1.697965 59:-0.90435201 60:-0.66754657 61:1.230139 62:0.77938551 63:0.54259938 64:0.85170239 65:-2.883954 66:0.1931455 67:-0.53207511 68:1.247389 69:0.0054757739 70:0.85170239 71:-2.883954 72:0.1931455 73:-0.46709111 74:0.47276241 75:1.44212 76:0.35094309 77:-1.1249059 78:-0.90698719 79:1.176623 80:0.2091741 81:-0.046295181 82:1.230139 83:0.77938551 84:0.54259938 85:0.35094309 86:-1.1249059 87:-0.90698719 88:0.35094309 89:-1.1249059 90:-0.90698719 91:-1.881449 92:0.69869518 93:0.290216 94:0.35094309 95:-1.1249059 96:-0.90698719 97:0.2706688 98:-0.52241802 99:2.67168 100:0.2706688 101:-0.52241802 102:2.67168 #
68.547331393181138992076739668846 1:-0.53207511 2:1.247389 3:0.0054757739 4:1.3906879 5:0.60724622 6:1.526247 7:1.3906879 8:0.60724622 9:1.526247 10:0.74849248 11:-0.87745529 12:0.36787239 13:-1.881449 14:0.69869518 15:0.290216 16:1.3906879 17:0.60724622 18:1.526247 19:0.02602301 20:-0.93124878 21:0.057246719 22:-1.881449 23:0.69869518 24:0.290216 25:-1.697965 26:-0.90435201 27:-0.66754657 28:-1.881449 29:0.69869518 30:0.290216 31:1.3906879 32:0.60724622 33:1.526247 34:-1.029012 35:-1.3615969 36:-0.8358022 37:-1.881449 38:0.69869518 39:0.290216 40:-1.029012 41:-1.3615969 42:-0.8358022 43:1.230139 44:0.77938551 45:0.54259938 46:-1.881449 47:0.69869518 48:0.290216 49:0.85170239 50:-2.883954 51:0.1931455 52:0.85170239 53:-2.883954 54:0.1931455 55:1.176623 56:0.2091741 57:-0.046295181 58:-0.53207511 59:1.247389 60:0.0054757739 61:0.92050898 62:0.93538678 63:0.7173264 64:0.02602301 65:-0.93124878 66:0.057246719 67:-0.53207511 68:1.247389 69:0.0054757739 70:0.85170239 71:-2.883954 72:0.1931455 73:-0.46709111 74:0.47276241 75:1.44212 76:0.35094309 77:-1.1249059 78:-0.90698719 79:1.176623 80:0.2091741 81:-0.046295181 82:0.35094309 83:-1.1249059 84:-0.90698719 85:0.35094309 86:-1.1249059 87:-0.90698719 88:-1.029012 89:-1.3615969 90:-0.8358022 91:-0.53207511 92:1.247389 93:0.0054757739 94:0.02602301 95:-0.93124878 96:0.057246719 97:0.35094309 98:-1.1249059 99:-0.90698719 100:0.2706688 101:-0.52241802 102:2.67168 #
100 1:-1.6023999 2:-0.55469412 3:-0.63518971 4:0.02602301 5:-0.93124878 6:0.057246719 7:0.83258939 8:0.28448501 9:-0.73873162 10:0.02602301 11:-0.93124878 12:0.057246719 13:-1.881449 14:0.69869518 15:0.290216 16:1.3906879 17:0.60724622 18:1.526247 19:0.85170239 20:-2.883954 21:0.1931455 22:0.02602301 23:-0.93124878 24:0.057246719 25:-1.029012 26:-1.3615969 27:-0.8358022 28:-1.6023999 29:-0.55469412 30:-0.63518971 31:1.176623 32:0.2091741 33:-0.046295181 34:-0.95256001 35:-0.14586321 36:-0.26632169 37:-1.881449 38:0.69869518 39:0.290216 40:-1.697965 41:-0.90435201 42:-0.66754657 43:-1.029012 44:-1.3615969 45:-0.8358022 46:-1.029012 47:-1.3615969 48:-0.8358022 49:0.85170239 50:-2.883954 51:0.1931455 52:0.85170239 53:-2.883954 54:0.1931455 55:1.176623 56:0.2091741 57:-0.046295181 58:-1.6023999 59:-0.55469412 60:-0.63518971 61:1.230139 62:0.77938551 63:0.54259938 64:-1.697965 65:-0.90435201 66:-0.66754657 67:-0.53207511 68:1.247389 69:0.0054757739 70:0.85170239 71:-2.883954 72:0.1931455 73:-0.46709111 74:0.47276241 75:1.44212 76:0.35094309 77:-1.1249059 78:-0.90698719 79:1.176623 80:0.2091741 81:-0.046295181 82:0.35094309 83:-1.1249059 84:-0.90698719 85:0.35094309 86:-1.1249059 87:-0.90698719 88:0.02602301 89:-0.93124878 90:0.057246719 91:-1.029012 92:-1.3615969 93:-0.8358022 94:0.35094309 95:-1.1249059 96:-0.90698719 97:-1.6023999 98:-0.55469412 99:-0.63518971 100:0.35094309 101:-1.1249059 102:-0.90698719 #
100 1:-1.6023999 2:-0.55469412 3:-0.63518971 4:1.230139 5:0.77938551 6:0.54259938 7:1.230139 8:0.77938551 9:0.54259938 10:0.02602301 11:-0.93124878 12:0.057246719 13:-1.881449 14:0.69869518 15:0.290216 16:1.3906879 17:0.60724622 18:1.526247 19:0.02602301 20:-0.93124878 21:0.057246719 22:0.02602301 23:-0.93124878 24:0.057246719 25:0.35094309 26:-1.1249059 27:-0.90698719 28:-1.816465 29:1.9628429 30:0.54907078 31:1.176623 32:0.2091741 33:-0.046295181 34:0.74849248 35:-0.87745529 36:0.36787239 37:-1.881449 38:0.69869518 39:0.290216 40:-1.6023999 41:-0.55469412 42:-0.63518971 43:-1.6023999 44:-0.55469412 45:-0.63518971 46:-1.881449 47:0.69869518 48:0.290216 49:0.85170239 50:-2.883954 51:0.1931455 52:0.85170239 53:-2.883954 54:0.1931455 55:1.176623 56:0.2091741 57:-0.046295181 58:-1.6023999 59:-0.55469412 60:-0.63518971 61:0.92050898 62:0.93538678 63:0.7173264 64:-0.95256001 65:-0.14586321 66:-0.26632169 67:-0.53207511 68:1.247389 69:0.0054757739 70:0.85170239 71:-2.883954 72:0.1931455 73:-0.46709111 74:0.47276241 75:1.44212 76:0.35094309 77:-1.1249059 78:-0.90698719 79:1.176623 80:0.2091741 81:-0.046295181 82:0.35094309 83:-1.1249059 84:-0.90698719 85:0.35094309 86:-1.1249059 87:-0.90698719 88:0.35094309 89:-1.1249059 90:-0.90698719 91:-1.881449 92:0.69869518 93:0.290216 94:0.02602301 95:-0.93124878 96:0.057246719 97:0.35094309 98:-1.1249059 99:-0.90698719 100:0.02602301 101:-0.93124878 102:0.057246719 #
-42.61101204522856278344988822937 1:-1.6023999 2:-0.55469412 3:-0.63518971 4:1.3906879 5:0.60724622 6:1.526247 7:-0.46709111 8:0.47276241 9:1.44212 10:0.74849248 11:-0.87745529 12:0.36787239 13:-1.881449 14:0.69869518 15:0.290216 16:1.3906879 17:0.60724622 18:1.526247 19:0.02602301 20:-0.93124878 21:0.057246719 22:0.74849248 23:-0.87745529 24:0.36787239 25:0.35094309 26:-1.1249059 27:-0.90698719 28:-0.53207511 29:1.247389 30:0.0054757739 31:1.176623 32:0.2091741 33:-0.046295181 34:-1.029012 35:-1.3615969 36:-0.8358022 37:-1.881449 38:0.69869518 39:0.290216 40:-1.6023999 41:-0.55469412 42:-0.63518971 43:-1.816465 44:1.9628429 45:0.54907078 46:0.35094309 47:-1.1249059 48:-0.90698719 49:0.85170239 50:-2.883954 51:0.1931455 52:0.85170239 53:-2.883954 54:0.1931455 55:1.176623 56:0.2091741 57:-0.046295181 58:-1.029012 59:-1.3615969 60:-0.8358022 61:1.3906879 62:0.60724622 63:1.526247 64:-1.029012 65:-1.3615969 66:-0.8358022 67:-0.53207511 68:1.247389 69:0.0054757739 70:0.85170239 71:-2.883954 72:0.1931455 73:-0.46709111 74:0.47276241 75:1.44212 76:0.35094309 77:-1.1249059 78:-0.90698719 79:1.176623 80:0.2091741 81:-0.046295181 82:0.35094309 83:-1.1249059 84:-0.90698719 85:0.35094309 86:-1.1249059 87:-0.90698719 88:0.35094309 89:-1.1249059 90:-0.90698719 91:-1.881449 92:0.69869518 93:0.290216 94:0.02602301 95:-0.93124878 96:0.057246719 97:0.35094309 98:-1.1249059 99:-0.90698719 100:0.92050898 101:0.93538678 102:0.7173264 #
-95.093758012503144527727272361517 1:-1.6023999 2:-0.55469412 3:-0.63518971 4:0.02602301 5:-0.93124878 6:0.057246719 7:0.83258939 8:0.28448501 9:-0.73873162 10:0.02602301 11:-0.93124878 12:0.057246719 13:-1.881449 14:0.69869518 15:0.290216 16:1.3906879 17:0.60724622 18:1.526247 19:0.85170239 20:-2.883954 21:0.1931455 22:0.02602301 23:-0.93124878 24:0.057246719 25:-1.029012 26:-1.3615969 27:-0.8358022 28:-1.6023999 29:-0.55469412 30:-0.63518971 31:1.176623 32:0.2091741 33:-0.046295181 34:-0.95256001 35:-0.14586321 36:-0.26632169 37:-1.881449 38:0.69869518 39:0.290216 40:-1.697965 41:-0.90435201 42:-0.66754657 43:-1.029012 44:-1.3615969 45:-0.8358022 46:-1.029012 47:-1.3615969 48:-0.8358022 49:0.85170239 50:-2.883954 51:0.1931455 52:0.85170239 53:-2.883954 54:0.1931455 55:1.176623 56:0.2091741 57:-0.046295181 58:-1.6023999 59:-0.55469412 60:-0.63518971 61:1.230139 62:0.77938551 63:0.54259938 64:-1.697965 65:-0.90435201 66:-0.66754657 67:-0.53207511 68:1.247389 69:0.0054757739 70:0.85170239 71:-2.883954 72:0.1931455 73:-0.46709111 74:0.47276241 75:1.44212 76:0.35094309 77:-1.1249059 78:-0.90698719 79:1.176623 80:0.2091741 81:-0.046295181 82:0.35094309 83:-1.1249059 84:-0.90698719 85:0.35094309 86:-1.1249059 87:-0.90698719 88:0.02602301 89:-0.93124878 90:0.057246719 91:-1.029012 92:-1.3615969 93:-0.8358022 94:0.35094309 95:-1.1249059 96:-0.90698719 97:-1.6023999 98:-0.55469412 99:-0.63518971 100:0.35094309 101:-1.1249059 102:-0.90698719 #
-46.868276821207530247193062677979 1:-1.6023999 2:-0.55469412 3:-0.63518971 4:0.85170239 5:-2.883954 6:0.1931455 7:-1.6023999 8:-0.55469412 9:-0.63518971 10:0.92050898 11:0.93538678 12:0.7173264 13:-1.881449 14:0.69869518 15:0.290216 16:1.3906879 17:0.60724622 18:1.526247 19:-1.881449 20:0.69869518 21:0.290216 22:0.74849248 23:-0.87745529 24:0.36787239 25:-1.029012 26:-1.3615969 27:-0.8358022 28:-1.6023999 29:-0.55469412 30:-0.63518971 31:1.176623 32:0.2091741 33:-0.046295181 34:-0.53207511 35:1.247389 36:0.0054757739 37:0.2706688 38:-0.52241802 39:2.67168 40:0.83258939 41:0.28448501 42:-0.73873162 43:-1.6023999 44:-0.55469412 45:-0.63518971 46:-1.6023999 47:-0.55469412 48:-0.63518971 49:0.85170239 50:-2.883954 51:0.1931455 52:0.85170239 53:-2.883954 54:0.1931455 55:1.3906879 56:0.60724622 57:1.526247 58:0.02602301 59:-0.93124878 60:0.057246719 61:1.230139 62:0.77938551 63:0.54259938 64:-1.029012 65:-1.3615969 66:-0.8358022 67:-0.53207511 68:1.247389 69:0.0054757739 70:0.85170239 71:-2.883954 72:0.1931455 73:-1.697965 74:-0.90435201 75:-0.66754657 76:0.35094309 77:-1.1249059 78:-0.90698719 79:1.176623 80:0.2091741 81:-0.046295181 82:0.35094309 83:-1.1249059 84:-0.90698719 85:0.35094309 86:-1.1249059 87:-0.90698719 88:-1.029012 89:-1.3615969 90:-0.8358022 91:-1.697965 92:-0.90435201 93:-0.66754657 94:0.35094309 95:-1.1249059 96:-0.90698719 97:0.35094309 98:-1.1249059 99:-0.90698719 100:-1.881449 101:0.69869518 102:0.290216 #
100 1:-1.6023999 2:-0.55469412 3:-0.63518971 4:1.230139 5:0.77938551 6:0.54259938 7:0.35094309 8:-1.1249059 9:-0.90698719 10:0.85170239 11:-2.883954 12:0.1931455 13:-1.881449 14:0.69869518 15:0.290216 16:1.3906879 17:0.60724622 18:1.526247 19:0.02602301 20:-0.93124878 21:0.057246719 22:0.74849248 23:-0.87745529 24:0.36787239 25:0.35094309 26:-1.1249059 27:-0.90698719 28:-1.881449 29:0.69869518 30:0.290216 31:1.176623 32:0.2091741 33:-0.046295181 34:0.85170239 35:-2.883954 36:0.1931455 37:-1.816465 38:1.9628429 39:0.54907078 40:-1.6023999 41:-0.55469412 42:-0.63518971 43:-1.6023999 44:-0.55469412 45:-0.63518971 46:-1.029012 47:-1.3615969 48:-0.8358022 49:0.85170239 50:-2.883954 51:0.1931455 52:0.85170239 53:-2.883954 54:0.1931455 55:1.3906879 56:0.60724622 57:1.526247 58:-1.697965 59:-0.90435201 60:-0.66754657 61:1.230139 62:0.77938551 63:0.54259938 64:0.85170239 65:-2.883954 66:0.1931455 67:-0.53207511 68:1.247389 69:0.0054757739 70:0.85170239 71:-2.883954 72:0.1931455 73:-0.46709111 74:0.47276241 75:1.44212 76:0.35094309 77:-1.1249059 78:-0.90698719 79:1.176623 80:0.2091741 81:-0.046295181 82:1.230139 83:0.77938551 84:0.54259938 85:0.35094309 86:-1.1249059 87:-0.90698719 88:0.35094309 89:-1.1249059 90:-0.90698719 91:-1.881449 92:0.69869518 93:0.290216 94:0.74849248 95:-0.87745529 96:0.36787239 97:0.35094309 98:-1.1249059 99:-0.90698719 100:0.35094309 101:-1.1249059 102:-0.90698719 #
93.032801025059598032385110855103 1:-1.6023999 2:-0.55469412 3:-0.63518971 4:1.230139 5:0.77938551 6:0.54259938 7:1.230139 8:0.77938551 9:0.54259938 10:0.74849248 11:-0.87745529 12:0.36787239 13:-1.881449 14:0.69869518 15:0.290216 16:1.3906879 17:0.60724622 18:1.526247 19:0.02602301 20:-0.93124878 21:0.057246719 22:0.74849248 23:-0.87745529 24:0.36787239 25:0.35094309 26:-1.1249059 27:-0.90698719 28:-0.95256001 29:-0.14586321 30:-0.26632169 31:1.3906879 32:0.60724622 33:1.526247 34:0.85170239 35:-2.883954 36:0.1931455 37:-1.881449 38:0.69869518 39:0.290216 40:-1.029012 41:-1.3615969 42:-0.8358022 43:-1.6023999 44:-0.55469412 45:-0.63518971 46:0.2706688 47:-0.52241802 48:2.67168 49:0.85170239 50:-2.883954 51:0.1931455 52:0.85170239 53:-2.883954 54:0.1931455 55:1.176623 56:0.2091741 57:-0.046295181 58:-1.029012 59:-1.3615969 60:-0.8358022 61:0.92050898 62:0.93538678 63:0.7173264 64:0.2706688 65:-0.52241802 66:2.67168 67:-0.53207511 68:1.247389 69:0.0054757739 70:0.85170239 71:-2.883954 72:0.1931455 73:-0.46709111 74:0.47276241 75:1.44212 76:0.35094309 77:-1.1249059 78:-0.90698719 79:1.176623 80:0.2091741 81:-0.046295181 82:0.35094309 83:-1.1249059 84:-0.90698719 85:0.35094309 86:-1.1249059 87:-0.90698719 88:0.35094309 89:-1.1249059 90:-0.90698719 91:-0.53207511 92:1.247389 93:0.0054757739 94:0.02602301 95:-0.93124878 96:0.057246719 97:0.35094309 98:-1.1249059 99:-0.90698719 100:0.35094309 101:-1.1249059 102:-0.90698719 #
-100 1:-1.6023999 2:-0.55469412 3:-0.63518971 4:1.230139 5:0.77938551 6:0.54259938 7:1.08488 8:0.75786811 9:-2.033005 10:0.85170239 11:-2.883954 12:0.1931455 13:-1.881449 14:0.69869518 15:0.290216 16:1.3906879 17:0.60724622 18:1.526247 19:0.02602301 20:-0.93124878 21:0.057246719 22:0.74849248 23:-0.87745529 24:0.36787239 25:0.35094309 26:-1.1249059 27:-0.90698719 28:-1.881449 29:0.69869518 30:0.290216 31:1.176623 32:0.2091741 33:-0.046295181 34:0.85170239 35:-2.883954 36:0.1931455 37:-1.881449 38:0.69869518 39:0.290216 40:-0.95256001 41:-0.14586321 42:-0.26632169 43:-1.6023999 44:-0.55469412 45:-0.63518971 46:-1.029012 47:-1.3615969 48:-0.8358022 49:0.85170239 50:-2.883954 51:0.1931455 52:0.85170239 53:-2.883954 54:0.1931455 55:1.3906879 56:0.60724622 57:1.526247 58:0.02602301 59:-0.93124878 60:0.057246719 61:1.230139 62:0.77938551 63:0.54259938 64:-1.697965 65:-0.90435201 66:-0.66754657 67:-0.53207511 68:1.247389 69:0.0054757739 70:0.85170239 71:-2.883954 72:0.1931455 73:-0.46709111 74:0.47276241 75:1.44212 76:0.35094309 77:-1.1249059 78:-0.90698719 79:1.176623 80:0.2091741 81:-0.046295181 82:1.230139 83:0.77938551 84:0.54259938 85:0.35094309 86:-1.1249059 87:-0.90698719 88:0.35094309 89:-1.1249059 90:-0.90698719 91:-1.881449 92:0.69869518 93:0.290216 94:0.74849248 95:-0.87745529 96:0.36787239 97:0.35094309 98:-1.1249059 99:-0.90698719 100:-1.697965 101:-0.90435201 102:-0.66754657 #
-56.141644456112317129736766219139 1:-1.6023999 2:-0.55469412 3:-0.63518971 4:1.230139 5:0.77938551 6:0.54259938 7:0.35094309 8:-1.1249059 9:-0.90698719 10:0.02602301 11:-0.93124878 12:0.057246719 13:-1.881449 14:0.69869518 15:0.290216 16:1.3906879 17:0.60724622 18:1.526247 19:0.02602301 20:-0.93124878 21:0.057246719 22:0.74849248 23:-0.87745529 24:0.36787239 25:0.35094309 26:-1.1249059 27:-0.90698719 28:-1.881449 29:0.69869518 30:0.290216 31:1.176623 32:0.2091741 33:-0.046295181 34:0.85170239 35:-2.883954 36:0.1931455 37:-1.816465 38:1.9628429 39:0.54907078 40:-1.6023999 41:-0.55469412 42:-0.63518971 43:-1.6023999 44:-0.55469412 45:-0.63518971 46:0.35094309 47:-1.1249059 48:-0.90698719 49:0.85170239 50:-2.883954 51:0.1931455 52:0.85170239 53:-2.883954 54:0.1931455 55:1.3906879 56:0.60724622 57:1.526247 58:0.35094309 59:-1.1249059 60:-0.90698719 61:-1.697965 62:-0.90435201 63:-0.66754657 64:0.02602301 65:-0.93124878 66:0.057246719 67:-0.53207511 68:1.247389 69:0.0054757739 70:0.85170239 71:-2.883954 72:0.1931455 73:-0.46709111 74:0.47276241 75:1.44212 76:0.35094309 77:-1.1249059 78:-0.90698719 79:1.176623 80:0.2091741 81:-0.046295181 82:0.85170239 83:-2.883954 84:0.1931455 85:0.35094309 86:-1.1249059 87:-0.90698719 88:-1.029012 89:-1.3615969 90:-0.8358022 91:-1.881449 92:0.69869518 93:0.290216 94:0.35094309 95:-1.1249059 96:-0.90698719 97:0.35094309 98:-1.1249059 99:-0.90698719 100:0.02602301 101:-0.93124878 102:0.057246719 #
61.464259964392596202742424793541 1:-1.6023999 2:-0.55469412 3:-0.63518971 4:1.176623 5:0.2091741 6:-0.046295181 7:0.35094309 8:-1.1249059 9:-0.90698719 10:0.74849248 11:-0.87745529 12:0.36787239 13:-1.881449 14:0.69869518 15:0.290216 16:1.3906879 17:0.60724622 18:1.526247 19:0.02602301 20:-0.93124878 21:0.057246719 22:0.02602301 23:-0.93124878 24:0.057246719 25:0.35094309 26:-1.1249059 27:-0.90698719 28:-1.881449 29:0.69869518 30:0.290216 31:1.176623 32:0.2091741 33:-0.046295181 34:0.85170239 35:-2.883954 36:0.1931455 37:-1.881449 38:0.69869518 39:0.290216 40:-1.6023999 41:-0.55469412 42:-0.63518971 43:-1.6023999 44:-0.55469412 45:-0.63518971 46:-1.881449 47:0.69869518 48:0.290216 49:0.85170239 50:-2.883954 51:0.1931455 52:0.85170239 53:-2.883954 54:0.1931455 55:1.176623 56:0.2091741 57:-0.046295181 58:-1.6023999 59:-0.55469412 60:-0.63518971 61:0.92050898 62:0.93538678 63:0.7173264 64:-1.029012 65:-1.3615969 66:-0.8358022 67:-0.53207511 68:1.247389 69:0.0054757739 70:0.85170239 71:-2.883954 72:0.1931455 73:-0.46709111 74:0.47276241 75:1.44212 76:0.35094309 77:-1.1249059 78:-0.90698719 79:1.176623 80:0.2091741 81:-0.046295181 82:1.230139 83:0.77938551 84:0.54259938 85:0.35094309 86:-1.1249059 87:-0.90698719 88:0.35094309 89:-1.1249059 90:-0.90698719 91:-1.881449 92:0.69869518 93:0.290216 94:0.74849248 95:-0.87745529 96:0.36787239 97:0.74849248 98:-0.87745529 99:0.36787239 100:-1.816465 101:1.9628429 102:0.54907078 #
100 1:-1.6023999 2:-0.55469412 3:-0.63518971 4:1.230139 5:0.77938551 6:0.54259938 7:1.08488 8:0.75786811 9:-2.033005 10:0.85170239 11:-2.883954 12:0.1931455 13:-1.881449 14:0.69869518 15:0.290216 16:1.3906879 17:0.60724622 18:1.526247 19:0.02602301 20:-0.93124878 21:0.057246719 22:0.74849248 23:-0.87745529 24:0.36787239 25:0.35094309 26:-1.1249059 27:-0.90698719 28:-1.881449 29:0.69869518 30:0.290216 31:1.176623 32:0.2091741 33:-0.046295181 34:0.85170239 35:-2.883954 36:0.1931455 37:-1.881449 38:0.69869518 39:0.290216 40:-0.95256001 41:-0.14586321 42:-0.26632169 43:-1.6023999 44:-0.55469412 45:-0.63518971 46:-1.029012 47:-1.3615969 48:-0.8358022 49:0.85170239 50:-2.883954 51:0.1931455 52:0.85170239 53:-2.883954 54:0.1931455 55:1.3906879 56:0.60724622 57:1.526247 58:0.02602301 59:-0.93124878 60:0.057246719 61:1.230139 62:0.77938551 63:0.54259938 64:-1.697965 65:-0.90435201 66:-0.66754657 67:-0.53207511 68:1.247389 69:0.0054757739 70:0.85170239 71:-2.883954 72:0.1931455 73:-0.46709111 74:0.47276241 75:1.44212 76:0.35094309 77:-1.1249059 78:-0.90698719 79:1.176623 80:0.2091741 81:-0.046295181 82:1.230139 83:0.77938551 84:0.54259938 85:0.35094309 86:-1.1249059 87:-0.90698719 88:0.35094309 89:-1.1249059 90:-0.90698719 91:-1.881449 92:0.69869518 93:0.290216 94:0.74849248 95:-0.87745529 96:0.36787239 97:0.35094309 98:-1.1249059 99:-0.90698719 100:-1.697965 101:-0.90435201 102:-0.66754657 #
-87.401289207812482118242769502103 1:0.35094309 2:-1.1249059 3:-0.90698719 4:1.230139 5:0.77938551 6:0.54259938 7:0.35094309 8:-1.1249059 9:-0.90698719 10:0.74849248 11:-0.87745529 12:0.36787239 13:-1.881449 14:0.69869518 15:0.290216 16:1.3906879 17:0.60724622 18:1.526247 19:0.02602301 20:-0.93124878 21:0.057246719 22:-1.881449 23:0.69869518 24:0.290216 25:-0.95256001 26:-0.14586321 27:-0.26632169 28:-1.881449 29:0.69869518 30:0.290216 31:1.3906879 32:0.60724622 33:1.526247 34:0.85170239 35:-2.883954 36:0.1931455 37:-0.95256001 38:-0.14586321 39:-0.26632169 40:-1.697965 41:-0.90435201 42:-0.66754657 43:-0.95256001 44:-0.14586321 45:-0.26632169 46:-1.881449 47:0.69869518 48:0.290216 49:0.85170239 50:-2.883954 51:0.1931455 52:0.85170239 53:-2.883954 54:0.1931455 55:1.176623 56:0.2091741 57:-0.046295181 58:-1.6023999 59:-0.55469412 60:-0.63518971 61:0.92050898 62:0.93538678 63:0.7173264 64:-0.95256001 65:-0.14586321 66:-0.26632169 67:-0.53207511 68:1.247389 69:0.0054757739 70:0.85170239 71:-2.883954 72:0.1931455 73:-0.46709111 74:0.47276241 75:1.44212 76:0.74849248 77:-0.87745529 78:0.36787239 79:1.176623 80:0.2091741 81:-0.046295181 82:0.74849248 83:-0.87745529 84:0.36787239 85:0.35094309 86:-1.1249059 87:-0.90698719 88:-1.029012 89:-1.3615969 90:-0.8358022 91:-1.881449 92:0.69869518 93:0.290216 94:0.02602301 95:-0.93124878 96:0.057246719 97:0.35094309 98:-1.1249059 99:-0.90698719 100:-0.53207511 101:1.247389 102:0.0054757739 #
44.283072733030039103141461964697 1:-1.6023999 2:-0.55469412 3:-0.63518971 4:1.230139 5:0.77938551 6:0.54259938 7:0.74849248 8:-0.87745529 9:0.36787239 10:0.85170239 11:-2.883954 12:0.1931455 13:-1.881449 14:0.69869518 15:0.290216 16:1.3906879 17:0.60724622 18:1.526247 19:0.02602301 20:-0.93124878 21:0.057246719 22:-1.029012 23:-1.3615969 24:-0.8358022 25:0.35094309 26:-1.1249059 27:-0.90698719 28:-1.881449 29:0.69869518 30:0.290216 31:1.176623 32:0.2091741 33:-0.046295181 34:0.85170239 35:-2.883954 36:0.1931455 37:-1.881449 38:0.69869518 39:0.290216 40:-1.6023999 41:-0.55469412 42:-0.63518971 43:-0.53207511 44:1.247389 45:0.0054757739 46:-1.029012 47:-1.3615969 48:-0.8358022 49:0.85170239 50:-2.883954 51:0.1931455 52:0.85170239 53:-2.883954 54:0.1931455 55:1.176623 56:0.2091741 57:-0.046295181 58:-0.53207511 59:1.247389 60:0.0054757739 61:1.230139 62:0.77938551 63:0.54259938 64:-1.697965 65:-0.90435201 66:-0.66754657 67:-0.53207511 68:1.247389 69:0.0054757739 70:0.85170239 71:-2.883954 72:0.1931455 73:-0.46709111 74:0.47276241 75:1.44212 76:0.35094309 77:-1.1249059 78:-0.90698719 79:1.176623 80:0.2091741 81:-0.046295181 82:1.230139 83:0.77938551 84:0.54259938 85:0.35094309 86:-1.1249059 87:-0.90698719 88:0.35094309 89:-1.1249059 90:-0.90698719 91:-1.881449 92:0.69869518 93:0.290216 94:0.74849248 95:-0.87745529 96:0.36787239 97:0.35094309 98:-1.1249059 99:-0.90698719 100:-1.881449 101:0.69869518 102:0.290216 #
30.62920349032401645672507584095 1:-1.6023999 2:-0.55469412 3:-0.63518971 4:1.230139 5:0.77938551 6:0.54259938 7:0.85170239 8:-2.883954 9:0.1931455 10:0.74849248 11:-0.87745529 12:0.36787239 13:-1.881449 14:0.69869518 15:0.290216 16:1.3906879 17:0.60724622 18:1.526247 19:0.02602301 20:-0.93124878 21:0.057246719 22:0.74849248 23:-0.87745529 24:0.36787239 25:0.35094309 26:-1.1249059 27:-0.90698719 28:-0.95256001 29:-0.14586321 30:-0.26632169 31:1.3906879 32:0.60724622 33:1.526247 34:0.85170239 35:-2.883954 36:0.1931455 37:-1.881449 38:0.69869518 39:0.290216 40:0.35094309 41:-1.1249059 42:-0.90698719 43:-1.6023999 44:-0.55469412 45:-0.63518971 46:0.2706688 47:-0.52241802 48:2.67168 49:0.85170239 50:-2.883954 51:0.1931455 52:0.85170239 53:-2.883954 54:0.1931455 55:1.176623 56:0.2091741 57:-0.046295181 58:-1.029012 59:-1.3615969 60:-0.8358022 61:0.92050898 62:0.93538678 63:0.7173264 64:0.2706688 65:-0.52241802 66:2.67168 67:-0.53207511 68:1.247389 69:0.0054757739 70:0.85170239 71:-2.883954 72:0.1931455 73:-0.46709111 74:0.47276241 75:1.44212 76:0.35094309 77:-1.1249059 78:-0.90698719 79:1.176623 80:0.2091741 81:-0.046295181 82:0.74849248 83:-0.87745529 84:0.36787239 85:0.35094309 86:-1.1249059 87:-0.90698719 88:0.35094309 89:-1.1249059 90:-0.90698719 91:-0.53207511 92:1.247389 93:0.0054757739 94:0.02602301 95:-0.93124878 96:0.057246719 97:0.35094309 98:-1.1249059 99:-0.90698719 100:0.35094309 101:-1.1249059 102:-0.90698719 #
-0.62533398795402383996133721666411 1:-1.881449 2:0.69869518 3:0.290216 4:1.100171 5:1.3549761 6:-2.2271459 7:0.74849248 8:-0.87745529 9:0.36787239 10:0.74849248 11:-0.87745529 12:0.36787239 13:-1.881449 14:0.69869518 15:0.290216 16:1.3906879 17:0.60724622 18:1.526247 19:-1.6023999 20:-0.55469412 21:-0.63518971 22:0.35094309 23:-1.1249059 24:-0.90698719 25:-1.029012 26:-1.3615969 27:-0.8358022 28:0.35094309 29:-1.1249059 30:-0.90698719 31:0.35094309 32:-1.1249059 33:-0.90698719 34:0.85170239 35:-2.883954 36:0.1931455 37:-0.0007351134 38:-0.0006206946 39:-0.00099559524 40:0.02602301 41:-0.93124878 42:0.057246719 43:-0.95256001 44:-0.14586321 45:-0.26632169 46:-1.6023999 47:-0.55469412 48:-0.63518971 49:0.85170239 50:-2.883954 51:0.1931455 52:0.85170239 53:-2.883954 54:0.1931455 55:1.176623 56:0.2091741 57:-0.046295181 58:-1.029012 59:-1.3615969 60:-0.8358022 61:1.230139 62:0.77938551 63:0.54259938 64:1.3906879 65:0.60724622 66:1.526247 67:-1.881449 68:0.69869518 69:0.290216 70:0.85170239 71:-2.883954 72:0.1931455 73:-0.46709111 74:0.47276241 75:1.44212 76:0.35094309 77:-1.1249059 78:-0.90698719 79:1.176623 80:0.2091741 81:-0.046295181 82:0.35094309 83:-1.1249059 84:-0.90698719 85:0.35094309 86:-1.1249059 87:-0.90698719 88:-1.029012 89:-1.3615969 90:-0.8358022 91:0.92050898 92:0.93538678 93:0.7173264 94:0.2706688 95:-0.52241802 96:2.67168 97:0.35094309 98:-1.1249059 99:-0.90698719 100:-1.029012 101:-1.3615969 102:-0.8358022 #
-0.58053455928727260015875799581409 1:-1.6023999 2:-0.55469412 3:-0.63518971 4:-1.816465 5:1.9628429 6:0.54907078 7:0.2706688 8:-0.52241802 9:2.67168 10:0.35094309 11:-1.1249059 12:-0.90698719 13:-1.881449 14:0.69869518 15:0.290216 16:1.3906879 17:0.60724622 18:1.526247 19:-1.6023999 20:-0.55469412 21:-0.63518971 22:0.74849248 23:-0.87745529 24:0.36787239 25:-1.029012 26:-1.3615969 27:-0.8358022 28:-1.881449 29:0.69869518 30:0.290216 31:1.3906879 32:0.60724622 33:1.526247 34:0.85170239 35:-2.883954 36:0.1931455 37:1.230139 38:0.77938551 39:0.54259938 40:0.74849248 41:-0.87745529 42:0.36787239 43:-1.881449 44:0.69869518 45:0.290216 46:-1.881449 47:0.69869518 48:0.290216 49:0.74849248 50:-0.87745529 51:0.36787239 52:0.85170239 53:-2.883954 54:0.1931455 55:1.3906879 56:0.60724622 57:1.526247 58:-1.697965 59:-0.90435201 60:-0.66754657 61:0.74849248 62:-0.87745529 63:0.36787239 64:-1.6023999 65:-0.55469412 66:-0.63518971 67:0.85170239 68:-2.883954 69:0.1931455 70:0.85170239 71:-2.883954 72:0.1931455 73:0.02602301 74:-0.93124878 75:0.057246719 76:0.35094309 77:-1.1249059 78:-0.90698719 79:1.176623 80:0.2091741 81:-0.046295181 82:0.02602301 83:-0.93124878 84:0.057246719 85:0.35094309 86:-1.1249059 87:-0.90698719 88:-1.029012 89:-1.3615969 90:-0.8358022 91:-1.816465 92:1.9628429 93:0.54907078 94:0.74849248 95:-0.87745529 96:0.36787239 97:1.230139 98:0.77938551 99:0.54259938 100:-1.881449 101:0.69869518 102:0.290216 #
-97.794032453763634293864015489817 1:-1.6023999 2:-0.55469412 3:-0.63518971 4:1.230139 5:0.77938551 6:0.54259938 7:1.230139 8:0.77938551 9:0.54259938 10:0.74849248 11:-0.87745529 12:0.36787239 13:-1.881449 14:0.69869518 15:0.290216 16:1.3906879 17:0.60724622 18:1.526247 19:0.02602301 20:-0.93124878 21:0.057246719 22:0.74849248 23:-0.87745529 24:0.36787239 25:0.35094309 26:-1.1249059 27:-0.90698719 28:-1.6023999 29:-0.55469412 30:-0.63518971 31:1.3906879 32:0.60724622 33:1.526247 34:0.85170239 35:-2.883954 36:0.1931455 37:-1.881449 38:0.69869518 39:0.290216 40:-1.6023999 41:-0.55469412 42:-0.63518971 43:-1.6023999 44:-0.55469412 45:-0.63518971 46:0.2706688 47:-0.52241802 48:2.67168 49:0.85170239 50:-2.883954 51:0.1931455 52:0.85170239 53:-2.883954 54:0.1931455 55:1.176623 56:0.2091741 57:-0.046295181 58:-1.029012 59:-1.3615969 60:-0.8358022 61:1.230139 62:0.77938551 63:0.54259938 64:0.85170239 65:-2.883954 66:0.1931455 67:-0.53207511 68:1.247389 69:0.0054757739 70:0.85170239 71:-2.883954 72:0.1931455 73:-0.46709111 74:0.47276241 75:1.44212 76:0.35094309 77:-1.1249059 78:-0.90698719 79:1.176623 80:0.2091741 81:-0.046295181 82:0.35094309 83:-1.1249059 84:-0.90698719 85:0.35094309 86:-1.1249059 87:-0.90698719 88:0.35094309 89:-1.1249059 90:-0.90698719 91:-1.881449 92:0.69869518 93:0.290216 94:0.02602301 95:-0.93124878 96:0.057246719 97:-1.029012 98:-1.3615969 99:-0.8358022 100:0.35094309 101:-1.1249059 102:-0.90698719 #
-54.651462570802948448545066639781 1:-1.6023999 2:-0.55469412 3:-0.63518971 4:1.230139 5:0.77938551 6:0.54259938 7:0.02602301 8:-0.93124878 9:0.057246719 10:0.85170239 11:-2.883954 12:0.1931455 13:-1.881449 14:0.69869518 15:0.290216 16:1.3906879 17:0.60724622 18:1.526247 19:0.02602301 20:-0.93124878 21:0.057246719 22:0.74849248 23:-0.87745529 24:0.36787239 25:0.35094309 26:-1.1249059 27:-0.90698719 28:-1.881449 29:0.69869518 30:0.290216 31:1.176623 32:0.2091741 33:-0.046295181 34:0.85170239 35:-2.883954 36:0.1931455 37:-1.816465 38:1.9628429 39:0.54907078 40:-1.6023999 41:-0.55469412 42:-0.63518971 43:-1.697965 44:-0.90435201 45:-0.66754657 46:-1.697965 47:-0.90435201 48:-0.66754657 49:0.85170239 50:-2.883954 51:0.1931455 52:0.85170239 53:-2.883954 54:0.1931455 55:1.3906879 56:0.60724622 57:1.526247 58:-1.816465 59:1.9628429 60:0.54907078 61:1.230139 62:0.77938551 63:0.54259938 64:0.85170239 65:-2.883954 66:0.1931455 67:-0.53207511 68:1.247389 69:0.0054757739 70:0.85170239 71:-2.883954 72:0.1931455 73:-0.46709111 74:0.47276241 75:1.44212 76:0.35094309 77:-1.1249059 78:-0.90698719 79:1.176623 80:0.2091741 81:-0.046295181 82:1.230139 83:0.77938551 84:0.54259938 85:0.35094309 86:-1.1249059 87:-0.90698719 88:0.35094309 89:-1.1249059 90:-0.90698719 91:-1.881449 92:0.69869518 93:0.290216 94:0.74849248 95:-0.87745529 96:0.36787239 97:0.35094309 98:-1.1249059 99:-0.90698719 100:0.2706688 101:-0.52241802 102:2.67168 #
19.881707161302074382547289133072 1:-1.029012 2:-1.3615969 3:-0.8358022 4:0.85170239 5:-2.883954 6:0.1931455 7:0.02602301 8:-0.93124878 9:0.057246719 10:0.74849248 11:-0.87745529 12:0.36787239 13:-1.881449 14:0.69869518 15:0.290216 16:1.3906879 17:0.60724622 18:1.526247 19:0.85170239 20:-2.883954 21:0.1931455 22:0.74849248 23:-0.87745529 24:0.36787239 25:0.35094309 26:-1.1249059 27:-0.90698719 28:-1.881449 29:0.69869518 30:0.290216 31:1.3906879 32:0.60724622 33:1.526247 34:0.85170239 35:-2.883954 36:0.1931455 37:-1.881449 38:0.69869518 39:0.290216 40:-1.697965 41:-0.90435201 42:-0.66754657 43:-1.6023999 44:-0.55469412 45:-0.63518971 46:-1.881449 47:0.69869518 48:0.290216 49:0.85170239 50:-2.883954 51:0.1931455 52:0.85170239 53:-2.883954 54:0.1931455 55:1.176623 56:0.2091741 57:-0.046295181 58:1.08488 59:0.75786811 60:-2.033005 61:0.92050898 62:0.93538678 63:0.7173264 64:-1.029012 65:-1.3615969 66:-0.8358022 67:-0.53207511 68:1.247389 69:0.0054757739 70:0.85170239 71:-2.883954 72:0.1931455 73:-0.46709111 74:0.47276241 75:1.44212 76:0.35094309 77:-1.1249059 78:-0.90698719 79:1.176623 80:0.2091741 81:-0.046295181 82:0.74849248 83:-0.87745529 84:0.36787239 85:0.35094309 86:-1.1249059 87:-0.90698719 88:-1.029012 89:-1.3615969 90:-0.8358022 91:-1.881449 92:0.69869518 93:0.290216 94:0.02602301 95:-0.93124878 96:0.057246719 97:0.35094309 98:-1.1249059 99:-0.90698719 100:0.2706688 101:-0.52241802 102:2.67168 #
-12.642902120448695768573088571429 1:1.230139 2:0.77938551 3:0.54259938 4:1.100171 5:1.3549761 6:-2.2271459 7:0.35094309 8:-1.1249059 9:-0.90698719 10:0.74849248 11:-0.87745529 12:0.36787239 13:-1.881449 14:0.69869518 15:0.290216 16:1.3906879 17:0.60724622 18:1.526247 19:0.02602301 20:-0.93124878 21:0.057246719 22:0.74849248 23:-0.87745529 24:0.36787239 25:-1.029012 26:-1.3615969 27:-0.8358022 28:-1.6023999 29:-0.55469412 30:-0.63518971 31:1.3906879 32:0.60724622 33:1.526247 34:-1.816465 35:1.9628429 36:0.54907078 37:-1.881449 38:0.69869518 39:0.290216 40:-1.881449 41:0.69869518 42:0.290216 43:-1.881449 44:0.69869518 45:0.290216 46:0.2706688 47:-0.52241802 48:2.67168 49:0.85170239 50:-2.883954 51:0.1931455 52:0.85170239 53:-2.883954 54:0.1931455 55:1.176623 56:0.2091741 57:-0.046295181 58:0.92050898 59:0.93538678 60:0.7173264 61:1.230139 62:0.77938551 63:0.54259938 64:-1.6023999 65:-0.55469412 66:-0.63518971 67:-0.53207511 68:1.247389 69:0.0054757739 70:0.85170239 71:-2.883954 72:0.1931455 73:-0.46709111 74:0.47276241 75:1.44212 76:0.35094309 77:-1.1249059 78:-0.90698719 79:1.176623 80:0.2091741 81:-0.046295181 82:0.35094309 83:-1.1249059 84:-0.90698719 85:0.74849248 86:-0.87745529 87:0.36787239 88:-1.029012 89:-1.3615969 90:-0.8358022 91:1.3906879 92:0.60724622 93:1.526247 94:0.02602301 95:-0.93124878 96:0.057246719 97:0.35094309 98:-1.1249059 99:-0.90698719 100:0.2706688 101:-0.52241802 102:2.67168 #
-31.654410734682357997371582314372 1:-1.6023999 2:-0.55469412 3:-0.63518971 4:0.85170239 5:-2.883954 6:0.1931455 7:0.35094309 8:-1.1249059 9:-0.90698719 10:0.92050898 11:0.93538678 12:0.7173264 13:-1.881449 14:0.69869518 15:0.290216 16:1.3906879 17:0.60724622 18:1.526247 19:-0.95256001 20:-0.14586321 21:-0.26632169 22:0.74849248 23:-0.87745529 24:0.36787239 25:-1.029012 26:-1.3615969 27:-0.8358022 28:-1.816465 29:1.9628429 30:0.54907078 31:1.176623 32:0.2091741 33:-0.046295181 34:0.85170239 35:-2.883954 36:0.1931455 37:1.230139 38:0.77938551 39:0.54259938 40:0.83258939 41:0.28448501 42:-0.73873162 43:0.35094309 44:-1.1249059 45:-0.90698719 46:-1.6023999 47:-0.55469412 48:-0.63518971 49:0.85170239 50:-2.883954 51:0.1931455 52:0.85170239 53:-2.883954 54:0.1931455 55:1.176623 56:0.2091741 57:-0.046295181 58:-1.029012 59:-1.3615969 60:-0.8358022 61:1.230139 62:0.77938551 63:0.54259938 64:-1.6023999 65:-0.55469412 66:-0.63518971 67:-0.53207511 68:1.247389 69:0.0054757739 70:0.85170239 71:-2.883954 72:0.1931455 73:-1.697965 74:-0.90435201 75:-0.66754657 76:0.35094309 77:-1.1249059 78:-0.90698719 79:1.176623 80:0.2091741 81:-0.046295181 82:0.35094309 83:-1.1249059 84:-0.90698719 85:0.35094309 86:-1.1249059 87:-0.90698719 88:-1.029012 89:-1.3615969 90:-0.8358022 91:0.92050898 92:0.93538678 93:0.7173264 94:0.74849248 95:-0.87745529 96:0.36787239 97:0.35094309 98:-1.1249059 99:-0.90698719 100:-1.816465 101:1.9628429 102:0.54907078 #
-36.677912085050763835170073434711 1:0.35094309 2:-1.1249059 3:-0.90698719 4:1.230139 5:0.77938551 6:0.54259938 7:1.230139 8:0.77938551 9:0.54259938 10:0.74849248 11:-0.87745529 12:0.36787239 13:-1.881449 14:0.69869518 15:0.290216 16:1.3906879 17:0.60724622 18:1.526247 19:0.85170239 20:-2.883954 21:0.1931455 22:0.74849248 23:-0.87745529 24:0.36787239 25:0.35094309 26:-1.1249059 27:-0.90698719 28:-1.881449 29:0.69869518 30:0.290216 31:1.3906879 32:0.60724622 33:1.526247 34:0.74849248 35:-0.87745529 36:0.36787239 37:-1.881449 38:0.69869518 39:0.290216 40:-0.95256001 41:-0.14586321 42:-0.26632169 43:-1.029012 44:-1.3615969 45:-0.8358022 46:-1.881449 47:0.69869518 48:0.290216 49:0.85170239 50:-2.883954 51:0.1931455 52:0.85170239 53:-2.883954 54:0.1931455 55:1.176623 56:0.2091741 57:-0.046295181 58:-1.029012 59:-1.3615969 60:-0.8358022 61:1.230139 62:0.77938551 63:0.54259938 64:0.85170239 65:-2.883954 66:0.1931455 67:-0.53207511 68:1.247389 69:0.0054757739 70:0.85170239 71:-2.883954 72:0.1931455 73:-0.46709111 74:0.47276241 75:1.44212 76:0.35094309 77:-1.1249059 78:-0.90698719 79:1.176623 80:0.2091741 81:-0.046295181 82:0.35094309 83:-1.1249059 84:-0.90698719 85:0.35094309 86:-1.1249059 87:-0.90698719 88:-1.029012 89:-1.3615969 90:-0.8358022 91:-1.881449 92:0.69869518 93:0.290216 94:0.02602301 95:-0.93124878 96:0.057246719 97:0.35094309 98:-1.1249059 99:-0.90698719 100:0.35094309 101:-1.1249059 102:-0.90698719 #
52.101174749118669637937273364514 1:0.35094309 2:-1.1249059 3:-0.90698719 4:0.92050898 5:0.93538678 6:0.7173264 7:1.230139 8:0.77938551 9:0.54259938 10:0.74849248 11:-0.87745529 12:0.36787239 13:-1.881449 14:0.69869518 15:0.290216 16:1.3906879 17:0.60724622 18:1.526247 19:0.85170239 20:-2.883954 21:0.1931455 22:0.74849248 23:-0.87745529 24:0.36787239 25:0.35094309 26:-1.1249059 27:-0.90698719 28:-1.881449 29:0.69869518 30:0.290216 31:1.176623 32:0.2091741 33:-0.046295181 34:0.85170239 35:-2.883954 36:0.1931455 37:-1.881449 38:0.69869518 39:0.290216 40:-0.95256001 41:-0.14586321 42:-0.26632169 43:-1.6023999 44:-0.55469412 45:-0.63518971 46:-1.881449 47:0.69869518 48:0.290216 49:0.85170239 50:-2.883954 51:0.1931455 52:0.85170239 53:-2.883954 54:0.1931455 55:1.176623 56:0.2091741 57:-0.046295181 58:-1.697965 59:-0.90435201 60:-0.66754657 61:1.230139 62:0.77938551 63:0.54259938 64:-1.029012 65:-1.3615969 66:-0.8358022 67:-0.53207511 68:1.247389 69:0.0054757739 70:0.85170239 71:-2.883954 72:0.1931455 73:-0.46709111 74:0.47276241 75:1.44212 76:0.35094309 77:-1.1249059 78:-0.90698719 79:1.176623 80:0.2091741 81:-0.046295181 82:0.35094309 83:-1.1249059 84:-0.90698719 85:0.35094309 86:-1.1249059 87:-0.90698719 88:-1.029012 89:-1.3615969 90:-0.8358022 91:-0.53207511 92:1.247389 93:0.0054757739 94:0.02602301 95:-0.93124878 96:0.057246719 97:0.35094309 98:-1.1249059 99:-0.90698719 100:-0.53207511 101:1.247389 102:0.0054757739 #
14.439578979833143534960981924087 1:-1.029012 2:-1.3615969 3:-0.8358022 4:1.176623 5:0.2091741 6:-0.046295181 7:0.35094309 8:-1.1249059 9:-0.90698719 10:0.74849248 11:-0.87745529 12:0.36787239 13:-1.881449 14:0.69869518 15:0.290216 16:1.3906879 17:0.60724622 18:1.526247 19:0.85170239 20:-2.883954 21:0.1931455 22:-1.881449 23:0.69869518 24:0.290216 25:0.35094309 26:-1.1249059 27:-0.90698719 28:-1.881449 29:0.69869518 30:0.290216 31:1.3906879 32:0.60724622 33:1.526247 34:0.85170239 35:-2.883954 36:0.1931455 37:-1.881449 38:0.69869518 39:0.290216 40:-1.029012 41:-1.3615969 42:-0.8358022 43:-1.6023999 44:-0.55469412 45:-0.63518971 46:-1.881449 47:0.69869518 48:0.290216 49:0.85170239 50:-2.883954 51:0.1931455 52:0.85170239 53:-2.883954 54:0.1931455 55:1.176623 56:0.2091741 57:-0.046295181 58:-1.697965 59:-0.90435201 60:-0.66754657 61:0.92050898 62:0.93538678 63:0.7173264 64:-1.029012 65:-1.3615969 66:-0.8358022 67:-0.53207511 68:1.247389 69:0.0054757739 70:0.85170239 71:-2.883954 72:0.1931455 73:-0.46709111 74:0.47276241 75:1.44212 76:0.35094309 77:-1.1249059 78:-0.90698719 79:1.176623 80:0.2091741 81:-0.046295181 82:0.35094309 83:-1.1249059 84:-0.90698719 85:0.35094309 86:-1.1249059 87:-0.90698719 88:-1.029012 89:-1.3615969 90:-0.8358022 91:-1.881449 92:0.69869518 93:0.290216 94:0.02602301 95:-0.93124878 96:0.057246719 97:0.35094309 98:-1.1249059 99:-0.90698719 100:-1.881449 101:0.69869518 102:0.290216 #
-1.023073415303770161699503660202 1:-1.6023999 2:-0.55469412 3:-0.63518971 4:0.85170239 5:-2.883954 6:0.1931455 7:-1.6023999 8:-0.55469412 9:-0.63518971 10:0.02602301 11:-0.93124878 12:0.057246719 13:-1.881449 14:0.69869518 15:0.290216 16:1.3906879 17:0.60724622 18:1.526247 19:0.02602301 20:-0.93124878 21:0.057246719 22:0.74849248 23:-0.87745529 24:0.36787239 25:-1.029012 26:-1.3615969 27:-0.8358022 28:0.83258939 29:0.28448501 30:-0.73873162 31:0.83258939 32:0.28448501 33:-0.73873162 34:0.02602301 35:-0.93124878 36:0.057246719 37:1.3906879 38:0.60724622 39:1.526247 40:0.85170239 41:-2.883954 42:0.1931455 43:-1.6023999 44:-0.55469412 45:-0.63518971 46:-1.697965 47:-0.90435201 48:-0.66754657 49:0.85170239 50:-2.883954 51:0.1931455 52:0.85170239 53:-2.883954 54:0.1931455 55:1.176623 56:0.2091741 57:-0.046295181 58:0.35094309 59:-1.1249059 60:-0.90698719 61:1.230139 62:0.77938551 63:0.54259938 64:-1.029012 65:-1.3615969 66:-0.8358022 67:-0.53207511 68:1.247389 69:0.0054757739 70:0.85170239 71:-2.883954 72:0.1931455 73:-0.46709111 74:0.47276241 75:1.44212 76:0.35094309 77:-1.1249059 78:-0.90698719 79:1.176623 80:0.2091741 81:-0.046295181 82:0.35094309 83:-1.1249059 84:-0.90698719 85:0.2706688 86:-0.52241802 87:2.67168 88:-1.029012 89:-1.3615969 90:-0.8358022 91:1.3906879 92:0.60724622 93:1.526247 94:0.02602301 95:-0.93124878 96:0.057246719 97:0.74849248 98:-0.87745529 99:0.36787239 100:-1.6023999 101:-0.55469412 102:-0.63518971 #
5.4250501133137731812894344329834 1:-1.029012 2:-1.3615969 3:-0.8358022 4:0.85170239 5:-2.883954 6:0.1931455 7:0.35094309 8:-1.1249059 9:-0.90698719 10:0.74849248 11:-0.87745529 12:0.36787239 13:-1.881449 14:0.69869518 15:0.290216 16:1.3906879 17:0.60724622 18:1.526247 19:0.85170239 20:-2.883954 21:0.1931455 22:0.74849248 23:-0.87745529 24:0.36787239 25:0.35094309 26:-1.1249059 27:-0.90698719 28:-1.881449 29:0.69869518 30:0.290216 31:1.3906879 32:0.60724622 33:1.526247 34:0.85170239 35:-2.883954 36:0.1931455 37:-1.881449 38:0.69869518 39:0.290216 40:-1.697965 41:-0.90435201 42:-0.66754657 43:-1.6023999 44:-0.55469412 45:-0.63518971 46:-1.881449 47:0.69869518 48:0.290216 49:0.85170239 50:-2.883954 51:0.1931455 52:0.85170239 53:-2.883954 54:0.1931455 55:1.176623 56:0.2091741 57:-0.046295181 58:1.08488 59:0.75786811 60:-2.033005 61:0.92050898 62:0.93538678 63:0.7173264 64:-1.029012 65:-1.3615969 66:-0.8358022 67:-0.53207511 68:1.247389 69:0.0054757739 70:0.85170239 71:-2.883954 72:0.1931455 73:-0.46709111 74:0.47276241 75:1.44212 76:0.35094309 77:-1.1249059 78:-0.90698719 79:1.176623 80:0.2091741 81:-0.046295181 82:0.74849248 83:-0.87745529 84:0.36787239 85:0.35094309 86:-1.1249059 87:-0.90698719 88:-1.029012 89:-1.3615969 90:-0.8358022 91:-1.881449 92:0.69869518 93:0.290216 94:0.02602301 95:-0.93124878 96:0.057246719 97:0.35094309 98:-1.1249059 99:-0.90698719 100:0.2706688 101:-0.52241802 102:2.67168 #
-15.384957361958996102657692972571 1:-1.6023999 2:-0.55469412 3:-0.63518971 4:1.3906879 5:0.60724622 6:1.526247 7:1.100171 8:1.3549761 9:-2.2271459 10:0.74849248 11:-0.87745529 12:0.36787239 13:-1.881449 14:0.69869518 15:0.290216 16:1.3906879 17:0.60724622 18:1.526247 19:-1.697965 20:-0.90435201 21:-0.66754657 22:0.74849248 23:-0.87745529 24:0.36787239 25:0.35094309 26:-1.1249059 27:-0.90698719 28:-1.881449 29:0.69869518 30:0.290216 31:1.176623 32:0.2091741 33:-0.046295181 34:0.02602301 35:-0.93124878 36:0.057246719 37:-1.6023999 38:-0.55469412 39:-0.63518971 40:-1.6023999 41:-0.55469412 42:-0.63518971 43:-1.816465 44:1.9628429 45:0.54907078 46:0.35094309 47:-1.1249059 48:-0.90698719 49:0.85170239 50:-2.883954 51:0.1931455 52:0.85170239 53:-2.883954 54:0.1931455 55:1.3906879 56:0.60724622 57:1.526247 58:1.08488 59:0.75786811 60:-2.033005 61:0.35094309 62:-1.1249059 63:-0.90698719 64:-1.6023999 65:-0.55469412 66:-0.63518971 67:-0.53207511 68:1.247389 69:0.0054757739 70:0.85170239 71:-2.883954 72:0.1931455 73:-0.46709111 74:0.47276241 75:1.44212 76:0.35094309 77:-1.1249059 78:-0.90698719 79:1.176623 80:0.2091741 81:-0.046295181 82:0.35094309 83:-1.1249059 84:-0.90698719 85:0.35094309 86:-1.1249059 87:-0.90698719 88:-1.6023999 89:-0.55469412 90:-0.63518971 91:0.85170239 92:-2.883954 93:0.1931455 94:0.2706688 95:-0.52241802 96:2.67168 97:0.35094309 98:-1.1249059 99:-0.90698719 100:-1.816465 101:1.9628429 102:0.54907078 #
-100 1:-1.6023999 2:-0.55469412 3:-0.63518971 4:1.230139 5:0.77938551 6:0.54259938 7:0.74849248 8:-0.87745529 9:0.36787239 10:0.02602301 11:-0.93124878 12:0.057246719 13:-1.881449 14:0.69869518 15:0.290216 16:1.3906879 17:0.60724622 18:1.526247 19:0.02602301 20:-0.93124878 21:0.057246719 22:0.02602301 23:-0.93124878 24:0.057246719 25:0.35094309 26:-1.1249059 27:-0.90698719 28:-1.816465 29:1.9628429 30:0.54907078 31:1.176623 32:0.2091741 33:-0.046295181 34:0.74849248 35:-0.87745529 36:0.36787239 37:-1.881449 38:0.69869518 39:0.290216 40:-1.6023999 41:-0.55469412 42:-0.63518971 43:-1.6023999 44:-0.55469412 45:-0.63518971 46:-1.881449 47:0.69869518 48:0.290216 49:0.85170239 50:-2.883954 51:0.1931455 52:0.85170239 53:-2.883954 54:0.1931455 55:1.176623 56:0.2091741 57:-0.046295181 58:-1.6023999 59:-0.55469412 60:-0.63518971 61:0.92050898 62:0.93538678 63:0.7173264 64:-0.95256001 65:-0.14586321 66:-0.26632169 67:-0.53207511 68:1.247389 69:0.0054757739 70:0.85170239 71:-2.883954 72:0.1931455 73:-0.46709111 74:0.47276241 75:1.44212 76:0.02602301 77:-0.93124878 78:0.057246719 79:1.176623 80:0.2091741 81:-0.046295181 82:0.35094309 83:-1.1249059 84:-0.90698719 85:0.35094309 86:-1.1249059 87:-0.90698719 88:0.35094309 89:-1.1249059 90:-0.90698719 91:-1.881449 92:0.69869518 93:0.290216 94:0.02602301 95:-0.93124878 96:0.057246719 97:0.35094309 98:-1.1249059 99:-0.90698719 100:0.02602301 101:-0.93124878 102:0.057246719 #
-12.586009232367359800264239311218 1:-1.6023999 2:-0.55469412 3:-0.63518971 4:0.92050898 5:0.93538678 6:0.7173264 7:-1.029012 8:-1.3615969 9:-0.8358022 10:0.74849248 11:-0.87745529 12:0.36787239 13:-1.881449 14:0.69869518 15:0.290216 16:1.3906879 17:0.60724622 18:1.526247 19:0.02602301 20:-0.93124878 21:0.057246719 22:-1.881449 23:0.69869518 24:0.290216 25:0.35094309 26:-1.1249059 27:-0.90698719 28:-1.881449 29:0.69869518 30:0.290216 31:1.3906879 32:0.60724622 33:1.526247 34:0.02602301 35:-0.93124878 36:0.057246719 37:-1.881449 38:0.69869518 39:0.290216 40:0.02602301 41:-0.93124878 42:0.057246719 43:-1.6023999 44:-0.55469412 45:-0.63518971 46:-1.881449 47:0.69869518 48:0.290216 49:0.85170239 50:-2.883954 51:0.1931455 52:0.85170239 53:-2.883954 54:0.1931455 55:1.176623 56:0.2091741 57:-0.046295181 58:-1.697965 59:-0.90435201 60:-0.66754657 61:1.230139 62:0.77938551 63:0.54259938 64:0.2706688 65:-0.52241802 66:2.67168 67:-0.53207511 68:1.247389 69:0.0054757739 70:0.85170239 71:-2.883954 72:0.1931455 73:-0.46709111 74:0.47276241 75:1.44212 76:0.35094309 77:-1.1249059 78:-0.90698719 79:1.176623 80:0.2091741 81:-0.046295181 82:0.85170239 83:-2.883954 84:0.1931455 85:0.35094309 86:-1.1249059 87:-0.90698719 88:-1.029012 89:-1.3615969 90:-0.8358022 91:-1.881449 92:0.69869518 93:0.290216 94:0.02602301 95:-0.93124878 96:0.057246719 97:0.35094309 98:-1.1249059 99:-0.90698719 100:0.02602301 101:-0.93124878 102:0.057246719 #
-7.8711937564403342548757791519165 1:-1.6023999 2:-0.55469412 3:-0.63518971 4:1.176623 5:0.2091741 6:-0.046295181 7:-0.46709111 8:0.47276241 9:1.44212 10:0.85170239 11:-2.883954 12:0.1931455 13:-1.881449 14:0.69869518 15:0.290216 16:1.3906879 17:0.60724622 18:1.526247 19:0.02602301 20:-0.93124878 21:0.057246719 22:0.74849248 23:-0.87745529 24:0.36787239 25:0.35094309 26:-1.1249059 27:-0.90698719 28:-1.6023999 29:-0.55469412 30:-0.63518971 31:1.176623 32:0.2091741 33:-0.046295181 34:0.85170239 35:-2.883954 36:0.1931455 37:-1.816465 38:1.9628429 39:0.54907078 40:-0.95256001 41:-0.14586321 42:-0.26632169 43:-1.6023999 44:-0.55469412 45:-0.63518971 46:-1.029012 47:-1.3615969 48:-0.8358022 49:0.85170239 50:-2.883954 51:0.1931455 52:0.85170239 53:-2.883954 54:0.1931455 55:1.3906879 56:0.60724622 57:1.526247 58:-1.697965 59:-0.90435201 60:-0.66754657 61:1.230139 62:0.77938551 63:0.54259938 64:0.85170239 65:-2.883954 66:0.1931455 67:-0.53207511 68:1.247389 69:0.0054757739 70:0.85170239 71:-2.883954 72:0.1931455 73:-0.46709111 74:0.47276241 75:1.44212 76:0.35094309 77:-1.1249059 78:-0.90698719 79:1.176623 80:0.2091741 81:-0.046295181 82:1.230139 83:0.77938551 84:0.54259938 85:0.35094309 86:-1.1249059 87:-0.90698719 88:0.35094309 89:-1.1249059 90:-0.90698719 91:-1.881449 92:0.69869518 93:0.290216 94:0.74849248 95:-0.87745529 96:0.36787239 97:0.35094309 98:-1.1249059 99:-0.90698719 100:0.35094309 101:-1.1249059 102:-0.90698719 #
-15.709330510427719218569109216332 1:-1.6023999 2:-0.55469412 3:-0.63518971 4:0.92050898 5:0.93538678 6:0.7173264 7:0.74849248 8:-0.87745529 9:0.36787239 10:0.85170239 11:-2.883954 12:0.1931455 13:-1.881449 14:0.69869518 15:0.290216 16:1.3906879 17:0.60724622 18:1.526247 19:0.02602301 20:-0.93124878 21:0.057246719 22:0.85170239 23:-2.883954 24:0.1931455 25:0.35094309 26:-1.1249059 27:-0.90698719 28:-1.881449 29:0.69869518 30:0.290216 31:1.176623 32:0.2091741 33:-0.046295181 34:0.85170239 35:-2.883954 36:0.1931455 37:-1.816465 38:1.9628429 39:0.54907078 40:-1.6023999 41:-0.55469412 42:-0.63518971 43:-1.697965 44:-0.90435201 45:-0.66754657 46:-1.697965 47:-0.90435201 48:-0.66754657 49:0.85170239 50:-2.883954 51:0.1931455 52:0.85170239 53:-2.883954 54:0.1931455 55:1.3906879 56:0.60724622 57:1.526247 58:-1.816465 59:1.9628429 60:0.54907078 61:1.230139 62:0.77938551 63:0.54259938 64:0.85170239 65:-2.883954 66:0.1931455 67:-0.53207511 68:1.247389 69:0.0054757739 70:0.85170239 71:-2.883954 72:0.1931455 73:-0.46709111 74:0.47276241 75:1.44212 76:0.35094309 77:-1.1249059 78:-0.90698719 79:1.176623 80:0.2091741 81:-0.046295181 82:1.230139 83:0.77938551 84:0.54259938 85:0.35094309 86:-1.1249059 87:-0.90698719 88:0.35094309 89:-1.1249059 90:-0.90698719 91:-1.881449 92:0.69869518 93:0.290216 94:0.74849248 95:-0.87745529 96:0.36787239 97:0.35094309 98:-1.1249059 99:-0.90698719 100:0.74849248 101:-0.87745529 102:0.36787239 #
-23.898650915270110317578655667603 1:-1.881449 2:0.69869518 3:0.290216 4:-1.816465 5:1.9628429 6:0.54907078 7:0.02602301 8:-0.93124878 9:0.057246719 10:0.35094309 11:-1.1249059 12:-0.90698719 13:-1.881449 14:0.69869518 15:0.290216 16:1.3906879 17:0.60724622 18:1.526247 19:-1.029012 20:-1.3615969 21:-0.8358022 22:0.74849248 23:-0.87745529 24:0.36787239 25:-1.029012 26:-1.3615969 27:-0.8358022 28:-1.029012 29:-1.3615969 30:-0.8358022 31:1.176623 32:0.2091741 33:-0.046295181 34:0.02602301 35:-0.93124878 36:0.057246719 37:0.74849248 38:-0.87745529 39:0.36787239 40:0.85170239 41:-2.883954 42:0.1931455 43:0.02602301 44:-0.93124878 45:0.057246719 46:-1.6023999 47:-0.55469412 48:-0.63518971 49:0.02602301 50:-0.93124878 51:0.057246719 52:0.85170239 53:-2.883954 54:0.1931455 55:1.176623 56:0.2091741 57:-0.046295181 58:0.02602301 59:-0.93124878 60:0.057246719 61:1.230139 62:0.77938551 63:0.54259938 64:-1.881449 65:0.69869518 66:0.290216 67:-0.53207511 68:1.247389 69:0.0054757739 70:0.85170239 71:-2.883954 72:0.1931455 73:-0.46709111 74:0.47276241 75:1.44212 76:0.35094309 77:-1.1249059 78:-0.90698719 79:1.176623 80:0.2091741 81:-0.046295181 82:0.02602301 83:-0.93124878 84:0.057246719 85:0.35094309 86:-1.1249059 87:-0.90698719 88:-1.029012 89:-1.3615969 90:-0.8358022 91:-0.53207511 92:1.247389 93:0.0054757739 94:0.02602301 95:-0.93124878 96:0.057246719 97:0.35094309 98:-1.1249059 99:-0.90698719 100:0.02602301 101:-0.93124878 102:0.057246719 #
-3.9657935740143273051216965541244 1:-1.6023999 2:-0.55469412 3:-0.63518971 4:1.3906879 5:0.60724622 6:1.526247 7:0.35094309 8:-1.1249059 9:-0.90698719 10:0.74849248 11:-0.87745529 12:0.36787239 13:-1.816465 14:1.9628429 15:0.54907078 16:1.3906879 17:0.60724622 18:1.526247 19:0.02602301 20:-0.93124878 21:0.057246719 22:0.02602301 23:-0.93124878 24:0.057246719 25:0.35094309 26:-1.1249059 27:-0.90698719 28:-1.816465 29:1.9628429 30:0.54907078 31:1.176623 32:0.2091741 33:-0.046295181 34:0.35094309 35:-1.1249059 36:-0.90698719 37:-1.881449 38:0.69869518 39:0.290216 40:-1.881449 41:0.69869518 42:0.290216 43:0.92050898 44:0.93538678 45:0.7173264 46:0.35094309 47:-1.1249059 48:-0.90698719 49:0.02602301 50:-0.93124878 51:0.057246719 52:0.85170239 53:-2.883954 54:0.1931455 55:1.3906879 56:0.60724622 57:1.526247 58:-1.881449 59:0.69869518 60:0.290216 61:1.230139 62:0.77938551 63:0.54259938 64:-1.029012 65:-1.3615969 66:-0.8358022 67:-1.6023999 68:-0.55469412 69:-0.63518971 70:0.85170239 71:-2.883954 72:0.1931455 73:0.92050898 74:0.93538678 75:0.7173264 76:0.35094309 77:-1.1249059 78:-0.90698719 79:1.176623 80:0.2091741 81:-0.046295181 82:1.230139 83:0.77938551 84:0.54259938 85:0.35094309 86:-1.1249059 87:-0.90698719 88:0.02602301 89:-0.93124878 90:0.057246719 91:-0.53207511 92:1.247389 93:0.0054757739 94:0.74849248 95:-0.87745529 96:0.36787239 97:0.35094309 98:-1.1249059 99:-0.90698719 100:-1.881449 101:0.69869518 102:0.290216 #
