SVM-light Version V6.02
2 # kernel type
3 # kernel parameter -d 
0.0094402711 # kernel parameter -g 
1 # kernel parameter -s 
1 # kernel parameter -r 
empty# kernel parameter -u 
102 # highest feature index 
608 # number of training documents 
23 # number of support vectors plus 1 
1.428826 # threshold b, each following line is a SV (starting with alpha*y)
-0.65864229597479173605734104057774 1:1.230139 2:0.77938551 3:0.54259938 4:0.02602301 5:-0.93124878 6:0.057246719 7:-1.697965 8:-0.90435201 9:-0.66754657 10:0.74849248 11:-0.87745529 12:0.36787239 13:-1.881449 14:0.69869518 15:0.290216 16:1.3906879 17:0.60724622 18:1.526247 19:-1.881449 20:0.69869518 21:0.290216 22:0.74849248 23:-0.87745529 24:0.36787239 25:-1.697965 26:-0.90435201 27:-0.66754657 28:-1.6023999 29:-0.55469412 30:-0.63518971 31:1.176623 32:0.2091741 33:-0.046295181 34:-0.95256001 35:-0.14586321 36:-0.26632169 37:-0.53207511 38:1.247389 39:0.0054757739 40:-1.6023999 41:-0.55469412 42:-0.63518971 43:-1.881449 44:0.69869518 45:0.290216 46:0.02602301 47:-0.93124878 48:0.057246719 49:0.85170239 50:-2.883954 51:0.1931455 52:0.85170239 53:-2.883954 54:0.1931455 55:1.176623 56:0.2091741 57:-0.046295181 58:-1.697965 59:-0.90435201 60:-0.66754657 61:1.230139 62:0.77938551 63:0.54259938 64:0.85170239 65:-2.883954 66:0.1931455 67:-1.816465 68:1.9628429 69:0.54907078 70:0.85170239 71:-2.883954 72:0.1931455 73:-0.46709111 74:0.47276241 75:1.44212 76:0.35094309 77:-1.1249059 78:-0.90698719 79:1.176623 80:0.2091741 81:-0.046295181 82:0.35094309 83:-1.1249059 84:-0.90698719 85:0.35094309 86:-1.1249059 87:-0.90698719 88:-1.029012 89:-1.3615969 90:-0.8358022 91:-1.029012 92:-1.3615969 93:-0.8358022 94:0.85170239 95:-2.883954 96:0.1931455 97:0.74849248 98:-0.87745529 99:0.36787239 100:-1.697965 101:-0.90435201 102:-0.66754657 #
-0.5677236712699709197949005101691 1:-1.6023999 2:-0.55469412 3:-0.63518971 4:0.85170239 5:-2.883954 6:0.1931455 7:0.85170239 8:-2.883954 9:0.1931455 10:0.02602301 11:-0.93124878 12:0.057246719 13:-1.881449 14:0.69869518 15:0.290216 16:1.3906879 17:0.60724622 18:1.526247 19:0.02602301 20:-0.93124878 21:0.057246719 22:-1.697965 23:-0.90435201 24:-0.66754657 25:0.2706688 26:-0.52241802 27:2.67168 28:-1.6023999 29:-0.55469412 30:-0.63518971 31:1.176623 32:0.2091741 33:-0.046295181 34:0.02602301 35:-0.93124878 36:0.057246719 37:-1.816465 38:1.9628429 39:0.54907078 40:-1.029012 41:-1.3615969 42:-0.8358022 43:-1.697965 44:-0.90435201 45:-0.66754657 46:0.35094309 47:-1.1249059 48:-0.90698719 49:0.85170239 50:-2.883954 51:0.1931455 52:0.85170239 53:-2.883954 54:0.1931455 55:1.176623 56:0.2091741 57:-0.046295181 58:-1.6023999 59:-0.55469412 60:-0.63518971 61:1.230139 62:0.77938551 63:0.54259938 64:0.85170239 65:-2.883954 66:0.1931455 67:-0.53207511 68:1.247389 69:0.0054757739 70:0.85170239 71:-2.883954 72:0.1931455 73:-0.46709111 74:0.47276241 75:1.44212 76:0.35094309 77:-1.1249059 78:-0.90698719 79:1.176623 80:0.2091741 81:-0.046295181 82:1.230139 83:0.77938551 84:0.54259938 85:0.85170239 86:-2.883954 87:0.1931455 88:0.35094309 89:-1.1249059 90:-0.90698719 91:-1.881449 92:0.69869518 93:0.290216 94:0.35094309 95:-1.1249059 96:-0.90698719 97:0.35094309 98:-1.1249059 99:-0.90698719 100:0.35094309 101:-1.1249059 102:-0.90698719 #
4.0964393135093484232811533729546 1:0.74849248 2:-0.87745529 3:0.36787239 4:0.02602301 5:-0.93124878 6:0.057246719 7:-1.697965 8:-0.90435201 9:-0.66754657 10:0.02602301 11:-0.93124878 12:0.057246719 13:-1.881449 14:0.69869518 15:0.290216 16:1.3906879 17:0.60724622 18:1.526247 19:0.2706688 20:-0.52241802 21:2.67168 22:0.02602301 23:-0.93124878 24:0.057246719 25:-1.029012 26:-1.3615969 27:-0.8358022 28:0.85170239 29:-2.883954 30:0.1931455 31:1.176623 32:0.2091741 33:-0.046295181 34:0.74849248 35:-0.87745529 36:0.36787239 37:-1.816465 38:1.9628429 39:0.54907078 40:0.74849248 41:-0.87745529 42:0.36787239 43:-1.029012 44:-1.3615969 45:-0.8358022 46:-1.6023999 47:-0.55469412 48:-0.63518971 49:-1.029012 50:-1.3615969 51:-0.8358022 52:0.85170239 53:-2.883954 54:0.1931455 55:1.176623 56:0.2091741 57:-0.046295181 58:-1.697965 59:-0.90435201 60:-0.66754657 61:1.230139 62:0.77938551 63:0.54259938 64:0.85170239 65:-2.883954 66:0.1931455 67:-1.816465 68:1.9628429 69:0.54907078 70:0.85170239 71:-2.883954 72:0.1931455 73:-0.46709111 74:0.47276241 75:1.44212 76:0.02602301 77:-0.93124878 78:0.057246719 79:1.176623 80:0.2091741 81:-0.046295181 82:0.35094309 83:-1.1249059 84:-0.90698719 85:0.2706688 86:-0.52241802 87:2.67168 88:-1.029012 89:-1.3615969 90:-0.8358022 91:-1.029012 92:-1.3615969 93:-0.8358022 94:0.74849248 95:-0.87745529 96:0.36787239 97:0.35094309 98:-1.1249059 99:-0.90698719 100:-1.697965 101:-0.90435201 102:-0.66754657 #
0.52055836227786767000935697069508 1:0.74849248 2:-0.87745529 3:0.36787239 4:0.02602301 5:-0.93124878 6:0.057246719 7:-1.697965 8:-0.90435201 9:-0.66754657 10:0.02602301 11:-0.93124878 12:0.057246719 13:-1.881449 14:0.69869518 15:0.290216 16:1.3906879 17:0.60724622 18:1.526247 19:-1.6023999 20:-0.55469412 21:-0.63518971 22:0.74849248 23:-0.87745529 24:0.36787239 25:-1.029012 26:-1.3615969 27:-0.8358022 28:0.85170239 29:-2.883954 30:0.1931455 31:1.176623 32:0.2091741 33:-0.046295181 34:0.2706688 35:-0.52241802 36:2.67168 37:-1.816465 38:1.9628429 39:0.54907078 40:-1.881449 41:0.69869518 42:0.290216 43:-1.6023999 44:-0.55469412 45:-0.63518971 46:-1.6023999 47:-0.55469412 48:-0.63518971 49:0.2706688 50:-0.52241802 51:2.67168 52:0.85170239 53:-2.883954 54:0.1931455 55:1.176623 56:0.2091741 57:-0.046295181 58:-1.881449 59:0.69869518 60:0.290216 61:1.230139 62:0.77938551 63:0.54259938 64:0.85170239 65:-2.883954 66:0.1931455 67:-1.816465 68:1.9628429 69:0.54907078 70:0.85170239 71:-2.883954 72:0.1931455 73:-0.46709111 74:0.47276241 75:1.44212 76:0.02602301 77:-0.93124878 78:0.057246719 79:1.176623 80:0.2091741 81:-0.046295181 82:0.35094309 83:-1.1249059 84:-0.90698719 85:0.2706688 86:-0.52241802 87:2.67168 88:-1.029012 89:-1.3615969 90:-0.8358022 91:-1.881449 92:0.69869518 93:0.290216 94:0.74849248 95:-0.87745529 96:0.36787239 97:0.74849248 98:-0.87745529 99:0.36787239 100:-1.6023999 101:-0.55469412 102:-0.63518971 #
1.5922175516452541366163586644689 1:0.74849248 2:-0.87745529 3:0.36787239 4:0.02602301 5:-0.93124878 6:0.057246719 7:-1.697965 8:-0.90435201 9:-0.66754657 10:-1.029012 11:-1.3615969 12:-0.8358022 13:-1.881449 14:0.69869518 15:0.290216 16:1.3906879 17:0.60724622 18:1.526247 19:-1.6023999 20:-0.55469412 21:-0.63518971 22:0.2706688 23:-0.52241802 24:2.67168 25:-1.6023999 26:-0.55469412 27:-0.63518971 28:0.85170239 29:-2.883954 30:0.1931455 31:1.176623 32:0.2091741 33:-0.046295181 34:-1.6023999 35:-0.55469412 36:-0.63518971 37:-1.881449 38:0.69869518 39:0.290216 40:-1.6023999 41:-0.55469412 42:-0.63518971 43:-1.6023999 44:-0.55469412 45:-0.63518971 46:-1.6023999 47:-0.55469412 48:-0.63518971 49:0.02602301 50:-0.93124878 51:0.057246719 52:0.85170239 53:-2.883954 54:0.1931455 55:1.176623 56:0.2091741 57:-0.046295181 58:-1.816465 59:1.9628429 60:0.54907078 61:1.230139 62:0.77938551 63:0.54259938 64:0.85170239 65:-2.883954 66:0.1931455 67:-1.816465 68:1.9628429 69:0.54907078 70:0.85170239 71:-2.883954 72:0.1931455 73:-0.46709111 74:0.47276241 75:1.44212 76:0.02602301 77:-0.93124878 78:0.057246719 79:1.176623 80:0.2091741 81:-0.046295181 82:0.35094309 83:-1.1249059 84:-0.90698719 85:0.2706688 86:-0.52241802 87:2.67168 88:-1.6023999 89:-0.55469412 90:-0.63518971 91:-1.881449 92:0.69869518 93:0.290216 94:0.74849248 95:-0.87745529 96:0.36787239 97:0.74849248 98:-0.87745529 99:0.36787239 100:-1.6023999 101:-0.55469412 102:-0.63518971 #
10 1:-1.6023999 2:-0.55469412 3:-0.63518971 4:1.3906879 5:0.60724622 6:1.526247 7:0.35094309 8:-1.1249059 9:-0.90698719 10:0.74849248 11:-0.87745529 12:0.36787239 13:-1.881449 14:0.69869518 15:0.290216 16:1.3906879 17:0.60724622 18:1.526247 19:0.35094309 20:-1.1249059 21:-0.90698719 22:0.74849248 23:-0.87745529 24:0.36787239 25:0.83258939 26:0.28448501 27:-0.73873162 28:-0.53207511 29:1.247389 30:0.0054757739 31:1.176623 32:0.2091741 33:-0.046295181 34:-1.029012 35:-1.3615969 36:-0.8358022 37:-1.816465 38:1.9628429 39:0.54907078 40:-1.6023999 41:-0.55469412 42:-0.63518971 43:-1.816465 44:1.9628429 45:0.54907078 46:0.35094309 47:-1.1249059 48:-0.90698719 49:0.85170239 50:-2.883954 51:0.1931455 52:0.85170239 53:-2.883954 54:0.1931455 55:1.3906879 56:0.60724622 57:1.526247 58:0.02602301 59:-0.93124878 60:0.057246719 61:1.3906879 62:0.60724622 63:1.526247 64:0.85170239 65:-2.883954 66:0.1931455 67:-0.53207511 68:1.247389 69:0.0054757739 70:0.85170239 71:-2.883954 72:0.1931455 73:-0.46709111 74:0.47276241 75:1.44212 76:0.35094309 77:-1.1249059 78:-0.90698719 79:1.176623 80:0.2091741 81:-0.046295181 82:0.35094309 83:-1.1249059 84:-0.90698719 85:0.35094309 86:-1.1249059 87:-0.90698719 88:0.35094309 89:-1.1249059 90:-0.90698719 91:-1.881449 92:0.69869518 93:0.290216 94:0.02602301 95:-0.93124878 96:0.057246719 97:0.35094309 98:-1.1249059 99:-0.90698719 100:0.92050898 101:0.93538678 102:0.7173264 #
1.9635187665905231568785893614404 1:0.74849248 2:-0.87745529 3:0.36787239 4:0.02602301 5:-0.93124878 6:0.057246719 7:-1.697965 8:-0.90435201 9:-0.66754657 10:0.02602301 11:-0.93124878 12:0.057246719 13:-1.881449 14:0.69869518 15:0.290216 16:1.3906879 17:0.60724622 18:1.526247 19:-1.6023999 20:-0.55469412 21:-0.63518971 22:0.74849248 23:-0.87745529 24:0.36787239 25:-1.697965 26:-0.90435201 27:-0.66754657 28:0.85170239 29:-2.883954 30:0.1931455 31:1.176623 32:0.2091741 33:-0.046295181 34:0.85170239 35:-2.883954 36:0.1931455 37:-0.53207511 38:1.247389 39:0.0054757739 40:-1.6023999 41:-0.55469412 42:-0.63518971 43:-1.6023999 44:-0.55469412 45:-0.63518971 46:-1.881449 47:0.69869518 48:0.290216 49:0.02602301 50:-0.93124878 51:0.057246719 52:0.85170239 53:-2.883954 54:0.1931455 55:1.176623 56:0.2091741 57:-0.046295181 58:-1.697965 59:-0.90435201 60:-0.66754657 61:1.230139 62:0.77938551 63:0.54259938 64:0.85170239 65:-2.883954 66:0.1931455 67:-1.816465 68:1.9628429 69:0.54907078 70:0.85170239 71:-2.883954 72:0.1931455 73:-0.46709111 74:0.47276241 75:1.44212 76:0.02602301 77:-0.93124878 78:0.057246719 79:1.176623 80:0.2091741 81:-0.046295181 82:0.35094309 83:-1.1249059 84:-0.90698719 85:0.2706688 86:-0.52241802 87:2.67168 88:-1.029012 89:-1.3615969 90:-0.8358022 91:-1.881449 92:0.69869518 93:0.290216 94:0.74849248 95:-0.87745529 96:0.36787239 97:0.35094309 98:-1.1249059 99:-0.90698719 100:-1.6023999 101:-0.55469412 102:-0.63518971 #
-9.5017977017922845561770373024046 1:-1.6023999 2:-0.55469412 3:-0.63518971 4:1.3906879 5:0.60724622 6:1.526247 7:0.35094309 8:-1.1249059 9:-0.90698719 10:0.74849248 11:-0.87745529 12:0.36787239 13:-1.881449 14:0.69869518 15:0.290216 16:1.3906879 17:0.60724622 18:1.526247 19:0.35094309 20:-1.1249059 21:-0.90698719 22:0.74849248 23:-0.87745529 24:0.36787239 25:0.83258939 26:0.28448501 27:-0.73873162 28:-0.53207511 29:1.247389 30:0.0054757739 31:1.176623 32:0.2091741 33:-0.046295181 34:-1.029012 35:-1.3615969 36:-0.8358022 37:-1.816465 38:1.9628429 39:0.54907078 40:-1.6023999 41:-0.55469412 42:-0.63518971 43:-1.816465 44:1.9628429 45:0.54907078 46:0.35094309 47:-1.1249059 48:-0.90698719 49:0.85170239 50:-2.883954 51:0.1931455 52:0.85170239 53:-2.883954 54:0.1931455 55:1.3906879 56:0.60724622 57:1.526247 58:0.02602301 59:-0.93124878 60:0.057246719 61:1.3906879 62:0.60724622 63:1.526247 64:0.85170239 65:-2.883954 66:0.1931455 67:-0.53207511 68:1.247389 69:0.0054757739 70:0.85170239 71:-2.883954 72:0.1931455 73:-0.46709111 74:0.47276241 75:1.44212 76:0.35094309 77:-1.1249059 78:-0.90698719 79:1.176623 80:0.2091741 81:-0.046295181 82:0.35094309 83:-1.1249059 84:-0.90698719 85:0.35094309 86:-1.1249059 87:-0.90698719 88:0.35094309 89:-1.1249059 90:-0.90698719 91:-1.881449 92:0.69869518 93:0.290216 94:0.02602301 95:-0.93124878 96:0.057246719 97:0.35094309 98:-1.1249059 99:-0.90698719 100:0.92050898 101:0.93538678 102:0.7173264 #
-3.2970468409603901349669285991695 1:0.74849248 2:-0.87745529 3:0.36787239 4:1.3906879 5:0.60724622 6:1.526247 7:-1.697965 8:-0.90435201 9:-0.66754657 10:0.74849248 11:-0.87745529 12:0.36787239 13:-1.881449 14:0.69869518 15:0.290216 16:1.3906879 17:0.60724622 18:1.526247 19:-1.029012 20:-1.3615969 21:-0.8358022 22:0.74849248 23:-0.87745529 24:0.36787239 25:-1.029012 26:-1.3615969 27:-0.8358022 28:0.85170239 29:-2.883954 30:0.1931455 31:1.176623 32:0.2091741 33:-0.046295181 34:-1.6023999 35:-0.55469412 36:-0.63518971 37:-1.881449 38:0.69869518 39:0.290216 40:-1.6023999 41:-0.55469412 42:-0.63518971 43:-1.029012 44:-1.3615969 45:-0.8358022 46:-1.6023999 47:-0.55469412 48:-0.63518971 49:0.02602301 50:-0.93124878 51:0.057246719 52:0.85170239 53:-2.883954 54:0.1931455 55:1.176623 56:0.2091741 57:-0.046295181 58:-1.029012 59:-1.3615969 60:-0.8358022 61:1.230139 62:0.77938551 63:0.54259938 64:0.85170239 65:-2.883954 66:0.1931455 67:-1.816465 68:1.9628429 69:0.54907078 70:0.85170239 71:-2.883954 72:0.1931455 73:-0.46709111 74:0.47276241 75:1.44212 76:0.02602301 77:-0.93124878 78:0.057246719 79:1.176623 80:0.2091741 81:-0.046295181 82:0.35094309 83:-1.1249059 84:-0.90698719 85:0.2706688 86:-0.52241802 87:2.67168 88:-1.029012 89:-1.3615969 90:-0.8358022 91:-1.6023999 92:-0.55469412 93:-0.63518971 94:0.74849248 95:-0.87745529 96:0.36787239 97:0.02602301 98:-0.93124878 99:0.057246719 100:-1.697965 101:-0.90435201 102:-0.66754657 #
-9.2367620502224987433237402001396 1:0.74849248 2:-0.87745529 3:0.36787239 4:0.02602301 5:-0.93124878 6:0.057246719 7:-1.697965 8:-0.90435201 9:-0.66754657 10:0.74849248 11:-0.87745529 12:0.36787239 13:-1.881449 14:0.69869518 15:0.290216 16:1.3906879 17:0.60724622 18:1.526247 19:-1.697965 20:-0.90435201 21:-0.66754657 22:0.74849248 23:-0.87745529 24:0.36787239 25:-1.029012 26:-1.3615969 27:-0.8358022 28:0.85170239 29:-2.883954 30:0.1931455 31:1.176623 32:0.2091741 33:-0.046295181 34:0.02602301 35:-0.93124878 36:0.057246719 37:-0.95256001 38:-0.14586321 39:-0.26632169 40:-1.6023999 41:-0.55469412 42:-0.63518971 43:-1.029012 44:-1.3615969 45:-0.8358022 46:-1.881449 47:0.69869518 48:0.290216 49:-1.029012 50:-1.3615969 51:-0.8358022 52:0.85170239 53:-2.883954 54:0.1931455 55:1.176623 56:0.2091741 57:-0.046295181 58:-1.697965 59:-0.90435201 60:-0.66754657 61:1.230139 62:0.77938551 63:0.54259938 64:0.85170239 65:-2.883954 66:0.1931455 67:-1.816465 68:1.9628429 69:0.54907078 70:0.85170239 71:-2.883954 72:0.1931455 73:-0.46709111 74:0.47276241 75:1.44212 76:0.02602301 77:-0.93124878 78:0.057246719 79:1.176623 80:0.2091741 81:-0.046295181 82:0.35094309 83:-1.1249059 84:-0.90698719 85:0.2706688 86:-0.52241802 87:2.67168 88:-1.029012 89:-1.3615969 90:-0.8358022 91:-1.6023999 92:-0.55469412 93:-0.63518971 94:0.74849248 95:-0.87745529 96:0.36787239 97:0.35094309 98:-1.1249059 99:-0.90698719 100:-1.697965 101:-0.90435201 102:-0.66754657 #
0.47018926354221074470629559982626 1:0.74849248 2:-0.87745529 3:0.36787239 4:0.02602301 5:-0.93124878 6:0.057246719 7:-1.697965 8:-0.90435201 9:-0.66754657 10:0.02602301 11:-0.93124878 12:0.057246719 13:-1.881449 14:0.69869518 15:0.290216 16:1.3906879 17:0.60724622 18:1.526247 19:-1.6023999 20:-0.55469412 21:-0.63518971 22:0.74849248 23:-0.87745529 24:0.36787239 25:-1.697965 26:-0.90435201 27:-0.66754657 28:0.85170239 29:-2.883954 30:0.1931455 31:1.176623 32:0.2091741 33:-0.046295181 34:0.85170239 35:-2.883954 36:0.1931455 37:-0.53207511 38:1.247389 39:0.0054757739 40:-1.6023999 41:-0.55469412 42:-0.63518971 43:-1.6023999 44:-0.55469412 45:-0.63518971 46:-1.6023999 47:-0.55469412 48:-0.63518971 49:0.02602301 50:-0.93124878 51:0.057246719 52:0.85170239 53:-2.883954 54:0.1931455 55:1.176623 56:0.2091741 57:-0.046295181 58:-1.697965 59:-0.90435201 60:-0.66754657 61:1.230139 62:0.77938551 63:0.54259938 64:0.85170239 65:-2.883954 66:0.1931455 67:-1.816465 68:1.9628429 69:0.54907078 70:0.85170239 71:-2.883954 72:0.1931455 73:-0.46709111 74:0.47276241 75:1.44212 76:0.02602301 77:-0.93124878 78:0.057246719 79:1.176623 80:0.2091741 81:-0.046295181 82:0.35094309 83:-1.1249059 84:-0.90698719 85:0.2706688 86:-0.52241802 87:2.67168 88:0.2706688 89:-0.52241802 90:2.67168 91:-1.881449 92:0.69869518 93:0.290216 94:0.74849248 95:-0.87745529 96:0.36787239 97:0.35094309 98:-1.1249059 99:-0.90698719 100:-1.6023999 101:-0.55469412 102:-0.63518971 #
6.0141162905743392741442221449688 1:0.74849248 2:-0.87745529 3:0.36787239 4:0.02602301 5:-0.93124878 6:0.057246719 7:-1.697965 8:-0.90435201 9:-0.66754657 10:0.02602301 11:-0.93124878 12:0.057246719 13:-1.881449 14:0.69869518 15:0.290216 16:1.3906879 17:0.60724622 18:1.526247 19:-1.6023999 20:-0.55469412 21:-0.63518971 22:0.74849248 23:-0.87745529 24:0.36787239 25:-1.697965 26:-0.90435201 27:-0.66754657 28:0.85170239 29:-2.883954 30:0.1931455 31:1.176623 32:0.2091741 33:-0.046295181 34:0.02602301 35:-0.93124878 36:0.057246719 37:-0.53207511 38:1.247389 39:0.0054757739 40:-1.6023999 41:-0.55469412 42:-0.63518971 43:-1.6023999 44:-0.55469412 45:-0.63518971 46:-1.6023999 47:-0.55469412 48:-0.63518971 49:0.02602301 50:-0.93124878 51:0.057246719 52:0.85170239 53:-2.883954 54:0.1931455 55:1.176623 56:0.2091741 57:-0.046295181 58:-1.697965 59:-0.90435201 60:-0.66754657 61:1.230139 62:0.77938551 63:0.54259938 64:0.85170239 65:-2.883954 66:0.1931455 67:-1.816465 68:1.9628429 69:0.54907078 70:0.85170239 71:-2.883954 72:0.1931455 73:-0.46709111 74:0.47276241 75:1.44212 76:0.02602301 77:-0.93124878 78:0.057246719 79:1.176623 80:0.2091741 81:-0.046295181 82:0.35094309 83:-1.1249059 84:-0.90698719 85:0.2706688 86:-0.52241802 87:2.67168 88:-1.029012 89:-1.3615969 90:-0.8358022 91:-1.881449 92:0.69869518 93:0.290216 94:0.74849248 95:-0.87745529 96:0.36787239 97:0.35094309 98:-1.1249059 99:-0.90698719 100:-1.6023999 101:-0.55469412 102:-0.63518971 #
-4.1218178954563615690176447969861 1:1.230139 2:0.77938551 3:0.54259938 4:0.02602301 5:-0.93124878 6:0.057246719 7:-1.6023999 8:-0.55469412 9:-0.63518971 10:0.74849248 11:-0.87745529 12:0.36787239 13:-1.881449 14:0.69869518 15:0.290216 16:1.3906879 17:0.60724622 18:1.526247 19:-1.029012 20:-1.3615969 21:-0.8358022 22:0.74849248 23:-0.87745529 24:0.36787239 25:-1.029012 26:-1.3615969 27:-0.8358022 28:0.85170239 29:-2.883954 30:0.1931455 31:1.176623 32:0.2091741 33:-0.046295181 34:0.83258939 35:0.28448501 36:-0.73873162 37:-0.53207511 38:1.247389 39:0.0054757739 40:-1.6023999 41:-0.55469412 42:-0.63518971 43:-1.6023999 44:-0.55469412 45:-0.63518971 46:-1.6023999 47:-0.55469412 48:-0.63518971 49:0.02602301 50:-0.93124878 51:0.057246719 52:0.85170239 53:-2.883954 54:0.1931455 55:1.176623 56:0.2091741 57:-0.046295181 58:-1.697965 59:-0.90435201 60:-0.66754657 61:1.230139 62:0.77938551 63:0.54259938 64:0.02602301 65:-0.93124878 66:0.057246719 67:-1.816465 68:1.9628429 69:0.54907078 70:0.85170239 71:-2.883954 72:0.1931455 73:-0.46709111 74:0.47276241 75:1.44212 76:0.02602301 77:-0.93124878 78:0.057246719 79:1.176623 80:0.2091741 81:-0.046295181 82:0.35094309 83:-1.1249059 84:-0.90698719 85:0.2706688 86:-0.52241802 87:2.67168 88:-1.029012 89:-1.3615969 90:-0.8358022 91:-0.53207511 92:1.247389 93:0.0054757739 94:1.230139 95:0.77938551 96:0.54259938 97:0.35094309 98:-1.1249059 99:-0.90698719 100:-1.6023999 101:-0.55469412 102:-0.63518971 #
-2.408749925030910343792811545427 1:0.74849248 2:-0.87745529 3:0.36787239 4:0.02602301 5:-0.93124878 6:0.057246719 7:-0.95256001 8:-0.14586321 9:-0.26632169 10:0.02602301 11:-0.93124878 12:0.057246719 13:-1.881449 14:0.69869518 15:0.290216 16:1.3906879 17:0.60724622 18:1.526247 19:-0.95256001 20:-0.14586321 21:-0.26632169 22:0.74849248 23:-0.87745529 24:0.36787239 25:-1.029012 26:-1.3615969 27:-0.8358022 28:0.85170239 29:-2.883954 30:0.1931455 31:1.176623 32:0.2091741 33:-0.046295181 34:-0.46709111 35:0.47276241 36:1.44212 37:-1.881449 38:0.69869518 39:0.290216 40:-1.881449 41:0.69869518 42:0.290216 43:-1.6023999 44:-0.55469412 45:-0.63518971 46:-1.697965 47:-0.90435201 48:-0.66754657 49:0.85170239 50:-2.883954 51:0.1931455 52:0.85170239 53:-2.883954 54:0.1931455 55:1.176623 56:0.2091741 57:-0.046295181 58:-1.697965 59:-0.90435201 60:-0.66754657 61:1.230139 62:0.77938551 63:0.54259938 64:0.85170239 65:-2.883954 66:0.1931455 67:-1.816465 68:1.9628429 69:0.54907078 70:0.85170239 71:-2.883954 72:0.1931455 73:-0.46709111 74:0.47276241 75:1.44212 76:-1.029012 77:-1.3615969 78:-0.8358022 79:1.176623 80:0.2091741 81:-0.046295181 82:0.35094309 83:-1.1249059 84:-0.90698719 85:0.2706688 86:-0.52241802 87:2.67168 88:-1.029012 89:-1.3615969 90:-0.8358022 91:0.2706688 92:-0.52241802 93:2.67168 94:0.74849248 95:-0.87745529 96:0.36787239 97:0.74849248 98:-0.87745529 99:0.36787239 100:-1.816465 101:1.9628429 102:0.54907078 #
-0.89410628168935901705083324486623 1:0.35094309 2:-1.1249059 3:-0.90698719 4:0.85170239 5:-2.883954 6:0.1931455 7:-0.53207511 8:1.247389 9:0.0054757739 10:0.74849248 11:-0.87745529 12:0.36787239 13:-1.881449 14:0.69869518 15:0.290216 16:1.3906879 17:0.60724622 18:1.526247 19:0.85170239 20:-2.883954 21:0.1931455 22:0.74849248 23:-0.87745529 24:0.36787239 25:-1.6023999 26:-0.55469412 27:-0.63518971 28:0.85170239 29:-2.883954 30:0.1931455 31:1.176623 32:0.2091741 33:-0.046295181 34:0.85170239 35:-2.883954 36:0.1931455 37:-0.95256001 38:-0.14586321 39:-0.26632169 40:-1.6023999 41:-0.55469412 42:-0.63518971 43:-1.029012 44:-1.3615969 45:-0.8358022 46:-1.6023999 47:-0.55469412 48:-0.63518971 49:0.85170239 50:-2.883954 51:0.1931455 52:0.85170239 53:-2.883954 54:0.1931455 55:1.176623 56:0.2091741 57:-0.046295181 58:-1.881449 59:0.69869518 60:0.290216 61:1.230139 62:0.77938551 63:0.54259938 64:0.85170239 65:-2.883954 66:0.1931455 67:-0.53207511 68:1.247389 69:0.0054757739 70:0.85170239 71:-2.883954 72:0.1931455 73:-0.46709111 74:0.47276241 75:1.44212 76:0.02602301 77:-0.93124878 78:0.057246719 79:1.176623 80:0.2091741 81:-0.046295181 82:0.02602301 83:-0.93124878 84:0.057246719 85:0.2706688 86:-0.52241802 87:2.67168 88:1.230139 89:0.77938551 90:0.54259938 91:-0.53207511 92:1.247389 93:0.0054757739 94:0.02602301 95:-0.93124878 96:0.057246719 97:0.35094309 98:-1.1249059 99:-0.90698719 100:0.35094309 101:-1.1249059 102:-0.90698719 #
7.4825929585709243241353760822676 1:0.74849248 2:-0.87745529 3:0.36787239 4:0.02602301 5:-0.93124878 6:0.057246719 7:-1.697965 8:-0.90435201 9:-0.66754657 10:0.02602301 11:-0.93124878 12:0.057246719 13:-1.881449 14:0.69869518 15:0.290216 16:1.3906879 17:0.60724622 18:1.526247 19:-1.6023999 20:-0.55469412 21:-0.63518971 22:0.74849248 23:-0.87745529 24:0.36787239 25:-1.697965 26:-0.90435201 27:-0.66754657 28:0.85170239 29:-2.883954 30:0.1931455 31:1.176623 32:0.2091741 33:-0.046295181 34:0.02602301 35:-0.93124878 36:0.057246719 37:-1.881449 38:0.69869518 39:0.290216 40:-1.6023999 41:-0.55469412 42:-0.63518971 43:-1.6023999 44:-0.55469412 45:-0.63518971 46:-1.6023999 47:-0.55469412 48:-0.63518971 49:0.02602301 50:-0.93124878 51:0.057246719 52:0.85170239 53:-2.883954 54:0.1931455 55:1.176623 56:0.2091741 57:-0.046295181 58:-1.697965 59:-0.90435201 60:-0.66754657 61:1.230139 62:0.77938551 63:0.54259938 64:0.85170239 65:-2.883954 66:0.1931455 67:-1.816465 68:1.9628429 69:0.54907078 70:0.85170239 71:-2.883954 72:0.1931455 73:-0.46709111 74:0.47276241 75:1.44212 76:0.02602301 77:-0.93124878 78:0.057246719 79:1.176623 80:0.2091741 81:-0.046295181 82:0.35094309 83:-1.1249059 84:-0.90698719 85:0.2706688 86:-0.52241802 87:2.67168 88:-1.029012 89:-1.3615969 90:-0.8358022 91:-1.881449 92:0.69869518 93:0.290216 94:0.74849248 95:-0.87745529 96:0.36787239 97:0.35094309 98:-1.1249059 99:-0.90698719 100:-1.6023999 101:-0.55469412 102:-0.63518971 #
-0.41140456325565444295477846026188 1:0.74849248 2:-0.87745529 3:0.36787239 4:0.74849248 5:-0.87745529 6:0.36787239 7:-0.53207511 8:1.247389 9:0.0054757739 10:0.74849248 11:-0.87745529 12:0.36787239 13:-1.881449 14:0.69869518 15:0.290216 16:1.3906879 17:0.60724622 18:1.526247 19:0.02602301 20:-0.93124878 21:0.057246719 22:0.74849248 23:-0.87745529 24:0.36787239 25:-1.697965 26:-0.90435201 27:-0.66754657 28:0.02602301 29:-0.93124878 30:0.057246719 31:1.176623 32:0.2091741 33:-0.046295181 34:0.02602301 35:-0.93124878 36:0.057246719 37:-1.6023999 38:-0.55469412 39:-0.63518971 40:-1.6023999 41:-0.55469412 42:-0.63518971 43:-1.697965 44:-0.90435201 45:-0.66754657 46:-1.6023999 47:-0.55469412 48:-0.63518971 49:0.85170239 50:-2.883954 51:0.1931455 52:0.85170239 53:-2.883954 54:0.1931455 55:1.176623 56:0.2091741 57:-0.046295181 58:-1.881449 59:0.69869518 60:0.290216 61:1.230139 62:0.77938551 63:0.54259938 64:0.02602301 65:-0.93124878 66:0.057246719 67:-1.816465 68:1.9628429 69:0.54907078 70:0.85170239 71:-2.883954 72:0.1931455 73:-0.46709111 74:0.47276241 75:1.44212 76:0.35094309 77:-1.1249059 78:-0.90698719 79:1.176623 80:0.2091741 81:-0.046295181 82:0.74849248 83:-0.87745529 84:0.36787239 85:0.2706688 86:-0.52241802 87:2.67168 88:-1.029012 89:-1.3615969 90:-0.8358022 91:-1.881449 92:0.69869518 93:0.290216 94:0.85170239 95:-2.883954 96:0.1931455 97:0.74849248 98:-0.87745529 99:0.36787239 100:-1.6023999 101:-0.55469412 102:-0.63518971 #
-0.40656890842211218517476822853496 1:0.35094309 2:-1.1249059 3:-0.90698719 4:0.83258939 5:0.28448501 6:-0.73873162 7:-1.6023999 8:-0.55469412 9:-0.63518971 10:0.35094309 11:-1.1249059 12:-0.90698719 13:-1.881449 14:0.69869518 15:0.290216 16:1.3906879 17:0.60724622 18:1.526247 19:-1.881449 20:0.69869518 21:0.290216 22:0.74849248 23:-0.87745529 24:0.36787239 25:-1.029012 26:-1.3615969 27:-0.8358022 28:-0.46709111 29:0.47276241 30:1.44212 31:1.176623 32:0.2091741 33:-0.046295181 34:0.2706688 35:-0.52241802 36:2.67168 37:1.230139 38:0.77938551 39:0.54259938 40:-1.6023999 41:-0.55469412 42:-0.63518971 43:-1.881449 44:0.69869518 45:0.290216 46:0.02602301 47:-0.93124878 48:0.057246719 49:0.2706688 50:-0.52241802 51:2.67168 52:0.85170239 53:-2.883954 54:0.1931455 55:1.176623 56:0.2091741 57:-0.046295181 58:1.176623 59:0.2091741 60:-0.046295181 61:1.230139 62:0.77938551 63:0.54259938 64:-1.697965 65:-0.90435201 66:-0.66754657 67:-0.53207511 68:1.247389 69:0.0054757739 70:0.85170239 71:-2.883954 72:0.1931455 73:-0.46709111 74:0.47276241 75:1.44212 76:0.35094309 77:-1.1249059 78:-0.90698719 79:1.176623 80:0.2091741 81:-0.046295181 82:0.02602301 83:-0.93124878 84:0.057246719 85:0.02602301 86:-0.93124878 87:0.057246719 88:-1.029012 89:-1.3615969 90:-0.8358022 91:-0.53207511 92:1.247389 93:0.0054757739 94:0.02602301 95:-0.93124878 96:0.057246719 97:0.35094309 98:-1.1249059 99:-0.90698719 100:1.100171 101:1.3549761 102:-2.2271459 #
-0.067290625012792426584695704150363 1:0.35094309 2:-1.1249059 3:-0.90698719 4:0.02602301 5:-0.93124878 6:0.057246719 7:-1.697965 8:-0.90435201 9:-0.66754657 10:0.74849248 11:-0.87745529 12:0.36787239 13:-1.881449 14:0.69869518 15:0.290216 16:1.3906879 17:0.60724622 18:1.526247 19:-1.6023999 20:-0.55469412 21:-0.63518971 22:0.74849248 23:-0.87745529 24:0.36787239 25:-1.029012 26:-1.3615969 27:-0.8358022 28:-0.53207511 29:1.247389 30:0.0054757739 31:1.3906879 32:0.60724622 33:1.526247 34:0.85170239 35:-2.883954 36:0.1931455 37:1.230139 38:0.77938551 39:0.54259938 40:0.74849248 41:-0.87745529 42:0.36787239 43:-0.95256001 44:-0.14586321 45:-0.26632169 46:-1.6023999 47:-0.55469412 48:-0.63518971 49:0.74849248 50:-0.87745529 51:0.36787239 52:0.85170239 53:-2.883954 54:0.1931455 55:1.3906879 56:0.60724622 57:1.526247 58:-1.697965 59:-0.90435201 60:-0.66754657 61:0.02602301 62:-0.93124878 63:0.057246719 64:-0.95256001 65:-0.14586321 66:-0.26632169 67:0.85170239 68:-2.883954 69:0.1931455 70:0.85170239 71:-2.883954 72:0.1931455 73:0.02602301 74:-0.93124878 75:0.057246719 76:0.35094309 77:-1.1249059 78:-0.90698719 79:1.176623 80:0.2091741 81:-0.046295181 82:0.02602301 83:-0.93124878 84:0.057246719 85:0.74849248 86:-0.87745529 87:0.36787239 88:-1.697965 89:-0.90435201 90:-0.66754657 91:-1.816465 92:1.9628429 93:0.54907078 94:0.74849248 95:-0.87745529 96:0.36787239 97:1.230139 98:0.77938551 99:0.54259938 100:-1.029012 101:-1.3615969 102:-0.8358022 #
-0.048827286193834217031817246379433 1:0.35094309 2:-1.1249059 3:-0.90698719 4:0.02602301 5:-0.93124878 6:0.057246719 7:-1.029012 8:-1.3615969 9:-0.8358022 10:0.74849248 11:-0.87745529 12:0.36787239 13:-1.881449 14:0.69869518 15:0.290216 16:1.3906879 17:0.60724622 18:1.526247 19:-1.6023999 20:-0.55469412 21:-0.63518971 22:0.74849248 23:-0.87745529 24:0.36787239 25:-1.029012 26:-1.3615969 27:-0.8358022 28:-0.53207511 29:1.247389 30:0.0054757739 31:1.3906879 32:0.60724622 33:1.526247 34:0.85170239 35:-2.883954 36:0.1931455 37:1.230139 38:0.77938551 39:0.54259938 40:0.35094309 41:-1.1249059 42:-0.90698719 43:-0.95256001 44:-0.14586321 45:-0.26632169 46:-1.6023999 47:-0.55469412 48:-0.63518971 49:0.74849248 50:-0.87745529 51:0.36787239 52:0.85170239 53:-2.883954 54:0.1931455 55:1.3906879 56:0.60724622 57:1.526247 58:-1.6023999 59:-0.55469412 60:-0.63518971 61:0.74849248 62:-0.87745529 63:0.36787239 64:-0.95256001 65:-0.14586321 66:-0.26632169 67:0.85170239 68:-2.883954 69:0.1931455 70:0.85170239 71:-2.883954 72:0.1931455 73:0.02602301 74:-0.93124878 75:0.057246719 76:0.35094309 77:-1.1249059 78:-0.90698719 79:1.176623 80:0.2091741 81:-0.046295181 82:0.85170239 83:-2.883954 84:0.1931455 85:0.74849248 86:-0.87745529 87:0.36787239 88:-1.697965 89:-0.90435201 90:-0.66754657 91:-1.816465 92:1.9628429 93:0.54907078 94:0.74849248 95:-0.87745529 96:0.36787239 97:-1.697965 98:-0.90435201 99:-0.66754657 100:-1.816465 101:1.9628429 102:0.54907078 #
-0.084155364762410755918864424529602 1:-1.6023999 2:-0.55469412 3:-0.63518971 4:-1.816465 5:1.9628429 6:0.54907078 7:0.83258939 8:0.28448501 9:-0.73873162 10:0.02602301 11:-0.93124878 12:0.057246719 13:-1.881449 14:0.69869518 15:0.290216 16:1.3906879 17:0.60724622 18:1.526247 19:-1.029012 20:-1.3615969 21:-0.8358022 22:0.74849248 23:-0.87745529 24:0.36787239 25:-1.881449 26:0.69869518 27:0.290216 28:0.83258939 29:0.28448501 30:-0.73873162 31:1.176623 32:0.2091741 33:-0.046295181 34:0.35094309 35:-1.1249059 36:-0.90698719 37:-1.881449 38:0.69869518 39:0.290216 40:-1.029012 41:-1.3615969 42:-0.8358022 43:-1.697965 44:-0.90435201 45:-0.66754657 46:0.35094309 47:-1.1249059 48:-0.90698719 49:0.02602301 50:-0.93124878 51:0.057246719 52:0.85170239 53:-2.883954 54:0.1931455 55:1.176623 56:0.2091741 57:-0.046295181 58:0.92050898 59:0.93538678 60:0.7173264 61:1.230139 62:0.77938551 63:0.54259938 64:0.92050898 65:0.93538678 66:0.7173264 67:-0.53207511 68:1.247389 69:0.0054757739 70:0.85170239 71:-2.883954 72:0.1931455 73:-0.46709111 74:0.47276241 75:1.44212 76:0.74849248 77:-0.87745529 78:0.36787239 79:1.176623 80:0.2091741 81:-0.046295181 82:0.74849248 83:-0.87745529 84:0.36787239 85:0.92050898 86:0.93538678 87:0.7173264 88:-1.029012 89:-1.3615969 90:-0.8358022 91:-1.697965 92:-0.90435201 93:-0.66754657 94:-1.697965 95:-0.90435201 96:-0.66754657 97:0.35094309 98:-1.1249059 99:-0.90698719 100:-1.881449 101:0.69869518 102:0.290216 #
-0.43473909666709598109690659839544 1:-1.6023999 2:-0.55469412 3:-0.63518971 4:1.176623 5:0.2091741 6:-0.046295181 7:-0.46709111 8:0.47276241 9:1.44212 10:0.85170239 11:-2.883954 12:0.1931455 13:-1.881449 14:0.69869518 15:0.290216 16:1.3906879 17:0.60724622 18:1.526247 19:0.02602301 20:-0.93124878 21:0.057246719 22:0.74849248 23:-0.87745529 24:0.36787239 25:0.35094309 26:-1.1249059 27:-0.90698719 28:-1.6023999 29:-0.55469412 30:-0.63518971 31:1.176623 32:0.2091741 33:-0.046295181 34:0.85170239 35:-2.883954 36:0.1931455 37:-1.816465 38:1.9628429 39:0.54907078 40:-0.95256001 41:-0.14586321 42:-0.26632169 43:-1.6023999 44:-0.55469412 45:-0.63518971 46:-1.029012 47:-1.3615969 48:-0.8358022 49:0.85170239 50:-2.883954 51:0.1931455 52:0.85170239 53:-2.883954 54:0.1931455 55:1.3906879 56:0.60724622 57:1.526247 58:-1.697965 59:-0.90435201 60:-0.66754657 61:1.230139 62:0.77938551 63:0.54259938 64:0.85170239 65:-2.883954 66:0.1931455 67:-0.53207511 68:1.247389 69:0.0054757739 70:0.85170239 71:-2.883954 72:0.1931455 73:-0.46709111 74:0.47276241 75:1.44212 76:0.35094309 77:-1.1249059 78:-0.90698719 79:1.176623 80:0.2091741 81:-0.046295181 82:1.230139 83:0.77938551 84:0.54259938 85:0.35094309 86:-1.1249059 87:-0.90698719 88:0.35094309 89:-1.1249059 90:-0.90698719 91:-1.881449 92:0.69869518 93:0.290216 94:0.74849248 95:-0.87745529 96:0.36787239 97:0.35094309 98:-1.1249059 99:-0.90698719 100:0.35094309 101:-1.1249059 102:-0.90698719 #
