SVM-light Version V6.02
2 # kernel type
3 # kernel parameter -d 
0.0094402711 # kernel parameter -g 
1 # kernel parameter -s 
1 # kernel parameter -r 
empty# kernel parameter -u 
102 # highest feature index 
2490 # number of training documents 
222 # number of support vectors plus 1 
2.5386885 # threshold b, each following line is a SV (starting with alpha*y)
-0.99030644377037368997207522625104 1:-1.6023999 2:-0.55469412 3:-0.63518971 4:1.230139 5:0.77938551 6:0.54259938 7:0.35094309 8:-1.1249059 9:-0.90698719 10:0.02602301 11:-0.93124878 12:0.057246719 13:-1.881449 14:0.69869518 15:0.290216 16:1.3906879 17:0.60724622 18:1.526247 19:0.02602301 20:-0.93124878 21:0.057246719 22:0.02602301 23:-0.93124878 24:0.057246719 25:0.35094309 26:-1.1249059 27:-0.90698719 28:-1.881449 29:0.69869518 30:0.290216 31:1.176623 32:0.2091741 33:-0.046295181 34:0.85170239 35:-2.883954 36:0.1931455 37:-1.881449 38:0.69869518 39:0.290216 40:-1.6023999 41:-0.55469412 42:-0.63518971 43:-1.6023999 44:-0.55469412 45:-0.63518971 46:-1.881449 47:0.69869518 48:0.290216 49:0.85170239 50:-2.883954 51:0.1931455 52:0.85170239 53:-2.883954 54:0.1931455 55:1.176623 56:0.2091741 57:-0.046295181 58:-1.6023999 59:-0.55469412 60:-0.63518971 61:0.92050898 62:0.93538678 63:0.7173264 64:-1.029012 65:-1.3615969 66:-0.8358022 67:-0.53207511 68:1.247389 69:0.0054757739 70:0.85170239 71:-2.883954 72:0.1931455 73:-0.46709111 74:0.47276241 75:1.44212 76:0.35094309 77:-1.1249059 78:-0.90698719 79:1.176623 80:0.2091741 81:-0.046295181 82:0.2706688 83:-0.52241802 84:2.67168 85:0.35094309 86:-1.1249059 87:-0.90698719 88:0.35094309 89:-1.1249059 90:-0.90698719 91:-1.881449 92:0.69869518 93:0.290216 94:0.02602301 95:-0.93124878 96:0.057246719 97:0.35094309 98:-1.1249059 99:-0.90698719 100:-1.816465 101:1.9628429 102:0.54907078 #
0.92774884423877068684305413626134 1:-1.6023999 2:-0.55469412 3:-0.63518971 4:1.176623 5:0.2091741 6:-0.046295181 7:1.08488 8:0.75786811 9:-2.033005 10:0.02602301 11:-0.93124878 12:0.057246719 13:-1.881449 14:0.69869518 15:0.290216 16:1.3906879 17:0.60724622 18:1.526247 19:0.02602301 20:-0.93124878 21:0.057246719 22:0.74849248 23:-0.87745529 24:0.36787239 25:-1.029012 26:-1.3615969 27:-0.8358022 28:-1.816465 29:1.9628429 30:0.54907078 31:1.176623 32:0.2091741 33:-0.046295181 34:-0.95256001 35:-0.14586321 36:-0.26632169 37:0.2706688 38:-0.52241802 39:2.67168 40:-1.6023999 41:-0.55469412 42:-0.63518971 43:-1.697965 44:-0.90435201 45:-0.66754657 46:-1.6023999 47:-0.55469412 48:-0.63518971 49:0.85170239 50:-2.883954 51:0.1931455 52:0.85170239 53:-2.883954 54:0.1931455 55:1.176623 56:0.2091741 57:-0.046295181 58:-1.881449 59:0.69869518 60:0.290216 61:1.230139 62:0.77938551 63:0.54259938 64:0.02602301 65:-0.93124878 66:0.057246719 67:-0.53207511 68:1.247389 69:0.0054757739 70:0.85170239 71:-2.883954 72:0.1931455 73:-0.46709111 74:0.47276241 75:1.44212 76:0.35094309 77:-1.1249059 78:-0.90698719 79:1.176623 80:0.2091741 81:-0.046295181 82:-1.697965 83:-0.90435201 84:-0.66754657 85:0.35094309 86:-1.1249059 87:-0.90698719 88:-1.029012 89:-1.3615969 90:-0.8358022 91:0.2706688 92:-0.52241802 93:2.67168 94:0.02602301 95:-0.93124878 96:0.057246719 97:0.35094309 98:-1.1249059 99:-0.90698719 100:-1.029012 101:-1.3615969 102:-0.8358022 #
-2.6029978410918968023679553880356 1:-1.029012 2:-1.3615969 3:-0.8358022 4:1.230139 5:0.77938551 6:0.54259938 7:0.35094309 8:-1.1249059 9:-0.90698719 10:0.74849248 11:-0.87745529 12:0.36787239 13:-1.881449 14:0.69869518 15:0.290216 16:1.3906879 17:0.60724622 18:1.526247 19:0.85170239 20:-2.883954 21:0.1931455 22:-1.881449 23:0.69869518 24:0.290216 25:0.35094309 26:-1.1249059 27:-0.90698719 28:-1.881449 29:0.69869518 30:0.290216 31:1.3906879 32:0.60724622 33:1.526247 34:0.85170239 35:-2.883954 36:0.1931455 37:-1.881449 38:0.69869518 39:0.290216 40:-1.029012 41:-1.3615969 42:-0.8358022 43:-1.6023999 44:-0.55469412 45:-0.63518971 46:-1.881449 47:0.69869518 48:0.290216 49:0.85170239 50:-2.883954 51:0.1931455 52:0.85170239 53:-2.883954 54:0.1931455 55:1.176623 56:0.2091741 57:-0.046295181 58:-1.697965 59:-0.90435201 60:-0.66754657 61:1.230139 62:0.77938551 63:0.54259938 64:-1.029012 65:-1.3615969 66:-0.8358022 67:-0.53207511 68:1.247389 69:0.0054757739 70:0.85170239 71:-2.883954 72:0.1931455 73:-0.46709111 74:0.47276241 75:1.44212 76:0.35094309 77:-1.1249059 78:-0.90698719 79:1.176623 80:0.2091741 81:-0.046295181 82:0.74849248 83:-0.87745529 84:0.36787239 85:0.35094309 86:-1.1249059 87:-0.90698719 88:-1.029012 89:-1.3615969 90:-0.8358022 91:-1.881449 92:0.69869518 93:0.290216 94:0.02602301 95:-0.93124878 96:0.057246719 97:0.35094309 98:-1.1249059 99:-0.90698719 100:-0.53207511 101:1.247389 102:0.0054757739 #
6.8317735216220683014398673549294 1:-1.6023999 2:-0.55469412 3:-0.63518971 4:-1.816465 5:1.9628429 6:0.54907078 7:0.92050898 8:0.93538678 9:0.7173264 10:0.02602301 11:-0.93124878 12:0.057246719 13:-1.881449 14:0.69869518 15:0.290216 16:1.3906879 17:0.60724622 18:1.526247 19:0.02602301 20:-0.93124878 21:0.057246719 22:0.02602301 23:-0.93124878 24:0.057246719 25:-1.029012 26:-1.3615969 27:-0.8358022 28:-1.816465 29:1.9628429 30:0.54907078 31:1.176623 32:0.2091741 33:-0.046295181 34:-0.46709111 35:0.47276241 36:1.44212 37:-1.881449 38:0.69869518 39:0.290216 40:-0.95256001 41:-0.14586321 42:-0.26632169 43:-1.6023999 44:-0.55469412 45:-0.63518971 46:0.35094309 47:-1.1249059 48:-0.90698719 49:0.85170239 50:-2.883954 51:0.1931455 52:0.85170239 53:-2.883954 54:0.1931455 55:1.3906879 56:0.60724622 57:1.526247 58:-1.697965 59:-0.90435201 60:-0.66754657 61:1.230139 62:0.77938551 63:0.54259938 64:0.02602301 65:-0.93124878 66:0.057246719 67:-0.53207511 68:1.247389 69:0.0054757739 70:0.85170239 71:-2.883954 72:0.1931455 73:-0.46709111 74:0.47276241 75:1.44212 76:0.35094309 77:-1.1249059 78:-0.90698719 79:1.176623 80:0.2091741 81:-0.046295181 82:1.230139 83:0.77938551 84:0.54259938 85:0.35094309 86:-1.1249059 87:-0.90698719 88:-1.029012 89:-1.3615969 90:-0.8358022 91:-1.029012 92:-1.3615969 93:-0.8358022 94:0.35094309 95:-1.1249059 96:-0.90698719 97:0.35094309 98:-1.1249059 99:-0.90698719 100:0.74849248 101:-0.87745529 102:0.36787239 #
0.85853405355738221516048724879511 1:-1.6023999 2:-0.55469412 3:-0.63518971 4:-1.816465 5:1.9628429 6:0.54907078 7:0.92050898 8:0.93538678 9:0.7173264 10:0.02602301 11:-0.93124878 12:0.057246719 13:-1.881449 14:0.69869518 15:0.290216 16:1.3906879 17:0.60724622 18:1.526247 19:0.02602301 20:-0.93124878 21:0.057246719 22:-1.881449 23:0.69869518 24:0.290216 25:0.02602301 26:-0.93124878 27:0.057246719 28:-1.816465 29:1.9628429 30:0.54907078 31:1.176623 32:0.2091741 33:-0.046295181 34:-0.46709111 35:0.47276241 36:1.44212 37:-1.881449 38:0.69869518 39:0.290216 40:-1.6023999 41:-0.55469412 42:-0.63518971 43:-1.6023999 44:-0.55469412 45:-0.63518971 46:0.35094309 47:-1.1249059 48:-0.90698719 49:0.85170239 50:-2.883954 51:0.1931455 52:0.85170239 53:-2.883954 54:0.1931455 55:1.3906879 56:0.60724622 57:1.526247 58:-1.029012 59:-1.3615969 60:-0.8358022 61:1.230139 62:0.77938551 63:0.54259938 64:1.230139 65:0.77938551 66:0.54259938 67:-0.53207511 68:1.247389 69:0.0054757739 70:0.85170239 71:-2.883954 72:0.1931455 73:-0.46709111 74:0.47276241 75:1.44212 76:0.35094309 77:-1.1249059 78:-0.90698719 79:1.176623 80:0.2091741 81:-0.046295181 82:1.230139 83:0.77938551 84:0.54259938 85:0.74849248 86:-0.87745529 87:0.36787239 88:-1.029012 89:-1.3615969 90:-0.8358022 91:-1.029012 92:-1.3615969 93:-0.8358022 94:0.35094309 95:-1.1249059 96:-0.90698719 97:0.35094309 98:-1.1249059 99:-0.90698719 100:0.74849248 101:-0.87745529 102:0.36787239 #
-2.5882890189441720707463900907896 1:-1.6023999 2:-0.55469412 3:-0.63518971 4:-1.816465 5:1.9628429 6:0.54907078 7:0.74849248 8:-0.87745529 9:0.36787239 10:0.35094309 11:-1.1249059 12:-0.90698719 13:-1.881449 14:0.69869518 15:0.290216 16:1.3906879 17:0.60724622 18:1.526247 19:0.02602301 20:-0.93124878 21:0.057246719 22:0.74849248 23:-0.87745529 24:0.36787239 25:-1.029012 26:-1.3615969 27:-0.8358022 28:-1.816465 29:1.9628429 30:0.54907078 31:1.176623 32:0.2091741 33:-0.046295181 34:-1.816465 35:1.9628429 36:0.54907078 37:0.83258939 38:0.28448501 39:-0.73873162 40:-1.881449 41:0.69869518 42:0.290216 43:-1.029012 44:-1.3615969 45:-0.8358022 46:0.2706688 47:-0.52241802 48:2.67168 49:0.85170239 50:-2.883954 51:0.1931455 52:0.85170239 53:-2.883954 54:0.1931455 55:0.85170239 56:-2.883954 57:0.1931455 58:0.92050898 59:0.93538678 60:0.7173264 61:1.230139 62:0.77938551 63:0.54259938 64:-1.029012 65:-1.3615969 66:-0.8358022 67:-0.53207511 68:1.247389 69:0.0054757739 70:0.85170239 71:-2.883954 72:0.1931455 73:-0.46709111 74:0.47276241 75:1.44212 76:0.35094309 77:-1.1249059 78:-0.90698719 79:1.176623 80:0.2091741 81:-0.046295181 82:0.35094309 83:-1.1249059 84:-0.90698719 85:0.35094309 86:-1.1249059 87:-0.90698719 88:-1.029012 89:-1.3615969 90:-0.8358022 91:1.3906879 92:0.60724622 93:1.526247 94:0.2706688 95:-0.52241802 96:2.67168 97:0.74849248 98:-0.87745529 99:0.36787239 100:-1.029012 101:-1.3615969 102:-0.8358022 #
-1.3619661295167493353375220976886 1:0.74849248 2:-0.87745529 3:0.36787239 4:-1.816465 5:1.9628429 6:0.54907078 7:1.08488 8:0.75786811 9:-2.033005 10:-0.53207511 11:1.247389 12:0.0054757739 13:-1.881449 14:0.69869518 15:0.290216 16:1.3906879 17:0.60724622 18:1.526247 19:0.02602301 20:-0.93124878 21:0.057246719 22:-1.881449 23:0.69869518 24:0.290216 25:-1.697965 26:-0.90435201 27:-0.66754657 28:-1.6023999 29:-0.55469412 30:-0.63518971 31:1.230139 32:0.77938551 33:0.54259938 34:0.85170239 35:-2.883954 36:0.1931455 37:0.74849248 38:-0.87745529 39:0.36787239 40:0.35094309 41:-1.1249059 42:-0.90698719 43:-1.029012 44:-1.3615969 45:-0.8358022 46:-1.029012 47:-1.3615969 48:-0.8358022 49:0.85170239 50:-2.883954 51:0.1931455 52:0.85170239 53:-2.883954 54:0.1931455 55:1.176623 56:0.2091741 57:-0.046295181 58:1.230139 59:0.77938551 60:0.54259938 61:1.230139 62:0.77938551 63:0.54259938 64:1.176623 65:0.2091741 66:-0.046295181 67:-0.53207511 68:1.247389 69:0.0054757739 70:0.85170239 71:-2.883954 72:0.1931455 73:-0.46709111 74:0.47276241 75:1.44212 76:0.35094309 77:-1.1249059 78:-0.90698719 79:1.176623 80:0.2091741 81:-0.046295181 82:1.230139 83:0.77938551 84:0.54259938 85:0.74849248 86:-0.87745529 87:0.36787239 88:-1.029012 89:-1.3615969 90:-0.8358022 91:-1.029012 92:-1.3615969 93:-0.8358022 94:0.74849248 95:-0.87745529 96:0.36787239 97:0.35094309 98:-1.1249059 99:-0.90698719 100:-1.881449 101:0.69869518 102:0.290216 #
10 1:-1.6023999 2:-0.55469412 3:-0.63518971 4:-1.816465 5:1.9628429 6:0.54907078 7:-1.6023999 8:-0.55469412 9:-0.63518971 10:0.74849248 11:-0.87745529 12:0.36787239 13:-1.881449 14:0.69869518 15:0.290216 16:1.3906879 17:0.60724622 18:1.526247 19:-1.6023999 20:-0.55469412 21:-0.63518971 22:0.74849248 23:-0.87745529 24:0.36787239 25:0.83258939 26:0.28448501 27:-0.73873162 28:1.100171 29:1.3549761 30:-2.2271459 31:0.74849248 32:-0.87745529 33:0.36787239 34:-0.95256001 35:-0.14586321 36:-0.26632169 37:0.92050898 38:0.93538678 39:0.7173264 40:0.2706688 41:-0.52241802 42:2.67168 43:-1.6023999 44:-0.55469412 45:-0.63518971 46:-1.881449 47:0.69869518 48:0.290216 49:0.85170239 50:-2.883954 51:0.1931455 52:0.85170239 53:-2.883954 54:0.1931455 55:1.176623 56:0.2091741 57:-0.046295181 58:-1.6023999 59:-0.55469412 60:-0.63518971 61:0.92050898 62:0.93538678 63:0.7173264 64:0.83258939 65:0.28448501 66:-0.73873162 67:-0.53207511 68:1.247389 69:0.0054757739 70:0.85170239 71:-2.883954 72:0.1931455 73:-1.029012 74:-1.3615969 75:-0.8358022 76:0.02602301 77:-0.93124878 78:0.057246719 79:1.176623 80:0.2091741 81:-0.046295181 82:0.2706688 83:-0.52241802 84:2.67168 85:0.35094309 86:-1.1249059 87:-0.90698719 88:1.3906879 89:0.60724622 90:1.526247 91:-1.029012 92:-1.3615969 93:-0.8358022 94:0.02602301 95:-0.93124878 96:0.057246719 97:0.74849248 98:-0.87745529 99:0.36787239 100:0.74849248 101:-0.87745529 102:0.36787239 #
6.3702048564368052296913447207771 1:-1.6023999 2:-0.55469412 3:-0.63518971 4:0.85170239 5:-2.883954 6:0.1931455 7:0.35094309 8:-1.1249059 9:-0.90698719 10:0.74849248 11:-0.87745529 12:0.36787239 13:-1.881449 14:0.69869518 15:0.290216 16:1.3906879 17:0.60724622 18:1.526247 19:-1.029012 20:-1.3615969 21:-0.8358022 22:0.74849248 23:-0.87745529 24:0.36787239 25:0.74849248 26:-0.87745529 27:0.36787239 28:-1.029012 29:-1.3615969 30:-0.8358022 31:1.176623 32:0.2091741 33:-0.046295181 34:0.85170239 35:-2.883954 36:0.1931455 37:-1.6023999 38:-0.55469412 39:-0.63518971 40:-1.6023999 41:-0.55469412 42:-0.63518971 43:-0.95256001 44:-0.14586321 45:-0.26632169 46:-1.029012 47:-1.3615969 48:-0.8358022 49:0.85170239 50:-2.883954 51:0.1931455 52:0.85170239 53:-2.883954 54:0.1931455 55:1.176623 56:0.2091741 57:-0.046295181 58:0.35094309 59:-1.1249059 60:-0.90698719 61:1.230139 62:0.77938551 63:0.54259938 64:0.02602301 65:-0.93124878 66:0.057246719 67:-0.53207511 68:1.247389 69:0.0054757739 70:0.85170239 71:-2.883954 72:0.1931455 73:-0.46709111 74:0.47276241 75:1.44212 76:0.35094309 77:-1.1249059 78:-0.90698719 79:1.176623 80:0.2091741 81:-0.046295181 82:0.2706688 83:-0.52241802 84:2.67168 85:0.74849248 86:-0.87745529 87:0.36787239 88:0.35094309 89:-1.1249059 90:-0.90698719 91:-0.95256001 92:-0.14586321 93:-0.26632169 94:-1.029012 95:-1.3615969 96:-0.8358022 97:0.35094309 98:-1.1249059 99:-0.90698719 100:1.100171 101:1.3549761 102:-2.2271459 #
3.6920679922340147172121760377195 1:0.35094309 2:-1.1249059 3:-0.90698719 4:1.230139 5:0.77938551 6:0.54259938 7:0.02602301 8:-0.93124878 9:0.057246719 10:0.74849248 11:-0.87745529 12:0.36787239 13:-1.881449 14:0.69869518 15:0.290216 16:1.3906879 17:0.60724622 18:1.526247 19:0.02602301 20:-0.93124878 21:0.057246719 22:-1.881449 23:0.69869518 24:0.290216 25:-0.95256001 26:-0.14586321 27:-0.26632169 28:-1.881449 29:0.69869518 30:0.290216 31:1.3906879 32:0.60724622 33:1.526247 34:0.85170239 35:-2.883954 36:0.1931455 37:-0.95256001 38:-0.14586321 39:-0.26632169 40:-1.697965 41:-0.90435201 42:-0.66754657 43:-1.6023999 44:-0.55469412 45:-0.63518971 46:-1.881449 47:0.69869518 48:0.290216 49:0.85170239 50:-2.883954 51:0.1931455 52:0.85170239 53:-2.883954 54:0.1931455 55:1.176623 56:0.2091741 57:-0.046295181 58:-1.6023999 59:-0.55469412 60:-0.63518971 61:0.92050898 62:0.93538678 63:0.7173264 64:-0.95256001 65:-0.14586321 66:-0.26632169 67:-0.53207511 68:1.247389 69:0.0054757739 70:0.85170239 71:-2.883954 72:0.1931455 73:-0.46709111 74:0.47276241 75:1.44212 76:0.74849248 77:-0.87745529 78:0.36787239 79:1.176623 80:0.2091741 81:-0.046295181 82:0.74849248 83:-0.87745529 84:0.36787239 85:0.35094309 86:-1.1249059 87:-0.90698719 88:-1.029012 89:-1.3615969 90:-0.8358022 91:-1.881449 92:0.69869518 93:0.290216 94:0.35094309 95:-1.1249059 96:-0.90698719 97:0.35094309 98:-1.1249059 99:-0.90698719 100:-0.53207511 101:1.247389 102:0.0054757739 #
-8.7660747238020935157010171678849 1:-1.6023999 2:-0.55469412 3:-0.63518971 4:-1.816465 5:1.9628429 6:0.54907078 7:-1.6023999 8:-0.55469412 9:-0.63518971 10:0.74849248 11:-0.87745529 12:0.36787239 13:-1.881449 14:0.69869518 15:0.290216 16:1.3906879 17:0.60724622 18:1.526247 19:-1.6023999 20:-0.55469412 21:-0.63518971 22:0.74849248 23:-0.87745529 24:0.36787239 25:0.83258939 26:0.28448501 27:-0.73873162 28:1.100171 29:1.3549761 30:-2.2271459 31:0.74849248 32:-0.87745529 33:0.36787239 34:-0.95256001 35:-0.14586321 36:-0.26632169 37:0.92050898 38:0.93538678 39:0.7173264 40:0.2706688 41:-0.52241802 42:2.67168 43:-1.6023999 44:-0.55469412 45:-0.63518971 46:-1.881449 47:0.69869518 48:0.290216 49:0.85170239 50:-2.883954 51:0.1931455 52:0.85170239 53:-2.883954 54:0.1931455 55:1.176623 56:0.2091741 57:-0.046295181 58:-1.6023999 59:-0.55469412 60:-0.63518971 61:0.92050898 62:0.93538678 63:0.7173264 64:0.83258939 65:0.28448501 66:-0.73873162 67:-0.53207511 68:1.247389 69:0.0054757739 70:0.85170239 71:-2.883954 72:0.1931455 73:-1.029012 74:-1.3615969 75:-0.8358022 76:0.02602301 77:-0.93124878 78:0.057246719 79:1.176623 80:0.2091741 81:-0.046295181 82:0.2706688 83:-0.52241802 84:2.67168 85:0.35094309 86:-1.1249059 87:-0.90698719 88:1.3906879 89:0.60724622 90:1.526247 91:-1.029012 92:-1.3615969 93:-0.8358022 94:0.02602301 95:-0.93124878 96:0.057246719 97:0.74849248 98:-0.87745529 99:0.36787239 100:0.74849248 101:-0.87745529 102:0.36787239 #
-0.22501281089322749950909496874374 1:-1.881449 2:0.69869518 3:0.290216 4:-1.029012 5:-1.3615969 6:-0.8358022 7:0.02602301 8:-0.93124878 9:0.057246719 10:-1.881449 11:0.69869518 12:0.290216 13:-1.881449 14:0.69869518 15:0.290216 16:1.3906879 17:0.60724622 18:1.526247 19:0.02602301 20:-0.93124878 21:0.057246719 22:0.74849248 23:-0.87745529 24:0.36787239 25:-1.029012 26:-1.3615969 27:-0.8358022 28:1.176623 29:0.2091741 30:-0.046295181 31:0.83258939 32:0.28448501 33:-0.73873162 34:-0.46709111 35:0.47276241 36:1.44212 37:0.74849248 38:-0.87745529 39:0.36787239 40:-1.6023999 41:-0.55469412 42:-0.63518971 43:-1.029012 44:-1.3615969 45:-0.8358022 46:-1.881449 47:0.69869518 48:0.290216 49:0.85170239 50:-2.883954 51:0.1931455 52:0.85170239 53:-2.883954 54:0.1931455 55:1.176623 56:0.2091741 57:-0.046295181 58:-1.6023999 59:-0.55469412 60:-0.63518971 61:1.230139 62:0.77938551 63:0.54259938 64:0.35094309 65:-1.1249059 66:-0.90698719 67:-0.53207511 68:1.247389 69:0.0054757739 70:0.85170239 71:-2.883954 72:0.1931455 73:-0.46709111 74:0.47276241 75:1.44212 76:0.35094309 77:-1.1249059 78:-0.90698719 79:1.176623 80:0.2091741 81:-0.046295181 82:0.02602301 83:-0.93124878 84:0.057246719 85:0.35094309 86:-1.1249059 87:-0.90698719 88:-1.029012 89:-1.3615969 90:-0.8358022 91:-1.029012 92:-1.3615969 93:-0.8358022 94:0.74849248 95:-0.87745529 96:0.36787239 97:0.74849248 98:-0.87745529 99:0.36787239 100:-1.697965 101:-0.90435201 102:-0.66754657 #
10 1:-1.6023999 2:-0.55469412 3:-0.63518971 4:-1.816465 5:1.9628429 6:0.54907078 7:0.74849248 8:-0.87745529 9:0.36787239 10:0.35094309 11:-1.1249059 12:-0.90698719 13:-1.881449 14:0.69869518 15:0.290216 16:1.3906879 17:0.60724622 18:1.526247 19:0.02602301 20:-0.93124878 21:0.057246719 22:0.74849248 23:-0.87745529 24:0.36787239 25:-1.029012 26:-1.3615969 27:-0.8358022 28:-1.816465 29:1.9628429 30:0.54907078 31:1.176623 32:0.2091741 33:-0.046295181 34:-1.816465 35:1.9628429 36:0.54907078 37:0.83258939 38:0.28448501 39:-0.73873162 40:-1.881449 41:0.69869518 42:0.290216 43:-1.029012 44:-1.3615969 45:-0.8358022 46:0.2706688 47:-0.52241802 48:2.67168 49:0.85170239 50:-2.883954 51:0.1931455 52:0.85170239 53:-2.883954 54:0.1931455 55:0.85170239 56:-2.883954 57:0.1931455 58:0.92050898 59:0.93538678 60:0.7173264 61:1.230139 62:0.77938551 63:0.54259938 64:-1.029012 65:-1.3615969 66:-0.8358022 67:-0.53207511 68:1.247389 69:0.0054757739 70:0.85170239 71:-2.883954 72:0.1931455 73:-0.46709111 74:0.47276241 75:1.44212 76:0.35094309 77:-1.1249059 78:-0.90698719 79:1.176623 80:0.2091741 81:-0.046295181 82:0.35094309 83:-1.1249059 84:-0.90698719 85:0.35094309 86:-1.1249059 87:-0.90698719 88:-1.029012 89:-1.3615969 90:-0.8358022 91:1.3906879 92:0.60724622 93:1.526247 94:0.2706688 95:-0.52241802 96:2.67168 97:0.74849248 98:-0.87745529 99:0.36787239 100:-1.029012 101:-1.3615969 102:-0.8358022 #
0.40478235125659184356905484492017 1:-1.6023999 2:-0.55469412 3:-0.63518971 4:0.02602301 5:-0.93124878 6:0.057246719 7:0.83258939 8:0.28448501 9:-0.73873162 10:0.74849248 11:-0.87745529 12:0.36787239 13:-1.881449 14:0.69869518 15:0.290216 16:1.3906879 17:0.60724622 18:1.526247 19:0.02602301 20:-0.93124878 21:0.057246719 22:0.74849248 23:-0.87745529 24:0.36787239 25:-1.697965 26:-0.90435201 27:-0.66754657 28:-0.95256001 29:-0.14586321 30:-0.26632169 31:1.176623 32:0.2091741 33:-0.046295181 34:-0.95256001 35:-0.14586321 36:-0.26632169 37:-1.6023999 38:-0.55469412 39:-0.63518971 40:-1.697965 41:-0.90435201 42:-0.66754657 43:-1.697965 44:-0.90435201 45:-0.66754657 46:-1.029012 47:-1.3615969 48:-0.8358022 49:0.85170239 50:-2.883954 51:0.1931455 52:0.85170239 53:-2.883954 54:0.1931455 55:1.3906879 56:0.60724622 57:1.526247 58:-1.697965 59:-0.90435201 60:-0.66754657 61:1.230139 62:0.77938551 63:0.54259938 64:0.02602301 65:-0.93124878 66:0.057246719 67:-0.53207511 68:1.247389 69:0.0054757739 70:0.85170239 71:-2.883954 72:0.1931455 73:-0.46709111 74:0.47276241 75:1.44212 76:0.35094309 77:-1.1249059 78:-0.90698719 79:1.176623 80:0.2091741 81:-0.046295181 82:0.35094309 83:-1.1249059 84:-0.90698719 85:0.35094309 86:-1.1249059 87:-0.90698719 88:-1.697965 89:-0.90435201 90:-0.66754657 91:0.2706688 92:-0.52241802 93:2.67168 94:0.02602301 95:-0.93124878 96:0.057246719 97:0.35094309 98:-1.1249059 99:-0.90698719 100:-0.95256001 101:-0.14586321 102:-0.26632169 #
-0.051528336495680893136750455596484 1:1.100171 2:1.3549761 3:-2.2271459 4:-1.816465 5:1.9628429 6:0.54907078 7:0.74849248 8:-0.87745529 9:0.36787239 10:0.02602301 11:-0.93124878 12:0.057246719 13:-1.881449 14:0.69869518 15:0.290216 16:1.3906879 17:0.60724622 18:1.526247 19:-1.697965 20:-0.90435201 21:-0.66754657 22:0.02602301 23:-0.93124878 24:0.057246719 25:-1.6023999 26:-0.55469412 27:-0.63518971 28:-1.816465 29:1.9628429 30:0.54907078 31:1.176623 32:0.2091741 33:-0.046295181 34:-1.881449 35:0.69869518 36:0.290216 37:0.92050898 38:0.93538678 39:0.7173264 40:-1.881449 41:0.69869518 42:0.290216 43:-1.6023999 44:-0.55469412 45:-0.63518971 46:0.74849248 47:-0.87745529 48:0.36787239 49:0.85170239 50:-2.883954 51:0.1931455 52:0.85170239 53:-2.883954 54:0.1931455 55:1.176623 56:0.2091741 57:-0.046295181 58:0.92050898 59:0.93538678 60:0.7173264 61:0.83258939 62:0.28448501 63:-0.73873162 64:0.02602301 65:-0.93124878 66:0.057246719 67:-0.53207511 68:1.247389 69:0.0054757739 70:0.85170239 71:-2.883954 72:0.1931455 73:-0.46709111 74:0.47276241 75:1.44212 76:0.02602301 77:-0.93124878 78:0.057246719 79:1.176623 80:0.2091741 81:-0.046295181 82:0.02602301 83:-0.93124878 84:0.057246719 85:0.74849248 86:-0.87745529 87:0.36787239 88:-1.697965 89:-0.90435201 90:-0.66754657 91:0.74849248 92:-0.87745529 93:0.36787239 94:-1.029012 95:-1.3615969 96:-0.8358022 97:0.35094309 98:-1.1249059 99:-0.90698719 100:0.92050898 101:0.93538678 102:0.7173264 #
-4.449040892128556912155090685701 1:1.230139 2:0.77938551 3:0.54259938 4:1.100171 5:1.3549761 6:-2.2271459 7:0.35094309 8:-1.1249059 9:-0.90698719 10:0.35094309 11:-1.1249059 12:-0.90698719 13:-1.881449 14:0.69869518 15:0.290216 16:1.3906879 17:0.60724622 18:1.526247 19:-1.029012 20:-1.3615969 21:-0.8358022 22:0.74849248 23:-0.87745529 24:0.36787239 25:-1.029012 26:-1.3615969 27:-0.8358022 28:-1.816465 29:1.9628429 30:0.54907078 31:1.176623 32:0.2091741 33:-0.046295181 34:-1.816465 35:1.9628429 36:0.54907078 37:1.230139 38:0.77938551 39:0.54259938 40:-1.881449 41:0.69869518 42:0.290216 43:-1.881449 44:0.69869518 45:0.290216 46:0.2706688 47:-0.52241802 48:2.67168 49:0.85170239 50:-2.883954 51:0.1931455 52:0.85170239 53:-2.883954 54:0.1931455 55:1.176623 56:0.2091741 57:-0.046295181 58:-0.53207511 59:1.247389 60:0.0054757739 61:1.230139 62:0.77938551 63:0.54259938 64:-1.881449 65:0.69869518 66:0.290216 67:-0.53207511 68:1.247389 69:0.0054757739 70:0.85170239 71:-2.883954 72:0.1931455 73:-0.46709111 74:0.47276241 75:1.44212 76:0.35094309 77:-1.1249059 78:-0.90698719 79:1.176623 80:0.2091741 81:-0.046295181 82:0.35094309 83:-1.1249059 84:-0.90698719 85:0.02602301 86:-0.93124878 87:0.057246719 88:-1.029012 89:-1.3615969 90:-0.8358022 91:1.3906879 92:0.60724622 93:1.526247 94:0.02602301 95:-0.93124878 96:0.057246719 97:0.35094309 98:-1.1249059 99:-0.90698719 100:0.35094309 101:-1.1249059 102:-0.90698719 #
-1.040535282443717512990133400308 1:-0.95256001 2:-0.14586321 3:-0.26632169 4:0.74849248 5:-0.87745529 6:0.36787239 7:0.92050898 8:0.93538678 9:0.7173264 10:0.02602301 11:-0.93124878 12:0.057246719 13:-1.881449 14:0.69869518 15:0.290216 16:1.3906879 17:0.60724622 18:1.526247 19:0.02602301 20:-0.93124878 21:0.057246719 22:0.92050898 23:0.93538678 24:0.7173264 25:-1.029012 26:-1.3615969 27:-0.8358022 28:-0.53207511 29:1.247389 30:0.0054757739 31:1.176623 32:0.2091741 33:-0.046295181 34:0.35094309 35:-1.1249059 36:-0.90698719 37:-1.881449 38:0.69869518 39:0.290216 40:-1.6023999 41:-0.55469412 42:-0.63518971 43:0.85170239 44:-2.883954 45:0.1931455 46:-1.029012 47:-1.3615969 48:-0.8358022 49:0.85170239 50:-2.883954 51:0.1931455 52:0.85170239 53:-2.883954 54:0.1931455 55:1.176623 56:0.2091741 57:-0.046295181 58:0.74849248 59:-0.87745529 60:0.36787239 61:1.230139 62:0.77938551 63:0.54259938 64:-1.6023999 65:-0.55469412 66:-0.63518971 67:-0.53207511 68:1.247389 69:0.0054757739 70:0.85170239 71:-2.883954 72:0.1931455 73:-0.46709111 74:0.47276241 75:1.44212 76:0.35094309 77:-1.1249059 78:-0.90698719 79:1.176623 80:0.2091741 81:-0.046295181 82:0.85170239 83:-2.883954 84:0.1931455 85:0.74849248 86:-0.87745529 87:0.36787239 88:-1.029012 89:-1.3615969 90:-0.8358022 91:0.74849248 92:-0.87745529 93:0.36787239 94:-1.029012 95:-1.3615969 96:-0.8358022 97:0.74849248 98:-0.87745529 99:0.36787239 100:-1.697965 101:-0.90435201 102:-0.66754657 #
7.4731649730544340570759231923148 1:0.2706688 2:-0.52241802 3:2.67168 4:-1.816465 5:1.9628429 6:0.54907078 7:1.100171 8:1.3549761 9:-2.2271459 10:-1.881449 11:0.69869518 12:0.290216 13:-1.881449 14:0.69869518 15:0.290216 16:1.3906879 17:0.60724622 18:1.526247 19:0.85170239 20:-2.883954 21:0.1931455 22:-1.881449 23:0.69869518 24:0.290216 25:-1.029012 26:-1.3615969 27:-0.8358022 28:0.02602301 29:-0.93124878 30:0.057246719 31:0.74849248 32:-0.87745529 33:0.36787239 34:0.02602301 35:-0.93124878 36:0.057246719 37:-0.53207511 38:1.247389 39:0.0054757739 40:0.85170239 41:-2.883954 42:0.1931455 43:0.35094309 44:-1.1249059 45:-0.90698719 46:-1.6023999 47:-0.55469412 48:-0.63518971 49:0.85170239 50:-2.883954 51:0.1931455 52:0.85170239 53:-2.883954 54:0.1931455 55:1.176623 56:0.2091741 57:-0.046295181 58:1.230139 59:0.77938551 60:0.54259938 61:1.230139 62:0.77938551 63:0.54259938 64:1.176623 65:0.2091741 66:-0.046295181 67:-0.53207511 68:1.247389 69:0.0054757739 70:0.85170239 71:-2.883954 72:0.1931455 73:-0.46709111 74:0.47276241 75:1.44212 76:0.35094309 77:-1.1249059 78:-0.90698719 79:1.176623 80:0.2091741 81:-0.046295181 82:1.230139 83:0.77938551 84:0.54259938 85:0.74849248 86:-0.87745529 87:0.36787239 88:-1.029012 89:-1.3615969 90:-0.8358022 91:-1.029012 92:-1.3615969 93:-0.8358022 94:0.35094309 95:-1.1249059 96:-0.90698719 97:0.35094309 98:-1.1249059 99:-0.90698719 100:-1.697965 101:-0.90435201 102:-0.66754657 #
2.227563873943885663919672879274 1:-1.881449 2:0.69869518 3:0.290216 4:0.85170239 5:-2.883954 6:0.1931455 7:0.35094309 8:-1.1249059 9:-0.90698719 10:0.74849248 11:-0.87745529 12:0.36787239 13:-1.881449 14:0.69869518 15:0.290216 16:1.3906879 17:0.60724622 18:1.526247 19:0.02602301 20:-0.93124878 21:0.057246719 22:0.74849248 23:-0.87745529 24:0.36787239 25:-1.029012 26:-1.3615969 27:-0.8358022 28:-1.697965 29:-0.90435201 30:-0.66754657 31:1.3906879 32:0.60724622 33:1.526247 34:-1.881449 35:0.69869518 36:0.290216 37:0.02602301 38:-0.93124878 39:0.057246719 40:0.02602301 41:-0.93124878 42:0.057246719 43:-1.6023999 44:-0.55469412 45:-0.63518971 46:0.35094309 47:-1.1249059 48:-0.90698719 49:0.85170239 50:-2.883954 51:0.1931455 52:0.02602301 53:-0.93124878 54:0.057246719 55:1.3906879 56:0.60724622 57:1.526247 58:-1.697965 59:-0.90435201 60:-0.66754657 61:1.230139 62:0.77938551 63:0.54259938 64:0.85170239 65:-2.883954 66:0.1931455 67:-0.53207511 68:1.247389 69:0.0054757739 70:0.85170239 71:-2.883954 72:0.1931455 73:-0.46709111 74:0.47276241 75:1.44212 76:0.35094309 77:-1.1249059 78:-0.90698719 79:1.176623 80:0.2091741 81:-0.046295181 82:0.85170239 83:-2.883954 84:0.1931455 85:0.35094309 86:-1.1249059 87:-0.90698719 88:0.2706688 89:-0.52241802 90:2.67168 91:0.02602301 92:-0.93124878 93:0.057246719 94:0.2706688 95:-0.52241802 96:2.67168 97:0.02602301 98:-0.93124878 99:0.057246719 100:0.02602301 101:-0.93124878 102:0.057246719 #
1.9173401114646004828045988688245 1:-1.6023999 2:-0.55469412 3:-0.63518971 4:0.92050898 5:0.93538678 6:0.7173264 7:-1.029012 8:-1.3615969 9:-0.8358022 10:0.74849248 11:-0.87745529 12:0.36787239 13:-1.881449 14:0.69869518 15:0.290216 16:1.3906879 17:0.60724622 18:1.526247 19:0.02602301 20:-0.93124878 21:0.057246719 22:-1.881449 23:0.69869518 24:0.290216 25:0.35094309 26:-1.1249059 27:-0.90698719 28:-1.881449 29:0.69869518 30:0.290216 31:1.3906879 32:0.60724622 33:1.526247 34:0.02602301 35:-0.93124878 36:0.057246719 37:-1.881449 38:0.69869518 39:0.290216 40:0.02602301 41:-0.93124878 42:0.057246719 43:-1.6023999 44:-0.55469412 45:-0.63518971 46:-1.881449 47:0.69869518 48:0.290216 49:0.85170239 50:-2.883954 51:0.1931455 52:0.85170239 53:-2.883954 54:0.1931455 55:1.176623 56:0.2091741 57:-0.046295181 58:-1.697965 59:-0.90435201 60:-0.66754657 61:1.230139 62:0.77938551 63:0.54259938 64:0.2706688 65:-0.52241802 66:2.67168 67:-0.53207511 68:1.247389 69:0.0054757739 70:0.85170239 71:-2.883954 72:0.1931455 73:-0.46709111 74:0.47276241 75:1.44212 76:0.35094309 77:-1.1249059 78:-0.90698719 79:1.176623 80:0.2091741 81:-0.046295181 82:0.85170239 83:-2.883954 84:0.1931455 85:0.35094309 86:-1.1249059 87:-0.90698719 88:-1.029012 89:-1.3615969 90:-0.8358022 91:-1.881449 92:0.69869518 93:0.290216 94:0.02602301 95:-0.93124878 96:0.057246719 97:0.35094309 98:-1.1249059 99:-0.90698719 100:0.02602301 101:-0.93124878 102:0.057246719 #
-0.54353676426132579990735393948853 1:0.74849248 2:-0.87745529 3:0.36787239 4:-1.816465 5:1.9628429 6:0.54907078 7:1.08488 8:0.75786811 9:-2.033005 10:-1.6023999 11:-0.55469412 12:-0.63518971 13:-1.881449 14:0.69869518 15:0.290216 16:1.3906879 17:0.60724622 18:1.526247 19:0.02602301 20:-0.93124878 21:0.057246719 22:-1.881449 23:0.69869518 24:0.290216 25:-1.029012 26:-1.3615969 27:-0.8358022 28:-1.6023999 29:-0.55469412 30:-0.63518971 31:1.230139 32:0.77938551 33:0.54259938 34:0.85170239 35:-2.883954 36:0.1931455 37:0.02602301 38:-0.93124878 39:0.057246719 40:0.02602301 41:-0.93124878 42:0.057246719 43:-1.029012 44:-1.3615969 45:-0.8358022 46:-1.029012 47:-1.3615969 48:-0.8358022 49:0.85170239 50:-2.883954 51:0.1931455 52:0.85170239 53:-2.883954 54:0.1931455 55:1.176623 56:0.2091741 57:-0.046295181 58:1.230139 59:0.77938551 60:0.54259938 61:1.230139 62:0.77938551 63:0.54259938 64:0.83258939 65:0.28448501 66:-0.73873162 67:-0.53207511 68:1.247389 69:0.0054757739 70:0.85170239 71:-2.883954 72:0.1931455 73:-0.46709111 74:0.47276241 75:1.44212 76:0.35094309 77:-1.1249059 78:-0.90698719 79:1.176623 80:0.2091741 81:-0.046295181 82:1.230139 83:0.77938551 84:0.54259938 85:0.74849248 86:-0.87745529 87:0.36787239 88:-1.029012 89:-1.3615969 90:-0.8358022 91:-1.029012 92:-1.3615969 93:-0.8358022 94:0.74849248 95:-0.87745529 96:0.36787239 97:0.35094309 98:-1.1249059 99:-0.90698719 100:-0.53207511 101:1.247389 102:0.0054757739 #
-1.5552119521424372372564448596677 1:0.83258939 2:0.28448501 3:-0.73873162 4:-1.816465 5:1.9628429 6:0.54907078 7:-1.6023999 8:-0.55469412 9:-0.63518971 10:0.02602301 11:-0.93124878 12:0.057246719 13:-1.881449 14:0.69869518 15:0.290216 16:1.3906879 17:0.60724622 18:1.526247 19:-1.029012 20:-1.3615969 21:-0.8358022 22:0.74849248 23:-0.87745529 24:0.36787239 25:-1.029012 26:-1.3615969 27:-0.8358022 28:-1.816465 29:1.9628429 30:0.54907078 31:1.176623 32:0.2091741 33:-0.046295181 34:-1.6023999 35:-0.55469412 36:-0.63518971 37:0.92050898 38:0.93538678 39:0.7173264 40:-1.881449 41:0.69869518 42:0.290216 43:-0.53207511 44:1.247389 45:0.0054757739 46:-1.029012 47:-1.3615969 48:-0.8358022 49:0.85170239 50:-2.883954 51:0.1931455 52:0.85170239 53:-2.883954 54:0.1931455 55:1.176623 56:0.2091741 57:-0.046295181 58:0.92050898 59:0.93538678 60:0.7173264 61:1.230139 62:0.77938551 63:0.54259938 64:0.35094309 65:-1.1249059 66:-0.90698719 67:-0.53207511 68:1.247389 69:0.0054757739 70:0.85170239 71:-2.883954 72:0.1931455 73:-0.46709111 74:0.47276241 75:1.44212 76:0.35094309 77:-1.1249059 78:-0.90698719 79:1.176623 80:0.2091741 81:-0.046295181 82:0.02602301 83:-0.93124878 84:0.057246719 85:0.02602301 86:-0.93124878 87:0.057246719 88:-1.029012 89:-1.3615969 90:-0.8358022 91:0.35094309 92:-1.1249059 93:-0.90698719 94:0.35094309 95:-1.1249059 96:-0.90698719 97:0.35094309 98:-1.1249059 99:-0.90698719 100:0.02602301 101:-0.93124878 102:0.057246719 #
-4.3956825474844682943853513279464 1:-1.697965 2:-0.90435201 3:-0.66754657 4:1.176623 5:0.2091741 6:-0.046295181 7:1.176623 8:0.2091741 9:-0.046295181 10:0.02602301 11:-0.93124878 12:0.057246719 13:-1.881449 14:0.69869518 15:0.290216 16:1.3906879 17:0.60724622 18:1.526247 19:-0.53207511 20:1.247389 21:0.0054757739 22:-1.881449 23:0.69869518 24:0.290216 25:-1.029012 26:-1.3615969 27:-0.8358022 28:-1.6023999 29:-0.55469412 30:-0.63518971 31:1.176623 32:0.2091741 33:-0.046295181 34:-1.6023999 35:-0.55469412 36:-0.63518971 37:-1.881449 38:0.69869518 39:0.290216 40:0.35094309 41:-1.1249059 42:-0.90698719 43:-0.53207511 44:1.247389 45:0.0054757739 46:-1.881449 47:0.69869518 48:0.290216 49:0.85170239 50:-2.883954 51:0.1931455 52:0.85170239 53:-2.883954 54:0.1931455 55:1.176623 56:0.2091741 57:-0.046295181 58:-1.697965 59:-0.90435201 60:-0.66754657 61:1.230139 62:0.77938551 63:0.54259938 64:-1.6023999 65:-0.55469412 66:-0.63518971 67:-0.53207511 68:1.247389 69:0.0054757739 70:0.85170239 71:-2.883954 72:0.1931455 73:-0.46709111 74:0.47276241 75:1.44212 76:0.74849248 77:-0.87745529 78:0.36787239 79:1.176623 80:0.2091741 81:-0.046295181 82:0.35094309 83:-1.1249059 84:-0.90698719 85:0.85170239 86:-2.883954 87:0.1931455 88:-1.029012 89:-1.3615969 90:-0.8358022 91:-1.6023999 92:-0.55469412 93:-0.63518971 94:0.35094309 95:-1.1249059 96:-0.90698719 97:0.35094309 98:-1.1249059 99:-0.90698719 100:-0.53207511 101:1.247389 102:0.0054757739 #
4.8943496946554674309481924865395 1:-1.697965 2:-0.90435201 3:-0.66754657 4:-1.029012 5:-1.3615969 6:-0.8358022 7:0.74849248 8:-0.87745529 9:0.36787239 10:0.02602301 11:-0.93124878 12:0.057246719 13:-1.881449 14:0.69869518 15:0.290216 16:1.3906879 17:0.60724622 18:1.526247 19:0.02602301 20:-0.93124878 21:0.057246719 22:0.74849248 23:-0.87745529 24:0.36787239 25:-1.029012 26:-1.3615969 27:-0.8358022 28:-1.816465 29:1.9628429 30:0.54907078 31:1.176623 32:0.2091741 33:-0.046295181 34:0.02602301 35:-0.93124878 36:0.057246719 37:-1.6023999 38:-0.55469412 39:-0.63518971 40:-1.6023999 41:-0.55469412 42:-0.63518971 43:-1.697965 44:-0.90435201 45:-0.66754657 46:0.74849248 47:-0.87745529 48:0.36787239 49:0.85170239 50:-2.883954 51:0.1931455 52:0.85170239 53:-2.883954 54:0.1931455 55:1.176623 56:0.2091741 57:-0.046295181 58:-1.881449 59:0.69869518 60:0.290216 61:1.230139 62:0.77938551 63:0.54259938 64:0.02602301 65:-0.93124878 66:0.057246719 67:-0.53207511 68:1.247389 69:0.0054757739 70:0.85170239 71:-2.883954 72:0.1931455 73:-0.46709111 74:0.47276241 75:1.44212 76:0.35094309 77:-1.1249059 78:-0.90698719 79:1.176623 80:0.2091741 81:-0.046295181 82:0.35094309 83:-1.1249059 84:-0.90698719 85:0.35094309 86:-1.1249059 87:-0.90698719 88:-1.697965 89:-0.90435201 90:-0.66754657 91:-0.53207511 92:1.247389 93:0.0054757739 94:0.02602301 95:-0.93124878 96:0.057246719 97:0.35094309 98:-1.1249059 99:-0.90698719 100:-1.6023999 101:-0.55469412 102:-0.63518971 #
3.0192093871460929932482031290419 1:-1.6023999 2:-0.55469412 3:-0.63518971 4:1.3906879 5:0.60724622 6:1.526247 7:0.02602301 8:-0.93124878 9:0.057246719 10:0.74849248 11:-0.87745529 12:0.36787239 13:-1.881449 14:0.69869518 15:0.290216 16:1.3906879 17:0.60724622 18:1.526247 19:0.02602301 20:-0.93124878 21:0.057246719 22:0.74849248 23:-0.87745529 24:0.36787239 25:-1.6023999 26:-0.55469412 27:-0.63518971 28:-1.881449 29:0.69869518 30:0.290216 31:1.176623 32:0.2091741 33:-0.046295181 34:-0.95256001 35:-0.14586321 36:-0.26632169 37:-0.53207511 38:1.247389 39:0.0054757739 40:-1.6023999 41:-0.55469412 42:-0.63518971 43:-1.6023999 44:-0.55469412 45:-0.63518971 46:0.35094309 47:-1.1249059 48:-0.90698719 49:0.85170239 50:-2.883954 51:0.1931455 52:0.85170239 53:-2.883954 54:0.1931455 55:1.3906879 56:0.60724622 57:1.526247 58:1.100171 59:1.3549761 60:-2.2271459 61:1.230139 62:0.77938551 63:0.54259938 64:-0.95256001 65:-0.14586321 66:-0.26632169 67:-0.53207511 68:1.247389 69:0.0054757739 70:0.85170239 71:-2.883954 72:0.1931455 73:-0.46709111 74:0.47276241 75:1.44212 76:0.35094309 77:-1.1249059 78:-0.90698719 79:1.176623 80:0.2091741 81:-0.046295181 82:0.02602301 83:-0.93124878 84:0.057246719 85:0.35094309 86:-1.1249059 87:-0.90698719 88:-0.95256001 89:-0.14586321 90:-0.26632169 91:0.2706688 92:-0.52241802 93:2.67168 94:0.02602301 95:-0.93124878 96:0.057246719 97:0.35094309 98:-1.1249059 99:-0.90698719 100:-1.816465 101:1.9628429 102:0.54907078 #
3.7231936728111643120087137504015 1:-1.881449 2:0.69869518 3:0.290216 4:-1.816465 5:1.9628429 6:0.54907078 7:-0.95256001 8:-0.14586321 9:-0.26632169 10:0.74849248 11:-0.87745529 12:0.36787239 13:-1.881449 14:0.69869518 15:0.290216 16:1.3906879 17:0.60724622 18:1.526247 19:-1.697965 20:-0.90435201 21:-0.66754657 22:0.74849248 23:-0.87745529 24:0.36787239 25:0.2706688 26:-0.52241802 27:2.67168 28:-1.881449 29:0.69869518 30:0.290216 31:-0.46709111 32:0.47276241 33:1.44212 34:-1.6023999 35:-0.55469412 36:-0.63518971 37:0.02602301 38:-0.93124878 39:0.057246719 40:-1.6023999 41:-0.55469412 42:-0.63518971 43:-1.6023999 44:-0.55469412 45:-0.63518971 46:-1.6023999 47:-0.55469412 48:-0.63518971 49:0.85170239 50:-2.883954 51:0.1931455 52:0.85170239 53:-2.883954 54:0.1931455 55:1.176623 56:0.2091741 57:-0.046295181 58:-1.697965 59:-0.90435201 60:-0.66754657 61:1.230139 62:0.77938551 63:0.54259938 64:0.85170239 65:-2.883954 66:0.1931455 67:-0.53207511 68:1.247389 69:0.0054757739 70:0.85170239 71:-2.883954 72:0.1931455 73:-0.46709111 74:0.47276241 75:1.44212 76:0.35094309 77:-1.1249059 78:-0.90698719 79:1.176623 80:0.2091741 81:-0.046295181 82:0.02602301 83:-0.93124878 84:0.057246719 85:0.35094309 86:-1.1249059 87:-0.90698719 88:-1.029012 89:-1.3615969 90:-0.8358022 91:0.02602301 92:-0.93124878 93:0.057246719 94:0.2706688 95:-0.52241802 96:2.67168 97:-1.6023999 98:-0.55469412 99:-0.63518971 100:0.02602301 101:-0.93124878 102:0.057246719 #
3.8606387679607281349092318123439 1:-1.881449 2:0.69869518 3:0.290216 4:1.230139 5:0.77938551 6:0.54259938 7:0.02602301 8:-0.93124878 9:0.057246719 10:0.02602301 11:-0.93124878 12:0.057246719 13:-1.881449 14:0.69869518 15:0.290216 16:1.3906879 17:0.60724622 18:1.526247 19:0.02602301 20:-0.93124878 21:0.057246719 22:-1.697965 23:-0.90435201 24:-0.66754657 25:-1.029012 26:-1.3615969 27:-0.8358022 28:-1.881449 29:0.69869518 30:0.290216 31:1.176623 32:0.2091741 33:-0.046295181 34:0.74849248 35:-0.87745529 36:0.36787239 37:-1.881449 38:0.69869518 39:0.290216 40:-1.6023999 41:-0.55469412 42:-0.63518971 43:-1.6023999 44:-0.55469412 45:-0.63518971 46:-1.881449 47:0.69869518 48:0.290216 49:0.85170239 50:-2.883954 51:0.1931455 52:0.2706688 53:-0.52241802 54:2.67168 55:1.176623 56:0.2091741 57:-0.046295181 58:-1.697965 59:-0.90435201 60:-0.66754657 61:0.92050898 62:0.93538678 63:0.7173264 64:-1.029012 65:-1.3615969 66:-0.8358022 67:-0.53207511 68:1.247389 69:0.0054757739 70:0.85170239 71:-2.883954 72:0.1931455 73:-0.46709111 74:0.47276241 75:1.44212 76:0.35094309 77:-1.1249059 78:-0.90698719 79:1.176623 80:0.2091741 81:-0.046295181 82:0.02602301 83:-0.93124878 84:0.057246719 85:0.35094309 86:-1.1249059 87:-0.90698719 88:0.35094309 89:-1.1249059 90:-0.90698719 91:-1.881449 92:0.69869518 93:0.290216 94:0.74849248 95:-0.87745529 96:0.36787239 97:0.35094309 98:-1.1249059 99:-0.90698719 100:-0.53207511 101:1.247389 102:0.0054757739 #
10 1:-1.6023999 2:-0.55469412 3:-0.63518971 4:1.230139 5:0.77938551 6:0.54259938 7:1.230139 8:0.77938551 9:0.54259938 10:0.74849248 11:-0.87745529 12:0.36787239 13:-1.881449 14:0.69869518 15:0.290216 16:1.3906879 17:0.60724622 18:1.526247 19:0.02602301 20:-0.93124878 21:0.057246719 22:0.74849248 23:-0.87745529 24:0.36787239 25:0.35094309 26:-1.1249059 27:-0.90698719 28:-1.6023999 29:-0.55469412 30:-0.63518971 31:1.3906879 32:0.60724622 33:1.526247 34:0.02602301 35:-0.93124878 36:0.057246719 37:-1.816465 38:1.9628429 39:0.54907078 40:-0.95256001 41:-0.14586321 42:-0.26632169 43:-1.697965 44:-0.90435201 45:-0.66754657 46:-1.029012 47:-1.3615969 48:-0.8358022 49:0.85170239 50:-2.883954 51:0.1931455 52:0.85170239 53:-2.883954 54:0.1931455 55:1.3906879 56:0.60724622 57:1.526247 58:-1.6023999 59:-0.55469412 60:-0.63518971 61:1.230139 62:0.77938551 63:0.54259938 64:0.85170239 65:-2.883954 66:0.1931455 67:-0.53207511 68:1.247389 69:0.0054757739 70:0.85170239 71:-2.883954 72:0.1931455 73:-0.46709111 74:0.47276241 75:1.44212 76:0.35094309 77:-1.1249059 78:-0.90698719 79:1.176623 80:0.2091741 81:-0.046295181 82:0.02602301 83:-0.93124878 84:0.057246719 85:0.35094309 86:-1.1249059 87:-0.90698719 88:0.35094309 89:-1.1249059 90:-0.90698719 91:-1.881449 92:0.69869518 93:0.290216 94:0.74849248 95:-0.87745529 96:0.36787239 97:0.35094309 98:-1.1249059 99:-0.90698719 100:0.35094309 101:-1.1249059 102:-0.90698719 #
-0.80323655747505984248135746383923 1:-0.53207511 2:1.247389 3:0.0054757739 4:-1.816465 5:1.9628429 6:0.54907078 7:-0.95256001 8:-0.14586321 9:-0.26632169 10:0.2706688 11:-0.52241802 12:2.67168 13:-1.881449 14:0.69869518 15:0.290216 16:1.3906879 17:0.60724622 18:1.526247 19:-1.6023999 20:-0.55469412 21:-0.63518971 22:0.02602301 23:-0.93124878 24:0.057246719 25:0.02602301 26:-0.93124878 27:0.057246719 28:0.85170239 29:-2.883954 30:0.1931455 31:1.176623 32:0.2091741 33:-0.046295181 34:0.02602301 35:-0.93124878 36:0.057246719 37:-1.881449 38:0.69869518 39:0.290216 40:-1.6023999 41:-0.55469412 42:-0.63518971 43:-1.6023999 44:-0.55469412 45:-0.63518971 46:-1.029012 47:-1.3615969 48:-0.8358022 49:0.85170239 50:-2.883954 51:0.1931455 52:0.85170239 53:-2.883954 54:0.1931455 55:1.176623 56:0.2091741 57:-0.046295181 58:-1.029012 59:-1.3615969 60:-0.8358022 61:1.230139 62:0.77938551 63:0.54259938 64:-1.6023999 65:-0.55469412 66:-0.63518971 67:-0.53207511 68:1.247389 69:0.0054757739 70:0.85170239 71:-2.883954 72:0.1931455 73:-0.46709111 74:0.47276241 75:1.44212 76:0.35094309 77:-1.1249059 78:-0.90698719 79:1.176623 80:0.2091741 81:-0.046295181 82:0.02602301 83:-0.93124878 84:0.057246719 85:0.35094309 86:-1.1249059 87:-0.90698719 88:-1.029012 89:-1.3615969 90:-0.8358022 91:0.85170239 92:-2.883954 93:0.1931455 94:0.2706688 95:-0.52241802 96:2.67168 97:-1.6023999 98:-0.55469412 99:-0.63518971 100:0.02602301 101:-0.93124878 102:0.057246719 #
0.69706511664331483046908033429645 1:-1.6023999 2:-0.55469412 3:-0.63518971 4:1.176623 5:0.2091741 6:-0.046295181 7:-1.6023999 8:-0.55469412 9:-0.63518971 10:0.02602301 11:-0.93124878 12:0.057246719 13:-1.881449 14:0.69869518 15:0.290216 16:1.3906879 17:0.60724622 18:1.526247 19:0.02602301 20:-0.93124878 21:0.057246719 22:0.74849248 23:-0.87745529 24:0.36787239 25:-1.029012 26:-1.3615969 27:-0.8358022 28:-1.881449 29:0.69869518 30:0.290216 31:1.176623 32:0.2091741 33:-0.046295181 34:-0.95256001 35:-0.14586321 36:-0.26632169 37:-1.881449 38:0.69869518 39:0.290216 40:-1.881449 41:0.69869518 42:0.290216 43:-1.029012 44:-1.3615969 45:-0.8358022 46:-1.029012 47:-1.3615969 48:-0.8358022 49:0.85170239 50:-2.883954 51:0.1931455 52:0.85170239 53:-2.883954 54:0.1931455 55:1.176623 56:0.2091741 57:-0.046295181 58:-1.881449 59:0.69869518 60:0.290216 61:1.230139 62:0.77938551 63:0.54259938 64:0.85170239 65:-2.883954 66:0.1931455 67:-0.53207511 68:1.247389 69:0.0054757739 70:0.85170239 71:-2.883954 72:0.1931455 73:-0.46709111 74:0.47276241 75:1.44212 76:0.35094309 77:-1.1249059 78:-0.90698719 79:1.176623 80:0.2091741 81:-0.046295181 82:0.74849248 83:-0.87745529 84:0.36787239 85:0.74849248 86:-0.87745529 87:0.36787239 88:-0.95256001 89:-0.14586321 90:-0.26632169 91:-0.95256001 92:-0.14586321 93:-0.26632169 94:-1.029012 95:-1.3615969 96:-0.8358022 97:0.35094309 98:-1.1249059 99:-0.90698719 100:0.83258939 101:0.28448501 102:-0.73873162 #
10 1:-1.6023999 2:-0.55469412 3:-0.63518971 4:1.230139 5:0.77938551 6:0.54259938 7:0.74849248 8:-0.87745529 9:0.36787239 10:0.02602301 11:-0.93124878 12:0.057246719 13:-1.881449 14:0.69869518 15:0.290216 16:1.3906879 17:0.60724622 18:1.526247 19:0.02602301 20:-0.93124878 21:0.057246719 22:0.74849248 23:-0.87745529 24:0.36787239 25:0.35094309 26:-1.1249059 27:-0.90698719 28:-1.816465 29:1.9628429 30:0.54907078 31:1.176623 32:0.2091741 33:-0.046295181 34:0.02602301 35:-0.93124878 36:0.057246719 37:-1.816465 38:1.9628429 39:0.54907078 40:-1.6023999 41:-0.55469412 42:-0.63518971 43:-1.6023999 44:-0.55469412 45:-0.63518971 46:-1.029012 47:-1.3615969 48:-0.8358022 49:0.85170239 50:-2.883954 51:0.1931455 52:0.85170239 53:-2.883954 54:0.1931455 55:1.176623 56:0.2091741 57:-0.046295181 58:-1.697965 59:-0.90435201 60:-0.66754657 61:1.230139 62:0.77938551 63:0.54259938 64:0.85170239 65:-2.883954 66:0.1931455 67:-0.53207511 68:1.247389 69:0.0054757739 70:0.85170239 71:-2.883954 72:0.1931455 73:-0.46709111 74:0.47276241 75:1.44212 76:0.35094309 77:-1.1249059 78:-0.90698719 79:1.176623 80:0.2091741 81:-0.046295181 82:0.35094309 83:-1.1249059 84:-0.90698719 85:0.35094309 86:-1.1249059 87:-0.90698719 88:0.35094309 89:-1.1249059 90:-0.90698719 91:-1.881449 92:0.69869518 93:0.290216 94:0.02602301 95:-0.93124878 96:0.057246719 97:0.02602301 98:-0.93124878 99:0.057246719 100:0.35094309 101:-1.1249059 102:-0.90698719 #
10 1:-1.6023999 2:-0.55469412 3:-0.63518971 4:0.02602301 5:-0.93124878 6:0.057246719 7:0.83258939 8:0.28448501 9:-0.73873162 10:0.02602301 11:-0.93124878 12:0.057246719 13:-1.881449 14:0.69869518 15:0.290216 16:1.3906879 17:0.60724622 18:1.526247 19:0.02602301 20:-0.93124878 21:0.057246719 22:0.02602301 23:-0.93124878 24:0.057246719 25:-1.697965 26:-0.90435201 27:-0.66754657 28:-1.6023999 29:-0.55469412 30:-0.63518971 31:1.176623 32:0.2091741 33:-0.046295181 34:-0.95256001 35:-0.14586321 36:-0.26632169 37:-1.029012 38:-1.3615969 39:-0.8358022 40:-1.6023999 41:-0.55469412 42:-0.63518971 43:-1.6023999 44:-0.55469412 45:-0.63518971 46:-1.6023999 47:-0.55469412 48:-0.63518971 49:0.02602301 50:-0.93124878 51:0.057246719 52:0.85170239 53:-2.883954 54:0.1931455 55:1.176623 56:0.2091741 57:-0.046295181 58:-1.881449 59:0.69869518 60:0.290216 61:1.230139 62:0.77938551 63:0.54259938 64:-1.029012 65:-1.3615969 66:-0.8358022 67:-0.53207511 68:1.247389 69:0.0054757739 70:0.85170239 71:-2.883954 72:0.1931455 73:-0.46709111 74:0.47276241 75:1.44212 76:0.35094309 77:-1.1249059 78:-0.90698719 79:1.176623 80:0.2091741 81:-0.046295181 82:0.2706688 83:-0.52241802 84:2.67168 85:0.35094309 86:-1.1249059 87:-0.90698719 88:0.74849248 89:-0.87745529 90:0.36787239 91:-1.697965 92:-0.90435201 93:-0.66754657 94:-1.697965 95:-0.90435201 96:-0.66754657 97:0.35094309 98:-1.1249059 99:-0.90698719 100:0.74849248 101:-0.87745529 102:0.36787239 #
-10 1:-1.6023999 2:-0.55469412 3:-0.63518971 4:1.230139 5:0.77938551 6:0.54259938 7:0.74849248 8:-0.87745529 9:0.36787239 10:0.02602301 11:-0.93124878 12:0.057246719 13:-1.881449 14:0.69869518 15:0.290216 16:1.3906879 17:0.60724622 18:1.526247 19:0.02602301 20:-0.93124878 21:0.057246719 22:0.74849248 23:-0.87745529 24:0.36787239 25:0.35094309 26:-1.1249059 27:-0.90698719 28:-1.816465 29:1.9628429 30:0.54907078 31:1.176623 32:0.2091741 33:-0.046295181 34:0.02602301 35:-0.93124878 36:0.057246719 37:-1.816465 38:1.9628429 39:0.54907078 40:-1.6023999 41:-0.55469412 42:-0.63518971 43:-1.6023999 44:-0.55469412 45:-0.63518971 46:-1.029012 47:-1.3615969 48:-0.8358022 49:0.85170239 50:-2.883954 51:0.1931455 52:0.85170239 53:-2.883954 54:0.1931455 55:1.3906879 56:0.60724622 57:1.526247 58:-1.697965 59:-0.90435201 60:-0.66754657 61:1.230139 62:0.77938551 63:0.54259938 64:0.85170239 65:-2.883954 66:0.1931455 67:-0.53207511 68:1.247389 69:0.0054757739 70:0.85170239 71:-2.883954 72:0.1931455 73:-0.46709111 74:0.47276241 75:1.44212 76:0.35094309 77:-1.1249059 78:-0.90698719 79:1.176623 80:0.2091741 81:-0.046295181 82:0.35094309 83:-1.1249059 84:-0.90698719 85:0.35094309 86:-1.1249059 87:-0.90698719 88:0.35094309 89:-1.1249059 90:-0.90698719 91:-1.881449 92:0.69869518 93:0.290216 94:0.02602301 95:-0.93124878 96:0.057246719 97:0.02602301 98:-0.93124878 99:0.057246719 100:0.35094309 101:-1.1249059 102:-0.90698719 #
-3.106240518274373307860969362082 1:-1.881449 2:0.69869518 3:0.290216 4:1.3906879 5:0.60724622 6:1.526247 7:0.83258939 8:0.28448501 9:-0.73873162 10:0.02602301 11:-0.93124878 12:0.057246719 13:-1.881449 14:0.69869518 15:0.290216 16:1.3906879 17:0.60724622 18:1.526247 19:0.02602301 20:-0.93124878 21:0.057246719 22:0.35094309 23:-1.1249059 24:-0.90698719 25:-0.95256001 26:-0.14586321 27:-0.26632169 28:-1.6023999 29:-0.55469412 30:-0.63518971 31:1.176623 32:0.2091741 33:-0.046295181 34:-0.95256001 35:-0.14586321 36:-0.26632169 37:-1.881449 38:0.69869518 39:0.290216 40:0.35094309 41:-1.1249059 42:-0.90698719 43:-1.029012 44:-1.3615969 45:-0.8358022 46:-1.029012 47:-1.3615969 48:-0.8358022 49:0.85170239 50:-2.883954 51:0.1931455 52:0.85170239 53:-2.883954 54:0.1931455 55:1.176623 56:0.2091741 57:-0.046295181 58:-1.6023999 59:-0.55469412 60:-0.63518971 61:-1.029012 62:-1.3615969 63:-0.8358022 64:0.85170239 65:-2.883954 66:0.1931455 67:-0.53207511 68:1.247389 69:0.0054757739 70:0.85170239 71:-2.883954 72:0.1931455 73:-0.46709111 74:0.47276241 75:1.44212 76:0.35094309 77:-1.1249059 78:-0.90698719 79:1.176623 80:0.2091741 81:-0.046295181 82:0.35094309 83:-1.1249059 84:-0.90698719 85:0.35094309 86:-1.1249059 87:-0.90698719 88:-1.029012 89:-1.3615969 90:-0.8358022 91:-0.95256001 92:-0.14586321 93:-0.26632169 94:0.74849248 95:-0.87745529 96:0.36787239 97:1.230139 98:0.77938551 99:0.54259938 100:-1.697965 101:-0.90435201 102:-0.66754657 #
7.6156225059200366445111285429448 1:-1.6023999 2:-0.55469412 3:-0.63518971 4:0.83258939 5:0.28448501 6:-0.73873162 7:1.230139 8:0.77938551 9:0.54259938 10:0.74849248 11:-0.87745529 12:0.36787239 13:-1.881449 14:0.69869518 15:0.290216 16:1.3906879 17:0.60724622 18:1.526247 19:0.02602301 20:-0.93124878 21:0.057246719 22:0.74849248 23:-0.87745529 24:0.36787239 25:-1.029012 26:-1.3615969 27:-0.8358022 28:-1.816465 29:1.9628429 30:0.54907078 31:1.176623 32:0.2091741 33:-0.046295181 34:0.35094309 35:-1.1249059 36:-0.90698719 37:-1.6023999 38:-0.55469412 39:-0.63518971 40:-1.6023999 41:-0.55469412 42:-0.63518971 43:-0.53207511 44:1.247389 45:0.0054757739 46:-1.697965 47:-0.90435201 48:-0.66754657 49:0.85170239 50:-2.883954 51:0.1931455 52:0.85170239 53:-2.883954 54:0.1931455 55:1.3906879 56:0.60724622 57:1.526247 58:-0.53207511 59:1.247389 60:0.0054757739 61:1.230139 62:0.77938551 63:0.54259938 64:0.02602301 65:-0.93124878 66:0.057246719 67:-0.53207511 68:1.247389 69:0.0054757739 70:0.85170239 71:-2.883954 72:0.1931455 73:-0.46709111 74:0.47276241 75:1.44212 76:0.35094309 77:-1.1249059 78:-0.90698719 79:1.176623 80:0.2091741 81:-0.046295181 82:1.230139 83:0.77938551 84:0.54259938 85:0.74849248 86:-0.87745529 87:0.36787239 88:-1.029012 89:-1.3615969 90:-0.8358022 91:-0.95256001 92:-0.14586321 93:-0.26632169 94:0.74849248 95:-0.87745529 96:0.36787239 97:0.35094309 98:-1.1249059 99:-0.90698719 100:-1.697965 101:-0.90435201 102:-0.66754657 #
4.1033905771631902226204147154931 1:-1.6023999 2:-0.55469412 3:-0.63518971 4:1.176623 5:0.2091741 6:-0.046295181 7:0.83258939 8:0.28448501 9:-0.73873162 10:0.02602301 11:-0.93124878 12:0.057246719 13:-1.881449 14:0.69869518 15:0.290216 16:1.3906879 17:0.60724622 18:1.526247 19:0.02602301 20:-0.93124878 21:0.057246719 22:0.74849248 23:-0.87745529 24:0.36787239 25:-1.029012 26:-1.3615969 27:-0.8358022 28:-1.6023999 29:-0.55469412 30:-0.63518971 31:1.176623 32:0.2091741 33:-0.046295181 34:-0.95256001 35:-0.14586321 36:-0.26632169 37:-1.881449 38:0.69869518 39:0.290216 40:-1.029012 41:-1.3615969 42:-0.8358022 43:-1.697965 44:-0.90435201 45:-0.66754657 46:-1.029012 47:-1.3615969 48:-0.8358022 49:0.85170239 50:-2.883954 51:0.1931455 52:0.85170239 53:-2.883954 54:0.1931455 55:1.176623 56:0.2091741 57:-0.046295181 58:-1.881449 59:0.69869518 60:0.290216 61:1.230139 62:0.77938551 63:0.54259938 64:0.02602301 65:-0.93124878 66:0.057246719 67:-0.53207511 68:1.247389 69:0.0054757739 70:0.85170239 71:-2.883954 72:0.1931455 73:-0.46709111 74:0.47276241 75:1.44212 76:0.35094309 77:-1.1249059 78:-0.90698719 79:1.176623 80:0.2091741 81:-0.046295181 82:0.02602301 83:-0.93124878 84:0.057246719 85:0.35094309 86:-1.1249059 87:-0.90698719 88:-1.029012 89:-1.3615969 90:-0.8358022 91:-0.95256001 92:-0.14586321 93:-0.26632169 94:0.02602301 95:-0.93124878 96:0.057246719 97:0.35094309 98:-1.1249059 99:-0.90698719 100:-1.6023999 101:-0.55469412 102:-0.63518971 #
3.4552936027870262414296576025663 1:1.230139 2:0.77938551 3:0.54259938 4:0.02602301 5:-0.93124878 6:0.057246719 7:-1.697965 8:-0.90435201 9:-0.66754657 10:0.74849248 11:-0.87745529 12:0.36787239 13:-1.881449 14:0.69869518 15:0.290216 16:1.3906879 17:0.60724622 18:1.526247 19:-1.881449 20:0.69869518 21:0.290216 22:0.74849248 23:-0.87745529 24:0.36787239 25:-1.697965 26:-0.90435201 27:-0.66754657 28:-1.6023999 29:-0.55469412 30:-0.63518971 31:1.176623 32:0.2091741 33:-0.046295181 34:-0.95256001 35:-0.14586321 36:-0.26632169 37:-0.53207511 38:1.247389 39:0.0054757739 40:-1.6023999 41:-0.55469412 42:-0.63518971 43:-1.881449 44:0.69869518 45:0.290216 46:0.02602301 47:-0.93124878 48:0.057246719 49:0.85170239 50:-2.883954 51:0.1931455 52:0.85170239 53:-2.883954 54:0.1931455 55:1.176623 56:0.2091741 57:-0.046295181 58:-1.697965 59:-0.90435201 60:-0.66754657 61:1.230139 62:0.77938551 63:0.54259938 64:0.85170239 65:-2.883954 66:0.1931455 67:-1.816465 68:1.9628429 69:0.54907078 70:0.85170239 71:-2.883954 72:0.1931455 73:-0.46709111 74:0.47276241 75:1.44212 76:0.35094309 77:-1.1249059 78:-0.90698719 79:1.176623 80:0.2091741 81:-0.046295181 82:0.35094309 83:-1.1249059 84:-0.90698719 85:0.35094309 86:-1.1249059 87:-0.90698719 88:-1.029012 89:-1.3615969 90:-0.8358022 91:-1.029012 92:-1.3615969 93:-0.8358022 94:0.85170239 95:-2.883954 96:0.1931455 97:0.74849248 98:-0.87745529 99:0.36787239 100:-1.697965 101:-0.90435201 102:-0.66754657 #
10 1:-1.6023999 2:-0.55469412 3:-0.63518971 4:1.3906879 5:0.60724622 6:1.526247 7:-0.46709111 8:0.47276241 9:1.44212 10:0.74849248 11:-0.87745529 12:0.36787239 13:-1.881449 14:0.69869518 15:0.290216 16:1.3906879 17:0.60724622 18:1.526247 19:0.02602301 20:-0.93124878 21:0.057246719 22:0.74849248 23:-0.87745529 24:0.36787239 25:-1.6023999 26:-0.55469412 27:-0.63518971 28:-1.881449 29:0.69869518 30:0.290216 31:1.176623 32:0.2091741 33:-0.046295181 34:0.35094309 35:-1.1249059 36:-0.90698719 37:-0.53207511 38:1.247389 39:0.0054757739 40:-1.6023999 41:-0.55469412 42:-0.63518971 43:-1.6023999 44:-0.55469412 45:-0.63518971 46:0.35094309 47:-1.1249059 48:-0.90698719 49:0.85170239 50:-2.883954 51:0.1931455 52:0.85170239 53:-2.883954 54:0.1931455 55:1.3906879 56:0.60724622 57:1.526247 58:1.100171 59:1.3549761 60:-2.2271459 61:1.230139 62:0.77938551 63:0.54259938 64:-0.95256001 65:-0.14586321 66:-0.26632169 67:-0.53207511 68:1.247389 69:0.0054757739 70:0.85170239 71:-2.883954 72:0.1931455 73:-0.46709111 74:0.47276241 75:1.44212 76:0.35094309 77:-1.1249059 78:-0.90698719 79:1.176623 80:0.2091741 81:-0.046295181 82:0.02602301 83:-0.93124878 84:0.057246719 85:0.35094309 86:-1.1249059 87:-0.90698719 88:-0.95256001 89:-0.14586321 90:-0.26632169 91:0.2706688 92:-0.52241802 93:2.67168 94:0.02602301 95:-0.93124878 96:0.057246719 97:0.35094309 98:-1.1249059 99:-0.90698719 100:-1.816465 101:1.9628429 102:0.54907078 #
-0.53116843806015445750290382420644 1:-1.6023999 2:-0.55469412 3:-0.63518971 4:1.176623 5:0.2091741 6:-0.046295181 7:-0.46709111 8:0.47276241 9:1.44212 10:0.74849248 11:-0.87745529 12:0.36787239 13:-1.881449 14:0.69869518 15:0.290216 16:1.3906879 17:0.60724622 18:1.526247 19:0.02602301 20:-0.93124878 21:0.057246719 22:0.83258939 23:0.28448501 24:-0.73873162 25:-1.6023999 26:-0.55469412 27:-0.63518971 28:-1.881449 29:0.69869518 30:0.290216 31:1.176623 32:0.2091741 33:-0.046295181 34:0.85170239 35:-2.883954 36:0.1931455 37:-1.881449 38:0.69869518 39:0.290216 40:-1.6023999 41:-0.55469412 42:-0.63518971 43:-1.6023999 44:-0.55469412 45:-0.63518971 46:-1.029012 47:-1.3615969 48:-0.8358022 49:0.85170239 50:-2.883954 51:0.1931455 52:0.85170239 53:-2.883954 54:0.1931455 55:1.176623 56:0.2091741 57:-0.046295181 58:-0.53207511 59:1.247389 60:0.0054757739 61:1.230139 62:0.77938551 63:0.54259938 64:0.02602301 65:-0.93124878 66:0.057246719 67:-0.53207511 68:1.247389 69:0.0054757739 70:0.85170239 71:-2.883954 72:0.1931455 73:-0.46709111 74:0.47276241 75:1.44212 76:0.35094309 77:-1.1249059 78:-0.90698719 79:1.176623 80:0.2091741 81:-0.046295181 82:0.2706688 83:-0.52241802 84:2.67168 85:0.35094309 86:-1.1249059 87:-0.90698719 88:0.35094309 89:-1.1249059 90:-0.90698719 91:-1.881449 92:0.69869518 93:0.290216 94:0.74849248 95:-0.87745529 96:0.36787239 97:-1.6023999 98:-0.55469412 99:-0.63518971 100:0.2706688 101:-0.52241802 102:2.67168 #
-8.9290717535935328896812279708683 1:-1.881449 2:0.69869518 3:0.290216 4:0.02602301 5:-0.93124878 6:0.057246719 7:1.176623 8:0.2091741 9:-0.046295181 10:0.74849248 11:-0.87745529 12:0.36787239 13:-1.881449 14:0.69869518 15:0.290216 16:1.3906879 17:0.60724622 18:1.526247 19:0.02602301 20:-0.93124878 21:0.057246719 22:0.74849248 23:-0.87745529 24:0.36787239 25:-1.029012 26:-1.3615969 27:-0.8358022 28:-1.6023999 29:-0.55469412 30:-0.63518971 31:1.176623 32:0.2091741 33:-0.046295181 34:-0.95256001 35:-0.14586321 36:-0.26632169 37:-1.6023999 38:-0.55469412 39:-0.63518971 40:-1.697965 41:-0.90435201 42:-0.66754657 43:-1.029012 44:-1.3615969 45:-0.8358022 46:-1.029012 47:-1.3615969 48:-0.8358022 49:0.02602301 50:-0.93124878 51:0.057246719 52:0.85170239 53:-2.883954 54:0.1931455 55:1.3906879 56:0.60724622 57:1.526247 58:-1.029012 59:-1.3615969 60:-0.8358022 61:1.230139 62:0.77938551 63:0.54259938 64:0.02602301 65:-0.93124878 66:0.057246719 67:-0.53207511 68:1.247389 69:0.0054757739 70:0.85170239 71:-2.883954 72:0.1931455 73:-0.46709111 74:0.47276241 75:1.44212 76:0.35094309 77:-1.1249059 78:-0.90698719 79:1.176623 80:0.2091741 81:-0.046295181 82:0.74849248 83:-0.87745529 84:0.36787239 85:0.35094309 86:-1.1249059 87:-0.90698719 88:-1.029012 89:-1.3615969 90:-0.8358022 91:-1.029012 92:-1.3615969 93:-0.8358022 94:0.35094309 95:-1.1249059 96:-0.90698719 97:0.74849248 98:-0.87745529 99:0.36787239 100:-1.816465 101:1.9628429 102:0.54907078 #
2.1491001486192655711704446730437 1:-1.6023999 2:-0.55469412 3:-0.63518971 4:-0.95256001 5:-0.14586321 6:-0.26632169 7:-1.881449 8:0.69869518 9:0.290216 10:0.02602301 11:-0.93124878 12:0.057246719 13:-1.881449 14:0.69869518 15:0.290216 16:1.3906879 17:0.60724622 18:1.526247 19:0.02602301 20:-0.93124878 21:0.057246719 22:0.74849248 23:-0.87745529 24:0.36787239 25:0.2706688 26:-0.52241802 27:2.67168 28:-1.816465 29:1.9628429 30:0.54907078 31:1.176623 32:0.2091741 33:-0.046295181 34:1.08488 35:0.75786811 36:-2.033005 37:-1.697965 38:-0.90435201 39:-0.66754657 40:-1.6023999 41:-0.55469412 42:-0.63518971 43:-1.029012 44:-1.3615969 45:-0.8358022 46:0.35094309 47:-1.1249059 48:-0.90698719 49:0.85170239 50:-2.883954 51:0.1931455 52:0.85170239 53:-2.883954 54:0.1931455 55:0.74849248 56:-0.87745529 57:0.36787239 58:-1.881449 59:0.69869518 60:0.290216 61:1.230139 62:0.77938551 63:0.54259938 64:0.02602301 65:-0.93124878 66:0.057246719 67:-0.53207511 68:1.247389 69:0.0054757739 70:0.85170239 71:-2.883954 72:0.1931455 73:-0.46709111 74:0.47276241 75:1.44212 76:0.35094309 77:-1.1249059 78:-0.90698719 79:1.176623 80:0.2091741 81:-0.046295181 82:0.02602301 83:-0.93124878 84:0.057246719 85:0.74849248 86:-0.87745529 87:0.36787239 88:-1.697965 89:-0.90435201 90:-0.66754657 91:-1.029012 92:-1.3615969 93:-0.8358022 94:0.35094309 95:-1.1249059 96:-0.90698719 97:0.35094309 98:-1.1249059 99:-0.90698719 100:-1.6023999 101:-0.55469412 102:-0.63518971 #
10 1:-1.6023999 2:-0.55469412 3:-0.63518971 4:1.230139 5:0.77938551 6:0.54259938 7:0.74849248 8:-0.87745529 9:0.36787239 10:0.02602301 11:-0.93124878 12:0.057246719 13:-1.881449 14:0.69869518 15:0.290216 16:1.3906879 17:0.60724622 18:1.526247 19:0.02602301 20:-0.93124878 21:0.057246719 22:0.02602301 23:-0.93124878 24:0.057246719 25:0.35094309 26:-1.1249059 27:-0.90698719 28:-1.816465 29:1.9628429 30:0.54907078 31:1.176623 32:0.2091741 33:-0.046295181 34:0.74849248 35:-0.87745529 36:0.36787239 37:-1.881449 38:0.69869518 39:0.290216 40:-1.6023999 41:-0.55469412 42:-0.63518971 43:-1.6023999 44:-0.55469412 45:-0.63518971 46:-1.881449 47:0.69869518 48:0.290216 49:0.85170239 50:-2.883954 51:0.1931455 52:0.85170239 53:-2.883954 54:0.1931455 55:1.176623 56:0.2091741 57:-0.046295181 58:-1.6023999 59:-0.55469412 60:-0.63518971 61:0.92050898 62:0.93538678 63:0.7173264 64:-0.95256001 65:-0.14586321 66:-0.26632169 67:-0.53207511 68:1.247389 69:0.0054757739 70:0.85170239 71:-2.883954 72:0.1931455 73:-0.46709111 74:0.47276241 75:1.44212 76:0.02602301 77:-0.93124878 78:0.057246719 79:1.176623 80:0.2091741 81:-0.046295181 82:0.35094309 83:-1.1249059 84:-0.90698719 85:0.35094309 86:-1.1249059 87:-0.90698719 88:0.35094309 89:-1.1249059 90:-0.90698719 91:-1.881449 92:0.69869518 93:0.290216 94:0.02602301 95:-0.93124878 96:0.057246719 97:0.35094309 98:-1.1249059 99:-0.90698719 100:0.02602301 101:-0.93124878 102:0.057246719 #
0.73222073316863134362364462504047 1:-1.881449 2:0.69869518 3:0.290216 4:0.35094309 5:-1.1249059 6:-0.90698719 7:1.176623 8:0.2091741 9:-0.046295181 10:0.02602301 11:-0.93124878 12:0.057246719 13:-1.881449 14:0.69869518 15:0.290216 16:1.3906879 17:0.60724622 18:1.526247 19:0.02602301 20:-0.93124878 21:0.057246719 22:0.74849248 23:-0.87745529 24:0.36787239 25:-1.029012 26:-1.3615969 27:-0.8358022 28:-1.6023999 29:-0.55469412 30:-0.63518971 31:1.176623 32:0.2091741 33:-0.046295181 34:-1.6023999 35:-0.55469412 36:-0.63518971 37:-1.881449 38:0.69869518 39:0.290216 40:-1.029012 41:-1.3615969 42:-0.8358022 43:-1.029012 44:-1.3615969 45:-0.8358022 46:0.35094309 47:-1.1249059 48:-0.90698719 49:0.85170239 50:-2.883954 51:0.1931455 52:0.85170239 53:-2.883954 54:0.1931455 55:1.176623 56:0.2091741 57:-0.046295181 58:-1.881449 59:0.69869518 60:0.290216 61:1.3906879 62:0.60724622 63:1.526247 64:0.02602301 65:-0.93124878 66:0.057246719 67:-0.53207511 68:1.247389 69:0.0054757739 70:0.85170239 71:-2.883954 72:0.1931455 73:-0.46709111 74:0.47276241 75:1.44212 76:0.35094309 77:-1.1249059 78:-0.90698719 79:1.176623 80:0.2091741 81:-0.046295181 82:0.74849248 83:-0.87745529 84:0.36787239 85:0.35094309 86:-1.1249059 87:-0.90698719 88:-1.029012 89:-1.3615969 90:-0.8358022 91:-1.029012 92:-1.3615969 93:-0.8358022 94:0.74849248 95:-0.87745529 96:0.36787239 97:0.74849248 98:-0.87745529 99:0.36787239 100:-1.697965 101:-0.90435201 102:-0.66754657 #
10 1:-1.6023999 2:-0.55469412 3:-0.63518971 4:1.230139 5:0.77938551 6:0.54259938 7:0.74849248 8:-0.87745529 9:0.36787239 10:0.02602301 11:-0.93124878 12:0.057246719 13:-1.881449 14:0.69869518 15:0.290216 16:1.3906879 17:0.60724622 18:1.526247 19:0.02602301 20:-0.93124878 21:0.057246719 22:0.74849248 23:-0.87745529 24:0.36787239 25:0.35094309 26:-1.1249059 27:-0.90698719 28:-1.816465 29:1.9628429 30:0.54907078 31:1.176623 32:0.2091741 33:-0.046295181 34:0.74849248 35:-0.87745529 36:0.36787239 37:-1.816465 38:1.9628429 39:0.54907078 40:-1.6023999 41:-0.55469412 42:-0.63518971 43:-1.6023999 44:-0.55469412 45:-0.63518971 46:-1.697965 47:-0.90435201 48:-0.66754657 49:0.85170239 50:-2.883954 51:0.1931455 52:0.85170239 53:-2.883954 54:0.1931455 55:1.3906879 56:0.60724622 57:1.526247 58:-1.697965 59:-0.90435201 60:-0.66754657 61:1.230139 62:0.77938551 63:0.54259938 64:0.85170239 65:-2.883954 66:0.1931455 67:-0.53207511 68:1.247389 69:0.0054757739 70:0.85170239 71:-2.883954 72:0.1931455 73:-0.46709111 74:0.47276241 75:1.44212 76:0.35094309 77:-1.1249059 78:-0.90698719 79:1.176623 80:0.2091741 81:-0.046295181 82:0.35094309 83:-1.1249059 84:-0.90698719 85:0.35094309 86:-1.1249059 87:-0.90698719 88:0.35094309 89:-1.1249059 90:-0.90698719 91:-1.881449 92:0.69869518 93:0.290216 94:0.02602301 95:-0.93124878 96:0.057246719 97:0.02602301 98:-0.93124878 99:0.057246719 100:0.35094309 101:-1.1249059 102:-0.90698719 #
-0.1942795700589367013932928784925 1:1.230139 2:0.77938551 3:0.54259938 4:-1.816465 5:1.9628429 6:0.54907078 7:1.08488 8:0.75786811 9:-2.033005 10:-1.6023999 11:-0.55469412 12:-0.63518971 13:-1.881449 14:0.69869518 15:0.290216 16:1.3906879 17:0.60724622 18:1.526247 19:0.02602301 20:-0.93124878 21:0.057246719 22:-1.881449 23:0.69869518 24:0.290216 25:-1.029012 26:-1.3615969 27:-0.8358022 28:-1.6023999 29:-0.55469412 30:-0.63518971 31:0.74849248 32:-0.87745529 33:0.36787239 34:0.35094309 35:-1.1249059 36:-0.90698719 37:0.35094309 38:-1.1249059 39:-0.90698719 40:0.85170239 41:-2.883954 42:0.1931455 43:0.35094309 44:-1.1249059 45:-0.90698719 46:-1.6023999 47:-0.55469412 48:-0.63518971 49:0.85170239 50:-2.883954 51:0.1931455 52:0.85170239 53:-2.883954 54:0.1931455 55:1.176623 56:0.2091741 57:-0.046295181 58:-1.029012 59:-1.3615969 60:-0.8358022 61:1.230139 62:0.77938551 63:0.54259938 64:1.176623 65:0.2091741 66:-0.046295181 67:-0.53207511 68:1.247389 69:0.0054757739 70:0.85170239 71:-2.883954 72:0.1931455 73:-0.46709111 74:0.47276241 75:1.44212 76:0.35094309 77:-1.1249059 78:-0.90698719 79:1.176623 80:0.2091741 81:-0.046295181 82:0.74849248 83:-0.87745529 84:0.36787239 85:0.74849248 86:-0.87745529 87:0.36787239 88:-1.029012 89:-1.3615969 90:-0.8358022 91:-1.029012 92:-1.3615969 93:-0.8358022 94:0.02602301 95:-0.93124878 96:0.057246719 97:0.35094309 98:-1.1249059 99:-0.90698719 100:-1.816465 101:1.9628429 102:0.54907078 #
-0.092827248466498701873206300660968 1:-1.6023999 2:-0.55469412 3:-0.63518971 4:1.176623 5:0.2091741 6:-0.046295181 7:0.35094309 8:-1.1249059 9:-0.90698719 10:0.02602301 11:-0.93124878 12:0.057246719 13:-1.881449 14:0.69869518 15:0.290216 16:1.3906879 17:0.60724622 18:1.526247 19:-1.697965 20:-0.90435201 21:-0.66754657 22:0.74849248 23:-0.87745529 24:0.36787239 25:-1.6023999 26:-0.55469412 27:-0.63518971 28:-1.881449 29:0.69869518 30:0.290216 31:1.176623 32:0.2091741 33:-0.046295181 34:-1.029012 35:-1.3615969 36:-0.8358022 37:0.92050898 38:0.93538678 39:0.7173264 40:-1.029012 41:-1.3615969 42:-0.8358022 43:-1.6023999 44:-0.55469412 45:-0.63518971 46:0.35094309 47:-1.1249059 48:-0.90698719 49:0.85170239 50:-2.883954 51:0.1931455 52:0.85170239 53:-2.883954 54:0.1931455 55:1.3906879 56:0.60724622 57:1.526247 58:1.100171 59:1.3549761 60:-2.2271459 61:0.92050898 62:0.93538678 63:0.7173264 64:-1.6023999 65:-0.55469412 66:-0.63518971 67:-0.53207511 68:1.247389 69:0.0054757739 70:0.85170239 71:-2.883954 72:0.1931455 73:-0.46709111 74:0.47276241 75:1.44212 76:0.35094309 77:-1.1249059 78:-0.90698719 79:1.176623 80:0.2091741 81:-0.046295181 82:-1.029012 83:-1.3615969 84:-0.8358022 85:0.74849248 86:-0.87745529 87:0.36787239 88:-1.6023999 89:-0.55469412 90:-0.63518971 91:0.2706688 92:-0.52241802 93:2.67168 94:0.02602301 95:-0.93124878 96:0.057246719 97:0.35094309 98:-1.1249059 99:-0.90698719 100:-1.816465 101:1.9628429 102:0.54907078 #
-0.95202677954641323765372362686321 1:-1.6023999 2:-0.55469412 3:-0.63518971 4:1.3906879 5:0.60724622 6:1.526247 7:-0.46709111 8:0.47276241 9:1.44212 10:0.02602301 11:-0.93124878 12:0.057246719 13:-1.881449 14:0.69869518 15:0.290216 16:1.3906879 17:0.60724622 18:1.526247 19:0.02602301 20:-0.93124878 21:0.057246719 22:0.74849248 23:-0.87745529 24:0.36787239 25:-1.6023999 26:-0.55469412 27:-0.63518971 28:-1.6023999 29:-0.55469412 30:-0.63518971 31:1.176623 32:0.2091741 33:-0.046295181 34:-1.029012 35:-1.3615969 36:-0.8358022 37:0.92050898 38:0.93538678 39:0.7173264 40:-1.6023999 41:-0.55469412 42:-0.63518971 43:-1.6023999 44:-0.55469412 45:-0.63518971 46:0.35094309 47:-1.1249059 48:-0.90698719 49:0.85170239 50:-2.883954 51:0.1931455 52:0.85170239 53:-2.883954 54:0.1931455 55:1.3906879 56:0.60724622 57:1.526247 58:1.100171 59:1.3549761 60:-2.2271459 61:0.92050898 62:0.93538678 63:0.7173264 64:-1.6023999 65:-0.55469412 66:-0.63518971 67:-0.53207511 68:1.247389 69:0.0054757739 70:0.85170239 71:-2.883954 72:0.1931455 73:-0.46709111 74:0.47276241 75:1.44212 76:0.35094309 77:-1.1249059 78:-0.90698719 79:1.176623 80:0.2091741 81:-0.046295181 82:-1.697965 83:-0.90435201 84:-0.66754657 85:0.35094309 86:-1.1249059 87:-0.90698719 88:-1.6023999 89:-0.55469412 90:-0.63518971 91:0.2706688 92:-0.52241802 93:2.67168 94:0.02602301 95:-0.93124878 96:0.057246719 97:0.35094309 98:-1.1249059 99:-0.90698719 100:-1.816465 101:1.9628429 102:0.54907078 #
4.1177401809954030653670997708105 1:1.230139 2:0.77938551 3:0.54259938 4:0.83258939 5:0.28448501 6:-0.73873162 7:0.35094309 8:-1.1249059 9:-0.90698719 10:0.02602301 11:-0.93124878 12:0.057246719 13:-1.881449 14:0.69869518 15:0.290216 16:1.3906879 17:0.60724622 18:1.526247 19:0.02602301 20:-0.93124878 21:0.057246719 22:0.74849248 23:-0.87745529 24:0.36787239 25:-1.029012 26:-1.3615969 27:-0.8358022 28:-1.6023999 29:-0.55469412 30:-0.63518971 31:1.176623 32:0.2091741 33:-0.046295181 34:-1.6023999 35:-0.55469412 36:-0.63518971 37:-1.881449 38:0.69869518 39:0.290216 40:-1.881449 41:0.69869518 42:0.290216 43:-1.881449 44:0.69869518 45:0.290216 46:0.2706688 47:-0.52241802 48:2.67168 49:0.85170239 50:-2.883954 51:0.1931455 52:0.02602301 53:-0.93124878 54:0.057246719 55:1.176623 56:0.2091741 57:-0.046295181 58:0.92050898 59:0.93538678 60:0.7173264 61:1.230139 62:0.77938551 63:0.54259938 64:-1.6023999 65:-0.55469412 66:-0.63518971 67:-0.53207511 68:1.247389 69:0.0054757739 70:0.85170239 71:-2.883954 72:0.1931455 73:-0.46709111 74:0.47276241 75:1.44212 76:0.35094309 77:-1.1249059 78:-0.90698719 79:1.176623 80:0.2091741 81:-0.046295181 82:0.02602301 83:-0.93124878 84:0.057246719 85:0.74849248 86:-0.87745529 87:0.36787239 88:-1.697965 89:-0.90435201 90:-0.66754657 91:-0.53207511 92:1.247389 93:0.0054757739 94:-1.029012 95:-1.3615969 96:-0.8358022 97:0.35094309 98:-1.1249059 99:-0.90698719 100:0.74849248 101:-0.87745529 102:0.36787239 #
-4.4430361261382174120626586955041 1:-0.95256001 2:-0.14586321 3:-0.26632169 4:0.74849248 5:-0.87745529 6:0.36787239 7:0.35094309 8:-1.1249059 9:-0.90698719 10:0.92050898 11:0.93538678 12:0.7173264 13:-1.881449 14:0.69869518 15:0.290216 16:1.3906879 17:0.60724622 18:1.526247 19:-1.881449 20:0.69869518 21:0.290216 22:0.74849248 23:-0.87745529 24:0.36787239 25:-1.029012 26:-1.3615969 27:-0.8358022 28:-1.816465 29:1.9628429 30:0.54907078 31:1.176623 32:0.2091741 33:-0.046295181 34:0.85170239 35:-2.883954 36:0.1931455 37:0.74849248 38:-0.87745529 39:0.36787239 40:-0.95256001 41:-0.14586321 42:-0.26632169 43:-1.029012 44:-1.3615969 45:-0.8358022 46:-1.881449 47:0.69869518 48:0.290216 49:0.85170239 50:-2.883954 51:0.1931455 52:0.85170239 53:-2.883954 54:0.1931455 55:1.176623 56:0.2091741 57:-0.046295181 58:-1.697965 59:-0.90435201 60:-0.66754657 61:1.230139 62:0.77938551 63:0.54259938 64:-0.95256001 65:-0.14586321 66:-0.26632169 67:-0.53207511 68:1.247389 69:0.0054757739 70:0.85170239 71:-2.883954 72:0.1931455 73:-1.697965 74:-0.90435201 75:-0.66754657 76:0.35094309 77:-1.1249059 78:-0.90698719 79:1.176623 80:0.2091741 81:-0.046295181 82:-1.697965 83:-0.90435201 84:-0.66754657 85:0.35094309 86:-1.1249059 87:-0.90698719 88:-1.029012 89:-1.3615969 90:-0.8358022 91:0.92050898 92:0.93538678 93:0.7173264 94:0.02602301 95:-0.93124878 96:0.057246719 97:0.35094309 98:-1.1249059 99:-0.90698719 100:-1.881449 101:0.69869518 102:0.290216 #
2.5995000667345724565393538796343 1:0.02602301 2:-0.93124878 3:0.057246719 4:0.85170239 5:-2.883954 6:0.1931455 7:-1.029012 8:-1.3615969 9:-0.8358022 10:0.74849248 11:-0.87745529 12:0.36787239 13:-1.881449 14:0.69869518 15:0.290216 16:1.3906879 17:0.60724622 18:1.526247 19:0.02602301 20:-0.93124878 21:0.057246719 22:0.74849248 23:-0.87745529 24:0.36787239 25:-1.6023999 26:-0.55469412 27:-0.63518971 28:-1.816465 29:1.9628429 30:0.54907078 31:1.176623 32:0.2091741 33:-0.046295181 34:0.92050898 35:0.93538678 36:0.7173264 37:-1.881449 38:0.69869518 39:0.290216 40:0.92050898 41:0.93538678 42:0.7173264 43:-1.6023999 44:-0.55469412 45:-0.63518971 46:0.35094309 47:-1.1249059 48:-0.90698719 49:0.85170239 50:-2.883954 51:0.1931455 52:0.85170239 53:-2.883954 54:0.1931455 55:1.176623 56:0.2091741 57:-0.046295181 58:-1.816465 59:1.9628429 60:0.54907078 61:1.230139 62:0.77938551 63:0.54259938 64:-1.881449 65:0.69869518 66:0.290216 67:-0.53207511 68:1.247389 69:0.0054757739 70:0.85170239 71:-2.883954 72:0.1931455 73:-0.46709111 74:0.47276241 75:1.44212 76:0.35094309 77:-1.1249059 78:-0.90698719 79:1.176623 80:0.2091741 81:-0.046295181 82:0.02602301 83:-0.93124878 84:0.057246719 85:0.35094309 86:-1.1249059 87:-0.90698719 88:-1.697965 89:-0.90435201 90:-0.66754657 91:-1.029012 92:-1.3615969 93:-0.8358022 94:-1.029012 95:-1.3615969 96:-0.8358022 97:0.74849248 98:-0.87745529 99:0.36787239 100:0.85170239 101:-2.883954 102:0.1931455 #
-0.94305832453855487074179109185934 1:-0.53207511 2:1.247389 3:0.0054757739 4:-1.816465 5:1.9628429 6:0.54907078 7:-0.95256001 8:-0.14586321 9:-0.26632169 10:0.35094309 11:-1.1249059 12:-0.90698719 13:-1.881449 14:0.69869518 15:0.290216 16:1.3906879 17:0.60724622 18:1.526247 19:-1.029012 20:-1.3615969 21:-0.8358022 22:0.74849248 23:-0.87745529 24:0.36787239 25:-1.029012 26:-1.3615969 27:-0.8358022 28:-1.816465 29:1.9628429 30:0.54907078 31:1.176623 32:0.2091741 33:-0.046295181 34:-1.816465 35:1.9628429 36:0.54907078 37:0.83258939 38:0.28448501 39:-0.73873162 40:-1.881449 41:0.69869518 42:0.290216 43:-1.881449 44:0.69869518 45:0.290216 46:0.74849248 47:-0.87745529 48:0.36787239 49:0.85170239 50:-2.883954 51:0.1931455 52:0.85170239 53:-2.883954 54:0.1931455 55:1.176623 56:0.2091741 57:-0.046295181 58:0.35094309 59:-1.1249059 60:-0.90698719 61:1.230139 62:0.77938551 63:0.54259938 64:-1.881449 65:0.69869518 66:0.290216 67:-0.53207511 68:1.247389 69:0.0054757739 70:0.85170239 71:-2.883954 72:0.1931455 73:-0.46709111 74:0.47276241 75:1.44212 76:0.35094309 77:-1.1249059 78:-0.90698719 79:1.176623 80:0.2091741 81:-0.046295181 82:0.02602301 83:-0.93124878 84:0.057246719 85:0.35094309 86:-1.1249059 87:-0.90698719 88:-1.697965 89:-0.90435201 90:-0.66754657 91:-0.53207511 92:1.247389 93:0.0054757739 94:-1.029012 95:-1.3615969 96:-0.8358022 97:1.230139 98:0.77938551 99:0.54259938 100:0.02602301 101:-0.93124878 102:0.057246719 #
-10 1:-1.6023999 2:-0.55469412 3:-0.63518971 4:1.230139 5:0.77938551 6:0.54259938 7:1.230139 8:0.77938551 9:0.54259938 10:0.02602301 11:-0.93124878 12:0.057246719 13:-1.881449 14:0.69869518 15:0.290216 16:1.3906879 17:0.60724622 18:1.526247 19:0.02602301 20:-0.93124878 21:0.057246719 22:0.02602301 23:-0.93124878 24:0.057246719 25:0.35094309 26:-1.1249059 27:-0.90698719 28:-1.816465 29:1.9628429 30:0.54907078 31:1.176623 32:0.2091741 33:-0.046295181 34:0.74849248 35:-0.87745529 36:0.36787239 37:-1.881449 38:0.69869518 39:0.290216 40:-1.6023999 41:-0.55469412 42:-0.63518971 43:-1.6023999 44:-0.55469412 45:-0.63518971 46:-1.881449 47:0.69869518 48:0.290216 49:0.85170239 50:-2.883954 51:0.1931455 52:0.85170239 53:-2.883954 54:0.1931455 55:1.176623 56:0.2091741 57:-0.046295181 58:-1.6023999 59:-0.55469412 60:-0.63518971 61:0.92050898 62:0.93538678 63:0.7173264 64:-0.95256001 65:-0.14586321 66:-0.26632169 67:-0.53207511 68:1.247389 69:0.0054757739 70:0.85170239 71:-2.883954 72:0.1931455 73:-0.46709111 74:0.47276241 75:1.44212 76:0.35094309 77:-1.1249059 78:-0.90698719 79:1.176623 80:0.2091741 81:-0.046295181 82:0.35094309 83:-1.1249059 84:-0.90698719 85:0.35094309 86:-1.1249059 87:-0.90698719 88:0.35094309 89:-1.1249059 90:-0.90698719 91:-1.881449 92:0.69869518 93:0.290216 94:0.02602301 95:-0.93124878 96:0.057246719 97:0.35094309 98:-1.1249059 99:-0.90698719 100:0.02602301 101:-0.93124878 102:0.057246719 #
-10 1:-1.6023999 2:-0.55469412 3:-0.63518971 4:0.85170239 5:-2.883954 6:0.1931455 7:0.35094309 8:-1.1249059 9:-0.90698719 10:0.02602301 11:-0.93124878 12:0.057246719 13:-1.881449 14:0.69869518 15:0.290216 16:1.3906879 17:0.60724622 18:1.526247 19:0.02602301 20:-0.93124878 21:0.057246719 22:0.74849248 23:-0.87745529 24:0.36787239 25:-1.029012 26:-1.3615969 27:-0.8358022 28:-1.6023999 29:-0.55469412 30:-0.63518971 31:1.176623 32:0.2091741 33:-0.046295181 34:-1.697965 35:-0.90435201 36:-0.66754657 37:-1.881449 38:0.69869518 39:0.290216 40:-1.029012 41:-1.3615969 42:-0.8358022 43:-1.029012 44:-1.3615969 45:-0.8358022 46:-1.029012 47:-1.3615969 48:-0.8358022 49:0.85170239 50:-2.883954 51:0.1931455 52:0.85170239 53:-2.883954 54:0.1931455 55:1.176623 56:0.2091741 57:-0.046295181 58:0.35094309 59:-1.1249059 60:-0.90698719 61:1.230139 62:0.77938551 63:0.54259938 64:-1.6023999 65:-0.55469412 66:-0.63518971 67:-0.53207511 68:1.247389 69:0.0054757739 70:0.85170239 71:-2.883954 72:0.1931455 73:-0.46709111 74:0.47276241 75:1.44212 76:0.35094309 77:-1.1249059 78:-0.90698719 79:1.176623 80:0.2091741 81:-0.046295181 82:0.35094309 83:-1.1249059 84:-0.90698719 85:0.35094309 86:-1.1249059 87:-0.90698719 88:-1.029012 89:-1.3615969 90:-0.8358022 91:0.02602301 92:-0.93124878 93:0.057246719 94:0.35094309 95:-1.1249059 96:-0.90698719 97:0.35094309 98:-1.1249059 99:-0.90698719 100:-1.029012 101:-1.3615969 102:-0.8358022 #
-0.53078455022684445374636652559275 1:-1.6023999 2:-0.55469412 3:-0.63518971 4:0.02602301 5:-0.93124878 6:0.057246719 7:0.35094309 8:-1.1249059 9:-0.90698719 10:0.02602301 11:-0.93124878 12:0.057246719 13:-1.881449 14:0.69869518 15:0.290216 16:1.3906879 17:0.60724622 18:1.526247 19:0.02602301 20:-0.93124878 21:0.057246719 22:0.74849248 23:-0.87745529 24:0.36787239 25:-1.029012 26:-1.3615969 27:-0.8358022 28:-1.697965 29:-0.90435201 30:-0.66754657 31:0.83258939 32:0.28448501 33:-0.73873162 34:-0.46709111 35:0.47276241 36:1.44212 37:1.3906879 38:0.60724622 39:1.526247 40:-1.6023999 41:-0.55469412 42:-0.63518971 43:-1.029012 44:-1.3615969 45:-0.8358022 46:-1.6023999 47:-0.55469412 48:-0.63518971 49:0.85170239 50:-2.883954 51:0.1931455 52:0.85170239 53:-2.883954 54:0.1931455 55:1.176623 56:0.2091741 57:-0.046295181 58:-1.6023999 59:-0.55469412 60:-0.63518971 61:1.230139 62:0.77938551 63:0.54259938 64:0.02602301 65:-0.93124878 66:0.057246719 67:-0.53207511 68:1.247389 69:0.0054757739 70:0.85170239 71:-2.883954 72:0.1931455 73:-0.46709111 74:0.47276241 75:1.44212 76:0.35094309 77:-1.1249059 78:-0.90698719 79:1.176623 80:0.2091741 81:-0.046295181 82:0.2706688 83:-0.52241802 84:2.67168 85:0.2706688 86:-0.52241802 87:2.67168 88:-1.029012 89:-1.3615969 90:-0.8358022 91:0.85170239 92:-2.883954 93:0.1931455 94:0.02602301 95:-0.93124878 96:0.057246719 97:0.35094309 98:-1.1249059 99:-0.90698719 100:0.35094309 101:-1.1249059 102:-0.90698719 #
-1.0817261393921269174711596861016 1:0.2706688 2:-0.52241802 3:2.67168 4:0.74849248 5:-0.87745529 6:0.36787239 7:0.74849248 8:-0.87745529 9:0.36787239 10:0.02602301 11:-0.93124878 12:0.057246719 13:-1.881449 14:0.69869518 15:0.290216 16:1.3906879 17:0.60724622 18:1.526247 19:-1.6023999 20:-0.55469412 21:-0.63518971 22:0.74849248 23:-0.87745529 24:0.36787239 25:-1.6023999 26:-0.55469412 27:-0.63518971 28:-1.881449 29:0.69869518 30:0.290216 31:1.176623 32:0.2091741 33:-0.046295181 34:0.02602301 35:-0.93124878 36:0.057246719 37:-1.881449 38:0.69869518 39:0.290216 40:-1.6023999 41:-0.55469412 42:-0.63518971 43:0.2706688 44:-0.52241802 45:2.67168 46:-1.6023999 47:-0.55469412 48:-0.63518971 49:0.85170239 50:-2.883954 51:0.1931455 52:0.85170239 53:-2.883954 54:0.1931455 55:1.176623 56:0.2091741 57:-0.046295181 58:-1.697965 59:-0.90435201 60:-0.66754657 61:0.74849248 62:-0.87745529 63:0.36787239 64:0.85170239 65:-2.883954 66:0.1931455 67:-0.53207511 68:1.247389 69:0.0054757739 70:1.230139 71:0.77938551 72:0.54259938 73:-0.46709111 74:0.47276241 75:1.44212 76:0.02602301 77:-0.93124878 78:0.057246719 79:1.176623 80:0.2091741 81:-0.046295181 82:0.2706688 83:-0.52241802 84:2.67168 85:0.2706688 86:-0.52241802 87:2.67168 88:-0.46709111 89:0.47276241 90:1.44212 91:-1.6023999 92:-0.55469412 93:-0.63518971 94:0.85170239 95:-2.883954 96:0.1931455 97:-1.697965 98:-0.90435201 99:-0.66754657 100:0.74849248 101:-0.87745529 102:0.36787239 #
5.5836982144420428397779687657021 1:-1.6023999 2:-0.55469412 3:-0.63518971 4:1.176623 5:0.2091741 6:-0.046295181 7:0.83258939 8:0.28448501 9:-0.73873162 10:0.02602301 11:-0.93124878 12:0.057246719 13:-1.881449 14:0.69869518 15:0.290216 16:1.3906879 17:0.60724622 18:1.526247 19:0.35094309 20:-1.1249059 21:-0.90698719 22:0.74849248 23:-0.87745529 24:0.36787239 25:-1.6023999 26:-0.55469412 27:-0.63518971 28:-1.881449 29:0.69869518 30:0.290216 31:1.176623 32:0.2091741 33:-0.046295181 34:-1.6023999 35:-0.55469412 36:-0.63518971 37:-1.029012 38:-1.3615969 39:-0.8358022 40:0.85170239 41:-2.883954 42:0.1931455 43:-1.697965 44:-0.90435201 45:-0.66754657 46:-1.029012 47:-1.3615969 48:-0.8358022 49:0.85170239 50:-2.883954 51:0.1931455 52:0.85170239 53:-2.883954 54:0.1931455 55:1.176623 56:0.2091741 57:-0.046295181 58:-1.881449 59:0.69869518 60:0.290216 61:1.230139 62:0.77938551 63:0.54259938 64:0.02602301 65:-0.93124878 66:0.057246719 67:-0.53207511 68:1.247389 69:0.0054757739 70:0.85170239 71:-2.883954 72:0.1931455 73:-0.46709111 74:0.47276241 75:1.44212 76:0.35094309 77:-1.1249059 78:-0.90698719 79:1.176623 80:0.2091741 81:-0.046295181 82:0.35094309 83:-1.1249059 84:-0.90698719 85:0.35094309 86:-1.1249059 87:-0.90698719 88:-1.697965 89:-0.90435201 90:-0.66754657 91:-1.697965 92:-0.90435201 93:-0.66754657 94:0.35094309 95:-1.1249059 96:-0.90698719 97:1.230139 98:0.77938551 99:0.54259938 100:-1.697965 101:-0.90435201 102:-0.66754657 #
7.8798092183118662035212764749303 1:0.35094309 2:-1.1249059 3:-0.90698719 4:1.230139 5:0.77938551 6:0.54259938 7:0.35094309 8:-1.1249059 9:-0.90698719 10:0.74849248 11:-0.87745529 12:0.36787239 13:-1.881449 14:0.69869518 15:0.290216 16:1.3906879 17:0.60724622 18:1.526247 19:0.02602301 20:-0.93124878 21:0.057246719 22:-1.881449 23:0.69869518 24:0.290216 25:-0.95256001 26:-0.14586321 27:-0.26632169 28:-1.881449 29:0.69869518 30:0.290216 31:1.3906879 32:0.60724622 33:1.526247 34:0.85170239 35:-2.883954 36:0.1931455 37:-0.95256001 38:-0.14586321 39:-0.26632169 40:-1.697965 41:-0.90435201 42:-0.66754657 43:-0.95256001 44:-0.14586321 45:-0.26632169 46:-1.881449 47:0.69869518 48:0.290216 49:0.85170239 50:-2.883954 51:0.1931455 52:0.85170239 53:-2.883954 54:0.1931455 55:1.176623 56:0.2091741 57:-0.046295181 58:-1.6023999 59:-0.55469412 60:-0.63518971 61:0.92050898 62:0.93538678 63:0.7173264 64:-0.95256001 65:-0.14586321 66:-0.26632169 67:-0.53207511 68:1.247389 69:0.0054757739 70:0.85170239 71:-2.883954 72:0.1931455 73:-0.46709111 74:0.47276241 75:1.44212 76:0.74849248 77:-0.87745529 78:0.36787239 79:1.176623 80:0.2091741 81:-0.046295181 82:0.74849248 83:-0.87745529 84:0.36787239 85:0.35094309 86:-1.1249059 87:-0.90698719 88:-1.029012 89:-1.3615969 90:-0.8358022 91:-1.881449 92:0.69869518 93:0.290216 94:0.02602301 95:-0.93124878 96:0.057246719 97:0.35094309 98:-1.1249059 99:-0.90698719 100:-0.53207511 101:1.247389 102:0.0054757739 #
-4.6774820894060251674773098784499 1:-1.6023999 2:-0.55469412 3:-0.63518971 4:-1.816465 5:1.9628429 6:0.54907078 7:0.74849248 8:-0.87745529 9:0.36787239 10:0.35094309 11:-1.1249059 12:-0.90698719 13:-1.881449 14:0.69869518 15:0.290216 16:1.3906879 17:0.60724622 18:1.526247 19:0.02602301 20:-0.93124878 21:0.057246719 22:0.74849248 23:-0.87745529 24:0.36787239 25:-1.029012 26:-1.3615969 27:-0.8358022 28:-1.816465 29:1.9628429 30:0.54907078 31:1.176623 32:0.2091741 33:-0.046295181 34:-1.816465 35:1.9628429 36:0.54907078 37:0.83258939 38:0.28448501 39:-0.73873162 40:-1.881449 41:0.69869518 42:0.290216 43:-1.029012 44:-1.3615969 45:-0.8358022 46:0.2706688 47:-0.52241802 48:2.67168 49:0.85170239 50:-2.883954 51:0.1931455 52:0.85170239 53:-2.883954 54:0.1931455 55:0.85170239 56:-2.883954 57:0.1931455 58:0.92050898 59:0.93538678 60:0.7173264 61:1.230139 62:0.77938551 63:0.54259938 64:-1.029012 65:-1.3615969 66:-0.8358022 67:-0.53207511 68:1.247389 69:0.0054757739 70:0.85170239 71:-2.883954 72:0.1931455 73:-0.46709111 74:0.47276241 75:1.44212 76:0.35094309 77:-1.1249059 78:-0.90698719 79:1.176623 80:0.2091741 81:-0.046295181 82:0.35094309 83:-1.1249059 84:-0.90698719 85:0.35094309 86:-1.1249059 87:-0.90698719 88:-1.029012 89:-1.3615969 90:-0.8358022 91:1.3906879 92:0.60724622 93:1.526247 94:0.2706688 95:-0.52241802 96:2.67168 97:0.74849248 98:-0.87745529 99:0.36787239 100:0.02602301 101:-0.93124878 102:0.057246719 #
-0.059758708837753624076860603508976 1:0.83258939 2:0.28448501 3:-0.73873162 4:0.74849248 5:-0.87745529 6:0.36787239 7:-1.6023999 8:-0.55469412 9:-0.63518971 10:0.2706688 11:-0.52241802 12:2.67168 13:-1.881449 14:0.69869518 15:0.290216 16:1.3906879 17:0.60724622 18:1.526247 19:-1.029012 20:-1.3615969 21:-0.8358022 22:0.2706688 23:-0.52241802 24:2.67168 25:0.02602301 26:-0.93124878 27:0.057246719 28:0.74849248 29:-0.87745529 30:0.36787239 31:1.176623 32:0.2091741 33:-0.046295181 34:0.2706688 35:-0.52241802 36:2.67168 37:0.02602301 38:-0.93124878 39:0.057246719 40:-1.697965 41:-0.90435201 42:-0.66754657 43:0.2706688 44:-0.52241802 45:2.67168 46:-1.697965 47:-0.90435201 48:-0.66754657 49:0.85170239 50:-2.883954 51:0.1931455 52:0.85170239 53:-2.883954 54:0.1931455 55:1.176623 56:0.2091741 57:-0.046295181 58:0.02602301 59:-0.93124878 60:0.057246719 61:1.230139 62:0.77938551 63:0.54259938 64:0.2706688 65:-0.52241802 66:2.67168 67:-0.53207511 68:1.247389 69:0.0054757739 70:0.85170239 71:-2.883954 72:0.1931455 73:-0.46709111 74:0.47276241 75:1.44212 76:0.35094309 77:-1.1249059 78:-0.90698719 79:1.176623 80:0.2091741 81:-0.046295181 82:0.02602301 83:-0.93124878 84:0.057246719 85:0.35094309 86:-1.1249059 87:-0.90698719 88:-1.697965 89:-0.90435201 90:-0.66754657 91:0.35094309 92:-1.1249059 93:-0.90698719 94:0.35094309 95:-1.1249059 96:-0.90698719 97:0.35094309 98:-1.1249059 99:-0.90698719 100:0.35094309 101:-1.1249059 102:-0.90698719 #
-7.0677825324915586335805528506171 1:-1.029012 2:-1.3615969 3:-0.8358022 4:1.230139 5:0.77938551 6:0.54259938 7:0.35094309 8:-1.1249059 9:-0.90698719 10:0.74849248 11:-0.87745529 12:0.36787239 13:-1.881449 14:0.69869518 15:0.290216 16:1.3906879 17:0.60724622 18:1.526247 19:0.85170239 20:-2.883954 21:0.1931455 22:0.74849248 23:-0.87745529 24:0.36787239 25:-1.029012 26:-1.3615969 27:-0.8358022 28:-1.881449 29:0.69869518 30:0.290216 31:1.3906879 32:0.60724622 33:1.526247 34:0.02602301 35:-0.93124878 36:0.057246719 37:-1.881449 38:0.69869518 39:0.290216 40:-1.6023999 41:-0.55469412 42:-0.63518971 43:-1.6023999 44:-0.55469412 45:-0.63518971 46:-1.881449 47:0.69869518 48:0.290216 49:0.85170239 50:-2.883954 51:0.1931455 52:0.85170239 53:-2.883954 54:0.1931455 55:1.176623 56:0.2091741 57:-0.046295181 58:-1.697965 59:-0.90435201 60:-0.66754657 61:0.92050898 62:0.93538678 63:0.7173264 64:-1.029012 65:-1.3615969 66:-0.8358022 67:-0.53207511 68:1.247389 69:0.0054757739 70:0.85170239 71:-2.883954 72:0.1931455 73:-0.46709111 74:0.47276241 75:1.44212 76:0.35094309 77:-1.1249059 78:-0.90698719 79:1.176623 80:0.2091741 81:-0.046295181 82:0.74849248 83:-0.87745529 84:0.36787239 85:0.35094309 86:-1.1249059 87:-0.90698719 88:-1.029012 89:-1.3615969 90:-0.8358022 91:-1.881449 92:0.69869518 93:0.290216 94:0.02602301 95:-0.93124878 96:0.057246719 97:0.02602301 98:-0.93124878 99:0.057246719 100:-1.881449 101:0.69869518 102:0.290216 #
-1.7858462812338138370193973969435 1:-1.6023999 2:-0.55469412 3:-0.63518971 4:-1.6023999 5:-0.55469412 6:-0.63518971 7:0.83258939 8:0.28448501 9:-0.73873162 10:0.74849248 11:-0.87745529 12:0.36787239 13:-1.881449 14:0.69869518 15:0.290216 16:1.3906879 17:0.60724622 18:1.526247 19:-1.6023999 20:-0.55469412 21:-0.63518971 22:0.02602301 23:-0.93124878 24:0.057246719 25:-1.881449 26:0.69869518 27:0.290216 28:-1.816465 29:1.9628429 30:0.54907078 31:0.83258939 32:0.28448501 33:-0.73873162 34:-1.816465 35:1.9628429 36:0.54907078 37:0.85170239 38:-2.883954 39:0.1931455 40:-1.029012 41:-1.3615969 42:-0.8358022 43:-0.95256001 44:-0.14586321 45:-0.26632169 46:-1.6023999 47:-0.55469412 48:-0.63518971 49:0.85170239 50:-2.883954 51:0.1931455 52:0.02602301 53:-0.93124878 54:0.057246719 55:1.176623 56:0.2091741 57:-0.046295181 58:-1.881449 59:0.69869518 60:0.290216 61:1.230139 62:0.77938551 63:0.54259938 64:0.02602301 65:-0.93124878 66:0.057246719 67:-0.53207511 68:1.247389 69:0.0054757739 70:0.85170239 71:-2.883954 72:0.1931455 73:-0.46709111 74:0.47276241 75:1.44212 76:0.35094309 77:-1.1249059 78:-0.90698719 79:1.176623 80:0.2091741 81:-0.046295181 82:0.2706688 83:-0.52241802 84:2.67168 85:0.35094309 86:-1.1249059 87:-0.90698719 88:-1.029012 89:-1.3615969 90:-0.8358022 91:1.230139 92:0.77938551 93:0.54259938 94:0.02602301 95:-0.93124878 96:0.057246719 97:0.35094309 98:-1.1249059 99:-0.90698719 100:-1.6023999 101:-0.55469412 102:-0.63518971 #
3.1131514620924631842058261099737 1:-1.881449 2:0.69869518 3:0.290216 4:-1.816465 5:1.9628429 6:0.54907078 7:-0.95256001 8:-0.14586321 9:-0.26632169 10:-1.881449 11:0.69869518 12:0.290216 13:-1.881449 14:0.69869518 15:0.290216 16:1.3906879 17:0.60724622 18:1.526247 19:0.02602301 20:-0.93124878 21:0.057246719 22:0.74849248 23:-0.87745529 24:0.36787239 25:-1.697965 26:-0.90435201 27:-0.66754657 28:-1.697965 29:-0.90435201 30:-0.66754657 31:1.176623 32:0.2091741 33:-0.046295181 34:-0.46709111 35:0.47276241 36:1.44212 37:-1.6023999 38:-0.55469412 39:-0.63518971 40:-0.95256001 41:-0.14586321 42:-0.26632169 43:-0.53207511 44:1.247389 45:0.0054757739 46:-1.6023999 47:-0.55469412 48:-0.63518971 49:0.85170239 50:-2.883954 51:0.1931455 52:0.02602301 53:-0.93124878 54:0.057246719 55:1.176623 56:0.2091741 57:-0.046295181 58:0.74849248 59:-0.87745529 60:0.36787239 61:1.230139 62:0.77938551 63:0.54259938 64:-1.6023999 65:-0.55469412 66:-0.63518971 67:-0.53207511 68:1.247389 69:0.0054757739 70:0.85170239 71:-2.883954 72:0.1931455 73:-0.46709111 74:0.47276241 75:1.44212 76:0.35094309 77:-1.1249059 78:-0.90698719 79:1.176623 80:0.2091741 81:-0.046295181 82:0.74849248 83:-0.87745529 84:0.36787239 85:0.35094309 86:-1.1249059 87:-0.90698719 88:-1.029012 89:-1.3615969 90:-0.8358022 91:-1.029012 92:-1.3615969 93:-0.8358022 94:0.02602301 95:-0.93124878 96:0.057246719 97:0.74849248 98:-0.87745529 99:0.36787239 100:0.02602301 101:-0.93124878 102:0.057246719 #
14.576790382375154564442709670402 1:-1.6023999 2:-0.55469412 3:-0.63518971 4:0.74849248 5:-0.87745529 6:0.36787239 7:0.35094309 8:-1.1249059 9:-0.90698719 10:0.92050898 11:0.93538678 12:0.7173264 13:-1.881449 14:0.69869518 15:0.290216 16:1.3906879 17:0.60724622 18:1.526247 19:-1.881449 20:0.69869518 21:0.290216 22:0.74849248 23:-0.87745529 24:0.36787239 25:-1.029012 26:-1.3615969 27:-0.8358022 28:-1.816465 29:1.9628429 30:0.54907078 31:1.176623 32:0.2091741 33:-0.046295181 34:0.02602301 35:-0.93124878 36:0.057246719 37:0.35094309 38:-1.1249059 39:-0.90698719 40:0.83258939 41:0.28448501 42:-0.73873162 43:-1.6023999 44:-0.55469412 45:-0.63518971 46:-1.6023999 47:-0.55469412 48:-0.63518971 49:0.85170239 50:-2.883954 51:0.1931455 52:0.85170239 53:-2.883954 54:0.1931455 55:1.176623 56:0.2091741 57:-0.046295181 58:-1.697965 59:-0.90435201 60:-0.66754657 61:1.230139 62:0.77938551 63:0.54259938 64:0.02602301 65:-0.93124878 66:0.057246719 67:-0.53207511 68:1.247389 69:0.0054757739 70:0.85170239 71:-2.883954 72:0.1931455 73:-0.46709111 74:0.47276241 75:1.44212 76:0.35094309 77:-1.1249059 78:-0.90698719 79:1.176623 80:0.2091741 81:-0.046295181 82:-1.697965 83:-0.90435201 84:-0.66754657 85:0.35094309 86:-1.1249059 87:-0.90698719 88:-1.029012 89:-1.3615969 90:-0.8358022 91:-0.53207511 92:1.247389 93:0.0054757739 94:0.02602301 95:-0.93124878 96:0.057246719 97:0.74849248 98:-0.87745529 99:0.36787239 100:-0.95256001 101:-0.14586321 102:-0.26632169 #
-1.5794583337008241130661190254614 1:-1.6023999 2:-0.55469412 3:-0.63518971 4:0.02602301 5:-0.93124878 6:0.057246719 7:0.83258939 8:0.28448501 9:-0.73873162 10:0.02602301 11:-0.93124878 12:0.057246719 13:-1.881449 14:0.69869518 15:0.290216 16:1.3906879 17:0.60724622 18:1.526247 19:0.85170239 20:-2.883954 21:0.1931455 22:0.02602301 23:-0.93124878 24:0.057246719 25:-1.029012 26:-1.3615969 27:-0.8358022 28:-1.6023999 29:-0.55469412 30:-0.63518971 31:1.176623 32:0.2091741 33:-0.046295181 34:-0.95256001 35:-0.14586321 36:-0.26632169 37:-1.881449 38:0.69869518 39:0.290216 40:-1.697965 41:-0.90435201 42:-0.66754657 43:-1.029012 44:-1.3615969 45:-0.8358022 46:-1.029012 47:-1.3615969 48:-0.8358022 49:0.85170239 50:-2.883954 51:0.1931455 52:0.85170239 53:-2.883954 54:0.1931455 55:1.176623 56:0.2091741 57:-0.046295181 58:-1.6023999 59:-0.55469412 60:-0.63518971 61:1.230139 62:0.77938551 63:0.54259938 64:-1.697965 65:-0.90435201 66:-0.66754657 67:-0.53207511 68:1.247389 69:0.0054757739 70:0.85170239 71:-2.883954 72:0.1931455 73:-0.46709111 74:0.47276241 75:1.44212 76:0.35094309 77:-1.1249059 78:-0.90698719 79:1.176623 80:0.2091741 81:-0.046295181 82:0.35094309 83:-1.1249059 84:-0.90698719 85:0.35094309 86:-1.1249059 87:-0.90698719 88:0.02602301 89:-0.93124878 90:0.057246719 91:-1.029012 92:-1.3615969 93:-0.8358022 94:0.35094309 95:-1.1249059 96:-0.90698719 97:-1.6023999 98:-0.55469412 99:-0.63518971 100:0.35094309 101:-1.1249059 102:-0.90698719 #
-1.0824388017254777949460731178988 1:-1.6023999 2:-0.55469412 3:-0.63518971 4:0.74849248 5:-0.87745529 6:0.36787239 7:0.02602301 8:-0.93124878 9:0.057246719 10:0.02602301 11:-0.93124878 12:0.057246719 13:-1.881449 14:0.69869518 15:0.290216 16:1.3906879 17:0.60724622 18:1.526247 19:0.02602301 20:-0.93124878 21:0.057246719 22:0.74849248 23:-0.87745529 24:0.36787239 25:-1.029012 26:-1.3615969 27:-0.8358022 28:0.85170239 29:-2.883954 30:0.1931455 31:1.3906879 32:0.60724622 33:1.526247 34:0.92050898 35:0.93538678 36:0.7173264 37:-1.881449 38:0.69869518 39:0.290216 40:-1.697965 41:-0.90435201 42:-0.66754657 43:0.74849248 44:-0.87745529 45:0.36787239 46:0.35094309 47:-1.1249059 48:-0.90698719 49:0.85170239 50:-2.883954 51:0.1931455 52:0.85170239 53:-2.883954 54:0.1931455 55:1.176623 56:0.2091741 57:-0.046295181 58:-1.6023999 59:-0.55469412 60:-0.63518971 61:1.230139 62:0.77938551 63:0.54259938 64:0.02602301 65:-0.93124878 66:0.057246719 67:-0.53207511 68:1.247389 69:0.0054757739 70:0.85170239 71:-2.883954 72:0.1931455 73:-0.46709111 74:0.47276241 75:1.44212 76:0.35094309 77:-1.1249059 78:-0.90698719 79:1.176623 80:0.2091741 81:-0.046295181 82:0.35094309 83:-1.1249059 84:-0.90698719 85:0.35094309 86:-1.1249059 87:-0.90698719 88:-1.029012 89:-1.3615969 90:-0.8358022 91:1.3906879 92:0.60724622 93:1.526247 94:0.02602301 95:-0.93124878 96:0.057246719 97:0.74849248 98:-0.87745529 99:0.36787239 100:-1.697965 101:-0.90435201 102:-0.66754657 #
-0.038455021837144484631032526067429 1:-1.6023999 2:-0.55469412 3:-0.63518971 4:1.3906879 5:0.60724622 6:1.526247 7:-0.46709111 8:0.47276241 9:1.44212 10:0.02602301 11:-0.93124878 12:0.057246719 13:-1.881449 14:0.69869518 15:0.290216 16:1.3906879 17:0.60724622 18:1.526247 19:0.02602301 20:-0.93124878 21:0.057246719 22:0.74849248 23:-0.87745529 24:0.36787239 25:-1.6023999 26:-0.55469412 27:-0.63518971 28:-1.881449 29:0.69869518 30:0.290216 31:1.176623 32:0.2091741 33:-0.046295181 34:0.02602301 35:-0.93124878 36:0.057246719 37:0.92050898 38:0.93538678 39:0.7173264 40:-1.6023999 41:-0.55469412 42:-0.63518971 43:-1.6023999 44:-0.55469412 45:-0.63518971 46:0.35094309 47:-1.1249059 48:-0.90698719 49:0.85170239 50:-2.883954 51:0.1931455 52:0.85170239 53:-2.883954 54:0.1931455 55:1.3906879 56:0.60724622 57:1.526247 58:1.100171 59:1.3549761 60:-2.2271459 61:0.92050898 62:0.93538678 63:0.7173264 64:-1.6023999 65:-0.55469412 66:-0.63518971 67:-0.53207511 68:1.247389 69:0.0054757739 70:0.85170239 71:-2.883954 72:0.1931455 73:-0.46709111 74:0.47276241 75:1.44212 76:0.35094309 77:-1.1249059 78:-0.90698719 79:1.176623 80:0.2091741 81:-0.046295181 82:0.35094309 83:-1.1249059 84:-0.90698719 85:0.35094309 86:-1.1249059 87:-0.90698719 88:-1.6023999 89:-0.55469412 90:-0.63518971 91:0.2706688 92:-0.52241802 93:2.67168 94:0.85170239 95:-2.883954 96:0.1931455 97:0.35094309 98:-1.1249059 99:-0.90698719 100:-1.816465 101:1.9628429 102:0.54907078 #
-0.47144314748023452565917068568524 1:0.92050898 2:0.93538678 3:0.7173264 4:0.74849248 5:-0.87745529 6:0.36787239 7:-1.881449 8:0.69869518 9:0.290216 10:0.74849248 11:-0.87745529 12:0.36787239 13:-1.881449 14:0.69869518 15:0.290216 16:1.3906879 17:0.60724622 18:1.526247 19:0.02602301 20:-0.93124878 21:0.057246719 22:0.74849248 23:-0.87745529 24:0.36787239 25:-1.6023999 26:-0.55469412 27:-0.63518971 28:-1.6023999 29:-0.55469412 30:-0.63518971 31:1.3906879 32:0.60724622 33:1.526247 34:-1.029012 35:-1.3615969 36:-0.8358022 37:0.92050898 38:0.93538678 39:0.7173264 40:-0.95256001 41:-0.14586321 42:-0.26632169 43:-0.46709111 44:0.47276241 45:1.44212 46:-1.029012 47:-1.3615969 48:-0.8358022 49:0.85170239 50:-2.883954 51:0.1931455 52:0.85170239 53:-2.883954 54:0.1931455 55:1.176623 56:0.2091741 57:-0.046295181 58:1.100171 59:1.3549761 60:-2.2271459 61:1.230139 62:0.77938551 63:0.54259938 64:0.92050898 65:0.93538678 66:0.7173264 67:-0.53207511 68:1.247389 69:0.0054757739 70:0.85170239 71:-2.883954 72:0.1931455 73:-0.46709111 74:0.47276241 75:1.44212 76:0.35094309 77:-1.1249059 78:-0.90698719 79:1.176623 80:0.2091741 81:-0.046295181 82:0.02602301 83:-0.93124878 84:0.057246719 85:-1.029012 86:-1.3615969 87:-0.8358022 88:-1.029012 89:-1.3615969 90:-0.8358022 91:0.2706688 92:-0.52241802 93:2.67168 94:0.74849248 95:-0.87745529 96:0.36787239 97:0.35094309 98:-1.1249059 99:-0.90698719 100:0.92050898 101:0.93538678 102:0.7173264 #
-0.029978074194463147361666699453053 1:-1.6023999 2:-0.55469412 3:-0.63518971 4:1.100171 5:1.3549761 6:-2.2271459 7:0.83258939 8:0.28448501 9:-0.73873162 10:-0.95256001 11:-0.14586321 12:-0.26632169 13:-1.881449 14:0.69869518 15:0.290216 16:1.3906879 17:0.60724622 18:1.526247 19:-1.029012 20:-1.3615969 21:-0.8358022 22:0.74849248 23:-0.87745529 24:0.36787239 25:-1.881449 26:0.69869518 27:0.290216 28:-0.95256001 29:-0.14586321 30:-0.26632169 31:1.176623 32:0.2091741 33:-0.046295181 34:0.2706688 35:-0.52241802 36:2.67168 37:-1.881449 38:0.69869518 39:0.290216 40:-1.6023999 41:-0.55469412 42:-0.63518971 43:-0.53207511 44:1.247389 45:0.0054757739 46:0.35094309 47:-1.1249059 48:-0.90698719 49:0.35094309 50:-1.1249059 51:-0.90698719 52:0.85170239 53:-2.883954 54:0.1931455 55:1.176623 56:0.2091741 57:-0.046295181 58:-1.697965 59:-0.90435201 60:-0.66754657 61:1.230139 62:0.77938551 63:0.54259938 64:0.02602301 65:-0.93124878 66:0.057246719 67:-0.53207511 68:1.247389 69:0.0054757739 70:0.85170239 71:-2.883954 72:0.1931455 73:-0.46709111 74:0.47276241 75:1.44212 76:0.74849248 77:-0.87745529 78:0.36787239 79:1.176623 80:0.2091741 81:-0.046295181 82:0.02602301 83:-0.93124878 84:0.057246719 85:0.92050898 86:0.93538678 87:0.7173264 88:-1.6023999 89:-0.55469412 90:-0.63518971 91:-1.029012 92:-1.3615969 93:-0.8358022 94:0.74849248 95:-0.87745529 96:0.36787239 97:0.02602301 98:-0.93124878 99:0.057246719 100:1.100171 101:1.3549761 102:-2.2271459 #
5.5644922615987759684230695711449 1:-1.881449 2:0.69869518 3:0.290216 4:1.3906879 5:0.60724622 6:1.526247 7:0.83258939 8:0.28448501 9:-0.73873162 10:0.02602301 11:-0.93124878 12:0.057246719 13:-1.881449 14:0.69869518 15:0.290216 16:1.3906879 17:0.60724622 18:1.526247 19:0.85170239 20:-2.883954 21:0.1931455 22:0.02602301 23:-0.93124878 24:0.057246719 25:-1.029012 26:-1.3615969 27:-0.8358022 28:-1.881449 29:0.69869518 30:0.290216 31:1.176623 32:0.2091741 33:-0.046295181 34:0.83258939 35:0.28448501 36:-0.73873162 37:-1.881449 38:0.69869518 39:0.290216 40:-1.029012 41:-1.3615969 42:-0.8358022 43:-1.029012 44:-1.3615969 45:-0.8358022 46:-1.029012 47:-1.3615969 48:-0.8358022 49:0.85170239 50:-2.883954 51:0.1931455 52:0.85170239 53:-2.883954 54:0.1931455 55:1.176623 56:0.2091741 57:-0.046295181 58:-1.029012 59:-1.3615969 60:-0.8358022 61:1.230139 62:0.77938551 63:0.54259938 64:0.02602301 65:-0.93124878 66:0.057246719 67:-0.53207511 68:1.247389 69:0.0054757739 70:0.85170239 71:-2.883954 72:0.1931455 73:-0.46709111 74:0.47276241 75:1.44212 76:0.35094309 77:-1.1249059 78:-0.90698719 79:1.176623 80:0.2091741 81:-0.046295181 82:0.35094309 83:-1.1249059 84:-0.90698719 85:0.35094309 86:-1.1249059 87:-0.90698719 88:-1.029012 89:-1.3615969 90:-0.8358022 91:-0.95256001 92:-0.14586321 93:-0.26632169 94:0.02602301 95:-0.93124878 96:0.057246719 97:1.3906879 98:0.60724622 99:1.526247 100:-1.697965 101:-0.90435201 102:-0.66754657 #
