SVM-light Version V6.02
2 # kernel type
3 # kernel parameter -d 
0.0094402711 # kernel parameter -g 
1 # kernel parameter -s 
1 # kernel parameter -r 
empty# kernel parameter -u 
102 # highest feature index 
608 # number of training documents 
55 # number of support vectors plus 1 
0.98982921 # threshold b, each following line is a SV (starting with alpha*y)
-0.017120811693815143894603636454121 1:-1.6023999 2:-0.55469412 3:-0.63518971 4:-1.816465 5:1.9628429 6:0.54907078 7:0.02602301 8:-0.93124878 9:0.057246719 10:0.35094309 11:-1.1249059 12:-0.90698719 13:-1.881449 14:0.69869518 15:0.290216 16:1.3906879 17:0.60724622 18:1.526247 19:-1.6023999 20:-0.55469412 21:-0.63518971 22:0.74849248 23:-0.87745529 24:0.36787239 25:-1.029012 26:-1.3615969 27:-0.8358022 28:-1.881449 29:0.69869518 30:0.290216 31:1.176623 32:0.2091741 33:-0.046295181 34:-1.6023999 35:-0.55469412 36:-0.63518971 37:1.230139 38:0.77938551 39:0.54259938 40:0.35094309 41:-1.1249059 42:-0.90698719 43:1.230139 44:0.77938551 45:0.54259938 46:-1.6023999 47:-0.55469412 48:-0.63518971 49:0.02602301 50:-0.93124878 51:0.057246719 52:0.85170239 53:-2.883954 54:0.1931455 55:1.176623 56:0.2091741 57:-0.046295181 58:-0.53207511 59:1.247389 60:0.0054757739 61:1.230139 62:0.77938551 63:0.54259938 64:-1.6023999 65:-0.55469412 66:-0.63518971 67:-0.53207511 68:1.247389 69:0.0054757739 70:0.85170239 71:-2.883954 72:0.1931455 73:-0.46709111 74:0.47276241 75:1.44212 76:0.74849248 77:-0.87745529 78:0.36787239 79:1.176623 80:0.2091741 81:-0.046295181 82:1.3906879 83:0.60724622 84:1.526247 85:0.35094309 86:-1.1249059 87:-0.90698719 88:0.74849248 89:-0.87745529 90:0.36787239 91:-0.53207511 92:1.247389 93:0.0054757739 94:0.74849248 95:-0.87745529 96:0.36787239 97:0.35094309 98:-1.1249059 99:-0.90698719 100:-1.881449 101:0.69869518 102:0.290216 #
-0.062503909155931319796550837963878 1:-1.6023999 2:-0.55469412 3:-0.63518971 4:1.100171 5:1.3549761 6:-2.2271459 7:0.35094309 8:-1.1249059 9:-0.90698719 10:0.92050898 11:0.93538678 12:0.7173264 13:-1.881449 14:0.69869518 15:0.290216 16:1.3906879 17:0.60724622 18:1.526247 19:-1.881449 20:0.69869518 21:0.290216 22:0.74849248 23:-0.87745529 24:0.36787239 25:-1.029012 26:-1.3615969 27:-0.8358022 28:-1.816465 29:1.9628429 30:0.54907078 31:1.176623 32:0.2091741 33:-0.046295181 34:0.85170239 35:-2.883954 36:0.1931455 37:1.230139 38:0.77938551 39:0.54259938 40:0.83258939 41:0.28448501 42:-0.73873162 43:-1.029012 44:-1.3615969 45:-0.8358022 46:-1.881449 47:0.69869518 48:0.290216 49:0.85170239 50:-2.883954 51:0.1931455 52:0.85170239 53:-2.883954 54:0.1931455 55:1.176623 56:0.2091741 57:-0.046295181 58:-1.697965 59:-0.90435201 60:-0.66754657 61:1.230139 62:0.77938551 63:0.54259938 64:-0.95256001 65:-0.14586321 66:-0.26632169 67:-0.53207511 68:1.247389 69:0.0054757739 70:0.85170239 71:-2.883954 72:0.1931455 73:-1.697965 74:-0.90435201 75:-0.66754657 76:0.35094309 77:-1.1249059 78:-0.90698719 79:1.176623 80:0.2091741 81:-0.046295181 82:0.35094309 83:-1.1249059 84:-0.90698719 85:0.35094309 86:-1.1249059 87:-0.90698719 88:-1.029012 89:-1.3615969 90:-0.8358022 91:0.92050898 92:0.93538678 93:0.7173264 94:-1.029012 95:-1.3615969 96:-0.8358022 97:0.35094309 98:-1.1249059 99:-0.90698719 100:-0.53207511 101:1.247389 102:0.0054757739 #
-0.085014700103084428484123691305285 1:-1.029012 2:-1.3615969 3:-0.8358022 4:0.74849248 5:-0.87745529 6:0.36787239 7:-1.6023999 8:-0.55469412 9:-0.63518971 10:0.02602301 11:-0.93124878 12:0.057246719 13:0.92050898 14:0.93538678 15:0.7173264 16:1.3906879 17:0.60724622 18:1.526247 19:-0.46709111 20:0.47276241 21:1.44212 22:0.74849248 23:-0.87745529 24:0.36787239 25:-1.881449 26:0.69869518 27:0.290216 28:1.100171 29:1.3549761 30:-2.2271459 31:1.230139 32:0.77938551 33:0.54259938 34:-1.6023999 35:-0.55469412 36:-0.63518971 37:0.92050898 38:0.93538678 39:0.7173264 40:0.35094309 41:-1.1249059 42:-0.90698719 43:0.74849248 44:-0.87745529 45:0.36787239 46:0.2706688 47:-0.52241802 48:2.67168 49:0.85170239 50:-2.883954 51:0.1931455 52:0.85170239 53:-2.883954 54:0.1931455 55:1.176623 56:0.2091741 57:-0.046295181 58:-1.029012 59:-1.3615969 60:-0.8358022 61:1.230139 62:0.77938551 63:0.54259938 64:-1.029012 65:-1.3615969 66:-0.8358022 67:-0.53207511 68:1.247389 69:0.0054757739 70:0.85170239 71:-2.883954 72:0.1931455 73:0.74849248 74:-0.87745529 75:0.36787239 76:0.35094309 77:-1.1249059 78:-0.90698719 79:1.176623 80:0.2091741 81:-0.046295181 82:0.35094309 83:-1.1249059 84:-0.90698719 85:0.2706688 86:-0.52241802 87:2.67168 88:-1.029012 89:-1.3615969 90:-0.8358022 91:0.85170239 92:-2.883954 93:0.1931455 94:-1.029012 95:-1.3615969 96:-0.8358022 97:0.74849248 98:-0.87745529 99:0.36787239 100:0.83258939 101:0.28448501 102:-0.73873162 #
-1.1388313163715049203261742150062 1:-1.6023999 2:-0.55469412 3:-0.63518971 4:-1.816465 5:1.9628429 6:0.54907078 7:-1.6023999 8:-0.55469412 9:-0.63518971 10:0.74849248 11:-0.87745529 12:0.36787239 13:-1.881449 14:0.69869518 15:0.290216 16:1.3906879 17:0.60724622 18:1.526247 19:-1.6023999 20:-0.55469412 21:-0.63518971 22:0.74849248 23:-0.87745529 24:0.36787239 25:0.83258939 26:0.28448501 27:-0.73873162 28:1.100171 29:1.3549761 30:-2.2271459 31:0.74849248 32:-0.87745529 33:0.36787239 34:-0.95256001 35:-0.14586321 36:-0.26632169 37:0.92050898 38:0.93538678 39:0.7173264 40:0.2706688 41:-0.52241802 42:2.67168 43:-1.6023999 44:-0.55469412 45:-0.63518971 46:-1.881449 47:0.69869518 48:0.290216 49:0.85170239 50:-2.883954 51:0.1931455 52:0.85170239 53:-2.883954 54:0.1931455 55:1.176623 56:0.2091741 57:-0.046295181 58:-1.6023999 59:-0.55469412 60:-0.63518971 61:0.92050898 62:0.93538678 63:0.7173264 64:0.83258939 65:0.28448501 66:-0.73873162 67:-0.53207511 68:1.247389 69:0.0054757739 70:0.85170239 71:-2.883954 72:0.1931455 73:-1.029012 74:-1.3615969 75:-0.8358022 76:0.02602301 77:-0.93124878 78:0.057246719 79:1.176623 80:0.2091741 81:-0.046295181 82:0.2706688 83:-0.52241802 84:2.67168 85:0.35094309 86:-1.1249059 87:-0.90698719 88:1.3906879 89:0.60724622 90:1.526247 91:-1.029012 92:-1.3615969 93:-0.8358022 94:0.02602301 95:-0.93124878 96:0.057246719 97:0.74849248 98:-0.87745529 99:0.36787239 100:0.74849248 101:-0.87745529 102:0.36787239 #
-0.25513912378415470882941917807329 1:-1.6023999 2:-0.55469412 3:-0.63518971 4:0.85170239 5:-2.883954 6:0.1931455 7:0.35094309 8:-1.1249059 9:-0.90698719 10:0.74849248 11:-0.87745529 12:0.36787239 13:-1.881449 14:0.69869518 15:0.290216 16:1.3906879 17:0.60724622 18:1.526247 19:-1.029012 20:-1.3615969 21:-0.8358022 22:0.74849248 23:-0.87745529 24:0.36787239 25:0.74849248 26:-0.87745529 27:0.36787239 28:-1.029012 29:-1.3615969 30:-0.8358022 31:1.176623 32:0.2091741 33:-0.046295181 34:0.85170239 35:-2.883954 36:0.1931455 37:-1.6023999 38:-0.55469412 39:-0.63518971 40:-1.6023999 41:-0.55469412 42:-0.63518971 43:-0.95256001 44:-0.14586321 45:-0.26632169 46:-1.029012 47:-1.3615969 48:-0.8358022 49:0.85170239 50:-2.883954 51:0.1931455 52:0.85170239 53:-2.883954 54:0.1931455 55:1.176623 56:0.2091741 57:-0.046295181 58:0.35094309 59:-1.1249059 60:-0.90698719 61:1.230139 62:0.77938551 63:0.54259938 64:0.02602301 65:-0.93124878 66:0.057246719 67:-0.53207511 68:1.247389 69:0.0054757739 70:0.85170239 71:-2.883954 72:0.1931455 73:-0.46709111 74:0.47276241 75:1.44212 76:0.35094309 77:-1.1249059 78:-0.90698719 79:1.176623 80:0.2091741 81:-0.046295181 82:0.2706688 83:-0.52241802 84:2.67168 85:0.74849248 86:-0.87745529 87:0.36787239 88:0.35094309 89:-1.1249059 90:-0.90698719 91:-0.95256001 92:-0.14586321 93:-0.26632169 94:-1.029012 95:-1.3615969 96:-0.8358022 97:0.35094309 98:-1.1249059 99:-0.90698719 100:1.100171 101:1.3549761 102:-2.2271459 #
2.7550056258952992926936076401034 1:-1.6023999 2:-0.55469412 3:-0.63518971 4:-1.816465 5:1.9628429 6:0.54907078 7:0.83258939 8:0.28448501 9:-0.73873162 10:-1.697965 11:-0.90435201 12:-0.66754657 13:-1.881449 14:0.69869518 15:0.290216 16:1.3906879 17:0.60724622 18:1.526247 19:-0.53207511 20:1.247389 21:0.0054757739 22:0.74849248 23:-0.87745529 24:0.36787239 25:-1.029012 26:-1.3615969 27:-0.8358022 28:0.83258939 29:0.28448501 30:-0.73873162 31:1.176623 32:0.2091741 33:-0.046295181 34:0.74849248 35:-0.87745529 36:0.36787239 37:-0.53207511 38:1.247389 39:0.0054757739 40:0.02602301 41:-0.93124878 42:0.057246719 43:-1.6023999 44:-0.55469412 45:-0.63518971 46:-0.46709111 47:0.47276241 48:1.44212 49:0.85170239 50:-2.883954 51:0.1931455 52:0.85170239 53:-2.883954 54:0.1931455 55:1.176623 56:0.2091741 57:-0.046295181 58:0.92050898 59:0.93538678 60:0.7173264 61:1.230139 62:0.77938551 63:0.54259938 64:0.92050898 65:0.93538678 66:0.7173264 67:-0.53207511 68:1.247389 69:0.0054757739 70:0.85170239 71:-2.883954 72:0.1931455 73:-0.46709111 74:0.47276241 75:1.44212 76:0.02602301 77:-0.93124878 78:0.057246719 79:1.176623 80:0.2091741 81:-0.046295181 82:0.74849248 83:-0.87745529 84:0.36787239 85:0.83258939 86:0.28448501 87:-0.73873162 88:-1.6023999 89:-0.55469412 90:-0.63518971 91:-1.029012 92:-1.3615969 93:-0.8358022 94:0.35094309 95:-1.1249059 96:-0.90698719 97:0.85170239 98:-2.883954 99:0.1931455 100:-0.53207511 101:1.247389 102:0.0054757739 #
5.5977810361653137505300037446432 1:-1.6023999 2:-0.55469412 3:-0.63518971 4:-1.816465 5:1.9628429 6:0.54907078 7:0.83258939 8:0.28448501 9:-0.73873162 10:0.02602301 11:-0.93124878 12:0.057246719 13:-1.881449 14:0.69869518 15:0.290216 16:1.3906879 17:0.60724622 18:1.526247 19:-1.697965 20:-0.90435201 21:-0.66754657 22:0.2706688 23:-0.52241802 24:2.67168 25:-0.53207511 26:1.247389 27:0.0054757739 28:0.83258939 29:0.28448501 30:-0.73873162 31:1.176623 32:0.2091741 33:-0.046295181 34:0.35094309 35:-1.1249059 36:-0.90698719 37:-0.53207511 38:1.247389 39:0.0054757739 40:-1.6023999 41:-0.55469412 42:-0.63518971 43:-1.697965 44:-0.90435201 45:-0.66754657 46:0.35094309 47:-1.1249059 48:-0.90698719 49:0.02602301 50:-0.93124878 51:0.057246719 52:0.85170239 53:-2.883954 54:0.1931455 55:1.176623 56:0.2091741 57:-0.046295181 58:0.92050898 59:0.93538678 60:0.7173264 61:1.230139 62:0.77938551 63:0.54259938 64:0.83258939 65:0.28448501 66:-0.73873162 67:-0.53207511 68:1.247389 69:0.0054757739 70:0.85170239 71:-2.883954 72:0.1931455 73:-0.46709111 74:0.47276241 75:1.44212 76:0.74849248 77:-0.87745529 78:0.36787239 79:1.176623 80:0.2091741 81:-0.046295181 82:0.2706688 83:-0.52241802 84:2.67168 85:0.92050898 86:0.93538678 87:0.7173264 88:-1.029012 89:-1.3615969 90:-0.8358022 91:-1.029012 92:-1.3615969 93:-0.8358022 94:0.35094309 95:-1.1249059 96:-0.90698719 97:0.74849248 98:-0.87745529 99:0.36787239 100:0.92050898 101:0.93538678 102:0.7173264 #
10 1:-1.6023999 2:-0.55469412 3:-0.63518971 4:-1.816465 5:1.9628429 6:0.54907078 7:0.83258939 8:0.28448501 9:-0.73873162 10:0.02602301 11:-0.93124878 12:0.057246719 13:-1.881449 14:0.69869518 15:0.290216 16:1.3906879 17:0.60724622 18:1.526247 19:-1.697965 20:-0.90435201 21:-0.66754657 22:0.74849248 23:-0.87745529 24:0.36787239 25:-1.6023999 26:-0.55469412 27:-0.63518971 28:0.83258939 29:0.28448501 30:-0.73873162 31:1.176623 32:0.2091741 33:-0.046295181 34:0.74849248 35:-0.87745529 36:0.36787239 37:-1.881449 38:0.69869518 39:0.290216 40:-1.029012 41:-1.3615969 42:-0.8358022 43:0.74849248 44:-0.87745529 45:0.36787239 46:0.83258939 47:0.28448501 48:-0.73873162 49:0.02602301 50:-0.93124878 51:0.057246719 52:0.85170239 53:-2.883954 54:0.1931455 55:1.176623 56:0.2091741 57:-0.046295181 58:0.92050898 59:0.93538678 60:0.7173264 61:1.230139 62:0.77938551 63:0.54259938 64:0.92050898 65:0.93538678 66:0.7173264 67:-0.53207511 68:1.247389 69:0.0054757739 70:0.85170239 71:-2.883954 72:0.1931455 73:-0.46709111 74:0.47276241 75:1.44212 76:0.74849248 77:-0.87745529 78:0.36787239 79:1.176623 80:0.2091741 81:-0.046295181 82:0.02602301 83:-0.93124878 84:0.057246719 85:0.92050898 86:0.93538678 87:0.7173264 88:-1.029012 89:-1.3615969 90:-0.8358022 91:-1.029012 92:-1.3615969 93:-0.8358022 94:0.35094309 95:-1.1249059 96:-0.90698719 97:0.74849248 98:-0.87745529 99:0.36787239 100:-0.53207511 101:1.247389 102:0.0054757739 #
3.7711992422366806820832607627381 1:0.85170239 2:-2.883954 3:0.1931455 4:1.176623 5:0.2091741 6:-0.046295181 7:-1.6023999 8:-0.55469412 9:-0.63518971 10:0.35094309 11:-1.1249059 12:-0.90698719 13:-1.881449 14:0.69869518 15:0.290216 16:1.3906879 17:0.60724622 18:1.526247 19:-1.029012 20:-1.3615969 21:-0.8358022 22:0.74849248 23:-0.87745529 24:0.36787239 25:-1.029012 26:-1.3615969 27:-0.8358022 28:-1.881449 29:0.69869518 30:0.290216 31:1.176623 32:0.2091741 33:-0.046295181 34:0.74849248 35:-0.87745529 36:0.36787239 37:0.74849248 38:-0.87745529 39:0.36787239 40:0.85170239 41:-2.883954 42:0.1931455 43:-1.029012 44:-1.3615969 45:-0.8358022 46:-1.881449 47:0.69869518 48:0.290216 49:0.02602301 50:-0.93124878 51:0.057246719 52:0.85170239 53:-2.883954 54:0.1931455 55:1.3906879 56:0.60724622 57:1.526247 58:-1.029012 59:-1.3615969 60:-0.8358022 61:1.230139 62:0.77938551 63:0.54259938 64:0.74849248 65:-0.87745529 66:0.36787239 67:-0.53207511 68:1.247389 69:0.0054757739 70:0.85170239 71:-2.883954 72:0.1931455 73:0.83258939 74:0.28448501 75:-0.73873162 76:0.74849248 77:-0.87745529 78:0.36787239 79:1.176623 80:0.2091741 81:-0.046295181 82:0.74849248 83:-0.87745529 84:0.36787239 85:-1.881449 86:0.69869518 87:0.290216 88:-0.53207511 89:1.247389 90:0.0054757739 91:0.02602301 92:-0.93124878 93:0.057246719 94:0.35094309 95:-1.1249059 96:-0.90698719 97:0.35094309 98:-1.1249059 99:-0.90698719 100:-1.881449 101:0.69869518 102:0.290216 #
5.0486807033166112290700766607188 1:0.83258939 2:0.28448501 3:-0.73873162 4:-1.029012 5:-1.3615969 6:-0.8358022 7:0.35094309 8:-1.1249059 9:-0.90698719 10:-1.6023999 11:-0.55469412 12:-0.63518971 13:-1.881449 14:0.69869518 15:0.290216 16:-0.46709111 17:0.47276241 18:1.44212 19:-1.881449 20:0.69869518 21:0.290216 22:0.85170239 23:-2.883954 24:0.1931455 25:0.2706688 26:-0.52241802 27:2.67168 28:-0.46709111 29:0.47276241 30:1.44212 31:0.85170239 32:-2.883954 33:0.1931455 34:0.85170239 35:-2.883954 36:0.1931455 37:0.74849248 38:-0.87745529 39:0.36787239 40:-1.029012 41:-1.3615969 42:-0.8358022 43:0.83258939 44:0.28448501 45:-0.73873162 46:-1.029012 47:-1.3615969 48:-0.8358022 49:0.85170239 50:-2.883954 51:0.1931455 52:0.74849248 53:-0.87745529 54:0.36787239 55:0.02602301 56:-0.93124878 57:0.057246719 58:0.83258939 59:0.28448501 60:-0.73873162 61:0.83258939 62:0.28448501 63:-0.73873162 64:-1.029012 65:-1.3615969 66:-0.8358022 67:-1.881449 68:0.69869518 69:0.290216 70:0.85170239 71:-2.883954 72:0.1931455 73:-0.95256001 74:-0.14586321 75:-0.26632169 76:0.02602301 77:-0.93124878 78:0.057246719 79:1.176623 80:0.2091741 81:-0.046295181 82:0.85170239 83:-2.883954 84:0.1931455 85:-1.6023999 86:-0.55469412 87:-0.63518971 88:-1.6023999 89:-0.55469412 90:-0.63518971 91:0.35094309 92:-1.1249059 93:-0.90698719 94:-1.881449 95:0.69869518 96:0.290216 97:0.35094309 98:-1.1249059 99:-0.90698719 100:1.100171 101:1.3549761 102:-2.2271459 #
-5.4381248395456207589404584723525 1:-1.6023999 2:-0.55469412 3:-0.63518971 4:-1.816465 5:1.9628429 6:0.54907078 7:0.92050898 8:0.93538678 9:0.7173264 10:0.35094309 11:-1.1249059 12:-0.90698719 13:-1.881449 14:0.69869518 15:0.290216 16:1.3906879 17:0.60724622 18:1.526247 19:-1.029012 20:-1.3615969 21:-0.8358022 22:0.74849248 23:-0.87745529 24:0.36787239 25:0.02602301 26:-0.93124878 27:0.057246719 28:0.83258939 29:0.28448501 30:-0.73873162 31:1.176623 32:0.2091741 33:-0.046295181 34:0.74849248 35:-0.87745529 36:0.36787239 37:-0.53207511 38:1.247389 39:0.0054757739 40:0.02602301 41:-0.93124878 42:0.057246719 43:0.02602301 44:-0.93124878 45:0.057246719 46:0.83258939 47:0.28448501 48:-0.73873162 49:0.02602301 50:-0.93124878 51:0.057246719 52:0.85170239 53:-2.883954 54:0.1931455 55:1.176623 56:0.2091741 57:-0.046295181 58:0.92050898 59:0.93538678 60:0.7173264 61:1.230139 62:0.77938551 63:0.54259938 64:0.92050898 65:0.93538678 66:0.7173264 67:-0.53207511 68:1.247389 69:0.0054757739 70:0.85170239 71:-2.883954 72:0.1931455 73:-0.46709111 74:0.47276241 75:1.44212 76:0.74849248 77:-0.87745529 78:0.36787239 79:1.176623 80:0.2091741 81:-0.046295181 82:0.35094309 83:-1.1249059 84:-0.90698719 85:0.92050898 86:0.93538678 87:0.7173264 88:-1.029012 89:-1.3615969 90:-0.8358022 91:-1.029012 92:-1.3615969 93:-0.8358022 94:0.35094309 95:-1.1249059 96:-0.90698719 97:0.02602301 98:-0.93124878 99:0.057246719 100:0.92050898 101:0.93538678 102:0.7173264 #
-2.9449974738491455639177729608491 1:-1.6023999 2:-0.55469412 3:-0.63518971 4:-1.816465 5:1.9628429 6:0.54907078 7:0.92050898 8:0.93538678 9:0.7173264 10:0.35094309 11:-1.1249059 12:-0.90698719 13:-1.881449 14:0.69869518 15:0.290216 16:1.3906879 17:0.60724622 18:1.526247 19:-1.029012 20:-1.3615969 21:-0.8358022 22:0.74849248 23:-0.87745529 24:0.36787239 25:0.02602301 26:-0.93124878 27:0.057246719 28:0.83258939 29:0.28448501 30:-0.73873162 31:1.176623 32:0.2091741 33:-0.046295181 34:0.74849248 35:-0.87745529 36:0.36787239 37:-1.881449 38:0.69869518 39:0.290216 40:0.02602301 41:-0.93124878 42:0.057246719 43:0.02602301 44:-0.93124878 45:0.057246719 46:0.83258939 47:0.28448501 48:-0.73873162 49:0.02602301 50:-0.93124878 51:0.057246719 52:0.85170239 53:-2.883954 54:0.1931455 55:1.176623 56:0.2091741 57:-0.046295181 58:0.92050898 59:0.93538678 60:0.7173264 61:1.230139 62:0.77938551 63:0.54259938 64:0.92050898 65:0.93538678 66:0.7173264 67:-0.53207511 68:1.247389 69:0.0054757739 70:0.85170239 71:-2.883954 72:0.1931455 73:-0.46709111 74:0.47276241 75:1.44212 76:0.35094309 77:-1.1249059 78:-0.90698719 79:1.176623 80:0.2091741 81:-0.046295181 82:0.35094309 83:-1.1249059 84:-0.90698719 85:0.92050898 86:0.93538678 87:0.7173264 88:-1.029012 89:-1.3615969 90:-0.8358022 91:-1.029012 92:-1.3615969 93:-0.8358022 94:0.35094309 95:-1.1249059 96:-0.90698719 97:0.02602301 98:-0.93124878 99:0.057246719 100:0.92050898 101:0.93538678 102:0.7173264 #
-6.2322436649071439873637245909777 1:-1.6023999 2:-0.55469412 3:-0.63518971 4:-1.816465 5:1.9628429 6:0.54907078 7:0.83258939 8:0.28448501 9:-0.73873162 10:0.02602301 11:-0.93124878 12:0.057246719 13:-1.881449 14:0.69869518 15:0.290216 16:1.3906879 17:0.60724622 18:1.526247 19:-1.029012 20:-1.3615969 21:-0.8358022 22:0.74849248 23:-0.87745529 24:0.36787239 25:-1.881449 26:0.69869518 27:0.290216 28:0.83258939 29:0.28448501 30:-0.73873162 31:1.176623 32:0.2091741 33:-0.046295181 34:0.74849248 35:-0.87745529 36:0.36787239 37:-1.881449 38:0.69869518 39:0.290216 40:-1.029012 41:-1.3615969 42:-0.8358022 43:-1.697965 44:-0.90435201 45:-0.66754657 46:0.35094309 47:-1.1249059 48:-0.90698719 49:0.02602301 50:-0.93124878 51:0.057246719 52:0.85170239 53:-2.883954 54:0.1931455 55:1.176623 56:0.2091741 57:-0.046295181 58:1.230139 59:0.77938551 60:0.54259938 61:1.230139 62:0.77938551 63:0.54259938 64:0.92050898 65:0.93538678 66:0.7173264 67:-0.53207511 68:1.247389 69:0.0054757739 70:0.85170239 71:-2.883954 72:0.1931455 73:-0.46709111 74:0.47276241 75:1.44212 76:0.74849248 77:-0.87745529 78:0.36787239 79:1.176623 80:0.2091741 81:-0.046295181 82:0.74849248 83:-0.87745529 84:0.36787239 85:0.92050898 86:0.93538678 87:0.7173264 88:-1.029012 89:-1.3615969 90:-0.8358022 91:-1.029012 92:-1.3615969 93:-0.8358022 94:0.35094309 95:-1.1249059 96:-0.90698719 97:0.35094309 98:-1.1249059 99:-0.90698719 100:-1.881449 101:0.69869518 102:0.290216 #
4.6301672560154703006674026255496 1:-1.6023999 2:-0.55469412 3:-0.63518971 4:-1.816465 5:1.9628429 6:0.54907078 7:0.92050898 8:0.93538678 9:0.7173264 10:0.35094309 11:-1.1249059 12:-0.90698719 13:-1.881449 14:0.69869518 15:0.290216 16:1.3906879 17:0.60724622 18:1.526247 19:-1.881449 20:0.69869518 21:0.290216 22:0.74849248 23:-0.87745529 24:0.36787239 25:-1.029012 26:-1.3615969 27:-0.8358022 28:0.83258939 29:0.28448501 30:-0.73873162 31:1.176623 32:0.2091741 33:-0.046295181 34:0.74849248 35:-0.87745529 36:0.36787239 37:-1.881449 38:0.69869518 39:0.290216 40:0.02602301 41:-0.93124878 42:0.057246719 43:-1.6023999 44:-0.55469412 45:-0.63518971 46:0.83258939 47:0.28448501 48:-0.73873162 49:0.85170239 50:-2.883954 51:0.1931455 52:0.85170239 53:-2.883954 54:0.1931455 55:1.176623 56:0.2091741 57:-0.046295181 58:0.92050898 59:0.93538678 60:0.7173264 61:1.230139 62:0.77938551 63:0.54259938 64:-1.029012 65:-1.3615969 66:-0.8358022 67:-0.53207511 68:1.247389 69:0.0054757739 70:0.85170239 71:-2.883954 72:0.1931455 73:-0.46709111 74:0.47276241 75:1.44212 76:0.02602301 77:-0.93124878 78:0.057246719 79:1.176623 80:0.2091741 81:-0.046295181 82:0.35094309 83:-1.1249059 84:-0.90698719 85:0.92050898 86:0.93538678 87:0.7173264 88:0.02602301 89:-0.93124878 90:0.057246719 91:-1.029012 92:-1.3615969 93:-0.8358022 94:0.35094309 95:-1.1249059 96:-0.90698719 97:0.35094309 98:-1.1249059 99:-0.90698719 100:0.92050898 101:0.93538678 102:0.7173264 #
0.29462994636847472662566360668279 1:-1.6023999 2:-0.55469412 3:-0.63518971 4:-1.816465 5:1.9628429 6:0.54907078 7:0.83258939 8:0.28448501 9:-0.73873162 10:-1.029012 11:-1.3615969 12:-0.8358022 13:-1.881449 14:0.69869518 15:0.290216 16:1.3906879 17:0.60724622 18:1.526247 19:-0.53207511 20:1.247389 21:0.0054757739 22:0.74849248 23:-0.87745529 24:0.36787239 25:-1.029012 26:-1.3615969 27:-0.8358022 28:0.83258939 29:0.28448501 30:-0.73873162 31:1.176623 32:0.2091741 33:-0.046295181 34:0.74849248 35:-0.87745529 36:0.36787239 37:-0.53207511 38:1.247389 39:0.0054757739 40:0.02602301 41:-0.93124878 42:0.057246719 43:0.2706688 44:-0.52241802 45:2.67168 46:0.83258939 47:0.28448501 48:-0.73873162 49:0.85170239 50:-2.883954 51:0.1931455 52:0.85170239 53:-2.883954 54:0.1931455 55:1.176623 56:0.2091741 57:-0.046295181 58:0.92050898 59:0.93538678 60:0.7173264 61:1.230139 62:0.77938551 63:0.54259938 64:0.92050898 65:0.93538678 66:0.7173264 67:-0.53207511 68:1.247389 69:0.0054757739 70:0.85170239 71:-2.883954 72:0.1931455 73:-0.46709111 74:0.47276241 75:1.44212 76:0.02602301 77:-0.93124878 78:0.057246719 79:1.176623 80:0.2091741 81:-0.046295181 82:0.74849248 83:-0.87745529 84:0.36787239 85:0.83258939 86:0.28448501 87:-0.73873162 88:-1.6023999 89:-0.55469412 90:-0.63518971 91:-1.697965 92:-0.90435201 93:-0.66754657 94:0.35094309 95:-1.1249059 96:-0.90698719 97:0.85170239 98:-2.883954 99:0.1931455 100:-0.53207511 101:1.247389 102:0.0054757739 #
-1.557472238550120291478151557385 1:0.74849248 2:-0.87745529 3:0.36787239 4:-1.029012 5:-1.3615969 6:-0.8358022 7:0.74849248 8:-0.87745529 9:0.36787239 10:-1.6023999 11:-0.55469412 12:-0.63518971 13:-0.53207511 14:1.247389 15:0.0054757739 16:-0.46709111 17:0.47276241 18:1.44212 19:-0.95256001 20:-0.14586321 21:-0.26632169 22:0.74849248 23:-0.87745529 24:0.36787239 25:0.74849248 26:-0.87745529 27:0.36787239 28:-0.46709111 29:0.47276241 30:1.44212 31:0.85170239 32:-2.883954 33:0.1931455 34:0.85170239 35:-2.883954 36:0.1931455 37:0.02602301 38:-0.93124878 39:0.057246719 40:-1.6023999 41:-0.55469412 42:-0.63518971 43:0.83258939 44:0.28448501 45:-0.73873162 46:-1.029012 47:-1.3615969 48:-0.8358022 49:0.85170239 50:-2.883954 51:0.1931455 52:0.85170239 53:-2.883954 54:0.1931455 55:0.02602301 56:-0.93124878 57:0.057246719 58:0.83258939 59:0.28448501 60:-0.73873162 61:0.83258939 62:0.28448501 63:-0.73873162 64:-1.029012 65:-1.3615969 66:-0.8358022 67:-1.881449 68:0.69869518 69:0.290216 70:0.85170239 71:-2.883954 72:0.1931455 73:-0.95256001 74:-0.14586321 75:-0.26632169 76:0.02602301 77:-0.93124878 78:0.057246719 79:1.176623 80:0.2091741 81:-0.046295181 82:0.85170239 83:-2.883954 84:0.1931455 85:-1.6023999 86:-0.55469412 87:-0.63518971 88:-1.029012 89:-1.3615969 90:-0.8358022 91:1.230139 92:0.77938551 93:0.54259938 94:-0.53207511 95:1.247389 96:0.0054757739 97:0.35094309 98:-1.1249059 99:-0.90698719 100:1.100171 101:1.3549761 102:-2.2271459 #
-0.070012499435277320003478962462395 1:-1.6023999 2:-0.55469412 3:-0.63518971 4:0.02602301 5:-0.93124878 6:0.057246719 7:0.83258939 8:0.28448501 9:-0.73873162 10:0.02602301 11:-0.93124878 12:0.057246719 13:-1.881449 14:0.69869518 15:0.290216 16:1.3906879 17:0.60724622 18:1.526247 19:0.02602301 20:-0.93124878 21:0.057246719 22:0.02602301 23:-0.93124878 24:0.057246719 25:-1.697965 26:-0.90435201 27:-0.66754657 28:-1.6023999 29:-0.55469412 30:-0.63518971 31:1.176623 32:0.2091741 33:-0.046295181 34:-0.95256001 35:-0.14586321 36:-0.26632169 37:-1.029012 38:-1.3615969 39:-0.8358022 40:-1.6023999 41:-0.55469412 42:-0.63518971 43:-1.6023999 44:-0.55469412 45:-0.63518971 46:-1.6023999 47:-0.55469412 48:-0.63518971 49:0.02602301 50:-0.93124878 51:0.057246719 52:0.85170239 53:-2.883954 54:0.1931455 55:1.176623 56:0.2091741 57:-0.046295181 58:-1.881449 59:0.69869518 60:0.290216 61:1.230139 62:0.77938551 63:0.54259938 64:-1.029012 65:-1.3615969 66:-0.8358022 67:-0.53207511 68:1.247389 69:0.0054757739 70:0.85170239 71:-2.883954 72:0.1931455 73:-0.46709111 74:0.47276241 75:1.44212 76:0.35094309 77:-1.1249059 78:-0.90698719 79:1.176623 80:0.2091741 81:-0.046295181 82:0.2706688 83:-0.52241802 84:2.67168 85:0.35094309 86:-1.1249059 87:-0.90698719 88:0.74849248 89:-0.87745529 90:0.36787239 91:-1.697965 92:-0.90435201 93:-0.66754657 94:-1.697965 95:-0.90435201 96:-0.66754657 97:0.35094309 98:-1.1249059 99:-0.90698719 100:0.2706688 101:-0.52241802 102:2.67168 #
-0.92140576523888306770260214761947 1:1.100171 2:1.3549761 3:-2.2271459 4:-1.816465 5:1.9628429 6:0.54907078 7:0.83258939 8:0.28448501 9:-0.73873162 10:0.02602301 11:-0.93124878 12:0.057246719 13:-1.881449 14:0.69869518 15:0.290216 16:1.3906879 17:0.60724622 18:1.526247 19:-1.697965 20:-0.90435201 21:-0.66754657 22:0.74849248 23:-0.87745529 24:0.36787239 25:-1.029012 26:-1.3615969 27:-0.8358022 28:1.230139 29:0.77938551 30:0.54259938 31:1.176623 32:0.2091741 33:-0.046295181 34:-1.6023999 35:-0.55469412 36:-0.63518971 37:-0.53207511 38:1.247389 39:0.0054757739 40:-1.6023999 41:-0.55469412 42:-0.63518971 43:-1.816465 44:1.9628429 45:0.54907078 46:0.2706688 47:-0.52241802 48:2.67168 49:0.85170239 50:-2.883954 51:0.1931455 52:0.85170239 53:-2.883954 54:0.1931455 55:1.176623 56:0.2091741 57:-0.046295181 58:-0.53207511 59:1.247389 60:0.0054757739 61:0.92050898 62:0.93538678 63:0.7173264 64:0.85170239 65:-2.883954 66:0.1931455 67:-0.53207511 68:1.247389 69:0.0054757739 70:0.85170239 71:-2.883954 72:0.1931455 73:-0.46709111 74:0.47276241 75:1.44212 76:0.02602301 77:-0.93124878 78:0.057246719 79:1.176623 80:0.2091741 81:-0.046295181 82:0.02602301 83:-0.93124878 84:0.057246719 85:0.35094309 86:-1.1249059 87:-0.90698719 88:-1.697965 89:-0.90435201 90:-0.66754657 91:0.85170239 92:-2.883954 93:0.1931455 94:-1.029012 95:-1.3615969 96:-0.8358022 97:0.74849248 98:-0.87745529 99:0.36787239 100:0.92050898 101:0.93538678 102:0.7173264 #
-0.21815236086480788157970778229355 1:0.74849248 2:-0.87745529 3:0.36787239 4:0.74849248 5:-0.87745529 6:0.36787239 7:-1.6023999 8:-0.55469412 9:-0.63518971 10:0.74849248 11:-0.87745529 12:0.36787239 13:-1.881449 14:0.69869518 15:0.290216 16:1.3906879 17:0.60724622 18:1.526247 19:-1.697965 20:-0.90435201 21:-0.66754657 22:-1.697965 23:-0.90435201 24:-0.66754657 25:-1.6023999 26:-0.55469412 27:-0.63518971 28:-1.881449 29:0.69869518 30:0.290216 31:1.176623 32:0.2091741 33:-0.046295181 34:0.74849248 35:-0.87745529 36:0.36787239 37:-1.029012 38:-1.3615969 39:-0.8358022 40:-1.6023999 41:-0.55469412 42:-0.63518971 43:-1.029012 44:-1.3615969 45:-0.8358022 46:-1.029012 47:-1.3615969 48:-0.8358022 49:0.02602301 50:-0.93124878 51:0.057246719 52:0.85170239 53:-2.883954 54:0.1931455 55:1.176623 56:0.2091741 57:-0.046295181 58:0.02602301 59:-0.93124878 60:0.057246719 61:1.230139 62:0.77938551 63:0.54259938 64:0.85170239 65:-2.883954 66:0.1931455 67:-1.816465 68:1.9628429 69:0.54907078 70:0.85170239 71:-2.883954 72:0.1931455 73:-0.46709111 74:0.47276241 75:1.44212 76:0.35094309 77:-1.1249059 78:-0.90698719 79:1.176623 80:0.2091741 81:-0.046295181 82:0.2706688 83:-0.52241802 84:2.67168 85:0.74849248 86:-0.87745529 87:0.36787239 88:-1.029012 89:-1.3615969 90:-0.8358022 91:-1.697965 92:-0.90435201 93:-0.66754657 94:0.02602301 95:-0.93124878 96:0.057246719 97:0.2706688 98:-0.52241802 99:2.67168 100:-1.6023999 101:-0.55469412 102:-0.63518971 #
-0.29976790814766784976086455571931 1:0.2706688 2:-0.52241802 3:2.67168 4:0.74849248 5:-0.87745529 6:0.36787239 7:0.74849248 8:-0.87745529 9:0.36787239 10:0.02602301 11:-0.93124878 12:0.057246719 13:-1.881449 14:0.69869518 15:0.290216 16:1.3906879 17:0.60724622 18:1.526247 19:-1.6023999 20:-0.55469412 21:-0.63518971 22:0.74849248 23:-0.87745529 24:0.36787239 25:-1.6023999 26:-0.55469412 27:-0.63518971 28:-1.881449 29:0.69869518 30:0.290216 31:1.176623 32:0.2091741 33:-0.046295181 34:0.02602301 35:-0.93124878 36:0.057246719 37:-1.881449 38:0.69869518 39:0.290216 40:-1.6023999 41:-0.55469412 42:-0.63518971 43:0.2706688 44:-0.52241802 45:2.67168 46:-1.6023999 47:-0.55469412 48:-0.63518971 49:0.85170239 50:-2.883954 51:0.1931455 52:0.85170239 53:-2.883954 54:0.1931455 55:1.176623 56:0.2091741 57:-0.046295181 58:-1.697965 59:-0.90435201 60:-0.66754657 61:0.74849248 62:-0.87745529 63:0.36787239 64:0.85170239 65:-2.883954 66:0.1931455 67:-0.53207511 68:1.247389 69:0.0054757739 70:1.230139 71:0.77938551 72:0.54259938 73:-0.46709111 74:0.47276241 75:1.44212 76:0.02602301 77:-0.93124878 78:0.057246719 79:1.176623 80:0.2091741 81:-0.046295181 82:0.2706688 83:-0.52241802 84:2.67168 85:0.2706688 86:-0.52241802 87:2.67168 88:-0.46709111 89:0.47276241 90:1.44212 91:-1.6023999 92:-0.55469412 93:-0.63518971 94:0.85170239 95:-2.883954 96:0.1931455 97:-1.697965 98:-0.90435201 99:-0.66754657 100:0.74849248 101:-0.87745529 102:0.36787239 #
-0.75091256218331048355452139730914 1:0.74849248 2:-0.87745529 3:0.36787239 4:-1.816465 5:1.9628429 6:0.54907078 7:1.08488 8:0.75786811 9:-2.033005 10:-1.6023999 11:-0.55469412 12:-0.63518971 13:-1.881449 14:0.69869518 15:0.290216 16:1.3906879 17:0.60724622 18:1.526247 19:0.02602301 20:-0.93124878 21:0.057246719 22:-1.881449 23:0.69869518 24:0.290216 25:-1.029012 26:-1.3615969 27:-0.8358022 28:-1.6023999 29:-0.55469412 30:-0.63518971 31:1.230139 32:0.77938551 33:0.54259938 34:0.85170239 35:-2.883954 36:0.1931455 37:0.02602301 38:-0.93124878 39:0.057246719 40:0.02602301 41:-0.93124878 42:0.057246719 43:-1.029012 44:-1.3615969 45:-0.8358022 46:-1.029012 47:-1.3615969 48:-0.8358022 49:0.85170239 50:-2.883954 51:0.1931455 52:0.85170239 53:-2.883954 54:0.1931455 55:1.176623 56:0.2091741 57:-0.046295181 58:1.230139 59:0.77938551 60:0.54259938 61:1.230139 62:0.77938551 63:0.54259938 64:0.83258939 65:0.28448501 66:-0.73873162 67:-0.53207511 68:1.247389 69:0.0054757739 70:0.85170239 71:-2.883954 72:0.1931455 73:-0.46709111 74:0.47276241 75:1.44212 76:0.35094309 77:-1.1249059 78:-0.90698719 79:1.176623 80:0.2091741 81:-0.046295181 82:1.230139 83:0.77938551 84:0.54259938 85:0.74849248 86:-0.87745529 87:0.36787239 88:-1.029012 89:-1.3615969 90:-0.8358022 91:-1.029012 92:-1.3615969 93:-0.8358022 94:0.74849248 95:-0.87745529 96:0.36787239 97:0.35094309 98:-1.1249059 99:-0.90698719 100:-0.53207511 101:1.247389 102:0.0054757739 #
-1.9770285422584883416874390604789 1:1.230139 2:0.77938551 3:0.54259938 4:0.02602301 5:-0.93124878 6:0.057246719 7:0.74849248 8:-0.87745529 9:0.36787239 10:-1.6023999 11:-0.55469412 12:-0.63518971 13:-1.881449 14:0.69869518 15:0.290216 16:-0.46709111 17:0.47276241 18:1.44212 19:-1.6023999 20:-0.55469412 21:-0.63518971 22:0.02602301 23:-0.93124878 24:0.057246719 25:0.2706688 26:-0.52241802 27:2.67168 28:-0.46709111 29:0.47276241 30:1.44212 31:0.85170239 32:-2.883954 33:0.1931455 34:0.85170239 35:-2.883954 36:0.1931455 37:0.02602301 38:-0.93124878 39:0.057246719 40:-1.6023999 41:-0.55469412 42:-0.63518971 43:0.83258939 44:0.28448501 45:-0.73873162 46:-1.029012 47:-1.3615969 48:-0.8358022 49:0.85170239 50:-2.883954 51:0.1931455 52:0.85170239 53:-2.883954 54:0.1931455 55:0.74849248 56:-0.87745529 57:0.36787239 58:0.83258939 59:0.28448501 60:-0.73873162 61:0.83258939 62:0.28448501 63:-0.73873162 64:-1.029012 65:-1.3615969 66:-0.8358022 67:-1.881449 68:0.69869518 69:0.290216 70:0.85170239 71:-2.883954 72:0.1931455 73:-0.95256001 74:-0.14586321 75:-0.26632169 76:0.02602301 77:-0.93124878 78:0.057246719 79:1.176623 80:0.2091741 81:-0.046295181 82:0.85170239 83:-2.883954 84:0.1931455 85:-1.6023999 86:-0.55469412 87:-0.63518971 88:-1.6023999 89:-0.55469412 90:-0.63518971 91:1.230139 92:0.77938551 93:0.54259938 94:-1.881449 95:0.69869518 96:0.290216 97:0.35094309 98:-1.1249059 99:-0.90698719 100:1.100171 101:1.3549761 102:-2.2271459 #
-0.27224897055887664620854593522381 1:1.230139 2:0.77938551 3:0.54259938 4:0.02602301 5:-0.93124878 6:0.057246719 7:0.74849248 8:-0.87745529 9:0.36787239 10:-1.6023999 11:-0.55469412 12:-0.63518971 13:-1.881449 14:0.69869518 15:0.290216 16:-0.46709111 17:0.47276241 18:1.44212 19:-1.6023999 20:-0.55469412 21:-0.63518971 22:0.02602301 23:-0.93124878 24:0.057246719 25:0.2706688 26:-0.52241802 27:2.67168 28:-0.46709111 29:0.47276241 30:1.44212 31:0.85170239 32:-2.883954 33:0.1931455 34:0.85170239 35:-2.883954 36:0.1931455 37:0.02602301 38:-0.93124878 39:0.057246719 40:-1.6023999 41:-0.55469412 42:-0.63518971 43:0.83258939 44:0.28448501 45:-0.73873162 46:0.02602301 47:-0.93124878 48:0.057246719 49:0.85170239 50:-2.883954 51:0.1931455 52:0.85170239 53:-2.883954 54:0.1931455 55:0.02602301 56:-0.93124878 57:0.057246719 58:0.83258939 59:0.28448501 60:-0.73873162 61:0.83258939 62:0.28448501 63:-0.73873162 64:-1.029012 65:-1.3615969 66:-0.8358022 67:-1.881449 68:0.69869518 69:0.290216 70:0.85170239 71:-2.883954 72:0.1931455 73:-0.95256001 74:-0.14586321 75:-0.26632169 76:0.02602301 77:-0.93124878 78:0.057246719 79:1.176623 80:0.2091741 81:-0.046295181 82:0.85170239 83:-2.883954 84:0.1931455 85:-1.6023999 86:-0.55469412 87:-0.63518971 88:-1.6023999 89:-0.55469412 90:-0.63518971 91:0.2706688 92:-0.52241802 93:2.67168 94:-1.881449 95:0.69869518 96:0.290216 97:0.35094309 98:-1.1249059 99:-0.90698719 100:1.100171 101:1.3549761 102:-2.2271459 #
-0.96933379238581240944228056832799 1:0.83258939 2:0.28448501 3:-0.73873162 4:-1.816465 5:1.9628429 6:0.54907078 7:0.74849248 8:-0.87745529 9:0.36787239 10:0.02602301 11:-0.93124878 12:0.057246719 13:-1.881449 14:0.69869518 15:0.290216 16:1.3906879 17:0.60724622 18:1.526247 19:-1.697965 20:-0.90435201 21:-0.66754657 22:0.74849248 23:-0.87745529 24:0.36787239 25:-1.6023999 26:-0.55469412 27:-0.63518971 28:-1.816465 29:1.9628429 30:0.54907078 31:1.176623 32:0.2091741 33:-0.046295181 34:0.92050898 35:0.93538678 36:0.7173264 37:0.92050898 38:0.93538678 39:0.7173264 40:-1.6023999 41:-0.55469412 42:-0.63518971 43:-1.029012 44:-1.3615969 45:-0.8358022 46:0.2706688 47:-0.52241802 48:2.67168 49:0.85170239 50:-2.883954 51:0.1931455 52:0.85170239 53:-2.883954 54:0.1931455 55:1.176623 56:0.2091741 57:-0.046295181 58:1.230139 59:0.77938551 60:0.54259938 61:0.92050898 62:0.93538678 63:0.7173264 64:0.35094309 65:-1.1249059 66:-0.90698719 67:-0.53207511 68:1.247389 69:0.0054757739 70:0.85170239 71:-2.883954 72:0.1931455 73:-0.46709111 74:0.47276241 75:1.44212 76:0.35094309 77:-1.1249059 78:-0.90698719 79:1.176623 80:0.2091741 81:-0.046295181 82:0.02602301 83:-0.93124878 84:0.057246719 85:0.74849248 86:-0.87745529 87:0.36787239 88:-1.697965 89:-0.90435201 90:-0.66754657 91:-1.697965 92:-0.90435201 93:-0.66754657 94:-1.029012 95:-1.3615969 96:-0.8358022 97:0.35094309 98:-1.1249059 99:-0.90698719 100:0.92050898 101:0.93538678 102:0.7173264 #
-0.56986839430626645697230969744851 1:0.35094309 2:-1.1249059 3:-0.90698719 4:0.83258939 5:0.28448501 6:-0.73873162 7:-1.6023999 8:-0.55469412 9:-0.63518971 10:0.35094309 11:-1.1249059 12:-0.90698719 13:-1.881449 14:0.69869518 15:0.290216 16:1.3906879 17:0.60724622 18:1.526247 19:-1.881449 20:0.69869518 21:0.290216 22:0.74849248 23:-0.87745529 24:0.36787239 25:-1.029012 26:-1.3615969 27:-0.8358022 28:-0.46709111 29:0.47276241 30:1.44212 31:1.176623 32:0.2091741 33:-0.046295181 34:0.2706688 35:-0.52241802 36:2.67168 37:1.230139 38:0.77938551 39:0.54259938 40:-1.6023999 41:-0.55469412 42:-0.63518971 43:-1.881449 44:0.69869518 45:0.290216 46:0.02602301 47:-0.93124878 48:0.057246719 49:0.2706688 50:-0.52241802 51:2.67168 52:0.85170239 53:-2.883954 54:0.1931455 55:1.176623 56:0.2091741 57:-0.046295181 58:1.176623 59:0.2091741 60:-0.046295181 61:1.230139 62:0.77938551 63:0.54259938 64:-1.697965 65:-0.90435201 66:-0.66754657 67:-0.53207511 68:1.247389 69:0.0054757739 70:0.85170239 71:-2.883954 72:0.1931455 73:-0.46709111 74:0.47276241 75:1.44212 76:0.35094309 77:-1.1249059 78:-0.90698719 79:1.176623 80:0.2091741 81:-0.046295181 82:0.02602301 83:-0.93124878 84:0.057246719 85:0.02602301 86:-0.93124878 87:0.057246719 88:-1.029012 89:-1.3615969 90:-0.8358022 91:-0.53207511 92:1.247389 93:0.0054757739 94:0.02602301 95:-0.93124878 96:0.057246719 97:0.35094309 98:-1.1249059 99:-0.90698719 100:1.100171 101:1.3549761 102:-2.2271459 #
-0.27171724223764265326863664995471 1:-1.6023999 2:-0.55469412 3:-0.63518971 4:1.3906879 5:0.60724622 6:1.526247 7:1.100171 8:1.3549761 9:-2.2271459 10:0.02602301 11:-0.93124878 12:0.057246719 13:-1.881449 14:0.69869518 15:0.290216 16:1.3906879 17:0.60724622 18:1.526247 19:-0.46709111 20:0.47276241 21:1.44212 22:0.74849248 23:-0.87745529 24:0.36787239 25:-1.6023999 26:-0.55469412 27:-0.63518971 28:-0.53207511 29:1.247389 30:0.0054757739 31:0.02602301 32:-0.93124878 33:0.057246719 34:-1.029012 35:-1.3615969 36:-0.8358022 37:0.92050898 38:0.93538678 39:0.7173264 40:-1.6023999 41:-0.55469412 42:-0.63518971 43:0.85170239 44:-2.883954 45:0.1931455 46:0.35094309 47:-1.1249059 48:-0.90698719 49:0.85170239 50:-2.883954 51:0.1931455 52:0.85170239 53:-2.883954 54:0.1931455 55:1.3906879 56:0.60724622 57:1.526247 58:1.100171 59:1.3549761 60:-2.2271459 61:1.230139 62:0.77938551 63:0.54259938 64:0.35094309 65:-1.1249059 66:-0.90698719 67:-0.53207511 68:1.247389 69:0.0054757739 70:0.85170239 71:-2.883954 72:0.1931455 73:-0.46709111 74:0.47276241 75:1.44212 76:0.35094309 77:-1.1249059 78:-0.90698719 79:1.176623 80:0.2091741 81:-0.046295181 82:0.35094309 83:-1.1249059 84:-0.90698719 85:0.35094309 86:-1.1249059 87:-0.90698719 88:-1.6023999 89:-0.55469412 90:-0.63518971 91:0.2706688 92:-0.52241802 93:2.67168 94:0.02602301 95:-0.93124878 96:0.057246719 97:0.35094309 98:-1.1249059 99:-0.90698719 100:-1.816465 101:1.9628429 102:0.54907078 #
-0.20643738072562056728997958998661 1:-1.6023999 2:-0.55469412 3:-0.63518971 4:-0.53207511 5:1.247389 6:0.0054757739 7:1.08488 8:0.75786811 9:-2.033005 10:0.02602301 11:-0.93124878 12:0.057246719 13:-1.881449 14:0.69869518 15:0.290216 16:1.3906879 17:0.60724622 18:1.526247 19:-0.46709111 20:0.47276241 21:1.44212 22:0.02602301 23:-0.93124878 24:0.057246719 25:-1.6023999 26:-0.55469412 27:-0.63518971 28:-0.53207511 29:1.247389 30:0.0054757739 31:1.176623 32:0.2091741 33:-0.046295181 34:-1.029012 35:-1.3615969 36:-0.8358022 37:1.230139 38:0.77938551 39:0.54259938 40:-1.881449 41:0.69869518 42:0.290216 43:0.83258939 44:0.28448501 45:-0.73873162 46:0.35094309 47:-1.1249059 48:-0.90698719 49:0.85170239 50:-2.883954 51:0.1931455 52:0.85170239 53:-2.883954 54:0.1931455 55:1.3906879 56:0.60724622 57:1.526247 58:-1.6023999 59:-0.55469412 60:-0.63518971 61:0.92050898 62:0.93538678 63:0.7173264 64:0.35094309 65:-1.1249059 66:-0.90698719 67:-0.53207511 68:1.247389 69:0.0054757739 70:0.85170239 71:-2.883954 72:0.1931455 73:-0.46709111 74:0.47276241 75:1.44212 76:0.35094309 77:-1.1249059 78:-0.90698719 79:1.176623 80:0.2091741 81:-0.046295181 82:0.35094309 83:-1.1249059 84:-0.90698719 85:0.35094309 86:-1.1249059 87:-0.90698719 88:-1.881449 89:0.69869518 90:0.290216 91:0.2706688 92:-0.52241802 93:2.67168 94:0.02602301 95:-0.93124878 96:0.057246719 97:0.74849248 98:-0.87745529 99:0.36787239 100:-1.816465 101:1.9628429 102:0.54907078 #
-0.5647032252028703069868242891971 1:0.02602301 2:-0.93124878 3:0.057246719 4:0.02602301 5:-0.93124878 6:0.057246719 7:-0.53207511 8:1.247389 9:0.0054757739 10:0.74849248 11:-0.87745529 12:0.36787239 13:-1.881449 14:0.69869518 15:0.290216 16:1.3906879 17:0.60724622 18:1.526247 19:-1.697965 20:-0.90435201 21:-0.66754657 22:0.74849248 23:-0.87745529 24:0.36787239 25:-1.697965 26:-0.90435201 27:-0.66754657 28:0.02602301 29:-0.93124878 30:0.057246719 31:1.3906879 32:0.60724622 33:1.526247 34:0.35094309 35:-1.1249059 36:-0.90698719 37:-1.029012 38:-1.3615969 39:-0.8358022 40:-1.6023999 41:-0.55469412 42:-0.63518971 43:-1.697965 44:-0.90435201 45:-0.66754657 46:-1.881449 47:0.69869518 48:0.290216 49:0.35094309 50:-1.1249059 51:-0.90698719 52:0.85170239 53:-2.883954 54:0.1931455 55:1.176623 56:0.2091741 57:-0.046295181 58:-0.53207511 59:1.247389 60:0.0054757739 61:1.230139 62:0.77938551 63:0.54259938 64:-1.029012 65:-1.3615969 66:-0.8358022 67:-0.53207511 68:1.247389 69:0.0054757739 70:0.85170239 71:-2.883954 72:0.1931455 73:-0.46709111 74:0.47276241 75:1.44212 76:0.02602301 77:-0.93124878 78:0.057246719 79:1.176623 80:0.2091741 81:-0.046295181 82:1.230139 83:0.77938551 84:0.54259938 85:0.35094309 86:-1.1249059 87:-0.90698719 88:-1.6023999 89:-0.55469412 90:-0.63518971 91:-1.697965 92:-0.90435201 93:-0.66754657 94:0.35094309 95:-1.1249059 96:-0.90698719 97:0.35094309 98:-1.1249059 99:-0.90698719 100:0.02602301 101:-0.93124878 102:0.057246719 #
-0.34342753360722794164772153635568 1:1.230139 2:0.77938551 3:0.54259938 4:-1.029012 5:-1.3615969 6:-0.8358022 7:-1.697965 8:-0.90435201 9:-0.66754657 10:-1.6023999 11:-0.55469412 12:-0.63518971 13:0.92050898 14:0.93538678 15:0.7173264 16:1.3906879 17:0.60724622 18:1.526247 19:-0.95256001 20:-0.14586321 21:-0.26632169 22:0.85170239 23:-2.883954 24:0.1931455 25:-1.697965 26:-0.90435201 27:-0.66754657 28:0.85170239 29:-2.883954 30:0.1931455 31:0.85170239 32:-2.883954 33:0.1931455 34:0.35094309 35:-1.1249059 36:-0.90698719 37:0.85170239 38:-2.883954 39:0.1931455 40:0.85170239 41:-2.883954 42:0.1931455 43:-1.881449 44:0.69869518 45:0.290216 46:0.2706688 47:-0.52241802 48:2.67168 49:0.85170239 50:-2.883954 51:0.1931455 52:0.02602301 53:-0.93124878 54:0.057246719 55:1.176623 56:0.2091741 57:-0.046295181 58:-0.53207511 59:1.247389 60:0.0054757739 61:-0.46709111 62:0.47276241 63:1.44212 64:0.2706688 65:-0.52241802 66:2.67168 67:-0.53207511 68:1.247389 69:0.0054757739 70:0.85170239 71:-2.883954 72:0.1931455 73:-1.6023999 74:-0.55469412 75:-0.63518971 76:0.02602301 77:-0.93124878 78:0.057246719 79:1.176623 80:0.2091741 81:-0.046295181 82:0.85170239 83:-2.883954 84:0.1931455 85:0.35094309 86:-1.1249059 87:-0.90698719 88:-1.6023999 89:-0.55469412 90:-0.63518971 91:-1.697965 92:-0.90435201 93:-0.66754657 94:-1.029012 95:-1.3615969 96:-0.8358022 97:0.35094309 98:-1.1249059 99:-0.90698719 100:0.85170239 101:-2.883954 102:0.1931455 #
-2.0271630375292630787953385151923 1:-1.6023999 2:-0.55469412 3:-0.63518971 4:-1.816465 5:1.9628429 6:0.54907078 7:0.83258939 8:0.28448501 9:-0.73873162 10:0.02602301 11:-0.93124878 12:0.057246719 13:-1.881449 14:0.69869518 15:0.290216 16:1.3906879 17:0.60724622 18:1.526247 19:-1.029012 20:-1.3615969 21:-0.8358022 22:0.74849248 23:-0.87745529 24:0.36787239 25:-1.881449 26:0.69869518 27:0.290216 28:0.83258939 29:0.28448501 30:-0.73873162 31:1.176623 32:0.2091741 33:-0.046295181 34:0.35094309 35:-1.1249059 36:-0.90698719 37:-1.881449 38:0.69869518 39:0.290216 40:-1.6023999 41:-0.55469412 42:-0.63518971 43:-0.95256001 44:-0.14586321 45:-0.26632169 46:0.35094309 47:-1.1249059 48:-0.90698719 49:0.02602301 50:-0.93124878 51:0.057246719 52:0.85170239 53:-2.883954 54:0.1931455 55:1.176623 56:0.2091741 57:-0.046295181 58:0.92050898 59:0.93538678 60:0.7173264 61:1.230139 62:0.77938551 63:0.54259938 64:0.83258939 65:0.28448501 66:-0.73873162 67:-0.53207511 68:1.247389 69:0.0054757739 70:0.85170239 71:-2.883954 72:0.1931455 73:-0.46709111 74:0.47276241 75:1.44212 76:0.74849248 77:-0.87745529 78:0.36787239 79:1.176623 80:0.2091741 81:-0.046295181 82:0.35094309 83:-1.1249059 84:-0.90698719 85:0.92050898 86:0.93538678 87:0.7173264 88:-1.029012 89:-1.3615969 90:-0.8358022 91:-1.029012 92:-1.3615969 93:-0.8358022 94:0.35094309 95:-1.1249059 96:-0.90698719 97:0.02602301 98:-0.93124878 99:0.057246719 100:-1.881449 101:0.69869518 102:0.290216 #
-0.34659950562747587898826395758078 1:-1.6023999 2:-0.55469412 3:-0.63518971 4:0.74849248 5:-0.87745529 6:0.36787239 7:-1.6023999 8:-0.55469412 9:-0.63518971 10:0.74849248 11:-0.87745529 12:0.36787239 13:-1.881449 14:0.69869518 15:0.290216 16:1.3906879 17:0.60724622 18:1.526247 19:0.92050898 20:0.93538678 21:0.7173264 22:-1.881449 23:0.69869518 24:0.290216 25:-1.029012 26:-1.3615969 27:-0.8358022 28:1.176623 29:0.2091741 30:-0.046295181 31:0.83258939 32:0.28448501 33:-0.73873162 34:1.3906879 35:0.60724622 36:1.526247 37:0.74849248 38:-0.87745529 39:0.36787239 40:0.85170239 41:-2.883954 42:0.1931455 43:1.3906879 44:0.60724622 45:1.526247 46:0.2706688 47:-0.52241802 48:2.67168 49:-1.029012 50:-1.3615969 51:-0.8358022 52:0.85170239 53:-2.883954 54:0.1931455 55:1.176623 56:0.2091741 57:-0.046295181 58:-1.697965 59:-0.90435201 60:-0.66754657 61:1.230139 62:0.77938551 63:0.54259938 64:0.85170239 65:-2.883954 66:0.1931455 67:-0.53207511 68:1.247389 69:0.0054757739 70:0.85170239 71:-2.883954 72:0.1931455 73:-0.46709111 74:0.47276241 75:1.44212 76:0.35094309 77:-1.1249059 78:-0.90698719 79:1.176623 80:0.2091741 81:-0.046295181 82:-1.029012 83:-1.3615969 84:-0.8358022 85:0.74849248 86:-0.87745529 87:0.36787239 88:-1.697965 89:-0.90435201 90:-0.66754657 91:0.35094309 92:-1.1249059 93:-0.90698719 94:0.35094309 95:-1.1249059 96:-0.90698719 97:0.74849248 98:-0.87745529 99:0.36787239 100:1.08488 101:0.75786811 102:-2.033005 #
-0.30035792024013779899505038883945 1:0.74849248 2:-0.87745529 3:0.36787239 4:1.3906879 5:0.60724622 6:1.526247 7:-1.6023999 8:-0.55469412 9:-0.63518971 10:0.74849248 11:-0.87745529 12:0.36787239 13:-1.881449 14:0.69869518 15:0.290216 16:1.176623 17:0.2091741 18:-0.046295181 19:-0.46709111 20:0.47276241 21:1.44212 22:-1.881449 23:0.69869518 24:0.290216 25:-1.029012 26:-1.3615969 27:-0.8358022 28:1.100171 29:1.3549761 30:-2.2271459 31:0.83258939 32:0.28448501 33:-0.73873162 34:-0.95256001 35:-0.14586321 36:-0.26632169 37:1.230139 38:0.77938551 39:0.54259938 40:0.85170239 41:-2.883954 42:0.1931455 43:-1.029012 44:-1.3615969 45:-0.8358022 46:-1.6023999 47:-0.55469412 48:-0.63518971 49:-1.029012 50:-1.3615969 51:-0.8358022 52:0.85170239 53:-2.883954 54:0.1931455 55:1.176623 56:0.2091741 57:-0.046295181 58:-1.6023999 59:-0.55469412 60:-0.63518971 61:0.74849248 62:-0.87745529 63:0.36787239 64:1.176623 65:0.2091741 66:-0.046295181 67:-0.53207511 68:1.247389 69:0.0054757739 70:0.85170239 71:-2.883954 72:0.1931455 73:-1.881449 74:0.69869518 75:0.290216 76:0.35094309 77:-1.1249059 78:-0.90698719 79:1.176623 80:0.2091741 81:-0.046295181 82:0.74849248 83:-0.87745529 84:0.36787239 85:0.02602301 86:-0.93124878 87:0.057246719 88:-1.881449 89:0.69869518 90:0.290216 91:-1.029012 92:-1.3615969 93:-0.8358022 94:0.35094309 95:-1.1249059 96:-0.90698719 97:0.02602301 98:-0.93124878 99:0.057246719 100:-1.6023999 101:-0.55469412 102:-0.63518971 #
-0.16924649272594916027401268365793 1:0.35094309 2:-1.1249059 3:-0.90698719 4:1.3906879 5:0.60724622 6:1.526247 7:-1.697965 8:-0.90435201 9:-0.66754657 10:0.02602301 11:-0.93124878 12:0.057246719 13:-1.881449 14:0.69869518 15:0.290216 16:1.3906879 17:0.60724622 18:1.526247 19:-1.6023999 20:-0.55469412 21:-0.63518971 22:0.74849248 23:-0.87745529 24:0.36787239 25:-1.029012 26:-1.3615969 27:-0.8358022 28:-0.53207511 29:1.247389 30:0.0054757739 31:1.3906879 32:0.60724622 33:1.526247 34:0.85170239 35:-2.883954 36:0.1931455 37:1.230139 38:0.77938551 39:0.54259938 40:0.74849248 41:-0.87745529 42:0.36787239 43:-1.6023999 44:-0.55469412 45:-0.63518971 46:-1.816465 47:1.9628429 48:0.54907078 49:0.74849248 50:-0.87745529 51:0.36787239 52:0.85170239 53:-2.883954 54:0.1931455 55:1.3906879 56:0.60724622 57:1.526247 58:-1.029012 59:-1.3615969 60:-0.8358022 61:0.83258939 62:0.28448501 63:-0.73873162 64:-0.46709111 65:0.47276241 66:1.44212 67:0.85170239 68:-2.883954 69:0.1931455 70:1.100171 71:1.3549761 72:-2.2271459 73:1.100171 74:1.3549761 75:-2.2271459 76:0.35094309 77:-1.1249059 78:-0.90698719 79:1.176623 80:0.2091741 81:-0.046295181 82:0.02602301 83:-0.93124878 84:0.057246719 85:0.02602301 86:-0.93124878 87:0.057246719 88:-1.697965 89:-0.90435201 90:-0.66754657 91:-1.816465 92:1.9628429 93:0.54907078 94:0.74849248 95:-0.87745529 96:0.36787239 97:-1.697965 98:-0.90435201 99:-0.66754657 100:1.176623 101:0.2091741 102:-0.046295181 #
-0.88317946308208927774785479414277 1:-1.6023999 2:-0.55469412 3:-0.63518971 4:-0.53207511 5:1.247389 6:0.0054757739 7:1.176623 8:0.2091741 9:-0.046295181 10:0.02602301 11:-0.93124878 12:0.057246719 13:-1.881449 14:0.69869518 15:0.290216 16:1.3906879 17:0.60724622 18:1.526247 19:-1.029012 20:-1.3615969 21:-0.8358022 22:0.2706688 23:-0.52241802 24:2.67168 25:-0.53207511 26:1.247389 27:0.0054757739 28:0.83258939 29:0.28448501 30:-0.73873162 31:1.176623 32:0.2091741 33:-0.046295181 34:0.74849248 35:-0.87745529 36:0.36787239 37:-0.53207511 38:1.247389 39:0.0054757739 40:-1.6023999 41:-0.55469412 42:-0.63518971 43:-1.697965 44:-0.90435201 45:-0.66754657 46:0.35094309 47:-1.1249059 48:-0.90698719 49:0.02602301 50:-0.93124878 51:0.057246719 52:0.85170239 53:-2.883954 54:0.1931455 55:1.176623 56:0.2091741 57:-0.046295181 58:0.92050898 59:0.93538678 60:0.7173264 61:1.230139 62:0.77938551 63:0.54259938 64:0.92050898 65:0.93538678 66:0.7173264 67:-0.53207511 68:1.247389 69:0.0054757739 70:0.85170239 71:-2.883954 72:0.1931455 73:-0.46709111 74:0.47276241 75:1.44212 76:0.74849248 77:-0.87745529 78:0.36787239 79:1.176623 80:0.2091741 81:-0.046295181 82:0.35094309 83:-1.1249059 84:-0.90698719 85:0.92050898 86:0.93538678 87:0.7173264 88:-1.029012 89:-1.3615969 90:-0.8358022 91:-1.029012 92:-1.3615969 93:-0.8358022 94:0.35094309 95:-1.1249059 96:-0.90698719 97:0.02602301 98:-0.93124878 99:0.057246719 100:-0.53207511 101:1.247389 102:0.0054757739 #
-0.27692909989433944772940776601899 1:-1.881449 2:0.69869518 3:0.290216 4:-1.816465 5:1.9628429 6:0.54907078 7:-1.697965 8:-0.90435201 9:-0.66754657 10:0.02602301 11:-0.93124878 12:0.057246719 13:-1.881449 14:0.69869518 15:0.290216 16:1.3906879 17:0.60724622 18:1.526247 19:-1.6023999 20:-0.55469412 21:-0.63518971 22:0.74849248 23:-0.87745529 24:0.36787239 25:-1.029012 26:-1.3615969 27:-0.8358022 28:-0.95256001 29:-0.14586321 30:-0.26632169 31:1.3906879 32:0.60724622 33:1.526247 34:-0.46709111 35:0.47276241 36:1.44212 37:-1.029012 38:-1.3615969 39:-0.8358022 40:0.74849248 41:-0.87745529 42:0.36787239 43:-1.6023999 44:-0.55469412 45:-0.63518971 46:-1.881449 47:0.69869518 48:0.290216 49:0.2706688 50:-0.52241802 51:2.67168 52:0.85170239 53:-2.883954 54:0.1931455 55:1.176623 56:0.2091741 57:-0.046295181 58:-0.53207511 59:1.247389 60:0.0054757739 61:1.230139 62:0.77938551 63:0.54259938 64:0.35094309 65:-1.1249059 66:-0.90698719 67:-0.53207511 68:1.247389 69:0.0054757739 70:0.85170239 71:-2.883954 72:0.1931455 73:-0.46709111 74:0.47276241 75:1.44212 76:0.35094309 77:-1.1249059 78:-0.90698719 79:1.176623 80:0.2091741 81:-0.046295181 82:0.02602301 83:-0.93124878 84:0.057246719 85:0.35094309 86:-1.1249059 87:-0.90698719 88:-1.029012 89:-1.3615969 90:-0.8358022 91:0.02602301 92:-0.93124878 93:0.057246719 94:-1.029012 95:-1.3615969 96:-0.8358022 97:0.35094309 98:-1.1249059 99:-0.90698719 100:0.83258939 101:0.28448501 102:-0.73873162 #
-0.092291232823474705915245408505143 1:-1.6023999 2:-0.55469412 3:-0.63518971 4:0.85170239 5:-2.883954 6:0.1931455 7:-1.6023999 8:-0.55469412 9:-0.63518971 10:0.92050898 11:0.93538678 12:0.7173264 13:-1.881449 14:0.69869518 15:0.290216 16:1.3906879 17:0.60724622 18:1.526247 19:-1.881449 20:0.69869518 21:0.290216 22:0.74849248 23:-0.87745529 24:0.36787239 25:-1.029012 26:-1.3615969 27:-0.8358022 28:-1.6023999 29:-0.55469412 30:-0.63518971 31:1.176623 32:0.2091741 33:-0.046295181 34:-0.53207511 35:1.247389 36:0.0054757739 37:0.2706688 38:-0.52241802 39:2.67168 40:0.83258939 41:0.28448501 42:-0.73873162 43:-1.6023999 44:-0.55469412 45:-0.63518971 46:-1.6023999 47:-0.55469412 48:-0.63518971 49:0.85170239 50:-2.883954 51:0.1931455 52:0.85170239 53:-2.883954 54:0.1931455 55:1.3906879 56:0.60724622 57:1.526247 58:0.02602301 59:-0.93124878 60:0.057246719 61:1.230139 62:0.77938551 63:0.54259938 64:-1.029012 65:-1.3615969 66:-0.8358022 67:-0.53207511 68:1.247389 69:0.0054757739 70:0.85170239 71:-2.883954 72:0.1931455 73:-1.697965 74:-0.90435201 75:-0.66754657 76:0.35094309 77:-1.1249059 78:-0.90698719 79:1.176623 80:0.2091741 81:-0.046295181 82:0.35094309 83:-1.1249059 84:-0.90698719 85:0.35094309 86:-1.1249059 87:-0.90698719 88:-1.029012 89:-1.3615969 90:-0.8358022 91:-1.697965 92:-0.90435201 93:-0.66754657 94:0.35094309 95:-1.1249059 96:-0.90698719 97:0.35094309 98:-1.1249059 99:-0.90698719 100:-1.881449 101:0.69869518 102:0.290216 #
-0.20540823254718598711576760251774 1:0.85170239 2:-2.883954 3:0.1931455 4:0.2706688 5:-0.52241802 6:2.67168 7:0.92050898 8:0.93538678 9:0.7173264 10:0.74849248 11:-0.87745529 12:0.36787239 13:-1.881449 14:0.69869518 15:0.290216 16:1.3906879 17:0.60724622 18:1.526247 19:-1.6023999 20:-0.55469412 21:-0.63518971 22:0.74849248 23:-0.87745529 24:0.36787239 25:-1.697965 26:-0.90435201 27:-0.66754657 28:-1.6023999 29:-0.55469412 30:-0.63518971 31:1.176623 32:0.2091741 33:-0.046295181 34:0.02602301 35:-0.93124878 36:0.057246719 37:-1.881449 38:0.69869518 39:0.290216 40:-1.6023999 41:-0.55469412 42:-0.63518971 43:0.85170239 44:-2.883954 45:0.1931455 46:-1.881449 47:0.69869518 48:0.290216 49:-1.697965 50:-0.90435201 51:-0.66754657 52:0.85170239 53:-2.883954 54:0.1931455 55:1.176623 56:0.2091741 57:-0.046295181 58:-1.029012 59:-1.3615969 60:-0.8358022 61:1.230139 62:0.77938551 63:0.54259938 64:0.74849248 65:-0.87745529 66:0.36787239 67:-0.53207511 68:1.247389 69:0.0054757739 70:0.85170239 71:-2.883954 72:0.1931455 73:-0.46709111 74:0.47276241 75:1.44212 76:0.35094309 77:-1.1249059 78:-0.90698719 79:1.176623 80:0.2091741 81:-0.046295181 82:0.02602301 83:-0.93124878 84:0.057246719 85:0.2706688 86:-0.52241802 87:2.67168 88:-1.029012 89:-1.3615969 90:-0.8358022 91:-1.6023999 92:-0.55469412 93:-0.63518971 94:-1.029012 95:-1.3615969 96:-0.8358022 97:0.35094309 98:-1.1249059 99:-0.90698719 100:0.02602301 101:-0.93124878 102:0.057246719 #
-0.22917776683333274112541744216287 1:1.230139 2:0.77938551 3:0.54259938 4:-1.816465 5:1.9628429 6:0.54907078 7:1.08488 8:0.75786811 9:-2.033005 10:-1.6023999 11:-0.55469412 12:-0.63518971 13:-1.881449 14:0.69869518 15:0.290216 16:1.3906879 17:0.60724622 18:1.526247 19:0.02602301 20:-0.93124878 21:0.057246719 22:-1.881449 23:0.69869518 24:0.290216 25:-1.029012 26:-1.3615969 27:-0.8358022 28:-1.6023999 29:-0.55469412 30:-0.63518971 31:0.74849248 32:-0.87745529 33:0.36787239 34:0.35094309 35:-1.1249059 36:-0.90698719 37:0.35094309 38:-1.1249059 39:-0.90698719 40:0.85170239 41:-2.883954 42:0.1931455 43:0.35094309 44:-1.1249059 45:-0.90698719 46:-1.6023999 47:-0.55469412 48:-0.63518971 49:0.85170239 50:-2.883954 51:0.1931455 52:0.85170239 53:-2.883954 54:0.1931455 55:1.176623 56:0.2091741 57:-0.046295181 58:-1.029012 59:-1.3615969 60:-0.8358022 61:1.230139 62:0.77938551 63:0.54259938 64:1.176623 65:0.2091741 66:-0.046295181 67:-0.53207511 68:1.247389 69:0.0054757739 70:0.85170239 71:-2.883954 72:0.1931455 73:-0.46709111 74:0.47276241 75:1.44212 76:0.35094309 77:-1.1249059 78:-0.90698719 79:1.176623 80:0.2091741 81:-0.046295181 82:0.74849248 83:-0.87745529 84:0.36787239 85:0.74849248 86:-0.87745529 87:0.36787239 88:-1.029012 89:-1.3615969 90:-0.8358022 91:-1.029012 92:-1.3615969 93:-0.8358022 94:0.02602301 95:-0.93124878 96:0.057246719 97:0.35094309 98:-1.1249059 99:-0.90698719 100:-1.816465 101:1.9628429 102:0.54907078 #
-0.087570794869041873598192182726052 1:-1.881449 2:0.69869518 3:0.290216 4:-1.816465 5:1.9628429 6:0.54907078 7:0.02602301 8:-0.93124878 9:0.057246719 10:0.35094309 11:-1.1249059 12:-0.90698719 13:-1.881449 14:0.69869518 15:0.290216 16:1.3906879 17:0.60724622 18:1.526247 19:-1.6023999 20:-0.55469412 21:-0.63518971 22:0.02602301 23:-0.93124878 24:0.057246719 25:-1.029012 26:-1.3615969 27:-0.8358022 28:-0.53207511 29:1.247389 30:0.0054757739 31:1.176623 32:0.2091741 33:-0.046295181 34:0.02602301 35:-0.93124878 36:0.057246719 37:1.230139 38:0.77938551 39:0.54259938 40:0.35094309 41:-1.1249059 42:-0.90698719 43:1.230139 44:0.77938551 45:0.54259938 46:-1.029012 47:-1.3615969 48:-0.8358022 49:0.02602301 50:-0.93124878 51:0.057246719 52:0.85170239 53:-2.883954 54:0.1931455 55:1.176623 56:0.2091741 57:-0.046295181 58:0.2706688 59:-0.52241802 60:2.67168 61:1.230139 62:0.77938551 63:0.54259938 64:-1.6023999 65:-0.55469412 66:-0.63518971 67:-0.53207511 68:1.247389 69:0.0054757739 70:0.85170239 71:-2.883954 72:0.1931455 73:-0.46709111 74:0.47276241 75:1.44212 76:0.74849248 77:-0.87745529 78:0.36787239 79:1.176623 80:0.2091741 81:-0.046295181 82:0.35094309 83:-1.1249059 84:-0.90698719 85:0.35094309 86:-1.1249059 87:-0.90698719 88:0.35094309 89:-1.1249059 90:-0.90698719 91:-0.53207511 92:1.247389 93:0.0054757739 94:0.74849248 95:-0.87745529 96:0.36787239 97:0.74849248 98:-0.87745529 99:0.36787239 100:-1.816465 101:1.9628429 102:0.54907078 #
-0.12136754886077594228765974548878 1:-1.6023999 2:-0.55469412 3:-0.63518971 4:1.230139 5:0.77938551 6:0.54259938 7:0.35094309 8:-1.1249059 9:-0.90698719 10:0.02602301 11:-0.93124878 12:0.057246719 13:-1.881449 14:0.69869518 15:0.290216 16:1.3906879 17:0.60724622 18:1.526247 19:0.02602301 20:-0.93124878 21:0.057246719 22:0.02602301 23:-0.93124878 24:0.057246719 25:0.35094309 26:-1.1249059 27:-0.90698719 28:-1.881449 29:0.69869518 30:0.290216 31:1.176623 32:0.2091741 33:-0.046295181 34:0.85170239 35:-2.883954 36:0.1931455 37:-1.881449 38:0.69869518 39:0.290216 40:-1.6023999 41:-0.55469412 42:-0.63518971 43:-1.6023999 44:-0.55469412 45:-0.63518971 46:-1.881449 47:0.69869518 48:0.290216 49:0.85170239 50:-2.883954 51:0.1931455 52:0.85170239 53:-2.883954 54:0.1931455 55:1.176623 56:0.2091741 57:-0.046295181 58:-1.6023999 59:-0.55469412 60:-0.63518971 61:0.92050898 62:0.93538678 63:0.7173264 64:-1.029012 65:-1.3615969 66:-0.8358022 67:-0.53207511 68:1.247389 69:0.0054757739 70:0.85170239 71:-2.883954 72:0.1931455 73:-0.46709111 74:0.47276241 75:1.44212 76:0.35094309 77:-1.1249059 78:-0.90698719 79:1.176623 80:0.2091741 81:-0.046295181 82:1.230139 83:0.77938551 84:0.54259938 85:0.35094309 86:-1.1249059 87:-0.90698719 88:0.35094309 89:-1.1249059 90:-0.90698719 91:-1.881449 92:0.69869518 93:0.290216 94:0.74849248 95:-0.87745529 96:0.36787239 97:0.74849248 98:-0.87745529 99:0.36787239 100:-1.816465 101:1.9628429 102:0.54907078 #
-0.15138014205779382059802173898788 1:-1.6023999 2:-0.55469412 3:-0.63518971 4:0.02602301 5:-0.93124878 6:0.057246719 7:0.35094309 8:-1.1249059 9:-0.90698719 10:0.02602301 11:-0.93124878 12:0.057246719 13:-1.881449 14:0.69869518 15:0.290216 16:1.3906879 17:0.60724622 18:1.526247 19:0.02602301 20:-0.93124878 21:0.057246719 22:0.74849248 23:-0.87745529 24:0.36787239 25:-1.029012 26:-1.3615969 27:-0.8358022 28:-1.697965 29:-0.90435201 30:-0.66754657 31:0.83258939 32:0.28448501 33:-0.73873162 34:-0.46709111 35:0.47276241 36:1.44212 37:1.3906879 38:0.60724622 39:1.526247 40:-1.6023999 41:-0.55469412 42:-0.63518971 43:-1.029012 44:-1.3615969 45:-0.8358022 46:-1.6023999 47:-0.55469412 48:-0.63518971 49:0.85170239 50:-2.883954 51:0.1931455 52:0.85170239 53:-2.883954 54:0.1931455 55:1.176623 56:0.2091741 57:-0.046295181 58:-1.6023999 59:-0.55469412 60:-0.63518971 61:1.230139 62:0.77938551 63:0.54259938 64:0.02602301 65:-0.93124878 66:0.057246719 67:-0.53207511 68:1.247389 69:0.0054757739 70:0.85170239 71:-2.883954 72:0.1931455 73:-0.46709111 74:0.47276241 75:1.44212 76:0.35094309 77:-1.1249059 78:-0.90698719 79:1.176623 80:0.2091741 81:-0.046295181 82:0.2706688 83:-0.52241802 84:2.67168 85:0.2706688 86:-0.52241802 87:2.67168 88:-1.029012 89:-1.3615969 90:-0.8358022 91:0.85170239 92:-2.883954 93:0.1931455 94:0.02602301 95:-0.93124878 96:0.057246719 97:0.35094309 98:-1.1249059 99:-0.90698719 100:0.35094309 101:-1.1249059 102:-0.90698719 #
-0.0076875588803643757351835574809229 1:0.74849248 2:-0.87745529 3:0.36787239 4:0.02602301 5:-0.93124878 6:0.057246719 7:-1.697965 8:-0.90435201 9:-0.66754657 10:-1.029012 11:-1.3615969 12:-0.8358022 13:-1.881449 14:0.69869518 15:0.290216 16:1.3906879 17:0.60724622 18:1.526247 19:-1.6023999 20:-0.55469412 21:-0.63518971 22:0.2706688 23:-0.52241802 24:2.67168 25:-1.6023999 26:-0.55469412 27:-0.63518971 28:0.85170239 29:-2.883954 30:0.1931455 31:1.176623 32:0.2091741 33:-0.046295181 34:-1.6023999 35:-0.55469412 36:-0.63518971 37:-1.881449 38:0.69869518 39:0.290216 40:-1.6023999 41:-0.55469412 42:-0.63518971 43:-1.6023999 44:-0.55469412 45:-0.63518971 46:-1.6023999 47:-0.55469412 48:-0.63518971 49:0.02602301 50:-0.93124878 51:0.057246719 52:0.85170239 53:-2.883954 54:0.1931455 55:1.176623 56:0.2091741 57:-0.046295181 58:-1.816465 59:1.9628429 60:0.54907078 61:1.230139 62:0.77938551 63:0.54259938 64:0.85170239 65:-2.883954 66:0.1931455 67:-1.816465 68:1.9628429 69:0.54907078 70:0.85170239 71:-2.883954 72:0.1931455 73:-0.46709111 74:0.47276241 75:1.44212 76:0.02602301 77:-0.93124878 78:0.057246719 79:1.176623 80:0.2091741 81:-0.046295181 82:0.35094309 83:-1.1249059 84:-0.90698719 85:0.2706688 86:-0.52241802 87:2.67168 88:-1.6023999 89:-0.55469412 90:-0.63518971 91:-1.881449 92:0.69869518 93:0.290216 94:0.74849248 95:-0.87745529 96:0.36787239 97:0.74849248 98:-0.87745529 99:0.36787239 100:-1.6023999 101:-0.55469412 102:-0.63518971 #
-0.53024802669188209058859229116933 1:-1.029012 2:-1.3615969 3:-0.8358022 4:0.74849248 5:-0.87745529 6:0.36787239 7:-1.6023999 8:-0.55469412 9:-0.63518971 10:0.02602301 11:-0.93124878 12:0.057246719 13:0.92050898 14:0.93538678 15:0.7173264 16:1.3906879 17:0.60724622 18:1.526247 19:-0.46709111 20:0.47276241 21:1.44212 22:0.74849248 23:-0.87745529 24:0.36787239 25:-1.697965 26:-0.90435201 27:-0.66754657 28:1.100171 29:1.3549761 30:-2.2271459 31:1.230139 32:0.77938551 33:0.54259938 34:-1.6023999 35:-0.55469412 36:-0.63518971 37:0.92050898 38:0.93538678 39:0.7173264 40:0.35094309 41:-1.1249059 42:-0.90698719 43:0.74849248 44:-0.87745529 45:0.36787239 46:-1.029012 47:-1.3615969 48:-0.8358022 49:0.85170239 50:-2.883954 51:0.1931455 52:0.85170239 53:-2.883954 54:0.1931455 55:1.176623 56:0.2091741 57:-0.046295181 58:-1.697965 59:-0.90435201 60:-0.66754657 61:1.230139 62:0.77938551 63:0.54259938 64:-1.029012 65:-1.3615969 66:-0.8358022 67:-0.53207511 68:1.247389 69:0.0054757739 70:0.85170239 71:-2.883954 72:0.1931455 73:0.74849248 74:-0.87745529 75:0.36787239 76:0.35094309 77:-1.1249059 78:-0.90698719 79:1.176623 80:0.2091741 81:-0.046295181 82:0.35094309 83:-1.1249059 84:-0.90698719 85:0.2706688 86:-0.52241802 87:2.67168 88:-1.029012 89:-1.3615969 90:-0.8358022 91:0.85170239 92:-2.883954 93:0.1931455 94:-1.029012 95:-1.3615969 96:-0.8358022 97:0.74849248 98:-0.87745529 99:0.36787239 100:0.83258939 101:0.28448501 102:-0.73873162 #
-0.14791392819278795234261281166255 1:-1.6023999 2:-0.55469412 3:-0.63518971 4:-1.697965 5:-0.90435201 6:-0.66754657 7:0.35094309 8:-1.1249059 9:-0.90698719 10:0.92050898 11:0.93538678 12:0.7173264 13:-1.881449 14:0.69869518 15:0.290216 16:1.3906879 17:0.60724622 18:1.526247 19:-1.881449 20:0.69869518 21:0.290216 22:0.74849248 23:-0.87745529 24:0.36787239 25:-1.029012 26:-1.3615969 27:-0.8358022 28:-1.816465 29:1.9628429 30:0.54907078 31:1.176623 32:0.2091741 33:-0.046295181 34:0.85170239 35:-2.883954 36:0.1931455 37:1.230139 38:0.77938551 39:0.54259938 40:0.83258939 41:0.28448501 42:-0.73873162 43:-1.697965 44:-0.90435201 45:-0.66754657 46:-1.881449 47:0.69869518 48:0.290216 49:0.85170239 50:-2.883954 51:0.1931455 52:0.85170239 53:-2.883954 54:0.1931455 55:1.3906879 56:0.60724622 57:1.526247 58:-1.029012 59:-1.3615969 60:-0.8358022 61:1.230139 62:0.77938551 63:0.54259938 64:-0.95256001 65:-0.14586321 66:-0.26632169 67:-0.53207511 68:1.247389 69:0.0054757739 70:0.85170239 71:-2.883954 72:0.1931455 73:-1.697965 74:-0.90435201 75:-0.66754657 76:0.35094309 77:-1.1249059 78:-0.90698719 79:1.176623 80:0.2091741 81:-0.046295181 82:0.35094309 83:-1.1249059 84:-0.90698719 85:0.35094309 86:-1.1249059 87:-0.90698719 88:-1.029012 89:-1.3615969 90:-0.8358022 91:0.92050898 92:0.93538678 93:0.7173264 94:-1.029012 95:-1.3615969 96:-0.8358022 97:0.35094309 98:-1.1249059 99:-0.90698719 100:-0.53207511 101:1.247389 102:0.0054757739 #
-0.18900384284797869249850066353247 1:-1.6023999 2:-0.55469412 3:-0.63518971 4:0.02602301 5:-0.93124878 6:0.057246719 7:0.35094309 8:-1.1249059 9:-0.90698719 10:0.92050898 11:0.93538678 12:0.7173264 13:-1.881449 14:0.69869518 15:0.290216 16:1.3906879 17:0.60724622 18:1.526247 19:-1.881449 20:0.69869518 21:0.290216 22:0.74849248 23:-0.87745529 24:0.36787239 25:-1.029012 26:-1.3615969 27:-0.8358022 28:-1.816465 29:1.9628429 30:0.54907078 31:1.176623 32:0.2091741 33:-0.046295181 34:0.85170239 35:-2.883954 36:0.1931455 37:1.230139 38:0.77938551 39:0.54259938 40:0.83258939 41:0.28448501 42:-0.73873162 43:-1.029012 44:-1.3615969 45:-0.8358022 46:-1.881449 47:0.69869518 48:0.290216 49:0.85170239 50:-2.883954 51:0.1931455 52:0.85170239 53:-2.883954 54:0.1931455 55:1.176623 56:0.2091741 57:-0.046295181 58:-1.029012 59:-1.3615969 60:-0.8358022 61:1.230139 62:0.77938551 63:0.54259938 64:-0.95256001 65:-0.14586321 66:-0.26632169 67:-0.53207511 68:1.247389 69:0.0054757739 70:0.85170239 71:-2.883954 72:0.1931455 73:-1.697965 74:-0.90435201 75:-0.66754657 76:0.35094309 77:-1.1249059 78:-0.90698719 79:1.176623 80:0.2091741 81:-0.046295181 82:0.35094309 83:-1.1249059 84:-0.90698719 85:0.35094309 86:-1.1249059 87:-0.90698719 88:-1.029012 89:-1.3615969 90:-0.8358022 91:0.92050898 92:0.93538678 93:0.7173264 94:-1.029012 95:-1.3615969 96:-0.8358022 97:0.74849248 98:-0.87745529 99:0.36787239 100:-0.53207511 101:1.247389 102:0.0054757739 #
-0.15201856851352671395893878525385 1:0.02602301 2:-0.93124878 3:0.057246719 4:-0.53207511 5:1.247389 6:0.0054757739 7:-0.95256001 8:-0.14586321 9:-0.26632169 10:0.74849248 11:-0.87745529 12:0.36787239 13:-1.816465 14:1.9628429 15:0.54907078 16:1.3906879 17:0.60724622 18:1.526247 19:-1.697965 20:-0.90435201 21:-0.66754657 22:-0.46709111 23:0.47276241 24:1.44212 25:-1.029012 26:-1.3615969 27:-0.8358022 28:0.35094309 29:-1.1249059 30:-0.90698719 31:1.176623 32:0.2091741 33:-0.046295181 34:-1.029012 35:-1.3615969 36:-0.8358022 37:-1.6023999 38:-0.55469412 39:-0.63518971 40:-1.816465 41:1.9628429 42:0.54907078 43:-1.029012 44:-1.3615969 45:-0.8358022 46:-1.881449 47:0.69869518 48:0.290216 49:0.02602301 50:-0.93124878 51:0.057246719 52:0.85170239 53:-2.883954 54:0.1931455 55:1.176623 56:0.2091741 57:-0.046295181 58:-1.029012 59:-1.3615969 60:-0.8358022 61:0.83258939 62:0.28448501 63:-0.73873162 64:0.85170239 65:-2.883954 66:0.1931455 67:-0.53207511 68:1.247389 69:0.0054757739 70:0.85170239 71:-2.883954 72:0.1931455 73:-0.46709111 74:0.47276241 75:1.44212 76:0.02602301 77:-0.93124878 78:0.057246719 79:1.176623 80:0.2091741 81:-0.046295181 82:0.2706688 83:-0.52241802 84:2.67168 85:0.74849248 86:-0.87745529 87:0.36787239 88:-1.6023999 89:-0.55469412 90:-0.63518971 91:-1.697965 92:-0.90435201 93:-0.66754657 94:0.74849248 95:-0.87745529 96:0.36787239 97:0.35094309 98:-1.1249059 99:-0.90698719 100:-1.029012 101:-1.3615969 102:-0.8358022 #
-0.064673627648233811271438753465191 1:0.74849248 2:-0.87745529 3:0.36787239 4:1.08488 5:0.75786811 6:-2.033005 7:0.74849248 8:-0.87745529 9:0.36787239 10:-1.6023999 11:-0.55469412 12:-0.63518971 13:-1.881449 14:0.69869518 15:0.290216 16:0.35094309 17:-1.1249059 18:-0.90698719 19:-0.95256001 20:-0.14586321 21:-0.26632169 22:0.74849248 23:-0.87745529 24:0.36787239 25:0.74849248 26:-0.87745529 27:0.36787239 28:-0.46709111 29:0.47276241 30:1.44212 31:0.85170239 32:-2.883954 33:0.1931455 34:0.85170239 35:-2.883954 36:0.1931455 37:0.74849248 38:-0.87745529 39:0.36787239 40:-1.6023999 41:-0.55469412 42:-0.63518971 43:0.83258939 44:0.28448501 45:-0.73873162 46:-1.029012 47:-1.3615969 48:-0.8358022 49:0.85170239 50:-2.883954 51:0.1931455 52:0.85170239 53:-2.883954 54:0.1931455 55:0.02602301 56:-0.93124878 57:0.057246719 58:0.83258939 59:0.28448501 60:-0.73873162 61:0.83258939 62:0.28448501 63:-0.73873162 64:-1.029012 65:-1.3615969 66:-0.8358022 67:-1.881449 68:0.69869518 69:0.290216 70:0.85170239 71:-2.883954 72:0.1931455 73:-0.95256001 74:-0.14586321 75:-0.26632169 76:0.02602301 77:-0.93124878 78:0.057246719 79:1.176623 80:0.2091741 81:-0.046295181 82:0.85170239 83:-2.883954 84:0.1931455 85:-1.6023999 86:-0.55469412 87:-0.63518971 88:-1.029012 89:-1.3615969 90:-0.8358022 91:1.230139 92:0.77938551 93:0.54259938 94:-0.53207511 95:1.247389 96:0.0054757739 97:0.35094309 98:-1.1249059 99:-0.90698719 100:1.100171 101:1.3549761 102:-2.2271459 #
-0.48153918203660467378668386118079 1:-1.6023999 2:-0.55469412 3:-0.63518971 4:-1.816465 5:1.9628429 6:0.54907078 7:0.74849248 8:-0.87745529 9:0.36787239 10:0.35094309 11:-1.1249059 12:-0.90698719 13:-1.881449 14:0.69869518 15:0.290216 16:1.3906879 17:0.60724622 18:1.526247 19:-1.6023999 20:-0.55469412 21:-0.63518971 22:0.74849248 23:-0.87745529 24:0.36787239 25:-1.029012 26:-1.3615969 27:-0.8358022 28:-1.881449 29:0.69869518 30:0.290216 31:1.176623 32:0.2091741 33:-0.046295181 34:-1.6023999 35:-0.55469412 36:-0.63518971 37:1.230139 38:0.77938551 39:0.54259938 40:0.35094309 41:-1.1249059 42:-0.90698719 43:1.230139 44:0.77938551 45:0.54259938 46:-1.881449 47:0.69869518 48:0.290216 49:0.02602301 50:-0.93124878 51:0.057246719 52:0.85170239 53:-2.883954 54:0.1931455 55:1.176623 56:0.2091741 57:-0.046295181 58:-0.53207511 59:1.247389 60:0.0054757739 61:1.230139 62:0.77938551 63:0.54259938 64:-1.6023999 65:-0.55469412 66:-0.63518971 67:-0.53207511 68:1.247389 69:0.0054757739 70:0.85170239 71:-2.883954 72:0.1931455 73:-0.46709111 74:0.47276241 75:1.44212 76:0.74849248 77:-0.87745529 78:0.36787239 79:1.176623 80:0.2091741 81:-0.046295181 82:1.3906879 83:0.60724622 84:1.526247 85:0.35094309 86:-1.1249059 87:-0.90698719 88:0.35094309 89:-1.1249059 90:-0.90698719 91:-0.53207511 92:1.247389 93:0.0054757739 94:0.74849248 95:-0.87745529 96:0.36787239 97:0.35094309 98:-1.1249059 99:-0.90698719 100:-1.881449 101:0.69869518 102:0.290216 #
-0.20615703494778153670452525147994 1:-1.881449 2:0.69869518 3:0.290216 4:-1.816465 5:1.9628429 6:0.54907078 7:0.02602301 8:-0.93124878 9:0.057246719 10:0.35094309 11:-1.1249059 12:-0.90698719 13:-1.881449 14:0.69869518 15:0.290216 16:1.3906879 17:0.60724622 18:1.526247 19:-1.6023999 20:-0.55469412 21:-0.63518971 22:0.74849248 23:-0.87745529 24:0.36787239 25:-1.029012 26:-1.3615969 27:-0.8358022 28:-0.53207511 29:1.247389 30:0.0054757739 31:1.176623 32:0.2091741 33:-0.046295181 34:-1.029012 35:-1.3615969 36:-0.8358022 37:1.230139 38:0.77938551 39:0.54259938 40:0.35094309 41:-1.1249059 42:-0.90698719 43:1.230139 44:0.77938551 45:0.54259938 46:-1.6023999 47:-0.55469412 48:-0.63518971 49:0.02602301 50:-0.93124878 51:0.057246719 52:0.85170239 53:-2.883954 54:0.1931455 55:1.176623 56:0.2091741 57:-0.046295181 58:-1.881449 59:0.69869518 60:0.290216 61:1.230139 62:0.77938551 63:0.54259938 64:-1.6023999 65:-0.55469412 66:-0.63518971 67:-0.53207511 68:1.247389 69:0.0054757739 70:0.85170239 71:-2.883954 72:0.1931455 73:-0.46709111 74:0.47276241 75:1.44212 76:0.74849248 77:-0.87745529 78:0.36787239 79:1.176623 80:0.2091741 81:-0.046295181 82:1.3906879 83:0.60724622 84:1.526247 85:0.35094309 86:-1.1249059 87:-0.90698719 88:0.35094309 89:-1.1249059 90:-0.90698719 91:-0.53207511 92:1.247389 93:0.0054757739 94:0.74849248 95:-0.87745529 96:0.36787239 97:0.35094309 98:-1.1249059 99:-0.90698719 100:-0.53207511 101:1.247389 102:0.0054757739 #
-0.080014917116946304709301784896525 1:0.74849248 2:-0.87745529 3:0.36787239 4:1.08488 5:0.75786811 6:-2.033005 7:0.74849248 8:-0.87745529 9:0.36787239 10:-1.6023999 11:-0.55469412 12:-0.63518971 13:-1.881449 14:0.69869518 15:0.290216 16:0.35094309 17:-1.1249059 18:-0.90698719 19:-0.95256001 20:-0.14586321 21:-0.26632169 22:0.74849248 23:-0.87745529 24:0.36787239 25:0.74849248 26:-0.87745529 27:0.36787239 28:-0.46709111 29:0.47276241 30:1.44212 31:0.85170239 32:-2.883954 33:0.1931455 34:0.85170239 35:-2.883954 36:0.1931455 37:0.74849248 38:-0.87745529 39:0.36787239 40:-1.6023999 41:-0.55469412 42:-0.63518971 43:0.83258939 44:0.28448501 45:-0.73873162 46:-1.029012 47:-1.3615969 48:-0.8358022 49:0.85170239 50:-2.883954 51:0.1931455 52:0.85170239 53:-2.883954 54:0.1931455 55:0.02602301 56:-0.93124878 57:0.057246719 58:0.83258939 59:0.28448501 60:-0.73873162 61:0.83258939 62:0.28448501 63:-0.73873162 64:-1.029012 65:-1.3615969 66:-0.8358022 67:-1.881449 68:0.69869518 69:0.290216 70:0.85170239 71:-2.883954 72:0.1931455 73:-0.95256001 74:-0.14586321 75:-0.26632169 76:0.02602301 77:-0.93124878 78:0.057246719 79:1.176623 80:0.2091741 81:-0.046295181 82:0.85170239 83:-2.883954 84:0.1931455 85:-1.6023999 86:-0.55469412 87:-0.63518971 88:-1.029012 89:-1.3615969 90:-0.8358022 91:1.230139 92:0.77938551 93:0.54259938 94:-0.53207511 95:1.247389 96:0.0054757739 97:0.35094309 98:-1.1249059 99:-0.90698719 100:1.100171 101:1.3549761 102:-2.2271459 #
-0.022712416144781588656087478739209 1:0.74849248 2:-0.87745529 3:0.36787239 4:1.176623 5:0.2091741 6:-0.046295181 7:0.74849248 8:-0.87745529 9:0.36787239 10:-1.6023999 11:-0.55469412 12:-0.63518971 13:-1.881449 14:0.69869518 15:0.290216 16:0.74849248 17:-0.87745529 18:0.36787239 19:-0.95256001 20:-0.14586321 21:-0.26632169 22:0.74849248 23:-0.87745529 24:0.36787239 25:0.74849248 26:-0.87745529 27:0.36787239 28:0.02602301 29:-0.93124878 30:0.057246719 31:0.85170239 32:-2.883954 33:0.1931455 34:0.85170239 35:-2.883954 36:0.1931455 37:0.2706688 38:-0.52241802 39:2.67168 40:-1.6023999 41:-0.55469412 42:-0.63518971 43:0.83258939 44:0.28448501 45:-0.73873162 46:-1.029012 47:-1.3615969 48:-0.8358022 49:0.85170239 50:-2.883954 51:0.1931455 52:0.85170239 53:-2.883954 54:0.1931455 55:0.02602301 56:-0.93124878 57:0.057246719 58:0.83258939 59:0.28448501 60:-0.73873162 61:0.83258939 62:0.28448501 63:-0.73873162 64:-1.029012 65:-1.3615969 66:-0.8358022 67:-1.881449 68:0.69869518 69:0.290216 70:0.85170239 71:-2.883954 72:0.1931455 73:-0.95256001 74:-0.14586321 75:-0.26632169 76:0.02602301 77:-0.93124878 78:0.057246719 79:1.176623 80:0.2091741 81:-0.046295181 82:0.85170239 83:-2.883954 84:0.1931455 85:-1.6023999 86:-0.55469412 87:-0.63518971 88:-1.029012 89:-1.3615969 90:-0.8358022 91:1.230139 92:0.77938551 93:0.54259938 94:-0.53207511 95:1.247389 96:0.0054757739 97:0.35094309 98:-1.1249059 99:-0.90698719 100:1.100171 101:1.3549761 102:-2.2271459 #
-0.13584877238656889453238818532554 1:-1.6023999 2:-0.55469412 3:-0.63518971 4:-1.881449 5:0.69869518 6:0.290216 7:1.176623 8:0.2091741 9:-0.046295181 10:0.02602301 11:-0.93124878 12:0.057246719 13:-1.881449 14:0.69869518 15:0.290216 16:1.3906879 17:0.60724622 18:1.526247 19:-1.029012 20:-1.3615969 21:-0.8358022 22:0.2706688 23:-0.52241802 24:2.67168 25:-0.53207511 26:1.247389 27:0.0054757739 28:0.83258939 29:0.28448501 30:-0.73873162 31:1.176623 32:0.2091741 33:-0.046295181 34:0.74849248 35:-0.87745529 36:0.36787239 37:-1.881449 38:0.69869518 39:0.290216 40:-1.6023999 41:-0.55469412 42:-0.63518971 43:-1.697965 44:-0.90435201 45:-0.66754657 46:0.02602301 47:-0.93124878 48:0.057246719 49:0.02602301 50:-0.93124878 51:0.057246719 52:0.85170239 53:-2.883954 54:0.1931455 55:1.176623 56:0.2091741 57:-0.046295181 58:0.92050898 59:0.93538678 60:0.7173264 61:1.230139 62:0.77938551 63:0.54259938 64:0.92050898 65:0.93538678 66:0.7173264 67:-0.53207511 68:1.247389 69:0.0054757739 70:0.85170239 71:-2.883954 72:0.1931455 73:-0.46709111 74:0.47276241 75:1.44212 76:0.74849248 77:-0.87745529 78:0.36787239 79:1.176623 80:0.2091741 81:-0.046295181 82:0.35094309 83:-1.1249059 84:-0.90698719 85:0.92050898 86:0.93538678 87:0.7173264 88:-1.029012 89:-1.3615969 90:-0.8358022 91:-1.029012 92:-1.3615969 93:-0.8358022 94:0.74849248 95:-0.87745529 96:0.36787239 97:0.35094309 98:-1.1249059 99:-0.90698719 100:-0.53207511 101:1.247389 102:0.0054757739 #
-0.014808004773332970188670643096884 1:0.35094309 2:-1.1249059 3:-0.90698719 4:-1.816465 5:1.9628429 6:0.54907078 7:1.100171 8:1.3549761 9:-2.2271459 10:-1.881449 11:0.69869518 12:0.290216 13:-1.881449 14:0.69869518 15:0.290216 16:1.3906879 17:0.60724622 18:1.526247 19:0.85170239 20:-2.883954 21:0.1931455 22:0.2706688 23:-0.52241802 24:2.67168 25:-1.029012 26:-1.3615969 27:-0.8358022 28:0.35094309 29:-1.1249059 30:-0.90698719 31:0.74849248 32:-0.87745529 33:0.36787239 34:0.35094309 35:-1.1249059 36:-0.90698719 37:-1.6023999 38:-0.55469412 39:-0.63518971 40:-1.697965 41:-0.90435201 42:-0.66754657 43:0.35094309 44:-1.1249059 45:-0.90698719 46:-1.881449 47:0.69869518 48:0.290216 49:0.02602301 50:-0.93124878 51:0.057246719 52:0.85170239 53:-2.883954 54:0.1931455 55:1.176623 56:0.2091741 57:-0.046295181 58:0.02602301 59:-0.93124878 60:0.057246719 61:1.230139 62:0.77938551 63:0.54259938 64:1.176623 65:0.2091741 66:-0.046295181 67:-0.53207511 68:1.247389 69:0.0054757739 70:0.85170239 71:-2.883954 72:0.1931455 73:-0.46709111 74:0.47276241 75:1.44212 76:0.35094309 77:-1.1249059 78:-0.90698719 79:1.176623 80:0.2091741 81:-0.046295181 82:1.230139 83:0.77938551 84:0.54259938 85:0.74849248 86:-0.87745529 87:0.36787239 88:-1.029012 89:-1.3615969 90:-0.8358022 91:0.02602301 92:-0.93124878 93:0.057246719 94:0.35094309 95:-1.1249059 96:-0.90698719 97:0.35094309 98:-1.1249059 99:-0.90698719 100:-1.697965 101:-0.90435201 102:-0.66754657 #
-0.0077024376129233296239817718742415 1:-1.6023999 2:-0.55469412 3:-0.63518971 4:0.02602301 5:-0.93124878 6:0.057246719 7:-1.816465 8:1.9628429 9:0.54907078 10:0.02602301 11:-0.93124878 12:0.057246719 13:-1.881449 14:0.69869518 15:0.290216 16:1.3906879 17:0.60724622 18:1.526247 19:0.02602301 20:-0.93124878 21:0.057246719 22:0.74849248 23:-0.87745529 24:0.36787239 25:-1.029012 26:-1.3615969 27:-0.8358022 28:-0.95256001 29:-0.14586321 30:-0.26632169 31:1.176623 32:0.2091741 33:-0.046295181 34:0.2706688 35:-0.52241802 36:2.67168 37:0.74849248 38:-0.87745529 39:0.36787239 40:-1.697965 41:-0.90435201 42:-0.66754657 43:-1.697965 44:-0.90435201 45:-0.66754657 46:0.35094309 47:-1.1249059 48:-0.90698719 49:0.85170239 50:-2.883954 51:0.1931455 52:0.85170239 53:-2.883954 54:0.1931455 55:0.02602301 56:-0.93124878 57:0.057246719 58:-1.881449 59:0.69869518 60:0.290216 61:1.230139 62:0.77938551 63:0.54259938 64:0.02602301 65:-0.93124878 66:0.057246719 67:-0.53207511 68:1.247389 69:0.0054757739 70:0.85170239 71:-2.883954 72:0.1931455 73:-0.46709111 74:0.47276241 75:1.44212 76:0.74849248 77:-0.87745529 78:0.36787239 79:1.176623 80:0.2091741 81:-0.046295181 82:0.74849248 83:-0.87745529 84:0.36787239 85:0.35094309 86:-1.1249059 87:-0.90698719 88:-1.029012 89:-1.3615969 90:-0.8358022 91:-1.697965 92:-0.90435201 93:-0.66754657 94:0.35094309 95:-1.1249059 96:-0.90698719 97:0.74849248 98:-0.87745529 99:0.36787239 100:-0.53207511 101:1.247389 102:0.0054757739 #
