SVM-light Version V6.02
2 # kernel type
3 # kernel parameter -d 
0.0094402711 # kernel parameter -g 
1 # kernel parameter -s 
1 # kernel parameter -r 
empty# kernel parameter -u 
102 # highest feature index 
608 # number of training documents 
82 # number of support vectors plus 1 
1.9969674 # threshold b, each following line is a SV (starting with alpha*y)
-0.87293496409468573915546585340053 1:1.230139 2:0.77938551 3:0.54259938 4:-0.46709111 5:0.47276241 6:1.44212 7:-1.6023999 8:-0.55469412 9:-0.63518971 10:0.2706688 11:-0.52241802 12:2.67168 13:-1.881449 14:0.69869518 15:0.290216 16:1.3906879 17:0.60724622 18:1.526247 19:-1.6023999 20:-0.55469412 21:-0.63518971 22:-1.6023999 23:-0.55469412 24:-0.63518971 25:-1.697965 26:-0.90435201 27:-0.66754657 28:-1.029012 29:-1.3615969 30:-0.8358022 31:1.176623 32:0.2091741 33:-0.046295181 34:-1.6023999 35:-0.55469412 36:-0.63518971 37:0.85170239 38:-2.883954 39:0.1931455 40:0.74849248 41:-0.87745529 42:0.36787239 43:-0.95256001 44:-0.14586321 45:-0.26632169 46:0.83258939 47:0.28448501 48:-0.73873162 49:0.02602301 50:-0.93124878 51:0.057246719 52:0.85170239 53:-2.883954 54:0.1931455 55:1.176623 56:0.2091741 57:-0.046295181 58:-1.697965 59:-0.90435201 60:-0.66754657 61:1.230139 62:0.77938551 63:0.54259938 64:0.02602301 65:-0.93124878 66:0.057246719 67:-0.53207511 68:1.247389 69:0.0054757739 70:0.85170239 71:-2.883954 72:0.1931455 73:-0.46709111 74:0.47276241 75:1.44212 76:0.02602301 77:-0.93124878 78:0.057246719 79:1.176623 80:0.2091741 81:-0.046295181 82:0.2706688 83:-0.52241802 84:2.67168 85:0.74849248 86:-0.87745529 87:0.36787239 88:-1.029012 89:-1.3615969 90:-0.8358022 91:0.85170239 92:-2.883954 93:0.1931455 94:0.02602301 95:-0.93124878 96:0.057246719 97:-1.6023999 98:-0.55469412 99:-0.63518971 100:0.02602301 101:-0.93124878 102:0.057246719 #
2.7417002229600768714590230956674 1:0.35094309 2:-1.1249059 3:-0.90698719 4:-1.816465 5:1.9628429 6:0.54907078 7:1.100171 8:1.3549761 9:-2.2271459 10:-1.881449 11:0.69869518 12:0.290216 13:-1.881449 14:0.69869518 15:0.290216 16:1.3906879 17:0.60724622 18:1.526247 19:0.85170239 20:-2.883954 21:0.1931455 22:-1.881449 23:0.69869518 24:0.290216 25:-1.6023999 26:-0.55469412 27:-0.63518971 28:0.35094309 29:-1.1249059 30:-0.90698719 31:0.74849248 32:-0.87745529 33:0.36787239 34:0.35094309 35:-1.1249059 36:-0.90698719 37:-1.697965 38:-0.90435201 39:-0.66754657 40:-1.697965 41:-0.90435201 42:-0.66754657 43:0.35094309 44:-1.1249059 45:-0.90698719 46:-1.6023999 47:-0.55469412 48:-0.63518971 49:0.02602301 50:-0.93124878 51:0.057246719 52:0.85170239 53:-2.883954 54:0.1931455 55:1.176623 56:0.2091741 57:-0.046295181 58:0.02602301 59:-0.93124878 60:0.057246719 61:1.230139 62:0.77938551 63:0.54259938 64:1.176623 65:0.2091741 66:-0.046295181 67:-0.53207511 68:1.247389 69:0.0054757739 70:0.85170239 71:-2.883954 72:0.1931455 73:-0.46709111 74:0.47276241 75:1.44212 76:0.35094309 77:-1.1249059 78:-0.90698719 79:1.176623 80:0.2091741 81:-0.046295181 82:1.230139 83:0.77938551 84:0.54259938 85:0.74849248 86:-0.87745529 87:0.36787239 88:-1.029012 89:-1.3615969 90:-0.8358022 91:0.02602301 92:-0.93124878 93:0.057246719 94:0.35094309 95:-1.1249059 96:-0.90698719 97:0.35094309 98:-1.1249059 99:-0.90698719 100:0.02602301 101:-0.93124878 102:0.057246719 #
-0.12366094145210126953315921127796 1:-0.53207511 2:1.247389 3:0.0054757739 4:1.3906879 5:0.60724622 6:1.526247 7:0.92050898 8:0.93538678 9:0.7173264 10:-1.816465 11:1.9628429 12:0.54907078 13:-1.881449 14:0.69869518 15:0.290216 16:1.3906879 17:0.60724622 18:1.526247 19:0.02602301 20:-0.93124878 21:0.057246719 22:0.74849248 23:-0.87745529 24:0.36787239 25:-1.816465 26:1.9628429 27:0.54907078 28:0.83258939 29:0.28448501 30:-0.73873162 31:-0.46709111 32:0.47276241 33:1.44212 34:0.85170239 35:-2.883954 36:0.1931455 37:1.3906879 38:0.60724622 39:1.526247 40:0.35094309 41:-1.1249059 42:-0.90698719 43:0.02602301 44:-0.93124878 45:0.057246719 46:-1.6023999 47:-0.55469412 48:-0.63518971 49:0.85170239 50:-2.883954 51:0.1931455 52:0.85170239 53:-2.883954 54:0.1931455 55:1.176623 56:0.2091741 57:-0.046295181 58:-0.53207511 59:1.247389 60:0.0054757739 61:1.230139 62:0.77938551 63:0.54259938 64:0.2706688 65:-0.52241802 66:2.67168 67:-0.53207511 68:1.247389 69:0.0054757739 70:0.85170239 71:-2.883954 72:0.1931455 73:-0.46709111 74:0.47276241 75:1.44212 76:0.35094309 77:-1.1249059 78:-0.90698719 79:1.176623 80:0.2091741 81:-0.046295181 82:0.35094309 83:-1.1249059 84:-0.90698719 85:0.35094309 86:-1.1249059 87:-0.90698719 88:-1.029012 89:-1.3615969 90:-0.8358022 91:1.176623 92:0.2091741 93:-0.046295181 94:0.02602301 95:-0.93124878 96:0.057246719 97:-1.029012 98:-1.3615969 99:-0.8358022 100:-1.029012 101:-1.3615969 102:-0.8358022 #
-0.22956142196137685473900091892574 1:-1.6023999 2:-0.55469412 3:-0.63518971 4:1.3906879 5:0.60724622 6:1.526247 7:1.100171 8:1.3549761 9:-2.2271459 10:-1.029012 11:-1.3615969 12:-0.8358022 13:-1.881449 14:0.69869518 15:0.290216 16:1.3906879 17:0.60724622 18:1.526247 19:-1.029012 20:-1.3615969 21:-0.8358022 22:0.74849248 23:-0.87745529 24:0.36787239 25:-0.95256001 26:-0.14586321 27:-0.26632169 28:0.02602301 29:-0.93124878 30:0.057246719 31:1.3906879 32:0.60724622 33:1.526247 34:-0.46709111 35:0.47276241 36:1.44212 37:-1.029012 38:-1.3615969 39:-0.8358022 40:-0.95256001 41:-0.14586321 42:-0.26632169 43:-1.029012 44:-1.3615969 45:-0.8358022 46:0.74849248 47:-0.87745529 48:0.36787239 49:0.85170239 50:-2.883954 51:0.1931455 52:0.85170239 53:-2.883954 54:0.1931455 55:1.3906879 56:0.60724622 57:1.526247 58:0.92050898 59:0.93538678 60:0.7173264 61:1.230139 62:0.77938551 63:0.54259938 64:1.176623 65:0.2091741 66:-0.046295181 67:-0.53207511 68:1.247389 69:0.0054757739 70:0.85170239 71:-2.883954 72:0.1931455 73:-1.029012 74:-1.3615969 75:-0.8358022 76:0.35094309 77:-1.1249059 78:-0.90698719 79:1.176623 80:0.2091741 81:-0.046295181 82:0.02602301 83:-0.93124878 84:0.057246719 85:0.35094309 86:-1.1249059 87:-0.90698719 88:-1.029012 89:-1.3615969 90:-0.8358022 91:-1.029012 92:-1.3615969 93:-0.8358022 94:0.74849248 95:-0.87745529 96:0.36787239 97:0.35094309 98:-1.1249059 99:-0.90698719 100:-1.029012 101:-1.3615969 102:-0.8358022 #
-6.5741767376409017131777545728255 1:-1.6023999 2:-0.55469412 3:-0.63518971 4:0.02602301 5:-0.93124878 6:0.057246719 7:0.83258939 8:0.28448501 9:-0.73873162 10:0.02602301 11:-0.93124878 12:0.057246719 13:-1.881449 14:0.69869518 15:0.290216 16:1.3906879 17:0.60724622 18:1.526247 19:0.02602301 20:-0.93124878 21:0.057246719 22:0.02602301 23:-0.93124878 24:0.057246719 25:-1.697965 26:-0.90435201 27:-0.66754657 28:0.74849248 29:-0.87745529 30:0.36787239 31:1.176623 32:0.2091741 33:-0.046295181 34:-0.95256001 35:-0.14586321 36:-0.26632169 37:0.35094309 38:-1.1249059 39:-0.90698719 40:-1.029012 41:-1.3615969 42:-0.8358022 43:-1.029012 44:-1.3615969 45:-0.8358022 46:-1.029012 47:-1.3615969 48:-0.8358022 49:0.02602301 50:-0.93124878 51:0.057246719 52:0.85170239 53:-2.883954 54:0.1931455 55:1.176623 56:0.2091741 57:-0.046295181 58:-1.697965 59:-0.90435201 60:-0.66754657 61:1.230139 62:0.77938551 63:0.54259938 64:0.85170239 65:-2.883954 66:0.1931455 67:-0.53207511 68:1.247389 69:0.0054757739 70:0.85170239 71:-2.883954 72:0.1931455 73:-0.46709111 74:0.47276241 75:1.44212 76:0.35094309 77:-1.1249059 78:-0.90698719 79:1.176623 80:0.2091741 81:-0.046295181 82:0.35094309 83:-1.1249059 84:-0.90698719 85:0.35094309 86:-1.1249059 87:-0.90698719 88:-1.029012 89:-1.3615969 90:-0.8358022 91:0.2706688 92:-0.52241802 93:2.67168 94:-1.029012 95:-1.3615969 96:-0.8358022 97:0.35094309 98:-1.1249059 99:-0.90698719 100:-0.95256001 101:-0.14586321 102:-0.26632169 #
2.6784855194573218284403992583975 1:-1.6023999 2:-0.55469412 3:-0.63518971 4:0.02602301 5:-0.93124878 6:0.057246719 7:0.83258939 8:0.28448501 9:-0.73873162 10:0.02602301 11:-0.93124878 12:0.057246719 13:-1.881449 14:0.69869518 15:0.290216 16:1.3906879 17:0.60724622 18:1.526247 19:0.02602301 20:-0.93124878 21:0.057246719 22:0.2706688 23:-0.52241802 24:2.67168 25:-1.697965 26:-0.90435201 27:-0.66754657 28:0.74849248 29:-0.87745529 30:0.36787239 31:1.176623 32:0.2091741 33:-0.046295181 34:-0.95256001 35:-0.14586321 36:-0.26632169 37:0.35094309 38:-1.1249059 39:-0.90698719 40:-1.6023999 41:-0.55469412 42:-0.63518971 43:-1.697965 44:-0.90435201 45:-0.66754657 46:-1.029012 47:-1.3615969 48:-0.8358022 49:0.02602301 50:-0.93124878 51:0.057246719 52:0.85170239 53:-2.883954 54:0.1931455 55:1.176623 56:0.2091741 57:-0.046295181 58:-1.881449 59:0.69869518 60:0.290216 61:1.230139 62:0.77938551 63:0.54259938 64:0.02602301 65:-0.93124878 66:0.057246719 67:-0.53207511 68:1.247389 69:0.0054757739 70:0.85170239 71:-2.883954 72:0.1931455 73:-0.46709111 74:0.47276241 75:1.44212 76:0.35094309 77:-1.1249059 78:-0.90698719 79:1.176623 80:0.2091741 81:-0.046295181 82:0.85170239 83:-2.883954 84:0.1931455 85:0.74849248 86:-0.87745529 87:0.36787239 88:-1.029012 89:-1.3615969 90:-0.8358022 91:0.2706688 92:-0.52241802 93:2.67168 94:0.02602301 95:-0.93124878 96:0.057246719 97:0.35094309 98:-1.1249059 99:-0.90698719 100:-1.6023999 101:-0.55469412 102:-0.63518971 #
2.406777513624174247297560214065 1:-1.6023999 2:-0.55469412 3:-0.63518971 4:0.74849248 5:-0.87745529 6:0.36787239 7:-1.029012 8:-1.3615969 9:-0.8358022 10:0.02602301 11:-0.93124878 12:0.057246719 13:-1.881449 14:0.69869518 15:0.290216 16:1.3906879 17:0.60724622 18:1.526247 19:0.85170239 20:-2.883954 21:0.1931455 22:0.74849248 23:-0.87745529 24:0.36787239 25:-1.697965 26:-0.90435201 27:-0.66754657 28:-1.029012 29:-1.3615969 30:-0.8358022 31:0.83258939 32:0.28448501 33:-0.73873162 34:0.02602301 35:-0.93124878 36:0.057246719 37:1.3906879 38:0.60724622 39:1.526247 40:0.02602301 41:-0.93124878 42:0.057246719 43:-1.029012 44:-1.3615969 45:-0.8358022 46:-1.6023999 47:-0.55469412 48:-0.63518971 49:0.85170239 50:-2.883954 51:0.1931455 52:0.85170239 53:-2.883954 54:0.1931455 55:1.176623 56:0.2091741 57:-0.046295181 58:-1.029012 59:-1.3615969 60:-0.8358022 61:1.230139 62:0.77938551 63:0.54259938 64:0.02602301 65:-0.93124878 66:0.057246719 67:-0.53207511 68:1.247389 69:0.0054757739 70:0.85170239 71:-2.883954 72:0.1931455 73:-0.46709111 74:0.47276241 75:1.44212 76:0.35094309 77:-1.1249059 78:-0.90698719 79:1.176623 80:0.2091741 81:-0.046295181 82:0.2706688 83:-0.52241802 84:2.67168 85:0.2706688 86:-0.52241802 87:2.67168 88:-1.029012 89:-1.3615969 90:-0.8358022 91:0.74849248 92:-0.87745529 93:0.36787239 94:0.74849248 95:-0.87745529 96:0.36787239 97:0.02602301 98:-0.93124878 99:0.057246719 100:0.83258939 101:0.28448501 102:-0.73873162 #
1.5403563451201804923584859352559 1:-1.6023999 2:-0.55469412 3:-0.63518971 4:0.74849248 5:-0.87745529 6:0.36787239 7:0.83258939 8:0.28448501 9:-0.73873162 10:0.02602301 11:-0.93124878 12:0.057246719 13:-1.881449 14:0.69869518 15:0.290216 16:1.3906879 17:0.60724622 18:1.526247 19:0.02602301 20:-0.93124878 21:0.057246719 22:0.74849248 23:-0.87745529 24:0.36787239 25:0.02602301 26:-0.93124878 27:0.057246719 28:0.74849248 29:-0.87745529 30:0.36787239 31:1.176623 32:0.2091741 33:-0.046295181 34:0.35094309 35:-1.1249059 36:-0.90698719 37:0.35094309 38:-1.1249059 39:-0.90698719 40:-1.697965 41:-0.90435201 42:-0.66754657 43:-1.029012 44:-1.3615969 45:-0.8358022 46:0.02602301 47:-0.93124878 48:0.057246719 49:0.02602301 50:-0.93124878 51:0.057246719 52:0.85170239 53:-2.883954 54:0.1931455 55:1.176623 56:0.2091741 57:-0.046295181 58:-1.029012 59:-1.3615969 60:-0.8358022 61:1.230139 62:0.77938551 63:0.54259938 64:0.02602301 65:-0.93124878 66:0.057246719 67:-0.53207511 68:1.247389 69:0.0054757739 70:0.85170239 71:-2.883954 72:0.1931455 73:-0.46709111 74:0.47276241 75:1.44212 76:0.35094309 77:-1.1249059 78:-0.90698719 79:1.176623 80:0.2091741 81:-0.046295181 82:0.74849248 83:-0.87745529 84:0.36787239 85:0.35094309 86:-1.1249059 87:-0.90698719 88:-1.697965 89:-0.90435201 90:-0.66754657 91:0.85170239 92:-2.883954 93:0.1931455 94:0.02602301 95:-0.93124878 96:0.057246719 97:0.35094309 98:-1.1249059 99:-0.90698719 100:-1.881449 101:0.69869518 102:0.290216 #
-0.028625311786101538535920241201893 1:-1.6023999 2:-0.55469412 3:-0.63518971 4:-1.816465 5:1.9628429 6:0.54907078 7:0.83258939 8:0.28448501 9:-0.73873162 10:0.02602301 11:-0.93124878 12:0.057246719 13:-1.881449 14:0.69869518 15:0.290216 16:1.3906879 17:0.60724622 18:1.526247 19:-1.029012 20:-1.3615969 21:-0.8358022 22:0.74849248 23:-0.87745529 24:0.36787239 25:-1.881449 26:0.69869518 27:0.290216 28:0.83258939 29:0.28448501 30:-0.73873162 31:1.176623 32:0.2091741 33:-0.046295181 34:0.74849248 35:-0.87745529 36:0.36787239 37:-1.881449 38:0.69869518 39:0.290216 40:-1.029012 41:-1.3615969 42:-0.8358022 43:-1.697965 44:-0.90435201 45:-0.66754657 46:0.35094309 47:-1.1249059 48:-0.90698719 49:0.02602301 50:-0.93124878 51:0.057246719 52:0.85170239 53:-2.883954 54:0.1931455 55:1.176623 56:0.2091741 57:-0.046295181 58:1.230139 59:0.77938551 60:0.54259938 61:1.230139 62:0.77938551 63:0.54259938 64:0.92050898 65:0.93538678 66:0.7173264 67:-0.53207511 68:1.247389 69:0.0054757739 70:0.85170239 71:-2.883954 72:0.1931455 73:-0.46709111 74:0.47276241 75:1.44212 76:0.74849248 77:-0.87745529 78:0.36787239 79:1.176623 80:0.2091741 81:-0.046295181 82:0.74849248 83:-0.87745529 84:0.36787239 85:0.92050898 86:0.93538678 87:0.7173264 88:-1.029012 89:-1.3615969 90:-0.8358022 91:-1.029012 92:-1.3615969 93:-0.8358022 94:0.35094309 95:-1.1249059 96:-0.90698719 97:0.35094309 98:-1.1249059 99:-0.90698719 100:-1.881449 101:0.69869518 102:0.290216 #
3.2872488221748614733996873837896 1:-1.6023999 2:-0.55469412 3:-0.63518971 4:0.02602301 5:-0.93124878 6:0.057246719 7:0.83258939 8:0.28448501 9:-0.73873162 10:0.02602301 11:-0.93124878 12:0.057246719 13:-1.881449 14:0.69869518 15:0.290216 16:1.3906879 17:0.60724622 18:1.526247 19:0.02602301 20:-0.93124878 21:0.057246719 22:0.74849248 23:-0.87745529 24:0.36787239 25:-1.697965 26:-0.90435201 27:-0.66754657 28:0.74849248 29:-0.87745529 30:0.36787239 31:1.176623 32:0.2091741 33:-0.046295181 34:-0.95256001 35:-0.14586321 36:-0.26632169 37:0.35094309 38:-1.1249059 39:-0.90698719 40:-1.6023999 41:-0.55469412 42:-0.63518971 43:-1.697965 44:-0.90435201 45:-0.66754657 46:-1.029012 47:-1.3615969 48:-0.8358022 49:0.02602301 50:-0.93124878 51:0.057246719 52:0.85170239 53:-2.883954 54:0.1931455 55:1.176623 56:0.2091741 57:-0.046295181 58:-1.881449 59:0.69869518 60:0.290216 61:1.230139 62:0.77938551 63:0.54259938 64:0.02602301 65:-0.93124878 66:0.057246719 67:-0.53207511 68:1.247389 69:0.0054757739 70:0.85170239 71:-2.883954 72:0.1931455 73:-0.46709111 74:0.47276241 75:1.44212 76:0.35094309 77:-1.1249059 78:-0.90698719 79:1.176623 80:0.2091741 81:-0.046295181 82:0.02602301 83:-0.93124878 84:0.057246719 85:0.74849248 86:-0.87745529 87:0.36787239 88:-1.029012 89:-1.3615969 90:-0.8358022 91:0.2706688 92:-0.52241802 93:2.67168 94:0.02602301 95:-0.93124878 96:0.057246719 97:0.35094309 98:-1.1249059 99:-0.90698719 100:-1.697965 101:-0.90435201 102:-0.66754657 #
-10 1:-1.6023999 2:-0.55469412 3:-0.63518971 4:0.02602301 5:-0.93124878 6:0.057246719 7:0.83258939 8:0.28448501 9:-0.73873162 10:0.02602301 11:-0.93124878 12:0.057246719 13:-1.881449 14:0.69869518 15:0.290216 16:1.3906879 17:0.60724622 18:1.526247 19:0.02602301 20:-0.93124878 21:0.057246719 22:0.02602301 23:-0.93124878 24:0.057246719 25:-1.029012 26:-1.3615969 27:-0.8358022 28:0.74849248 29:-0.87745529 30:0.36787239 31:1.176623 32:0.2091741 33:-0.046295181 34:-0.95256001 35:-0.14586321 36:-0.26632169 37:0.35094309 38:-1.1249059 39:-0.90698719 40:-1.029012 41:-1.3615969 42:-0.8358022 43:-1.029012 44:-1.3615969 45:-0.8358022 46:-1.029012 47:-1.3615969 48:-0.8358022 49:0.02602301 50:-0.93124878 51:0.057246719 52:0.85170239 53:-2.883954 54:0.1931455 55:1.176623 56:0.2091741 57:-0.046295181 58:-1.697965 59:-0.90435201 60:-0.66754657 61:1.230139 62:0.77938551 63:0.54259938 64:0.02602301 65:-0.93124878 66:0.057246719 67:-0.53207511 68:1.247389 69:0.0054757739 70:0.85170239 71:-2.883954 72:0.1931455 73:-0.46709111 74:0.47276241 75:1.44212 76:0.35094309 77:-1.1249059 78:-0.90698719 79:1.176623 80:0.2091741 81:-0.046295181 82:0.35094309 83:-1.1249059 84:-0.90698719 85:0.35094309 86:-1.1249059 87:-0.90698719 88:-1.029012 89:-1.3615969 90:-0.8358022 91:0.2706688 92:-0.52241802 93:2.67168 94:0.02602301 95:-0.93124878 96:0.057246719 97:0.35094309 98:-1.1249059 99:-0.90698719 100:-0.95256001 101:-0.14586321 102:-0.26632169 #
-10 1:-1.6023999 2:-0.55469412 3:-0.63518971 4:0.02602301 5:-0.93124878 6:0.057246719 7:0.83258939 8:0.28448501 9:-0.73873162 10:0.02602301 11:-0.93124878 12:0.057246719 13:-1.881449 14:0.69869518 15:0.290216 16:1.3906879 17:0.60724622 18:1.526247 19:0.02602301 20:-0.93124878 21:0.057246719 22:0.02602301 23:-0.93124878 24:0.057246719 25:-1.697965 26:-0.90435201 27:-0.66754657 28:0.74849248 29:-0.87745529 30:0.36787239 31:1.176623 32:0.2091741 33:-0.046295181 34:-0.95256001 35:-0.14586321 36:-0.26632169 37:0.35094309 38:-1.1249059 39:-0.90698719 40:-1.029012 41:-1.3615969 42:-0.8358022 43:-1.697965 44:-0.90435201 45:-0.66754657 46:-1.029012 47:-1.3615969 48:-0.8358022 49:0.02602301 50:-0.93124878 51:0.057246719 52:0.85170239 53:-2.883954 54:0.1931455 55:1.176623 56:0.2091741 57:-0.046295181 58:-1.697965 59:-0.90435201 60:-0.66754657 61:1.230139 62:0.77938551 63:0.54259938 64:0.85170239 65:-2.883954 66:0.1931455 67:-0.53207511 68:1.247389 69:0.0054757739 70:0.85170239 71:-2.883954 72:0.1931455 73:-0.46709111 74:0.47276241 75:1.44212 76:0.35094309 77:-1.1249059 78:-0.90698719 79:1.176623 80:0.2091741 81:-0.046295181 82:0.35094309 83:-1.1249059 84:-0.90698719 85:0.35094309 86:-1.1249059 87:-0.90698719 88:-1.029012 89:-1.3615969 90:-0.8358022 91:0.2706688 92:-0.52241802 93:2.67168 94:0.02602301 95:-0.93124878 96:0.057246719 97:0.35094309 98:-1.1249059 99:-0.90698719 100:-0.95256001 101:-0.14586321 102:-0.26632169 #
7.4580724278409258332089848408941 1:-1.6023999 2:-0.55469412 3:-0.63518971 4:1.3906879 5:0.60724622 6:1.526247 7:1.230139 8:0.77938551 9:0.54259938 10:0.74849248 11:-0.87745529 12:0.36787239 13:-1.881449 14:0.69869518 15:0.290216 16:1.3906879 17:0.60724622 18:1.526247 19:0.02602301 20:-0.93124878 21:0.057246719 22:0.74849248 23:-0.87745529 24:0.36787239 25:0.74849248 26:-0.87745529 27:0.36787239 28:-0.46709111 29:0.47276241 30:1.44212 31:1.176623 32:0.2091741 33:-0.046295181 34:0.85170239 35:-2.883954 36:0.1931455 37:-1.881449 38:0.69869518 39:0.290216 40:0.74849248 41:-0.87745529 42:0.36787239 43:1.176623 44:0.2091741 45:-0.046295181 46:0.2706688 47:-0.52241802 48:2.67168 49:0.85170239 50:-2.883954 51:0.1931455 52:0.85170239 53:-2.883954 54:0.1931455 55:1.176623 56:0.2091741 57:-0.046295181 58:-1.881449 59:0.69869518 60:0.290216 61:1.230139 62:0.77938551 63:0.54259938 64:0.85170239 65:-2.883954 66:0.1931455 67:-0.53207511 68:1.247389 69:0.0054757739 70:0.85170239 71:-2.883954 72:0.1931455 73:-0.46709111 74:0.47276241 75:1.44212 76:0.35094309 77:-1.1249059 78:-0.90698719 79:1.176623 80:0.2091741 81:-0.046295181 82:0.02602301 83:-0.93124878 84:0.057246719 85:0.35094309 86:-1.1249059 87:-0.90698719 88:0.35094309 89:-1.1249059 90:-0.90698719 91:0.2706688 92:-0.52241802 93:2.67168 94:0.02602301 95:-0.93124878 96:0.057246719 97:0.35094309 98:-1.1249059 99:-0.90698719 100:1.100171 101:1.3549761 102:-2.2271459 #
10 1:1.08488 2:0.75786811 3:-2.033005 4:-1.029012 5:-1.3615969 6:-0.8358022 7:0.02602301 8:-0.93124878 9:0.057246719 10:-0.46709111 11:0.47276241 12:1.44212 13:-1.881449 14:0.69869518 15:0.290216 16:1.3906879 17:0.60724622 18:1.526247 19:-0.46709111 20:0.47276241 21:1.44212 22:-1.816465 23:1.9628429 24:0.54907078 25:-0.95256001 26:-0.14586321 27:-0.26632169 28:0.92050898 29:0.93538678 30:0.7173264 31:0.83258939 32:0.28448501 33:-0.73873162 34:-1.029012 35:-1.3615969 36:-0.8358022 37:-0.95256001 38:-0.14586321 39:-0.26632169 40:0.74849248 41:-0.87745529 42:0.36787239 43:-1.697965 44:-0.90435201 45:-0.66754657 46:-1.697965 47:-0.90435201 48:-0.66754657 49:0.85170239 50:-2.883954 51:0.1931455 52:0.85170239 53:-2.883954 54:0.1931455 55:1.176623 56:0.2091741 57:-0.046295181 58:-1.816465 59:1.9628429 60:0.54907078 61:1.230139 62:0.77938551 63:0.54259938 64:0.2706688 65:-0.52241802 66:2.67168 67:-0.53207511 68:1.247389 69:0.0054757739 70:0.85170239 71:-2.883954 72:0.1931455 73:-0.46709111 74:0.47276241 75:1.44212 76:0.35094309 77:-1.1249059 78:-0.90698719 79:1.176623 80:0.2091741 81:-0.046295181 82:0.02602301 83:-0.93124878 84:0.057246719 85:0.35094309 86:-1.1249059 87:-0.90698719 88:-1.697965 89:-0.90435201 90:-0.66754657 91:0.92050898 92:0.93538678 93:0.7173264 94:0.02602301 95:-0.93124878 96:0.057246719 97:0.35094309 98:-1.1249059 99:-0.90698719 100:0.35094309 101:-1.1249059 102:-0.90698719 #
10 1:-1.6023999 2:-0.55469412 3:-0.63518971 4:1.3906879 5:0.60724622 6:1.526247 7:-0.46709111 8:0.47276241 9:1.44212 10:0.02602301 11:-0.93124878 12:0.057246719 13:-1.881449 14:0.69869518 15:0.290216 16:1.3906879 17:0.60724622 18:1.526247 19:0.02602301 20:-0.93124878 21:0.057246719 22:0.74849248 23:-0.87745529 24:0.36787239 25:-1.6023999 26:-0.55469412 27:-0.63518971 28:-1.029012 29:-1.3615969 30:-0.8358022 31:1.176623 32:0.2091741 33:-0.046295181 34:0.02602301 35:-0.93124878 36:0.057246719 37:0.92050898 38:0.93538678 39:0.7173264 40:-1.6023999 41:-0.55469412 42:-0.63518971 43:-1.6023999 44:-0.55469412 45:-0.63518971 46:0.35094309 47:-1.1249059 48:-0.90698719 49:0.85170239 50:-2.883954 51:0.1931455 52:0.85170239 53:-2.883954 54:0.1931455 55:1.3906879 56:0.60724622 57:1.526247 58:1.100171 59:1.3549761 60:-2.2271459 61:0.92050898 62:0.93538678 63:0.7173264 64:-1.6023999 65:-0.55469412 66:-0.63518971 67:-0.53207511 68:1.247389 69:0.0054757739 70:0.85170239 71:-2.883954 72:0.1931455 73:-0.46709111 74:0.47276241 75:1.44212 76:0.35094309 77:-1.1249059 78:-0.90698719 79:1.176623 80:0.2091741 81:-0.046295181 82:0.35094309 83:-1.1249059 84:-0.90698719 85:0.35094309 86:-1.1249059 87:-0.90698719 88:-1.6023999 89:-0.55469412 90:-0.63518971 91:0.2706688 92:-0.52241802 93:2.67168 94:0.02602301 95:-0.93124878 96:0.057246719 97:0.35094309 98:-1.1249059 99:-0.90698719 100:-1.816465 101:1.9628429 102:0.54907078 #
-0.022046061701310855351909623323081 1:0.74849248 2:-0.87745529 3:0.36787239 4:1.3906879 5:0.60724622 6:1.526247 7:-1.6023999 8:-0.55469412 9:-0.63518971 10:0.74849248 11:-0.87745529 12:0.36787239 13:-1.881449 14:0.69869518 15:0.290216 16:1.176623 17:0.2091741 18:-0.046295181 19:-0.46709111 20:0.47276241 21:1.44212 22:-1.881449 23:0.69869518 24:0.290216 25:-1.029012 26:-1.3615969 27:-0.8358022 28:1.100171 29:1.3549761 30:-2.2271459 31:0.83258939 32:0.28448501 33:-0.73873162 34:-0.95256001 35:-0.14586321 36:-0.26632169 37:1.230139 38:0.77938551 39:0.54259938 40:0.85170239 41:-2.883954 42:0.1931455 43:-1.029012 44:-1.3615969 45:-0.8358022 46:-1.6023999 47:-0.55469412 48:-0.63518971 49:-1.029012 50:-1.3615969 51:-0.8358022 52:0.85170239 53:-2.883954 54:0.1931455 55:1.176623 56:0.2091741 57:-0.046295181 58:-1.6023999 59:-0.55469412 60:-0.63518971 61:0.74849248 62:-0.87745529 63:0.36787239 64:1.176623 65:0.2091741 66:-0.046295181 67:-0.53207511 68:1.247389 69:0.0054757739 70:0.85170239 71:-2.883954 72:0.1931455 73:-1.881449 74:0.69869518 75:0.290216 76:0.35094309 77:-1.1249059 78:-0.90698719 79:1.176623 80:0.2091741 81:-0.046295181 82:0.74849248 83:-0.87745529 84:0.36787239 85:0.02602301 86:-0.93124878 87:0.057246719 88:-1.881449 89:0.69869518 90:0.290216 91:-1.029012 92:-1.3615969 93:-0.8358022 94:0.35094309 95:-1.1249059 96:-0.90698719 97:0.02602301 98:-0.93124878 99:0.057246719 100:-1.6023999 101:-0.55469412 102:-0.63518971 #
-0.30397425931362970219495878154703 1:-1.6023999 2:-0.55469412 3:-0.63518971 4:1.3906879 5:0.60724622 6:1.526247 7:1.100171 8:1.3549761 9:-2.2271459 10:0.02602301 11:-0.93124878 12:0.057246719 13:-1.881449 14:0.69869518 15:0.290216 16:1.3906879 17:0.60724622 18:1.526247 19:-0.46709111 20:0.47276241 21:1.44212 22:0.74849248 23:-0.87745529 24:0.36787239 25:-1.6023999 26:-0.55469412 27:-0.63518971 28:-0.53207511 29:1.247389 30:0.0054757739 31:0.02602301 32:-0.93124878 33:0.057246719 34:-1.029012 35:-1.3615969 36:-0.8358022 37:0.92050898 38:0.93538678 39:0.7173264 40:-1.6023999 41:-0.55469412 42:-0.63518971 43:0.85170239 44:-2.883954 45:0.1931455 46:0.35094309 47:-1.1249059 48:-0.90698719 49:0.85170239 50:-2.883954 51:0.1931455 52:0.85170239 53:-2.883954 54:0.1931455 55:1.3906879 56:0.60724622 57:1.526247 58:1.100171 59:1.3549761 60:-2.2271459 61:1.230139 62:0.77938551 63:0.54259938 64:0.35094309 65:-1.1249059 66:-0.90698719 67:-0.53207511 68:1.247389 69:0.0054757739 70:0.85170239 71:-2.883954 72:0.1931455 73:-0.46709111 74:0.47276241 75:1.44212 76:0.35094309 77:-1.1249059 78:-0.90698719 79:1.176623 80:0.2091741 81:-0.046295181 82:0.35094309 83:-1.1249059 84:-0.90698719 85:0.35094309 86:-1.1249059 87:-0.90698719 88:-1.6023999 89:-0.55469412 90:-0.63518971 91:0.2706688 92:-0.52241802 93:2.67168 94:0.02602301 95:-0.93124878 96:0.057246719 97:0.35094309 98:-1.1249059 99:-0.90698719 100:-1.816465 101:1.9628429 102:0.54907078 #
-0.19725861954675183440599539608229 1:-1.6023999 2:-0.55469412 3:-0.63518971 4:0.74849248 5:-0.87745529 6:0.36787239 7:0.35094309 8:-1.1249059 9:-0.90698719 10:0.92050898 11:0.93538678 12:0.7173264 13:-1.881449 14:0.69869518 15:0.290216 16:1.3906879 17:0.60724622 18:1.526247 19:-1.029012 20:-1.3615969 21:-0.8358022 22:0.74849248 23:-0.87745529 24:0.36787239 25:-1.029012 26:-1.3615969 27:-0.8358022 28:-1.816465 29:1.9628429 30:0.54907078 31:1.176623 32:0.2091741 33:-0.046295181 34:0.85170239 35:-2.883954 36:0.1931455 37:1.230139 38:0.77938551 39:0.54259938 40:0.83258939 41:0.28448501 42:-0.73873162 43:-1.029012 44:-1.3615969 45:-0.8358022 46:-1.881449 47:0.69869518 48:0.290216 49:0.02602301 50:-0.93124878 51:0.057246719 52:0.85170239 53:-2.883954 54:0.1931455 55:1.176623 56:0.2091741 57:-0.046295181 58:-1.029012 59:-1.3615969 60:-0.8358022 61:1.230139 62:0.77938551 63:0.54259938 64:-0.95256001 65:-0.14586321 66:-0.26632169 67:-0.53207511 68:1.247389 69:0.0054757739 70:0.85170239 71:-2.883954 72:0.1931455 73:-1.697965 74:-0.90435201 75:-0.66754657 76:0.35094309 77:-1.1249059 78:-0.90698719 79:1.176623 80:0.2091741 81:-0.046295181 82:0.35094309 83:-1.1249059 84:-0.90698719 85:0.35094309 86:-1.1249059 87:-0.90698719 88:-1.029012 89:-1.3615969 90:-0.8358022 91:0.92050898 92:0.93538678 93:0.7173264 94:0.74849248 95:-0.87745529 96:0.36787239 97:0.74849248 98:-0.87745529 99:0.36787239 100:-1.881449 101:0.69869518 102:0.290216 #
9.7442583007217251633846899494529 1:-1.6023999 2:-0.55469412 3:-0.63518971 4:0.02602301 5:-0.93124878 6:0.057246719 7:0.83258939 8:0.28448501 9:-0.73873162 10:0.02602301 11:-0.93124878 12:0.057246719 13:-1.881449 14:0.69869518 15:0.290216 16:1.3906879 17:0.60724622 18:1.526247 19:0.02602301 20:-0.93124878 21:0.057246719 22:-1.029012 23:-1.3615969 24:-0.8358022 25:-1.029012 26:-1.3615969 27:-0.8358022 28:0.74849248 29:-0.87745529 30:0.36787239 31:1.176623 32:0.2091741 33:-0.046295181 34:-0.95256001 35:-0.14586321 36:-0.26632169 37:0.35094309 38:-1.1249059 39:-0.90698719 40:-1.029012 41:-1.3615969 42:-0.8358022 43:-1.029012 44:-1.3615969 45:-0.8358022 46:-1.029012 47:-1.3615969 48:-0.8358022 49:0.02602301 50:-0.93124878 51:0.057246719 52:0.85170239 53:-2.883954 54:0.1931455 55:1.176623 56:0.2091741 57:-0.046295181 58:-1.029012 59:-1.3615969 60:-0.8358022 61:1.230139 62:0.77938551 63:0.54259938 64:0.02602301 65:-0.93124878 66:0.057246719 67:-0.53207511 68:1.247389 69:0.0054757739 70:0.85170239 71:-2.883954 72:0.1931455 73:-0.46709111 74:0.47276241 75:1.44212 76:0.35094309 77:-1.1249059 78:-0.90698719 79:1.176623 80:0.2091741 81:-0.046295181 82:0.02602301 83:-0.93124878 84:0.057246719 85:0.35094309 86:-1.1249059 87:-0.90698719 88:-1.029012 89:-1.3615969 90:-0.8358022 91:0.2706688 92:-0.52241802 93:2.67168 94:0.02602301 95:-0.93124878 96:0.057246719 97:0.02602301 98:-0.93124878 99:0.057246719 100:-0.95256001 101:-0.14586321 102:-0.26632169 #
7.0845534867099217990471515804529 1:-1.6023999 2:-0.55469412 3:-0.63518971 4:0.02602301 5:-0.93124878 6:0.057246719 7:0.83258939 8:0.28448501 9:-0.73873162 10:0.02602301 11:-0.93124878 12:0.057246719 13:-1.881449 14:0.69869518 15:0.290216 16:1.3906879 17:0.60724622 18:1.526247 19:0.02602301 20:-0.93124878 21:0.057246719 22:0.35094309 23:-1.1249059 24:-0.90698719 25:-1.029012 26:-1.3615969 27:-0.8358022 28:0.74849248 29:-0.87745529 30:0.36787239 31:1.176623 32:0.2091741 33:-0.046295181 34:-0.95256001 35:-0.14586321 36:-0.26632169 37:0.35094309 38:-1.1249059 39:-0.90698719 40:-1.029012 41:-1.3615969 42:-0.8358022 43:-1.029012 44:-1.3615969 45:-0.8358022 46:-1.029012 47:-1.3615969 48:-0.8358022 49:0.02602301 50:-0.93124878 51:0.057246719 52:0.85170239 53:-2.883954 54:0.1931455 55:1.176623 56:0.2091741 57:-0.046295181 58:-1.697965 59:-0.90435201 60:-0.66754657 61:1.230139 62:0.77938551 63:0.54259938 64:0.02602301 65:-0.93124878 66:0.057246719 67:-0.53207511 68:1.247389 69:0.0054757739 70:0.85170239 71:-2.883954 72:0.1931455 73:-0.46709111 74:0.47276241 75:1.44212 76:0.35094309 77:-1.1249059 78:-0.90698719 79:1.176623 80:0.2091741 81:-0.046295181 82:0.02602301 83:-0.93124878 84:0.057246719 85:0.35094309 86:-1.1249059 87:-0.90698719 88:-1.029012 89:-1.3615969 90:-0.8358022 91:0.2706688 92:-0.52241802 93:2.67168 94:0.02602301 95:-0.93124878 96:0.057246719 97:0.02602301 98:-0.93124878 99:0.057246719 100:-0.95256001 101:-0.14586321 102:-0.26632169 #
10 1:-1.6023999 2:-0.55469412 3:-0.63518971 4:0.02602301 5:-0.93124878 6:0.057246719 7:0.83258939 8:0.28448501 9:-0.73873162 10:0.02602301 11:-0.93124878 12:0.057246719 13:-1.881449 14:0.69869518 15:0.290216 16:1.3906879 17:0.60724622 18:1.526247 19:0.02602301 20:-0.93124878 21:0.057246719 22:0.02602301 23:-0.93124878 24:0.057246719 25:-1.029012 26:-1.3615969 27:-0.8358022 28:0.74849248 29:-0.87745529 30:0.36787239 31:1.176623 32:0.2091741 33:-0.046295181 34:-0.95256001 35:-0.14586321 36:-0.26632169 37:0.35094309 38:-1.1249059 39:-0.90698719 40:-1.029012 41:-1.3615969 42:-0.8358022 43:-1.029012 44:-1.3615969 45:-0.8358022 46:-1.029012 47:-1.3615969 48:-0.8358022 49:0.02602301 50:-0.93124878 51:0.057246719 52:0.85170239 53:-2.883954 54:0.1931455 55:1.176623 56:0.2091741 57:-0.046295181 58:-1.697965 59:-0.90435201 60:-0.66754657 61:1.230139 62:0.77938551 63:0.54259938 64:0.02602301 65:-0.93124878 66:0.057246719 67:-0.53207511 68:1.247389 69:0.0054757739 70:0.85170239 71:-2.883954 72:0.1931455 73:-0.46709111 74:0.47276241 75:1.44212 76:0.35094309 77:-1.1249059 78:-0.90698719 79:1.176623 80:0.2091741 81:-0.046295181 82:0.35094309 83:-1.1249059 84:-0.90698719 85:0.35094309 86:-1.1249059 87:-0.90698719 88:-1.029012 89:-1.3615969 90:-0.8358022 91:0.2706688 92:-0.52241802 93:2.67168 94:0.02602301 95:-0.93124878 96:0.057246719 97:0.74849248 98:-0.87745529 99:0.36787239 100:-0.95256001 101:-0.14586321 102:-0.26632169 #
-2.2010403457979914598752202437026 1:0.35094309 2:-1.1249059 3:-0.90698719 4:1.176623 5:0.2091741 6:-0.046295181 7:-1.881449 8:0.69869518 9:0.290216 10:0.02602301 11:-0.93124878 12:0.057246719 13:-1.881449 14:0.69869518 15:0.290216 16:1.3906879 17:0.60724622 18:1.526247 19:0.02602301 20:-0.93124878 21:0.057246719 22:0.02602301 23:-0.93124878 24:0.057246719 25:-1.6023999 26:-0.55469412 27:-0.63518971 28:-1.6023999 29:-0.55469412 30:-0.63518971 31:1.176623 32:0.2091741 33:-0.046295181 34:-0.95256001 35:-0.14586321 36:-0.26632169 37:-1.697965 38:-0.90435201 39:-0.66754657 40:-1.6023999 41:-0.55469412 42:-0.63518971 43:-1.029012 44:-1.3615969 45:-0.8358022 46:0.35094309 47:-1.1249059 48:-0.90698719 49:0.02602301 50:-0.93124878 51:0.057246719 52:0.85170239 53:-2.883954 54:0.1931455 55:1.176623 56:0.2091741 57:-0.046295181 58:-1.697965 59:-0.90435201 60:-0.66754657 61:1.230139 62:0.77938551 63:0.54259938 64:0.02602301 65:-0.93124878 66:0.057246719 67:-0.53207511 68:1.247389 69:0.0054757739 70:0.85170239 71:-2.883954 72:0.1931455 73:-0.46709111 74:0.47276241 75:1.44212 76:0.02602301 77:-0.93124878 78:0.057246719 79:1.176623 80:0.2091741 81:-0.046295181 82:0.2706688 83:-0.52241802 84:2.67168 85:0.74849248 86:-0.87745529 87:0.36787239 88:-1.029012 89:-1.3615969 90:-0.8358022 91:0.2706688 92:-0.52241802 93:2.67168 94:-1.029012 95:-1.3615969 96:-0.8358022 97:0.74849248 98:-0.87745529 99:0.36787239 100:-0.95256001 101:-0.14586321 102:-0.26632169 #
-4.3551391981535125808022712590173 1:-0.95256001 2:-0.14586321 3:-0.26632169 4:0.35094309 5:-1.1249059 6:-0.90698719 7:0.83258939 8:0.28448501 9:-0.73873162 10:0.02602301 11:-0.93124878 12:0.057246719 13:-1.881449 14:0.69869518 15:0.290216 16:1.3906879 17:0.60724622 18:1.526247 19:0.02602301 20:-0.93124878 21:0.057246719 22:0.35094309 23:-1.1249059 24:-0.90698719 25:-1.029012 26:-1.3615969 27:-0.8358022 28:-1.816465 29:1.9628429 30:0.54907078 31:1.176623 32:0.2091741 33:-0.046295181 34:-0.95256001 35:-0.14586321 36:-0.26632169 37:0.35094309 38:-1.1249059 39:-0.90698719 40:-1.6023999 41:-0.55469412 42:-0.63518971 43:-1.029012 44:-1.3615969 45:-0.8358022 46:-1.029012 47:-1.3615969 48:-0.8358022 49:0.02602301 50:-0.93124878 51:0.057246719 52:0.85170239 53:-2.883954 54:0.1931455 55:1.176623 56:0.2091741 57:-0.046295181 58:-1.881449 59:0.69869518 60:0.290216 61:1.230139 62:0.77938551 63:0.54259938 64:0.02602301 65:-0.93124878 66:0.057246719 67:-0.53207511 68:1.247389 69:0.0054757739 70:0.85170239 71:-2.883954 72:0.1931455 73:-0.46709111 74:0.47276241 75:1.44212 76:0.35094309 77:-1.1249059 78:-0.90698719 79:1.176623 80:0.2091741 81:-0.046295181 82:0.74849248 83:-0.87745529 84:0.36787239 85:0.35094309 86:-1.1249059 87:-0.90698719 88:-1.029012 89:-1.3615969 90:-0.8358022 91:0.2706688 92:-0.52241802 93:2.67168 94:0.02602301 95:-0.93124878 96:0.057246719 97:0.74849248 98:-0.87745529 99:0.36787239 100:-1.697965 101:-0.90435201 102:-0.66754657 #
-1.5493041590988956279772992274957 1:-1.6023999 2:-0.55469412 3:-0.63518971 4:1.3906879 5:0.60724622 6:1.526247 7:0.92050898 8:0.93538678 9:0.7173264 10:0.02602301 11:-0.93124878 12:0.057246719 13:-1.881449 14:0.69869518 15:0.290216 16:1.3906879 17:0.60724622 18:1.526247 19:0.35094309 20:-1.1249059 21:-0.90698719 22:0.74849248 23:-0.87745529 24:0.36787239 25:-1.816465 26:1.9628429 27:0.54907078 28:1.176623 29:0.2091741 30:-0.046295181 31:0.2706688 32:-0.52241802 33:2.67168 34:0.74849248 35:-0.87745529 36:0.36787239 37:1.3906879 38:0.60724622 39:1.526247 40:-1.6023999 41:-0.55469412 42:-0.63518971 43:-0.95256001 44:-0.14586321 45:-0.26632169 46:-1.6023999 47:-0.55469412 48:-0.63518971 49:0.85170239 50:-2.883954 51:0.1931455 52:0.85170239 53:-2.883954 54:0.1931455 55:1.176623 56:0.2091741 57:-0.046295181 58:-0.53207511 59:1.247389 60:0.0054757739 61:1.230139 62:0.77938551 63:0.54259938 64:-0.53207511 65:1.247389 66:0.0054757739 67:-0.53207511 68:1.247389 69:0.0054757739 70:0.85170239 71:-2.883954 72:0.1931455 73:-0.46709111 74:0.47276241 75:1.44212 76:0.35094309 77:-1.1249059 78:-0.90698719 79:1.176623 80:0.2091741 81:-0.046295181 82:-1.881449 83:0.69869518 84:0.290216 85:0.35094309 86:-1.1249059 87:-0.90698719 88:-1.029012 89:-1.3615969 90:-0.8358022 91:1.3906879 92:0.60724622 93:1.526247 94:0.02602301 95:-0.93124878 96:0.057246719 97:-1.029012 98:-1.3615969 99:-0.8358022 100:0.02602301 101:-0.93124878 102:0.057246719 #
10 1:0.74849248 2:-0.87745529 3:0.36787239 4:-1.816465 5:1.9628429 6:0.54907078 7:1.08488 8:0.75786811 9:-2.033005 10:-0.53207511 11:1.247389 12:0.0054757739 13:-1.881449 14:0.69869518 15:0.290216 16:1.3906879 17:0.60724622 18:1.526247 19:0.02602301 20:-0.93124878 21:0.057246719 22:-1.881449 23:0.69869518 24:0.290216 25:-1.697965 26:-0.90435201 27:-0.66754657 28:-1.6023999 29:-0.55469412 30:-0.63518971 31:1.230139 32:0.77938551 33:0.54259938 34:0.85170239 35:-2.883954 36:0.1931455 37:0.74849248 38:-0.87745529 39:0.36787239 40:0.35094309 41:-1.1249059 42:-0.90698719 43:-1.029012 44:-1.3615969 45:-0.8358022 46:-1.029012 47:-1.3615969 48:-0.8358022 49:0.85170239 50:-2.883954 51:0.1931455 52:0.85170239 53:-2.883954 54:0.1931455 55:1.176623 56:0.2091741 57:-0.046295181 58:1.230139 59:0.77938551 60:0.54259938 61:1.230139 62:0.77938551 63:0.54259938 64:1.176623 65:0.2091741 66:-0.046295181 67:-0.53207511 68:1.247389 69:0.0054757739 70:0.85170239 71:-2.883954 72:0.1931455 73:-0.46709111 74:0.47276241 75:1.44212 76:0.35094309 77:-1.1249059 78:-0.90698719 79:1.176623 80:0.2091741 81:-0.046295181 82:1.230139 83:0.77938551 84:0.54259938 85:0.74849248 86:-0.87745529 87:0.36787239 88:-1.029012 89:-1.3615969 90:-0.8358022 91:-1.029012 92:-1.3615969 93:-0.8358022 94:0.74849248 95:-0.87745529 96:0.36787239 97:0.35094309 98:-1.1249059 99:-0.90698719 100:-1.881449 101:0.69869518 102:0.290216 #
10 1:-1.6023999 2:-0.55469412 3:-0.63518971 4:1.3906879 5:0.60724622 6:1.526247 7:-0.53207511 8:1.247389 9:0.0054757739 10:0.02602301 11:-0.93124878 12:0.057246719 13:-1.881449 14:0.69869518 15:0.290216 16:1.3906879 17:0.60724622 18:1.526247 19:0.02602301 20:-0.93124878 21:0.057246719 22:0.02602301 23:-0.93124878 24:0.057246719 25:-1.029012 26:-1.3615969 27:-0.8358022 28:0.02602301 29:-0.93124878 30:0.057246719 31:1.176623 32:0.2091741 33:-0.046295181 34:-0.46709111 35:0.47276241 36:1.44212 37:0.35094309 38:-1.1249059 39:-0.90698719 40:-1.6023999 41:-0.55469412 42:-0.63518971 43:-1.6023999 44:-0.55469412 45:-0.63518971 46:-1.029012 47:-1.3615969 48:-0.8358022 49:0.02602301 50:-0.93124878 51:0.057246719 52:0.85170239 53:-2.883954 54:0.1931455 55:1.176623 56:0.2091741 57:-0.046295181 58:-1.697965 59:-0.90435201 60:-0.66754657 61:1.230139 62:0.77938551 63:0.54259938 64:0.02602301 65:-0.93124878 66:0.057246719 67:-0.53207511 68:1.247389 69:0.0054757739 70:0.85170239 71:-2.883954 72:0.1931455 73:-0.46709111 74:0.47276241 75:1.44212 76:0.35094309 77:-1.1249059 78:-0.90698719 79:1.176623 80:0.2091741 81:-0.046295181 82:0.02602301 83:-0.93124878 84:0.057246719 85:0.35094309 86:-1.1249059 87:-0.90698719 88:-1.029012 89:-1.3615969 90:-0.8358022 91:0.02602301 92:-0.93124878 93:0.057246719 94:-1.029012 95:-1.3615969 96:-0.8358022 97:0.35094309 98:-1.1249059 99:-0.90698719 100:0.02602301 101:-0.93124878 102:0.057246719 #
5.0588342899936566965379824978299 1:1.230139 2:0.77938551 3:0.54259938 4:-1.816465 5:1.9628429 6:0.54907078 7:1.08488 8:0.75786811 9:-2.033005 10:-1.6023999 11:-0.55469412 12:-0.63518971 13:-1.881449 14:0.69869518 15:0.290216 16:1.3906879 17:0.60724622 18:1.526247 19:0.02602301 20:-0.93124878 21:0.057246719 22:-1.881449 23:0.69869518 24:0.290216 25:-1.029012 26:-1.3615969 27:-0.8358022 28:-1.6023999 29:-0.55469412 30:-0.63518971 31:0.74849248 32:-0.87745529 33:0.36787239 34:0.35094309 35:-1.1249059 36:-0.90698719 37:0.35094309 38:-1.1249059 39:-0.90698719 40:0.85170239 41:-2.883954 42:0.1931455 43:0.35094309 44:-1.1249059 45:-0.90698719 46:-1.6023999 47:-0.55469412 48:-0.63518971 49:0.85170239 50:-2.883954 51:0.1931455 52:0.85170239 53:-2.883954 54:0.1931455 55:1.176623 56:0.2091741 57:-0.046295181 58:-1.029012 59:-1.3615969 60:-0.8358022 61:1.230139 62:0.77938551 63:0.54259938 64:1.176623 65:0.2091741 66:-0.046295181 67:-0.53207511 68:1.247389 69:0.0054757739 70:0.85170239 71:-2.883954 72:0.1931455 73:-0.46709111 74:0.47276241 75:1.44212 76:0.35094309 77:-1.1249059 78:-0.90698719 79:1.176623 80:0.2091741 81:-0.046295181 82:0.74849248 83:-0.87745529 84:0.36787239 85:0.74849248 86:-0.87745529 87:0.36787239 88:-1.029012 89:-1.3615969 90:-0.8358022 91:-1.029012 92:-1.3615969 93:-0.8358022 94:0.02602301 95:-0.93124878 96:0.057246719 97:0.35094309 98:-1.1249059 99:-0.90698719 100:-1.816465 101:1.9628429 102:0.54907078 #
-10 1:0.74849248 2:-0.87745529 3:0.36787239 4:-1.816465 5:1.9628429 6:0.54907078 7:1.08488 8:0.75786811 9:-2.033005 10:-1.6023999 11:-0.55469412 12:-0.63518971 13:-1.881449 14:0.69869518 15:0.290216 16:1.3906879 17:0.60724622 18:1.526247 19:0.02602301 20:-0.93124878 21:0.057246719 22:-1.881449 23:0.69869518 24:0.290216 25:-1.029012 26:-1.3615969 27:-0.8358022 28:-1.6023999 29:-0.55469412 30:-0.63518971 31:1.230139 32:0.77938551 33:0.54259938 34:0.85170239 35:-2.883954 36:0.1931455 37:0.02602301 38:-0.93124878 39:0.057246719 40:0.02602301 41:-0.93124878 42:0.057246719 43:-1.029012 44:-1.3615969 45:-0.8358022 46:-1.029012 47:-1.3615969 48:-0.8358022 49:0.85170239 50:-2.883954 51:0.1931455 52:0.85170239 53:-2.883954 54:0.1931455 55:1.176623 56:0.2091741 57:-0.046295181 58:1.230139 59:0.77938551 60:0.54259938 61:1.230139 62:0.77938551 63:0.54259938 64:0.83258939 65:0.28448501 66:-0.73873162 67:-0.53207511 68:1.247389 69:0.0054757739 70:0.85170239 71:-2.883954 72:0.1931455 73:-0.46709111 74:0.47276241 75:1.44212 76:0.35094309 77:-1.1249059 78:-0.90698719 79:1.176623 80:0.2091741 81:-0.046295181 82:1.230139 83:0.77938551 84:0.54259938 85:0.74849248 86:-0.87745529 87:0.36787239 88:-1.029012 89:-1.3615969 90:-0.8358022 91:-1.029012 92:-1.3615969 93:-0.8358022 94:0.74849248 95:-0.87745529 96:0.36787239 97:0.35094309 98:-1.1249059 99:-0.90698719 100:-0.53207511 101:1.247389 102:0.0054757739 #
-10 1:-1.6023999 2:-0.55469412 3:-0.63518971 4:1.3906879 5:0.60724622 6:1.526247 7:-0.53207511 8:1.247389 9:0.0054757739 10:0.02602301 11:-0.93124878 12:0.057246719 13:-1.881449 14:0.69869518 15:0.290216 16:1.3906879 17:0.60724622 18:1.526247 19:0.02602301 20:-0.93124878 21:0.057246719 22:0.02602301 23:-0.93124878 24:0.057246719 25:-1.029012 26:-1.3615969 27:-0.8358022 28:0.02602301 29:-0.93124878 30:0.057246719 31:1.176623 32:0.2091741 33:-0.046295181 34:-0.46709111 35:0.47276241 36:1.44212 37:0.35094309 38:-1.1249059 39:-0.90698719 40:-1.6023999 41:-0.55469412 42:-0.63518971 43:-1.6023999 44:-0.55469412 45:-0.63518971 46:-1.029012 47:-1.3615969 48:-0.8358022 49:0.02602301 50:-0.93124878 51:0.057246719 52:0.85170239 53:-2.883954 54:0.1931455 55:1.176623 56:0.2091741 57:-0.046295181 58:-1.697965 59:-0.90435201 60:-0.66754657 61:1.230139 62:0.77938551 63:0.54259938 64:0.02602301 65:-0.93124878 66:0.057246719 67:-0.53207511 68:1.247389 69:0.0054757739 70:0.85170239 71:-2.883954 72:0.1931455 73:-0.46709111 74:0.47276241 75:1.44212 76:0.35094309 77:-1.1249059 78:-0.90698719 79:1.176623 80:0.2091741 81:-0.046295181 82:0.02602301 83:-0.93124878 84:0.057246719 85:0.35094309 86:-1.1249059 87:-0.90698719 88:-1.029012 89:-1.3615969 90:-0.8358022 91:0.02602301 92:-0.93124878 93:0.057246719 94:-1.029012 95:-1.3615969 96:-0.8358022 97:0.35094309 98:-1.1249059 99:-0.90698719 100:0.02602301 101:-0.93124878 102:0.057246719 #
-3.3814600943301398316975792113226 1:0.2706688 2:-0.52241802 3:2.67168 4:-1.816465 5:1.9628429 6:0.54907078 7:1.100171 8:1.3549761 9:-2.2271459 10:-1.881449 11:0.69869518 12:0.290216 13:-1.881449 14:0.69869518 15:0.290216 16:1.3906879 17:0.60724622 18:1.526247 19:0.85170239 20:-2.883954 21:0.1931455 22:-1.881449 23:0.69869518 24:0.290216 25:-1.029012 26:-1.3615969 27:-0.8358022 28:0.02602301 29:-0.93124878 30:0.057246719 31:0.74849248 32:-0.87745529 33:0.36787239 34:0.02602301 35:-0.93124878 36:0.057246719 37:-0.53207511 38:1.247389 39:0.0054757739 40:0.85170239 41:-2.883954 42:0.1931455 43:0.35094309 44:-1.1249059 45:-0.90698719 46:-1.6023999 47:-0.55469412 48:-0.63518971 49:0.85170239 50:-2.883954 51:0.1931455 52:0.85170239 53:-2.883954 54:0.1931455 55:1.176623 56:0.2091741 57:-0.046295181 58:1.230139 59:0.77938551 60:0.54259938 61:1.230139 62:0.77938551 63:0.54259938 64:1.176623 65:0.2091741 66:-0.046295181 67:-0.53207511 68:1.247389 69:0.0054757739 70:0.85170239 71:-2.883954 72:0.1931455 73:-0.46709111 74:0.47276241 75:1.44212 76:0.35094309 77:-1.1249059 78:-0.90698719 79:1.176623 80:0.2091741 81:-0.046295181 82:1.230139 83:0.77938551 84:0.54259938 85:0.74849248 86:-0.87745529 87:0.36787239 88:-1.029012 89:-1.3615969 90:-0.8358022 91:-1.029012 92:-1.3615969 93:-0.8358022 94:0.35094309 95:-1.1249059 96:-0.90698719 97:0.35094309 98:-1.1249059 99:-0.90698719 100:-1.697965 101:-0.90435201 102:-0.66754657 #
3.545044794956366374094614002388 1:-1.6023999 2:-0.55469412 3:-0.63518971 4:1.100171 5:1.3549761 6:-2.2271459 7:0.83258939 8:0.28448501 9:-0.73873162 10:0.02602301 11:-0.93124878 12:0.057246719 13:-1.881449 14:0.69869518 15:0.290216 16:1.3906879 17:0.60724622 18:1.526247 19:0.02602301 20:-0.93124878 21:0.057246719 22:0.02602301 23:-0.93124878 24:0.057246719 25:-1.881449 26:0.69869518 27:0.290216 28:0.74849248 29:-0.87745529 30:0.36787239 31:1.176623 32:0.2091741 33:-0.046295181 34:0.35094309 35:-1.1249059 36:-0.90698719 37:0.35094309 38:-1.1249059 39:-0.90698719 40:-1.6023999 41:-0.55469412 42:-0.63518971 43:-1.029012 44:-1.3615969 45:-0.8358022 46:0.35094309 47:-1.1249059 48:-0.90698719 49:0.02602301 50:-0.93124878 51:0.057246719 52:0.85170239 53:-2.883954 54:0.1931455 55:1.3906879 56:0.60724622 57:1.526247 58:-1.029012 59:-1.3615969 60:-0.8358022 61:1.230139 62:0.77938551 63:0.54259938 64:0.02602301 65:-0.93124878 66:0.057246719 67:-0.53207511 68:1.247389 69:0.0054757739 70:0.85170239 71:-2.883954 72:0.1931455 73:-0.46709111 74:0.47276241 75:1.44212 76:0.35094309 77:-1.1249059 78:-0.90698719 79:1.176623 80:0.2091741 81:-0.046295181 82:0.02602301 83:-0.93124878 84:0.057246719 85:0.35094309 86:-1.1249059 87:-0.90698719 88:-1.029012 89:-1.3615969 90:-0.8358022 91:0.2706688 92:-0.52241802 93:2.67168 94:0.02602301 95:-0.93124878 96:0.057246719 97:0.35094309 98:-1.1249059 99:-0.90698719 100:-0.95256001 101:-0.14586321 102:-0.26632169 #
10 1:-1.6023999 2:-0.55469412 3:-0.63518971 4:0.02602301 5:-0.93124878 6:0.057246719 7:0.83258939 8:0.28448501 9:-0.73873162 10:0.02602301 11:-0.93124878 12:0.057246719 13:-1.881449 14:0.69869518 15:0.290216 16:1.3906879 17:0.60724622 18:1.526247 19:0.02602301 20:-0.93124878 21:0.057246719 22:0.74849248 23:-0.87745529 24:0.36787239 25:-1.697965 26:-0.90435201 27:-0.66754657 28:0.74849248 29:-0.87745529 30:0.36787239 31:1.176623 32:0.2091741 33:-0.046295181 34:-0.95256001 35:-0.14586321 36:-0.26632169 37:0.35094309 38:-1.1249059 39:-0.90698719 40:-1.6023999 41:-0.55469412 42:-0.63518971 43:-1.697965 44:-0.90435201 45:-0.66754657 46:-1.029012 47:-1.3615969 48:-0.8358022 49:0.02602301 50:-0.93124878 51:0.057246719 52:0.85170239 53:-2.883954 54:0.1931455 55:1.176623 56:0.2091741 57:-0.046295181 58:-1.881449 59:0.69869518 60:0.290216 61:1.230139 62:0.77938551 63:0.54259938 64:0.02602301 65:-0.93124878 66:0.057246719 67:-0.53207511 68:1.247389 69:0.0054757739 70:0.85170239 71:-2.883954 72:0.1931455 73:-0.46709111 74:0.47276241 75:1.44212 76:0.35094309 77:-1.1249059 78:-0.90698719 79:1.176623 80:0.2091741 81:-0.046295181 82:0.02602301 83:-0.93124878 84:0.057246719 85:0.35094309 86:-1.1249059 87:-0.90698719 88:-1.029012 89:-1.3615969 90:-0.8358022 91:0.2706688 92:-0.52241802 93:2.67168 94:0.02602301 95:-0.93124878 96:0.057246719 97:0.35094309 98:-1.1249059 99:-0.90698719 100:-1.697965 101:-0.90435201 102:-0.66754657 #
10 1:-1.6023999 2:-0.55469412 3:-0.63518971 4:0.02602301 5:-0.93124878 6:0.057246719 7:0.92050898 8:0.93538678 9:0.7173264 10:0.74849248 11:-0.87745529 12:0.36787239 13:-1.881449 14:0.69869518 15:0.290216 16:1.3906879 17:0.60724622 18:1.526247 19:0.02602301 20:-0.93124878 21:0.057246719 22:-1.697965 23:-0.90435201 24:-0.66754657 25:-1.029012 26:-1.3615969 27:-0.8358022 28:0.74849248 29:-0.87745529 30:0.36787239 31:1.176623 32:0.2091741 33:-0.046295181 34:-0.95256001 35:-0.14586321 36:-0.26632169 37:0.35094309 38:-1.1249059 39:-0.90698719 40:-1.029012 41:-1.3615969 42:-0.8358022 43:-1.6023999 44:-0.55469412 45:-0.63518971 46:0.35094309 47:-1.1249059 48:-0.90698719 49:0.85170239 50:-2.883954 51:0.1931455 52:0.85170239 53:-2.883954 54:0.1931455 55:1.176623 56:0.2091741 57:-0.046295181 58:-1.697965 59:-0.90435201 60:-0.66754657 61:0.83258939 62:0.28448501 63:-0.73873162 64:0.02602301 65:-0.93124878 66:0.057246719 67:-0.53207511 68:1.247389 69:0.0054757739 70:0.85170239 71:-2.883954 72:0.1931455 73:-0.46709111 74:0.47276241 75:1.44212 76:0.35094309 77:-1.1249059 78:-0.90698719 79:1.176623 80:0.2091741 81:-0.046295181 82:0.35094309 83:-1.1249059 84:-0.90698719 85:0.35094309 86:-1.1249059 87:-0.90698719 88:-1.697965 89:-0.90435201 90:-0.66754657 91:0.2706688 92:-0.52241802 93:2.67168 94:0.74849248 95:-0.87745529 96:0.36787239 97:0.35094309 98:-1.1249059 99:-0.90698719 100:-0.95256001 101:-0.14586321 102:-0.26632169 #
-10 1:-1.6023999 2:-0.55469412 3:-0.63518971 4:0.02602301 5:-0.93124878 6:0.057246719 7:0.92050898 8:0.93538678 9:0.7173264 10:0.74849248 11:-0.87745529 12:0.36787239 13:-1.881449 14:0.69869518 15:0.290216 16:1.3906879 17:0.60724622 18:1.526247 19:0.02602301 20:-0.93124878 21:0.057246719 22:-1.697965 23:-0.90435201 24:-0.66754657 25:-1.029012 26:-1.3615969 27:-0.8358022 28:0.74849248 29:-0.87745529 30:0.36787239 31:1.176623 32:0.2091741 33:-0.046295181 34:-0.95256001 35:-0.14586321 36:-0.26632169 37:0.35094309 38:-1.1249059 39:-0.90698719 40:-1.029012 41:-1.3615969 42:-0.8358022 43:-1.6023999 44:-0.55469412 45:-0.63518971 46:0.35094309 47:-1.1249059 48:-0.90698719 49:0.85170239 50:-2.883954 51:0.1931455 52:0.85170239 53:-2.883954 54:0.1931455 55:1.176623 56:0.2091741 57:-0.046295181 58:-1.697965 59:-0.90435201 60:-0.66754657 61:0.83258939 62:0.28448501 63:-0.73873162 64:0.02602301 65:-0.93124878 66:0.057246719 67:-0.53207511 68:1.247389 69:0.0054757739 70:0.85170239 71:-2.883954 72:0.1931455 73:-0.46709111 74:0.47276241 75:1.44212 76:0.35094309 77:-1.1249059 78:-0.90698719 79:1.176623 80:0.2091741 81:-0.046295181 82:0.35094309 83:-1.1249059 84:-0.90698719 85:0.35094309 86:-1.1249059 87:-0.90698719 88:-1.697965 89:-0.90435201 90:-0.66754657 91:0.2706688 92:-0.52241802 93:2.67168 94:0.74849248 95:-0.87745529 96:0.36787239 97:0.35094309 98:-1.1249059 99:-0.90698719 100:-0.95256001 101:-0.14586321 102:-0.26632169 #
-1.3832562453808325830806325029698 1:-1.6023999 2:-0.55469412 3:-0.63518971 4:1.3906879 5:0.60724622 6:1.526247 7:-0.46709111 8:0.47276241 9:1.44212 10:0.02602301 11:-0.93124878 12:0.057246719 13:-1.881449 14:0.69869518 15:0.290216 16:1.3906879 17:0.60724622 18:1.526247 19:0.02602301 20:-0.93124878 21:0.057246719 22:0.74849248 23:-0.87745529 24:0.36787239 25:-1.6023999 26:-0.55469412 27:-0.63518971 28:0.2706688 29:-0.52241802 30:2.67168 31:1.176623 32:0.2091741 33:-0.046295181 34:-1.029012 35:-1.3615969 36:-0.8358022 37:0.92050898 38:0.93538678 39:0.7173264 40:-1.6023999 41:-0.55469412 42:-0.63518971 43:-1.6023999 44:-0.55469412 45:-0.63518971 46:0.35094309 47:-1.1249059 48:-0.90698719 49:0.85170239 50:-2.883954 51:0.1931455 52:0.85170239 53:-2.883954 54:0.1931455 55:1.3906879 56:0.60724622 57:1.526247 58:1.100171 59:1.3549761 60:-2.2271459 61:0.92050898 62:0.93538678 63:0.7173264 64:-1.6023999 65:-0.55469412 66:-0.63518971 67:-0.53207511 68:1.247389 69:0.0054757739 70:0.85170239 71:-2.883954 72:0.1931455 73:-0.46709111 74:0.47276241 75:1.44212 76:0.35094309 77:-1.1249059 78:-0.90698719 79:1.176623 80:0.2091741 81:-0.046295181 82:0.35094309 83:-1.1249059 84:-0.90698719 85:0.35094309 86:-1.1249059 87:-0.90698719 88:-1.6023999 89:-0.55469412 90:-0.63518971 91:0.2706688 92:-0.52241802 93:2.67168 94:0.02602301 95:-0.93124878 96:0.057246719 97:0.35094309 98:-1.1249059 99:-0.90698719 100:-1.816465 101:1.9628429 102:0.54907078 #
-2.8119185188466642166815745440545 1:-1.6023999 2:-0.55469412 3:-0.63518971 4:1.3906879 5:0.60724622 6:1.526247 7:-0.46709111 8:0.47276241 9:1.44212 10:0.02602301 11:-0.93124878 12:0.057246719 13:-1.881449 14:0.69869518 15:0.290216 16:1.3906879 17:0.60724622 18:1.526247 19:0.02602301 20:-0.93124878 21:0.057246719 22:0.74849248 23:-0.87745529 24:0.36787239 25:-1.6023999 26:-0.55469412 27:-0.63518971 28:-1.029012 29:-1.3615969 30:-0.8358022 31:1.176623 32:0.2091741 33:-0.046295181 34:-1.029012 35:-1.3615969 36:-0.8358022 37:0.92050898 38:0.93538678 39:0.7173264 40:-1.6023999 41:-0.55469412 42:-0.63518971 43:-1.6023999 44:-0.55469412 45:-0.63518971 46:0.35094309 47:-1.1249059 48:-0.90698719 49:0.85170239 50:-2.883954 51:0.1931455 52:0.85170239 53:-2.883954 54:0.1931455 55:1.3906879 56:0.60724622 57:1.526247 58:1.100171 59:1.3549761 60:-2.2271459 61:0.83258939 62:0.28448501 63:-0.73873162 64:-1.6023999 65:-0.55469412 66:-0.63518971 67:-0.53207511 68:1.247389 69:0.0054757739 70:0.85170239 71:-2.883954 72:0.1931455 73:-0.46709111 74:0.47276241 75:1.44212 76:0.35094309 77:-1.1249059 78:-0.90698719 79:1.176623 80:0.2091741 81:-0.046295181 82:-1.697965 83:-0.90435201 84:-0.66754657 85:0.35094309 86:-1.1249059 87:-0.90698719 88:-1.6023999 89:-0.55469412 90:-0.63518971 91:0.2706688 92:-0.52241802 93:2.67168 94:0.02602301 95:-0.93124878 96:0.057246719 97:0.35094309 98:-1.1249059 99:-0.90698719 100:-1.816465 101:1.9628429 102:0.54907078 #
3.4800537092671559591394725430291 1:-1.6023999 2:-0.55469412 3:-0.63518971 4:0.02602301 5:-0.93124878 6:0.057246719 7:0.35094309 8:-1.1249059 9:-0.90698719 10:0.02602301 11:-0.93124878 12:0.057246719 13:-1.881449 14:0.69869518 15:0.290216 16:1.3906879 17:0.60724622 18:1.526247 19:0.02602301 20:-0.93124878 21:0.057246719 22:0.74849248 23:-0.87745529 24:0.36787239 25:-1.029012 26:-1.3615969 27:-0.8358022 28:-1.697965 29:-0.90435201 30:-0.66754657 31:0.83258939 32:0.28448501 33:-0.73873162 34:-0.46709111 35:0.47276241 36:1.44212 37:1.3906879 38:0.60724622 39:1.526247 40:-1.6023999 41:-0.55469412 42:-0.63518971 43:-1.029012 44:-1.3615969 45:-0.8358022 46:-1.6023999 47:-0.55469412 48:-0.63518971 49:0.85170239 50:-2.883954 51:0.1931455 52:0.85170239 53:-2.883954 54:0.1931455 55:1.176623 56:0.2091741 57:-0.046295181 58:-1.6023999 59:-0.55469412 60:-0.63518971 61:1.230139 62:0.77938551 63:0.54259938 64:0.02602301 65:-0.93124878 66:0.057246719 67:-0.53207511 68:1.247389 69:0.0054757739 70:0.85170239 71:-2.883954 72:0.1931455 73:-0.46709111 74:0.47276241 75:1.44212 76:0.35094309 77:-1.1249059 78:-0.90698719 79:1.176623 80:0.2091741 81:-0.046295181 82:0.2706688 83:-0.52241802 84:2.67168 85:0.2706688 86:-0.52241802 87:2.67168 88:-1.029012 89:-1.3615969 90:-0.8358022 91:0.85170239 92:-2.883954 93:0.1931455 94:0.02602301 95:-0.93124878 96:0.057246719 97:0.35094309 98:-1.1249059 99:-0.90698719 100:0.35094309 101:-1.1249059 102:-0.90698719 #
-2.0589601845878173769222030387027 1:0.85170239 2:-2.883954 3:0.1931455 4:1.176623 5:0.2091741 6:-0.046295181 7:0.92050898 8:0.93538678 9:0.7173264 10:0.02602301 11:-0.93124878 12:0.057246719 13:-1.881449 14:0.69869518 15:0.290216 16:1.3906879 17:0.60724622 18:1.526247 19:0.02602301 20:-0.93124878 21:0.057246719 22:0.74849248 23:-0.87745529 24:0.36787239 25:-1.697965 26:-0.90435201 27:-0.66754657 28:0.85170239 29:-2.883954 30:0.1931455 31:1.3906879 32:0.60724622 33:1.526247 34:0.35094309 35:-1.1249059 36:-0.90698719 37:0.85170239 38:-2.883954 39:0.1931455 40:-1.697965 41:-0.90435201 42:-0.66754657 43:0.2706688 44:-0.52241802 45:2.67168 46:-1.029012 47:-1.3615969 48:-0.8358022 49:0.02602301 50:-0.93124878 51:0.057246719 52:0.85170239 53:-2.883954 54:0.1931455 55:1.176623 56:0.2091741 57:-0.046295181 58:-1.697965 59:-0.90435201 60:-0.66754657 61:1.230139 62:0.77938551 63:0.54259938 64:-0.95256001 65:-0.14586321 66:-0.26632169 67:-0.53207511 68:1.247389 69:0.0054757739 70:0.85170239 71:-2.883954 72:0.1931455 73:-0.46709111 74:0.47276241 75:1.44212 76:0.35094309 77:-1.1249059 78:-0.90698719 79:1.176623 80:0.2091741 81:-0.046295181 82:0.02602301 83:-0.93124878 84:0.057246719 85:0.35094309 86:-1.1249059 87:-0.90698719 88:-1.029012 89:-1.3615969 90:-0.8358022 91:0.02602301 92:-0.93124878 93:0.057246719 94:0.2706688 95:-0.52241802 96:2.67168 97:-1.697965 98:-0.90435201 99:-0.66754657 100:0.02602301 101:-0.93124878 102:0.057246719 #
-0.056200549462628215935389164314984 1:-0.53207511 2:1.247389 3:0.0054757739 4:0.02602301 5:-0.93124878 6:0.057246719 7:-1.697965 8:-0.90435201 9:-0.66754657 10:0.74849248 11:-0.87745529 12:0.36787239 13:-1.881449 14:0.69869518 15:0.290216 16:1.3906879 17:0.60724622 18:1.526247 19:-1.6023999 20:-0.55469412 21:-0.63518971 22:0.74849248 23:-0.87745529 24:0.36787239 25:0.02602301 26:-0.93124878 27:0.057246719 28:0.35094309 29:-1.1249059 30:-0.90698719 31:0.35094309 32:-1.1249059 33:-0.90698719 34:0.2706688 35:-0.52241802 36:2.67168 37:1.08488 38:0.75786811 39:-2.033005 40:0.35094309 41:-1.1249059 42:-0.90698719 43:-0.95256001 44:-0.14586321 45:-0.26632169 46:-1.6023999 47:-0.55469412 48:-0.63518971 49:0.85170239 50:-2.883954 51:0.1931455 52:0.85170239 53:-2.883954 54:0.1931455 55:1.176623 56:0.2091741 57:-0.046295181 58:-1.881449 59:0.69869518 60:0.290216 61:1.3906879 62:0.60724622 63:1.526247 64:1.176623 65:0.2091741 66:-0.046295181 67:-0.53207511 68:1.247389 69:0.0054757739 70:0.85170239 71:-2.883954 72:0.1931455 73:-0.46709111 74:0.47276241 75:1.44212 76:0.35094309 77:-1.1249059 78:-0.90698719 79:1.176623 80:0.2091741 81:-0.046295181 82:0.02602301 83:-0.93124878 84:0.057246719 85:0.35094309 86:-1.1249059 87:-0.90698719 88:-1.029012 89:-1.3615969 90:-0.8358022 91:0.85170239 92:-2.883954 93:0.1931455 94:0.02602301 95:-0.93124878 96:0.057246719 97:-0.95256001 98:-0.14586321 99:-0.26632169 100:-1.6023999 101:-0.55469412 102:-0.63518971 #
-1.5175477064101117186112333001802 1:-0.53207511 2:1.247389 3:0.0054757739 4:-1.816465 5:1.9628429 6:0.54907078 7:0.02602301 8:-0.93124878 9:0.057246719 10:0.74849248 11:-0.87745529 12:0.36787239 13:-1.881449 14:0.69869518 15:0.290216 16:1.3906879 17:0.60724622 18:1.526247 19:0.02602301 20:-0.93124878 21:0.057246719 22:0.35094309 23:-1.1249059 24:-0.90698719 25:-1.697965 26:-0.90435201 27:-0.66754657 28:0.35094309 29:-1.1249059 30:-0.90698719 31:0.74849248 32:-0.87745529 33:0.36787239 34:-1.6023999 35:-0.55469412 36:-0.63518971 37:1.08488 38:0.75786811 39:-2.033005 40:-1.697965 41:-0.90435201 42:-0.66754657 43:-1.029012 44:-1.3615969 45:-0.8358022 46:-1.6023999 47:-0.55469412 48:-0.63518971 49:0.85170239 50:-2.883954 51:0.1931455 52:0.85170239 53:-2.883954 54:0.1931455 55:1.176623 56:0.2091741 57:-0.046295181 58:-1.697965 59:-0.90435201 60:-0.66754657 61:1.230139 62:0.77938551 63:0.54259938 64:1.176623 65:0.2091741 66:-0.046295181 67:-0.53207511 68:1.247389 69:0.0054757739 70:0.85170239 71:-2.883954 72:0.1931455 73:-0.46709111 74:0.47276241 75:1.44212 76:0.35094309 77:-1.1249059 78:-0.90698719 79:1.176623 80:0.2091741 81:-0.046295181 82:0.02602301 83:-0.93124878 84:0.057246719 85:-1.029012 86:-1.3615969 87:-0.8358022 88:-1.029012 89:-1.3615969 90:-0.8358022 91:0.85170239 92:-2.883954 93:0.1931455 94:0.2706688 95:-0.52241802 96:2.67168 97:0.2706688 98:-0.52241802 99:2.67168 100:-1.029012 101:-1.3615969 102:-0.8358022 #
10 1:-1.6023999 2:-0.55469412 3:-0.63518971 4:0.02602301 5:-0.93124878 6:0.057246719 7:0.92050898 8:0.93538678 9:0.7173264 10:0.02602301 11:-0.93124878 12:0.057246719 13:-1.881449 14:0.69869518 15:0.290216 16:1.3906879 17:0.60724622 18:1.526247 19:0.35094309 20:-1.1249059 21:-0.90698719 22:-1.697965 23:-0.90435201 24:-0.66754657 25:-1.029012 26:-1.3615969 27:-0.8358022 28:0.74849248 29:-0.87745529 30:0.36787239 31:1.176623 32:0.2091741 33:-0.046295181 34:-0.95256001 35:-0.14586321 36:-0.26632169 37:1.08488 38:0.75786811 39:-2.033005 40:0.02602301 41:-0.93124878 42:0.057246719 43:-1.029012 44:-1.3615969 45:-0.8358022 46:0.02602301 47:-0.93124878 48:0.057246719 49:0.02602301 50:-0.93124878 51:0.057246719 52:0.85170239 53:-2.883954 54:0.1931455 55:1.176623 56:0.2091741 57:-0.046295181 58:-1.697965 59:-0.90435201 60:-0.66754657 61:1.230139 62:0.77938551 63:0.54259938 64:0.02602301 65:-0.93124878 66:0.057246719 67:-0.53207511 68:1.247389 69:0.0054757739 70:0.85170239 71:-2.883954 72:0.1931455 73:-0.46709111 74:0.47276241 75:1.44212 76:0.35094309 77:-1.1249059 78:-0.90698719 79:1.176623 80:0.2091741 81:-0.046295181 82:0.35094309 83:-1.1249059 84:-0.90698719 85:0.35094309 86:-1.1249059 87:-0.90698719 88:-1.697965 89:-0.90435201 90:-0.66754657 91:0.2706688 92:-0.52241802 93:2.67168 94:0.02602301 95:-0.93124878 96:0.057246719 97:0.35094309 98:-1.1249059 99:-0.90698719 100:-1.029012 101:-1.3615969 102:-0.8358022 #
-7.2095445982890122849084946210496 1:-1.6023999 2:-0.55469412 3:-0.63518971 4:0.02602301 5:-0.93124878 6:0.057246719 7:0.92050898 8:0.93538678 9:0.7173264 10:0.02602301 11:-0.93124878 12:0.057246719 13:-1.881449 14:0.69869518 15:0.290216 16:1.3906879 17:0.60724622 18:1.526247 19:0.35094309 20:-1.1249059 21:-0.90698719 22:-1.697965 23:-0.90435201 24:-0.66754657 25:-1.029012 26:-1.3615969 27:-0.8358022 28:0.74849248 29:-0.87745529 30:0.36787239 31:1.176623 32:0.2091741 33:-0.046295181 34:-0.95256001 35:-0.14586321 36:-0.26632169 37:1.08488 38:0.75786811 39:-2.033005 40:0.02602301 41:-0.93124878 42:0.057246719 43:-1.029012 44:-1.3615969 45:-0.8358022 46:0.02602301 47:-0.93124878 48:0.057246719 49:0.02602301 50:-0.93124878 51:0.057246719 52:0.85170239 53:-2.883954 54:0.1931455 55:1.176623 56:0.2091741 57:-0.046295181 58:-1.697965 59:-0.90435201 60:-0.66754657 61:1.230139 62:0.77938551 63:0.54259938 64:0.02602301 65:-0.93124878 66:0.057246719 67:-0.53207511 68:1.247389 69:0.0054757739 70:0.85170239 71:-2.883954 72:0.1931455 73:-0.46709111 74:0.47276241 75:1.44212 76:0.35094309 77:-1.1249059 78:-0.90698719 79:1.176623 80:0.2091741 81:-0.046295181 82:0.35094309 83:-1.1249059 84:-0.90698719 85:0.35094309 86:-1.1249059 87:-0.90698719 88:-1.697965 89:-0.90435201 90:-0.66754657 91:0.2706688 92:-0.52241802 93:2.67168 94:0.02602301 95:-0.93124878 96:0.057246719 97:0.35094309 98:-1.1249059 99:-0.90698719 100:-0.95256001 101:-0.14586321 102:-0.26632169 #
-2.884350659168220865069542924175 1:-1.6023999 2:-0.55469412 3:-0.63518971 4:0.02602301 5:-0.93124878 6:0.057246719 7:0.92050898 8:0.93538678 9:0.7173264 10:0.02602301 11:-0.93124878 12:0.057246719 13:-1.881449 14:0.69869518 15:0.290216 16:1.3906879 17:0.60724622 18:1.526247 19:0.35094309 20:-1.1249059 21:-0.90698719 22:-1.697965 23:-0.90435201 24:-0.66754657 25:-1.029012 26:-1.3615969 27:-0.8358022 28:0.74849248 29:-0.87745529 30:0.36787239 31:1.176623 32:0.2091741 33:-0.046295181 34:-0.95256001 35:-0.14586321 36:-0.26632169 37:1.08488 38:0.75786811 39:-2.033005 40:0.02602301 41:-0.93124878 42:0.057246719 43:0.35094309 44:-1.1249059 45:-0.90698719 46:0.02602301 47:-0.93124878 48:0.057246719 49:0.02602301 50:-0.93124878 51:0.057246719 52:0.85170239 53:-2.883954 54:0.1931455 55:1.176623 56:0.2091741 57:-0.046295181 58:-1.6023999 59:-0.55469412 60:-0.63518971 61:1.230139 62:0.77938551 63:0.54259938 64:0.02602301 65:-0.93124878 66:0.057246719 67:-0.53207511 68:1.247389 69:0.0054757739 70:0.85170239 71:-2.883954 72:0.1931455 73:-0.46709111 74:0.47276241 75:1.44212 76:0.35094309 77:-1.1249059 78:-0.90698719 79:1.176623 80:0.2091741 81:-0.046295181 82:0.35094309 83:-1.1249059 84:-0.90698719 85:0.35094309 86:-1.1249059 87:-0.90698719 88:-1.697965 89:-0.90435201 90:-0.66754657 91:0.2706688 92:-0.52241802 93:2.67168 94:0.02602301 95:-0.93124878 96:0.057246719 97:0.35094309 98:-1.1249059 99:-0.90698719 100:-1.029012 101:-1.3615969 102:-0.8358022 #
10 1:-1.881449 2:0.69869518 3:0.290216 4:-1.029012 5:-1.3615969 6:-0.8358022 7:0.02602301 8:-0.93124878 9:0.057246719 10:-1.881449 11:0.69869518 12:0.290216 13:-1.881449 14:0.69869518 15:0.290216 16:1.3906879 17:0.60724622 18:1.526247 19:0.02602301 20:-0.93124878 21:0.057246719 22:0.74849248 23:-0.87745529 24:0.36787239 25:-1.029012 26:-1.3615969 27:-0.8358022 28:1.176623 29:0.2091741 30:-0.046295181 31:0.83258939 32:0.28448501 33:-0.73873162 34:-0.46709111 35:0.47276241 36:1.44212 37:0.74849248 38:-0.87745529 39:0.36787239 40:-1.6023999 41:-0.55469412 42:-0.63518971 43:-1.029012 44:-1.3615969 45:-0.8358022 46:-1.881449 47:0.69869518 48:0.290216 49:0.85170239 50:-2.883954 51:0.1931455 52:0.85170239 53:-2.883954 54:0.1931455 55:1.176623 56:0.2091741 57:-0.046295181 58:-1.6023999 59:-0.55469412 60:-0.63518971 61:1.230139 62:0.77938551 63:0.54259938 64:0.35094309 65:-1.1249059 66:-0.90698719 67:-0.53207511 68:1.247389 69:0.0054757739 70:0.85170239 71:-2.883954 72:0.1931455 73:-0.46709111 74:0.47276241 75:1.44212 76:0.35094309 77:-1.1249059 78:-0.90698719 79:1.176623 80:0.2091741 81:-0.046295181 82:0.02602301 83:-0.93124878 84:0.057246719 85:0.35094309 86:-1.1249059 87:-0.90698719 88:-1.029012 89:-1.3615969 90:-0.8358022 91:-1.029012 92:-1.3615969 93:-0.8358022 94:0.74849248 95:-0.87745529 96:0.36787239 97:0.74849248 98:-0.87745529 99:0.36787239 100:-1.697965 101:-0.90435201 102:-0.66754657 #
4.2880704077950646535555279115215 1:-0.95256001 2:-0.14586321 3:-0.26632169 4:0.85170239 5:-2.883954 6:0.1931455 7:0.35094309 8:-1.1249059 9:-0.90698719 10:0.02602301 11:-0.93124878 12:0.057246719 13:-1.881449 14:0.69869518 15:0.290216 16:1.3906879 17:0.60724622 18:1.526247 19:0.85170239 20:-2.883954 21:0.1931455 22:0.02602301 23:-0.93124878 24:0.057246719 25:-1.6023999 26:-0.55469412 27:-0.63518971 28:1.176623 29:0.2091741 30:-0.046295181 31:-0.46709111 32:0.47276241 33:1.44212 34:0.92050898 35:0.93538678 36:0.7173264 37:1.3906879 38:0.60724622 39:1.526247 40:0.2706688 41:-0.52241802 42:2.67168 43:-1.029012 44:-1.3615969 45:-0.8358022 46:0.2706688 47:-0.52241802 48:2.67168 49:0.02602301 50:-0.93124878 51:0.057246719 52:0.85170239 53:-2.883954 54:0.1931455 55:1.176623 56:0.2091741 57:-0.046295181 58:-1.881449 59:0.69869518 60:0.290216 61:1.230139 62:0.77938551 63:0.54259938 64:0.02602301 65:-0.93124878 66:0.057246719 67:-0.53207511 68:1.247389 69:0.0054757739 70:0.85170239 71:-2.883954 72:0.1931455 73:-0.46709111 74:0.47276241 75:1.44212 76:0.35094309 77:-1.1249059 78:-0.90698719 79:1.176623 80:0.2091741 81:-0.046295181 82:0.74849248 83:-0.87745529 84:0.36787239 85:0.35094309 86:-1.1249059 87:-0.90698719 88:-1.029012 89:-1.3615969 90:-0.8358022 91:0.2706688 92:-0.52241802 93:2.67168 94:0.02602301 95:-0.93124878 96:0.057246719 97:0.35094309 98:-1.1249059 99:-0.90698719 100:0.35094309 101:-1.1249059 102:-0.90698719 #
-9.1652632508799722899084372329526 1:1.08488 2:0.75786811 3:-2.033005 4:-1.029012 5:-1.3615969 6:-0.8358022 7:0.02602301 8:-0.93124878 9:0.057246719 10:-0.46709111 11:0.47276241 12:1.44212 13:-1.881449 14:0.69869518 15:0.290216 16:1.3906879 17:0.60724622 18:1.526247 19:-0.46709111 20:0.47276241 21:1.44212 22:-1.816465 23:1.9628429 24:0.54907078 25:-0.95256001 26:-0.14586321 27:-0.26632169 28:0.92050898 29:0.93538678 30:0.7173264 31:0.83258939 32:0.28448501 33:-0.73873162 34:-1.029012 35:-1.3615969 36:-0.8358022 37:-0.95256001 38:-0.14586321 39:-0.26632169 40:0.74849248 41:-0.87745529 42:0.36787239 43:-1.697965 44:-0.90435201 45:-0.66754657 46:-1.697965 47:-0.90435201 48:-0.66754657 49:0.85170239 50:-2.883954 51:0.1931455 52:0.85170239 53:-2.883954 54:0.1931455 55:1.176623 56:0.2091741 57:-0.046295181 58:-1.816465 59:1.9628429 60:0.54907078 61:1.230139 62:0.77938551 63:0.54259938 64:0.2706688 65:-0.52241802 66:2.67168 67:-0.53207511 68:1.247389 69:0.0054757739 70:0.85170239 71:-2.883954 72:0.1931455 73:-0.46709111 74:0.47276241 75:1.44212 76:0.35094309 77:-1.1249059 78:-0.90698719 79:1.176623 80:0.2091741 81:-0.046295181 82:0.02602301 83:-0.93124878 84:0.057246719 85:0.35094309 86:-1.1249059 87:-0.90698719 88:-1.697965 89:-0.90435201 90:-0.66754657 91:0.92050898 92:0.93538678 93:0.7173264 94:0.02602301 95:-0.93124878 96:0.057246719 97:0.35094309 98:-1.1249059 99:-0.90698719 100:0.35094309 101:-1.1249059 102:-0.90698719 #
-6.1545805691315367269567104813177 1:-1.881449 2:0.69869518 3:0.290216 4:-1.029012 5:-1.3615969 6:-0.8358022 7:0.02602301 8:-0.93124878 9:0.057246719 10:-1.881449 11:0.69869518 12:0.290216 13:-1.881449 14:0.69869518 15:0.290216 16:1.3906879 17:0.60724622 18:1.526247 19:0.02602301 20:-0.93124878 21:0.057246719 22:0.74849248 23:-0.87745529 24:0.36787239 25:-1.029012 26:-1.3615969 27:-0.8358022 28:1.176623 29:0.2091741 30:-0.046295181 31:0.83258939 32:0.28448501 33:-0.73873162 34:-0.46709111 35:0.47276241 36:1.44212 37:0.74849248 38:-0.87745529 39:0.36787239 40:-1.6023999 41:-0.55469412 42:-0.63518971 43:-1.029012 44:-1.3615969 45:-0.8358022 46:-1.881449 47:0.69869518 48:0.290216 49:0.85170239 50:-2.883954 51:0.1931455 52:0.85170239 53:-2.883954 54:0.1931455 55:1.176623 56:0.2091741 57:-0.046295181 58:-1.6023999 59:-0.55469412 60:-0.63518971 61:1.230139 62:0.77938551 63:0.54259938 64:0.35094309 65:-1.1249059 66:-0.90698719 67:-0.53207511 68:1.247389 69:0.0054757739 70:0.85170239 71:-2.883954 72:0.1931455 73:-0.46709111 74:0.47276241 75:1.44212 76:0.35094309 77:-1.1249059 78:-0.90698719 79:1.176623 80:0.2091741 81:-0.046295181 82:0.02602301 83:-0.93124878 84:0.057246719 85:0.35094309 86:-1.1249059 87:-0.90698719 88:-1.029012 89:-1.3615969 90:-0.8358022 91:-1.029012 92:-1.3615969 93:-0.8358022 94:0.74849248 95:-0.87745529 96:0.36787239 97:0.74849248 98:-0.87745529 99:0.36787239 100:-1.697965 101:-0.90435201 102:-0.66754657 #
-5.5762416573351645254774666682351 1:-1.6023999 2:-0.55469412 3:-0.63518971 4:0.02602301 5:-0.93124878 6:0.057246719 7:0.92050898 8:0.93538678 9:0.7173264 10:0.02602301 11:-0.93124878 12:0.057246719 13:-1.881449 14:0.69869518 15:0.290216 16:1.3906879 17:0.60724622 18:1.526247 19:0.35094309 20:-1.1249059 21:-0.90698719 22:-1.697965 23:-0.90435201 24:-0.66754657 25:-1.029012 26:-1.3615969 27:-0.8358022 28:0.74849248 29:-0.87745529 30:0.36787239 31:1.176623 32:0.2091741 33:-0.046295181 34:-0.95256001 35:-0.14586321 36:-0.26632169 37:1.08488 38:0.75786811 39:-2.033005 40:0.02602301 41:-0.93124878 42:0.057246719 43:-1.029012 44:-1.3615969 45:-0.8358022 46:0.02602301 47:-0.93124878 48:0.057246719 49:0.02602301 50:-0.93124878 51:0.057246719 52:0.85170239 53:-2.883954 54:0.1931455 55:1.176623 56:0.2091741 57:-0.046295181 58:-1.697965 59:-0.90435201 60:-0.66754657 61:1.230139 62:0.77938551 63:0.54259938 64:0.02602301 65:-0.93124878 66:0.057246719 67:-0.53207511 68:1.247389 69:0.0054757739 70:0.85170239 71:-2.883954 72:0.1931455 73:-0.46709111 74:0.47276241 75:1.44212 76:0.35094309 77:-1.1249059 78:-0.90698719 79:1.176623 80:0.2091741 81:-0.046295181 82:0.35094309 83:-1.1249059 84:-0.90698719 85:0.35094309 86:-1.1249059 87:-0.90698719 88:-1.697965 89:-0.90435201 90:-0.66754657 91:0.2706688 92:-0.52241802 93:2.67168 94:0.02602301 95:-0.93124878 96:0.057246719 97:0.35094309 98:-1.1249059 99:-0.90698719 100:-1.029012 101:-1.3615969 102:-0.8358022 #
-1.6665642032740908273780178205925 1:-1.6023999 2:-0.55469412 3:-0.63518971 4:0.85170239 5:-2.883954 6:0.1931455 7:-0.95256001 8:-0.14586321 9:-0.26632169 10:0.02602301 11:-0.93124878 12:0.057246719 13:-1.881449 14:0.69869518 15:0.290216 16:1.3906879 17:0.60724622 18:1.526247 19:0.85170239 20:-2.883954 21:0.1931455 22:0.35094309 23:-1.1249059 24:-0.90698719 25:-1.029012 26:-1.3615969 27:-0.8358022 28:1.176623 29:0.2091741 30:-0.046295181 31:1.100171 32:1.3549761 33:-2.2271459 34:0.92050898 35:0.93538678 36:0.7173264 37:1.3906879 38:0.60724622 39:1.526247 40:0.2706688 41:-0.52241802 42:2.67168 43:-1.881449 44:0.69869518 45:0.290216 46:0.2706688 47:-0.52241802 48:2.67168 49:0.85170239 50:-2.883954 51:0.1931455 52:0.85170239 53:-2.883954 54:0.1931455 55:1.176623 56:0.2091741 57:-0.046295181 58:-1.881449 59:0.69869518 60:0.290216 61:1.230139 62:0.77938551 63:0.54259938 64:-1.029012 65:-1.3615969 66:-0.8358022 67:-0.53207511 68:1.247389 69:0.0054757739 70:0.85170239 71:-2.883954 72:0.1931455 73:-0.46709111 74:0.47276241 75:1.44212 76:0.35094309 77:-1.1249059 78:-0.90698719 79:1.176623 80:0.2091741 81:-0.046295181 82:0.74849248 83:-0.87745529 84:0.36787239 85:0.35094309 86:-1.1249059 87:-0.90698719 88:-1.029012 89:-1.3615969 90:-0.8358022 91:0.2706688 92:-0.52241802 93:2.67168 94:0.02602301 95:-0.93124878 96:0.057246719 97:0.35094309 98:-1.1249059 99:-0.90698719 100:0.74849248 101:-0.87745529 102:0.36787239 #
-5.7789165831707629550351157377008 1:-1.881449 2:0.69869518 3:0.290216 4:-1.029012 5:-1.3615969 6:-0.8358022 7:0.02602301 8:-0.93124878 9:0.057246719 10:-1.881449 11:0.69869518 12:0.290216 13:-1.881449 14:0.69869518 15:0.290216 16:1.3906879 17:0.60724622 18:1.526247 19:0.02602301 20:-0.93124878 21:0.057246719 22:0.74849248 23:-0.87745529 24:0.36787239 25:-1.029012 26:-1.3615969 27:-0.8358022 28:1.176623 29:0.2091741 30:-0.046295181 31:0.83258939 32:0.28448501 33:-0.73873162 34:-0.46709111 35:0.47276241 36:1.44212 37:0.74849248 38:-0.87745529 39:0.36787239 40:-1.6023999 41:-0.55469412 42:-0.63518971 43:-1.029012 44:-1.3615969 45:-0.8358022 46:-1.881449 47:0.69869518 48:0.290216 49:0.85170239 50:-2.883954 51:0.1931455 52:0.85170239 53:-2.883954 54:0.1931455 55:1.176623 56:0.2091741 57:-0.046295181 58:-1.6023999 59:-0.55469412 60:-0.63518971 61:1.230139 62:0.77938551 63:0.54259938 64:0.35094309 65:-1.1249059 66:-0.90698719 67:-0.53207511 68:1.247389 69:0.0054757739 70:0.85170239 71:-2.883954 72:0.1931455 73:-0.46709111 74:0.47276241 75:1.44212 76:0.35094309 77:-1.1249059 78:-0.90698719 79:1.176623 80:0.2091741 81:-0.046295181 82:0.02602301 83:-0.93124878 84:0.057246719 85:0.35094309 86:-1.1249059 87:-0.90698719 88:-1.029012 89:-1.3615969 90:-0.8358022 91:-1.029012 92:-1.3615969 93:-0.8358022 94:0.74849248 95:-0.87745529 96:0.36787239 97:0.74849248 98:-0.87745529 99:0.36787239 100:-1.697965 101:-0.90435201 102:-0.66754657 #
-0.21185513651916210164927178993821 1:-1.6023999 2:-0.55469412 3:-0.63518971 4:0.02602301 5:-0.93124878 6:0.057246719 7:-1.6023999 8:-0.55469412 9:-0.63518971 10:0.74849248 11:-0.87745529 12:0.36787239 13:-1.881449 14:0.69869518 15:0.290216 16:1.3906879 17:0.60724622 18:1.526247 19:0.02602301 20:-0.93124878 21:0.057246719 22:0.74849248 23:-0.87745529 24:0.36787239 25:-1.029012 26:-1.3615969 27:-0.8358022 28:1.176623 29:0.2091741 30:-0.046295181 31:1.176623 32:0.2091741 33:-0.046295181 34:0.02602301 35:-0.93124878 36:0.057246719 37:0.74849248 38:-0.87745529 39:0.36787239 40:-1.6023999 41:-0.55469412 42:-0.63518971 43:-1.029012 44:-1.3615969 45:-0.8358022 46:-0.95256001 47:-0.14586321 48:-0.26632169 49:0.85170239 50:-2.883954 51:0.1931455 52:0.85170239 53:-2.883954 54:0.1931455 55:1.176623 56:0.2091741 57:-0.046295181 58:-1.6023999 59:-0.55469412 60:-0.63518971 61:1.230139 62:0.77938551 63:0.54259938 64:0.02602301 65:-0.93124878 66:0.057246719 67:-0.53207511 68:1.247389 69:0.0054757739 70:0.85170239 71:-2.883954 72:0.1931455 73:-0.46709111 74:0.47276241 75:1.44212 76:0.35094309 77:-1.1249059 78:-0.90698719 79:1.176623 80:0.2091741 81:-0.046295181 82:0.35094309 83:-1.1249059 84:-0.90698719 85:0.35094309 86:-1.1249059 87:-0.90698719 88:-1.029012 89:-1.3615969 90:-0.8358022 91:1.3906879 92:0.60724622 93:1.526247 94:0.02602301 95:-0.93124878 96:0.057246719 97:0.35094309 98:-1.1249059 99:-0.90698719 100:-1.6023999 101:-0.55469412 102:-0.63518971 #
-4.1317884849430193128227983834222 1:-1.6023999 2:-0.55469412 3:-0.63518971 4:1.3906879 5:0.60724622 6:1.526247 7:-0.46709111 8:0.47276241 9:1.44212 10:0.02602301 11:-0.93124878 12:0.057246719 13:-1.881449 14:0.69869518 15:0.290216 16:1.3906879 17:0.60724622 18:1.526247 19:0.02602301 20:-0.93124878 21:0.057246719 22:0.74849248 23:-0.87745529 24:0.36787239 25:-1.6023999 26:-0.55469412 27:-0.63518971 28:-1.6023999 29:-0.55469412 30:-0.63518971 31:1.176623 32:0.2091741 33:-0.046295181 34:-1.029012 35:-1.3615969 36:-0.8358022 37:0.92050898 38:0.93538678 39:0.7173264 40:-1.6023999 41:-0.55469412 42:-0.63518971 43:-1.6023999 44:-0.55469412 45:-0.63518971 46:0.35094309 47:-1.1249059 48:-0.90698719 49:0.85170239 50:-2.883954 51:0.1931455 52:0.85170239 53:-2.883954 54:0.1931455 55:1.3906879 56:0.60724622 57:1.526247 58:1.100171 59:1.3549761 60:-2.2271459 61:0.92050898 62:0.93538678 63:0.7173264 64:-1.6023999 65:-0.55469412 66:-0.63518971 67:-0.53207511 68:1.247389 69:0.0054757739 70:0.85170239 71:-2.883954 72:0.1931455 73:-0.46709111 74:0.47276241 75:1.44212 76:0.35094309 77:-1.1249059 78:-0.90698719 79:1.176623 80:0.2091741 81:-0.046295181 82:0.35094309 83:-1.1249059 84:-0.90698719 85:0.35094309 86:-1.1249059 87:-0.90698719 88:-1.6023999 89:-0.55469412 90:-0.63518971 91:0.2706688 92:-0.52241802 93:2.67168 94:0.02602301 95:-0.93124878 96:0.057246719 97:0.35094309 98:-1.1249059 99:-0.90698719 100:-1.816465 101:1.9628429 102:0.54907078 #
-1.6569716924216515430146046128357 1:-1.6023999 2:-0.55469412 3:-0.63518971 4:0.85170239 5:-2.883954 6:0.1931455 7:0.35094309 8:-1.1249059 9:-0.90698719 10:0.74849248 11:-0.87745529 12:0.36787239 13:-1.881449 14:0.69869518 15:0.290216 16:1.3906879 17:0.60724622 18:1.526247 19:-1.029012 20:-1.3615969 21:-0.8358022 22:0.74849248 23:-0.87745529 24:0.36787239 25:0.74849248 26:-0.87745529 27:0.36787239 28:-1.029012 29:-1.3615969 30:-0.8358022 31:1.176623 32:0.2091741 33:-0.046295181 34:0.85170239 35:-2.883954 36:0.1931455 37:-1.6023999 38:-0.55469412 39:-0.63518971 40:-1.6023999 41:-0.55469412 42:-0.63518971 43:-0.95256001 44:-0.14586321 45:-0.26632169 46:-1.029012 47:-1.3615969 48:-0.8358022 49:0.85170239 50:-2.883954 51:0.1931455 52:0.85170239 53:-2.883954 54:0.1931455 55:1.176623 56:0.2091741 57:-0.046295181 58:0.35094309 59:-1.1249059 60:-0.90698719 61:1.230139 62:0.77938551 63:0.54259938 64:0.02602301 65:-0.93124878 66:0.057246719 67:-0.53207511 68:1.247389 69:0.0054757739 70:0.85170239 71:-2.883954 72:0.1931455 73:-0.46709111 74:0.47276241 75:1.44212 76:0.35094309 77:-1.1249059 78:-0.90698719 79:1.176623 80:0.2091741 81:-0.046295181 82:0.2706688 83:-0.52241802 84:2.67168 85:0.74849248 86:-0.87745529 87:0.36787239 88:0.35094309 89:-1.1249059 90:-0.90698719 91:-0.95256001 92:-0.14586321 93:-0.26632169 94:-1.029012 95:-1.3615969 96:-0.8358022 97:0.35094309 98:-1.1249059 99:-0.90698719 100:1.100171 101:1.3549761 102:-2.2271459 #
-2.0165887867201894856350463669514 1:-1.6023999 2:-0.55469412 3:-0.63518971 4:1.230139 5:0.77938551 6:0.54259938 7:0.83258939 8:0.28448501 9:-0.73873162 10:0.02602301 11:-0.93124878 12:0.057246719 13:-1.881449 14:0.69869518 15:0.290216 16:1.3906879 17:0.60724622 18:1.526247 19:0.74849248 20:-0.87745529 21:0.36787239 22:0.74849248 23:-0.87745529 24:0.36787239 25:-1.029012 26:-1.3615969 27:-0.8358022 28:-1.697965 29:-0.90435201 30:-0.66754657 31:1.176623 32:0.2091741 33:-0.046295181 34:0.74849248 35:-0.87745529 36:0.36787239 37:-1.697965 38:-0.90435201 39:-0.66754657 40:-1.6023999 41:-0.55469412 42:-0.63518971 43:0.85170239 44:-2.883954 45:0.1931455 46:0.74849248 47:-0.87745529 48:0.36787239 49:0.02602301 50:-0.93124878 51:0.057246719 52:0.85170239 53:-2.883954 54:0.1931455 55:0.74849248 56:-0.87745529 57:0.36787239 58:-1.881449 59:0.69869518 60:0.290216 61:1.230139 62:0.77938551 63:0.54259938 64:0.85170239 65:-2.883954 66:0.1931455 67:-0.53207511 68:1.247389 69:0.0054757739 70:0.85170239 71:-2.883954 72:0.1931455 73:-0.46709111 74:0.47276241 75:1.44212 76:0.35094309 77:-1.1249059 78:-0.90698719 79:1.176623 80:0.2091741 81:-0.046295181 82:-0.53207511 83:1.247389 84:0.0054757739 85:0.74849248 86:-0.87745529 87:0.36787239 88:-1.029012 89:-1.3615969 90:-0.8358022 91:0.2706688 92:-0.52241802 93:2.67168 94:0.35094309 95:-1.1249059 96:-0.90698719 97:0.74849248 98:-0.87745529 99:0.36787239 100:-1.881449 101:0.69869518 102:0.290216 #
-3.1844032090235074861084285657853 1:-1.6023999 2:-0.55469412 3:-0.63518971 4:1.3906879 5:0.60724622 6:1.526247 7:1.230139 8:0.77938551 9:0.54259938 10:0.74849248 11:-0.87745529 12:0.36787239 13:-1.881449 14:0.69869518 15:0.290216 16:1.3906879 17:0.60724622 18:1.526247 19:0.02602301 20:-0.93124878 21:0.057246719 22:0.74849248 23:-0.87745529 24:0.36787239 25:0.35094309 26:-1.1249059 27:-0.90698719 28:-0.46709111 29:0.47276241 30:1.44212 31:1.176623 32:0.2091741 33:-0.046295181 34:0.85170239 35:-2.883954 36:0.1931455 37:-1.697965 38:-0.90435201 39:-0.66754657 40:0.74849248 41:-0.87745529 42:0.36787239 43:-0.95256001 44:-0.14586321 45:-0.26632169 46:0.2706688 47:-0.52241802 48:2.67168 49:0.85170239 50:-2.883954 51:0.1931455 52:0.85170239 53:-2.883954 54:0.1931455 55:1.176623 56:0.2091741 57:-0.046295181 58:-1.881449 59:0.69869518 60:0.290216 61:1.230139 62:0.77938551 63:0.54259938 64:0.85170239 65:-2.883954 66:0.1931455 67:-0.53207511 68:1.247389 69:0.0054757739 70:0.85170239 71:-2.883954 72:0.1931455 73:-0.46709111 74:0.47276241 75:1.44212 76:0.35094309 77:-1.1249059 78:-0.90698719 79:1.176623 80:0.2091741 81:-0.046295181 82:0.85170239 83:-2.883954 84:0.1931455 85:0.35094309 86:-1.1249059 87:-0.90698719 88:0.35094309 89:-1.1249059 90:-0.90698719 91:0.2706688 92:-0.52241802 93:2.67168 94:0.02602301 95:-0.93124878 96:0.057246719 97:0.35094309 98:-1.1249059 99:-0.90698719 100:0.74849248 101:-0.87745529 102:0.36787239 #
-0.17135465202253463701254077022895 1:-1.697965 2:-0.90435201 3:-0.66754657 4:0.02602301 5:-0.93124878 6:0.057246719 7:-1.816465 8:1.9628429 9:0.54907078 10:0.02602301 11:-0.93124878 12:0.057246719 13:-1.881449 14:0.69869518 15:0.290216 16:1.3906879 17:0.60724622 18:1.526247 19:-1.029012 20:-1.3615969 21:-0.8358022 22:-1.881449 23:0.69869518 24:0.290216 25:0.74849248 26:-0.87745529 27:0.36787239 28:0.85170239 29:-2.883954 30:0.1931455 31:1.3906879 32:0.60724622 33:1.526247 34:1.100171 35:1.3549761 36:-2.2271459 37:1.176623 38:0.2091741 39:-0.046295181 40:0.74849248 41:-0.87745529 42:0.36787239 43:-1.697965 44:-0.90435201 45:-0.66754657 46:-1.029012 47:-1.3615969 48:-0.8358022 49:0.85170239 50:-2.883954 51:0.1931455 52:0.74849248 53:-0.87745529 54:0.36787239 55:1.3906879 56:0.60724622 57:1.526247 58:-1.6023999 59:-0.55469412 60:-0.63518971 61:1.230139 62:0.77938551 63:0.54259938 64:0.74849248 65:-0.87745529 66:0.36787239 67:-0.53207511 68:1.247389 69:0.0054757739 70:0.85170239 71:-2.883954 72:0.1931455 73:-1.029012 74:-1.3615969 75:-0.8358022 76:0.35094309 77:-1.1249059 78:-0.90698719 79:1.176623 80:0.2091741 81:-0.046295181 82:0.02602301 83:-0.93124878 84:0.057246719 85:0.2706688 86:-0.52241802 87:2.67168 88:-1.029012 89:-1.3615969 90:-0.8358022 91:1.3906879 92:0.60724622 93:1.526247 94:0.02602301 95:-0.93124878 96:0.057246719 97:0.2706688 98:-0.52241802 99:2.67168 100:-0.53207511 101:1.247389 102:0.0054757739 #
-3.3805955867646342305476991896285 1:-1.6023999 2:-0.55469412 3:-0.63518971 4:0.02602301 5:-0.93124878 6:0.057246719 7:-1.6023999 8:-0.55469412 9:-0.63518971 10:0.35094309 11:-1.1249059 12:-0.90698719 13:-1.881449 14:0.69869518 15:0.290216 16:1.3906879 17:0.60724622 18:1.526247 19:-1.029012 20:-1.3615969 21:-0.8358022 22:0.74849248 23:-0.87745529 24:0.36787239 25:-1.029012 26:-1.3615969 27:-0.8358022 28:0.74849248 29:-0.87745529 30:0.36787239 31:1.176623 32:0.2091741 33:-0.046295181 34:-0.95256001 35:-0.14586321 36:-0.26632169 37:0.74849248 38:-0.87745529 39:0.36787239 40:-0.95256001 41:-0.14586321 42:-0.26632169 43:-1.697965 44:-0.90435201 45:-0.66754657 46:-1.029012 47:-1.3615969 48:-0.8358022 49:0.85170239 50:-2.883954 51:0.1931455 52:0.85170239 53:-2.883954 54:0.1931455 55:1.176623 56:0.2091741 57:-0.046295181 58:-1.881449 59:0.69869518 60:0.290216 61:1.230139 62:0.77938551 63:0.54259938 64:0.2706688 65:-0.52241802 66:2.67168 67:-0.53207511 68:1.247389 69:0.0054757739 70:0.85170239 71:-2.883954 72:0.1931455 73:-0.46709111 74:0.47276241 75:1.44212 76:0.35094309 77:-1.1249059 78:-0.90698719 79:1.176623 80:0.2091741 81:-0.046295181 82:0.02602301 83:-0.93124878 84:0.057246719 85:0.35094309 86:-1.1249059 87:-0.90698719 88:-1.029012 89:-1.3615969 90:-0.8358022 91:0.2706688 92:-0.52241802 93:2.67168 94:0.74849248 95:-0.87745529 96:0.36787239 97:0.35094309 98:-1.1249059 99:-0.90698719 100:-0.95256001 101:-0.14586321 102:-0.26632169 #
-1.8109214887982827413281938788714 1:-1.6023999 2:-0.55469412 3:-0.63518971 4:-0.95256001 5:-0.14586321 6:-0.26632169 7:0.02602301 8:-0.93124878 9:0.057246719 10:0.02602301 11:-0.93124878 12:0.057246719 13:-1.881449 14:0.69869518 15:0.290216 16:1.3906879 17:0.60724622 18:1.526247 19:0.02602301 20:-0.93124878 21:0.057246719 22:0.74849248 23:-0.87745529 24:0.36787239 25:-1.029012 26:-1.3615969 27:-0.8358022 28:0.85170239 29:-2.883954 30:0.1931455 31:1.176623 32:0.2091741 33:-0.046295181 34:0.92050898 35:0.93538678 36:0.7173264 37:-1.881449 38:0.69869518 39:0.290216 40:-1.697965 41:-0.90435201 42:-0.66754657 43:0.74849248 44:-0.87745529 45:0.36787239 46:0.35094309 47:-1.1249059 48:-0.90698719 49:0.85170239 50:-2.883954 51:0.1931455 52:0.85170239 53:-2.883954 54:0.1931455 55:1.176623 56:0.2091741 57:-0.046295181 58:-1.6023999 59:-0.55469412 60:-0.63518971 61:1.230139 62:0.77938551 63:0.54259938 64:0.02602301 65:-0.93124878 66:0.057246719 67:-0.53207511 68:1.247389 69:0.0054757739 70:0.85170239 71:-2.883954 72:0.1931455 73:-0.46709111 74:0.47276241 75:1.44212 76:0.35094309 77:-1.1249059 78:-0.90698719 79:1.176623 80:0.2091741 81:-0.046295181 82:0.35094309 83:-1.1249059 84:-0.90698719 85:0.35094309 86:-1.1249059 87:-0.90698719 88:-1.029012 89:-1.3615969 90:-0.8358022 91:1.3906879 92:0.60724622 93:1.526247 94:0.02602301 95:-0.93124878 96:0.057246719 97:0.35094309 98:-1.1249059 99:-0.90698719 100:-1.697965 101:-0.90435201 102:-0.66754657 #
-0.03381692388566381879400069010444 1:-1.6023999 2:-0.55469412 3:-0.63518971 4:1.3906879 5:0.60724622 6:1.526247 7:0.92050898 8:0.93538678 9:0.7173264 10:-1.029012 11:-1.3615969 12:-0.8358022 13:-1.881449 14:0.69869518 15:0.290216 16:1.3906879 17:0.60724622 18:1.526247 19:-1.029012 20:-1.3615969 21:-0.8358022 22:0.02602301 23:-0.93124878 24:0.057246719 25:0.35094309 26:-1.1249059 27:-0.90698719 28:0.74849248 29:-0.87745529 30:0.36787239 31:1.3906879 32:0.60724622 33:1.526247 34:-0.95256001 35:-0.14586321 36:-0.26632169 37:0.83258939 38:0.28448501 39:-0.73873162 40:-1.697965 41:-0.90435201 42:-0.66754657 43:-1.697965 44:-0.90435201 45:-0.66754657 46:-1.029012 47:-1.3615969 48:-0.8358022 49:0.85170239 50:-2.883954 51:0.1931455 52:0.85170239 53:-2.883954 54:0.1931455 55:1.176623 56:0.2091741 57:-0.046295181 58:-1.881449 59:0.69869518 60:0.290216 61:1.230139 62:0.77938551 63:0.54259938 64:0.02602301 65:-0.93124878 66:0.057246719 67:-0.53207511 68:1.247389 69:0.0054757739 70:0.85170239 71:-2.883954 72:0.1931455 73:-0.46709111 74:0.47276241 75:1.44212 76:0.35094309 77:-1.1249059 78:-0.90698719 79:1.176623 80:0.2091741 81:-0.046295181 82:0.35094309 83:-1.1249059 84:-0.90698719 85:0.35094309 86:-1.1249059 87:-0.90698719 88:-1.029012 89:-1.3615969 90:-0.8358022 91:0.2706688 92:-0.52241802 93:2.67168 94:0.02602301 95:-0.93124878 96:0.057246719 97:0.35094309 98:-1.1249059 99:-0.90698719 100:-1.697965 101:-0.90435201 102:-0.66754657 #
-1.8160247461622187614693757495843 1:-1.6023999 2:-0.55469412 3:-0.63518971 4:-1.816465 5:1.9628429 6:0.54907078 7:0.83258939 8:0.28448501 9:-0.73873162 10:0.02602301 11:-0.93124878 12:0.057246719 13:-1.881449 14:0.69869518 15:0.290216 16:1.3906879 17:0.60724622 18:1.526247 19:-1.029012 20:-1.3615969 21:-0.8358022 22:0.02602301 23:-0.93124878 24:0.057246719 25:-1.881449 26:0.69869518 27:0.290216 28:0.83258939 29:0.28448501 30:-0.73873162 31:1.176623 32:0.2091741 33:-0.046295181 34:0.74849248 35:-0.87745529 36:0.36787239 37:-0.53207511 38:1.247389 39:0.0054757739 40:-0.95256001 41:-0.14586321 42:-0.26632169 43:-1.697965 44:-0.90435201 45:-0.66754657 46:0.35094309 47:-1.1249059 48:-0.90698719 49:0.02602301 50:-0.93124878 51:0.057246719 52:0.85170239 53:-2.883954 54:0.1931455 55:1.176623 56:0.2091741 57:-0.046295181 58:0.92050898 59:0.93538678 60:0.7173264 61:1.230139 62:0.77938551 63:0.54259938 64:0.92050898 65:0.93538678 66:0.7173264 67:-0.53207511 68:1.247389 69:0.0054757739 70:0.85170239 71:-2.883954 72:0.1931455 73:-0.46709111 74:0.47276241 75:1.44212 76:0.35094309 77:-1.1249059 78:-0.90698719 79:1.176623 80:0.2091741 81:-0.046295181 82:0.74849248 83:-0.87745529 84:0.36787239 85:0.92050898 86:0.93538678 87:0.7173264 88:-1.029012 89:-1.3615969 90:-0.8358022 91:-1.029012 92:-1.3615969 93:-0.8358022 94:0.35094309 95:-1.1249059 96:-0.90698719 97:0.02602301 98:-0.93124878 99:0.057246719 100:-1.6023999 101:-0.55469412 102:-0.63518971 #
-1.8531237564232647674344889310305 1:-1.6023999 2:-0.55469412 3:-0.63518971 4:0.85170239 5:-2.883954 6:0.1931455 7:-1.6023999 8:-0.55469412 9:-0.63518971 10:0.02602301 11:-0.93124878 12:0.057246719 13:-1.881449 14:0.69869518 15:0.290216 16:1.3906879 17:0.60724622 18:1.526247 19:0.02602301 20:-0.93124878 21:0.057246719 22:0.74849248 23:-0.87745529 24:0.36787239 25:-1.029012 26:-1.3615969 27:-0.8358022 28:1.08488 29:0.75786811 30:-2.033005 31:0.83258939 32:0.28448501 33:-0.73873162 34:0.02602301 35:-0.93124878 36:0.057246719 37:1.3906879 38:0.60724622 39:1.526247 40:-0.95256001 41:-0.14586321 42:-0.26632169 43:-1.697965 44:-0.90435201 45:-0.66754657 46:-1.029012 47:-1.3615969 48:-0.8358022 49:0.85170239 50:-2.883954 51:0.1931455 52:0.85170239 53:-2.883954 54:0.1931455 55:1.3906879 56:0.60724622 57:1.526247 58:0.35094309 59:-1.1249059 60:-0.90698719 61:1.230139 62:0.77938551 63:0.54259938 64:-1.029012 65:-1.3615969 66:-0.8358022 67:-0.53207511 68:1.247389 69:0.0054757739 70:0.85170239 71:-2.883954 72:0.1931455 73:-0.46709111 74:0.47276241 75:1.44212 76:0.35094309 77:-1.1249059 78:-0.90698719 79:1.176623 80:0.2091741 81:-0.046295181 82:0.2706688 83:-0.52241802 84:2.67168 85:0.2706688 86:-0.52241802 87:2.67168 88:-1.029012 89:-1.3615969 90:-0.8358022 91:1.3906879 92:0.60724622 93:1.526247 94:0.02602301 95:-0.93124878 96:0.057246719 97:0.02602301 98:-0.93124878 99:0.057246719 100:0.74849248 101:-0.87745529 102:0.36787239 #
-0.26946139534191670961149611684959 1:-1.881449 2:0.69869518 3:0.290216 4:-1.816465 5:1.9628429 6:0.54907078 7:0.02602301 8:-0.93124878 9:0.057246719 10:0.02602301 11:-0.93124878 12:0.057246719 13:-1.881449 14:0.69869518 15:0.290216 16:1.3906879 17:0.60724622 18:1.526247 19:-1.6023999 20:-0.55469412 21:-0.63518971 22:0.74849248 23:-0.87745529 24:0.36787239 25:-1.029012 26:-1.3615969 27:-0.8358022 28:-1.881449 29:0.69869518 30:0.290216 31:1.3906879 32:0.60724622 33:1.526247 34:0.02602301 35:-0.93124878 36:0.057246719 37:-0.53207511 38:1.247389 39:0.0054757739 40:0.74849248 41:-0.87745529 42:0.36787239 43:-1.029012 44:-1.3615969 45:-0.8358022 46:-1.881449 47:0.69869518 48:0.290216 49:0.02602301 50:-0.93124878 51:0.057246719 52:0.85170239 53:-2.883954 54:0.1931455 55:1.176623 56:0.2091741 57:-0.046295181 58:-1.6023999 59:-0.55469412 60:-0.63518971 61:1.230139 62:0.77938551 63:0.54259938 64:-1.816465 65:1.9628429 66:0.54907078 67:-0.53207511 68:1.247389 69:0.0054757739 70:0.85170239 71:-2.883954 72:0.1931455 73:-0.46709111 74:0.47276241 75:1.44212 76:0.35094309 77:-1.1249059 78:-0.90698719 79:1.176623 80:0.2091741 81:-0.046295181 82:0.35094309 83:-1.1249059 84:-0.90698719 85:1.230139 86:0.77938551 87:0.54259938 88:-1.029012 89:-1.3615969 90:-0.8358022 91:0.2706688 92:-0.52241802 93:2.67168 94:0.35094309 95:-1.1249059 96:-0.90698719 97:0.74849248 98:-0.87745529 99:0.36787239 100:-0.53207511 101:1.247389 102:0.0054757739 #
-0.0021866656240478593575815580152266 1:-0.53207511 2:1.247389 3:0.0054757739 4:-1.816465 5:1.9628429 6:0.54907078 7:0.74849248 8:-0.87745529 9:0.36787239 10:0.74849248 11:-0.87745529 12:0.36787239 13:-1.881449 14:0.69869518 15:0.290216 16:1.3906879 17:0.60724622 18:1.526247 19:0.02602301 20:-0.93124878 21:0.057246719 22:0.35094309 23:-1.1249059 24:-0.90698719 25:-1.697965 26:-0.90435201 27:-0.66754657 28:0.35094309 29:-1.1249059 30:-0.90698719 31:0.2706688 32:-0.52241802 33:2.67168 34:0.35094309 35:-1.1249059 36:-0.90698719 37:1.08488 38:0.75786811 39:-2.033005 40:-1.6023999 41:-0.55469412 42:-0.63518971 43:-1.029012 44:-1.3615969 45:-0.8358022 46:-1.697965 47:-0.90435201 48:-0.66754657 49:0.85170239 50:-2.883954 51:0.1931455 52:0.85170239 53:-2.883954 54:0.1931455 55:1.176623 56:0.2091741 57:-0.046295181 58:-1.697965 59:-0.90435201 60:-0.66754657 61:1.230139 62:0.77938551 63:0.54259938 64:1.176623 65:0.2091741 66:-0.046295181 67:-0.53207511 68:1.247389 69:0.0054757739 70:0.85170239 71:-2.883954 72:0.1931455 73:-0.46709111 74:0.47276241 75:1.44212 76:0.35094309 77:-1.1249059 78:-0.90698719 79:1.176623 80:0.2091741 81:-0.046295181 82:0.35094309 83:-1.1249059 84:-0.90698719 85:-1.029012 86:-1.3615969 87:-0.8358022 88:-1.029012 89:-1.3615969 90:-0.8358022 91:0.85170239 92:-2.883954 93:0.1931455 94:0.2706688 95:-0.52241802 96:2.67168 97:0.74849248 98:-0.87745529 99:0.36787239 100:-1.697965 101:-0.90435201 102:-0.66754657 #
-2.6117681617768848667537895380519 1:-1.6023999 2:-0.55469412 3:-0.63518971 4:0.02602301 5:-0.93124878 6:0.057246719 7:0.83258939 8:0.28448501 9:-0.73873162 10:0.02602301 11:-0.93124878 12:0.057246719 13:-1.881449 14:0.69869518 15:0.290216 16:1.3906879 17:0.60724622 18:1.526247 19:0.02602301 20:-0.93124878 21:0.057246719 22:0.74849248 23:-0.87745529 24:0.36787239 25:-1.697965 26:-0.90435201 27:-0.66754657 28:-1.816465 29:1.9628429 30:0.54907078 31:1.176623 32:0.2091741 33:-0.046295181 34:-0.95256001 35:-0.14586321 36:-0.26632169 37:0.35094309 38:-1.1249059 39:-0.90698719 40:-1.6023999 41:-0.55469412 42:-0.63518971 43:-1.697965 44:-0.90435201 45:-0.66754657 46:-1.029012 47:-1.3615969 48:-0.8358022 49:0.02602301 50:-0.93124878 51:0.057246719 52:0.85170239 53:-2.883954 54:0.1931455 55:1.176623 56:0.2091741 57:-0.046295181 58:-1.881449 59:0.69869518 60:0.290216 61:1.230139 62:0.77938551 63:0.54259938 64:0.02602301 65:-0.93124878 66:0.057246719 67:-0.53207511 68:1.247389 69:0.0054757739 70:0.85170239 71:-2.883954 72:0.1931455 73:-0.46709111 74:0.47276241 75:1.44212 76:0.35094309 77:-1.1249059 78:-0.90698719 79:1.176623 80:0.2091741 81:-0.046295181 82:0.02602301 83:-0.93124878 84:0.057246719 85:0.74849248 86:-0.87745529 87:0.36787239 88:-1.029012 89:-1.3615969 90:-0.8358022 91:0.2706688 92:-0.52241802 93:2.67168 94:0.02602301 95:-0.93124878 96:0.057246719 97:0.35094309 98:-1.1249059 99:-0.90698719 100:-1.029012 101:-1.3615969 102:-0.8358022 #
-0.46024220061859455466191093364614 1:-1.6023999 2:-0.55469412 3:-0.63518971 4:0.02602301 5:-0.93124878 6:0.057246719 7:0.83258939 8:0.28448501 9:-0.73873162 10:0.02602301 11:-0.93124878 12:0.057246719 13:-1.881449 14:0.69869518 15:0.290216 16:1.3906879 17:0.60724622 18:1.526247 19:0.02602301 20:-0.93124878 21:0.057246719 22:0.02602301 23:-0.93124878 24:0.057246719 25:-1.697965 26:-0.90435201 27:-0.66754657 28:-1.6023999 29:-0.55469412 30:-0.63518971 31:1.176623 32:0.2091741 33:-0.046295181 34:-0.95256001 35:-0.14586321 36:-0.26632169 37:-1.029012 38:-1.3615969 39:-0.8358022 40:-1.6023999 41:-0.55469412 42:-0.63518971 43:-1.6023999 44:-0.55469412 45:-0.63518971 46:-1.6023999 47:-0.55469412 48:-0.63518971 49:0.02602301 50:-0.93124878 51:0.057246719 52:0.85170239 53:-2.883954 54:0.1931455 55:1.176623 56:0.2091741 57:-0.046295181 58:-1.881449 59:0.69869518 60:0.290216 61:1.230139 62:0.77938551 63:0.54259938 64:-1.029012 65:-1.3615969 66:-0.8358022 67:-0.53207511 68:1.247389 69:0.0054757739 70:0.85170239 71:-2.883954 72:0.1931455 73:-0.46709111 74:0.47276241 75:1.44212 76:0.35094309 77:-1.1249059 78:-0.90698719 79:1.176623 80:0.2091741 81:-0.046295181 82:0.2706688 83:-0.52241802 84:2.67168 85:0.35094309 86:-1.1249059 87:-0.90698719 88:0.74849248 89:-0.87745529 90:0.36787239 91:-1.697965 92:-0.90435201 93:-0.66754657 94:-1.697965 95:-0.90435201 96:-0.66754657 97:0.35094309 98:-1.1249059 99:-0.90698719 100:0.74849248 101:-0.87745529 102:0.36787239 #
-0.61471634120255536082311209611362 1:-1.881449 2:0.69869518 3:0.290216 4:-1.816465 5:1.9628429 6:0.54907078 7:0.02602301 8:-0.93124878 9:0.057246719 10:0.35094309 11:-1.1249059 12:-0.90698719 13:-1.881449 14:0.69869518 15:0.290216 16:1.3906879 17:0.60724622 18:1.526247 19:-1.029012 20:-1.3615969 21:-0.8358022 22:0.74849248 23:-0.87745529 24:0.36787239 25:-1.029012 26:-1.3615969 27:-0.8358022 28:-1.029012 29:-1.3615969 30:-0.8358022 31:1.176623 32:0.2091741 33:-0.046295181 34:0.02602301 35:-0.93124878 36:0.057246719 37:0.74849248 38:-0.87745529 39:0.36787239 40:0.85170239 41:-2.883954 42:0.1931455 43:0.02602301 44:-0.93124878 45:0.057246719 46:-1.6023999 47:-0.55469412 48:-0.63518971 49:0.02602301 50:-0.93124878 51:0.057246719 52:0.85170239 53:-2.883954 54:0.1931455 55:1.176623 56:0.2091741 57:-0.046295181 58:0.02602301 59:-0.93124878 60:0.057246719 61:1.230139 62:0.77938551 63:0.54259938 64:-1.881449 65:0.69869518 66:0.290216 67:-0.53207511 68:1.247389 69:0.0054757739 70:0.85170239 71:-2.883954 72:0.1931455 73:-0.46709111 74:0.47276241 75:1.44212 76:0.35094309 77:-1.1249059 78:-0.90698719 79:1.176623 80:0.2091741 81:-0.046295181 82:0.02602301 83:-0.93124878 84:0.057246719 85:0.35094309 86:-1.1249059 87:-0.90698719 88:-1.029012 89:-1.3615969 90:-0.8358022 91:-0.53207511 92:1.247389 93:0.0054757739 94:0.02602301 95:-0.93124878 96:0.057246719 97:0.35094309 98:-1.1249059 99:-0.90698719 100:0.02602301 101:-0.93124878 102:0.057246719 #
-0.6883797084012215350412589032203 1:-1.6023999 2:-0.55469412 3:-0.63518971 4:-0.53207511 5:1.247389 6:0.0054757739 7:1.08488 8:0.75786811 9:-2.033005 10:0.02602301 11:-0.93124878 12:0.057246719 13:-1.881449 14:0.69869518 15:0.290216 16:1.3906879 17:0.60724622 18:1.526247 19:-0.46709111 20:0.47276241 21:1.44212 22:0.02602301 23:-0.93124878 24:0.057246719 25:-1.6023999 26:-0.55469412 27:-0.63518971 28:-0.53207511 29:1.247389 30:0.0054757739 31:1.176623 32:0.2091741 33:-0.046295181 34:-1.029012 35:-1.3615969 36:-0.8358022 37:1.230139 38:0.77938551 39:0.54259938 40:-1.881449 41:0.69869518 42:0.290216 43:0.83258939 44:0.28448501 45:-0.73873162 46:0.35094309 47:-1.1249059 48:-0.90698719 49:0.85170239 50:-2.883954 51:0.1931455 52:0.85170239 53:-2.883954 54:0.1931455 55:1.3906879 56:0.60724622 57:1.526247 58:-1.6023999 59:-0.55469412 60:-0.63518971 61:0.92050898 62:0.93538678 63:0.7173264 64:0.35094309 65:-1.1249059 66:-0.90698719 67:-0.53207511 68:1.247389 69:0.0054757739 70:0.85170239 71:-2.883954 72:0.1931455 73:-0.46709111 74:0.47276241 75:1.44212 76:0.35094309 77:-1.1249059 78:-0.90698719 79:1.176623 80:0.2091741 81:-0.046295181 82:0.35094309 83:-1.1249059 84:-0.90698719 85:0.35094309 86:-1.1249059 87:-0.90698719 88:-1.881449 89:0.69869518 90:0.290216 91:0.2706688 92:-0.52241802 93:2.67168 94:0.02602301 95:-0.93124878 96:0.057246719 97:0.74849248 98:-0.87745529 99:0.36787239 100:-1.816465 101:1.9628429 102:0.54907078 #
-0.42889022897876544204720516972884 1:-1.6023999 2:-0.55469412 3:-0.63518971 4:0.74849248 5:-0.87745529 6:0.36787239 7:0.92050898 8:0.93538678 9:0.7173264 10:-1.816465 11:1.9628429 12:0.54907078 13:-1.881449 14:0.69869518 15:0.290216 16:1.3906879 17:0.60724622 18:1.526247 19:0.02602301 20:-0.93124878 21:0.057246719 22:0.74849248 23:-0.87745529 24:0.36787239 25:-1.816465 26:1.9628429 27:0.54907078 28:0.83258939 29:0.28448501 30:-0.73873162 31:-0.46709111 32:0.47276241 33:1.44212 34:-1.816465 35:1.9628429 36:0.54907078 37:1.176623 38:0.2091741 39:-0.046295181 40:-1.029012 41:-1.3615969 42:-0.8358022 43:0.85170239 44:-2.883954 45:0.1931455 46:-1.029012 47:-1.3615969 48:-0.8358022 49:0.85170239 50:-2.883954 51:0.1931455 52:0.85170239 53:-2.883954 54:0.1931455 55:1.176623 56:0.2091741 57:-0.046295181 58:-1.881449 59:0.69869518 60:0.290216 61:1.230139 62:0.77938551 63:0.54259938 64:-1.6023999 65:-0.55469412 66:-0.63518971 67:-0.53207511 68:1.247389 69:0.0054757739 70:0.85170239 71:-2.883954 72:0.1931455 73:-0.46709111 74:0.47276241 75:1.44212 76:0.35094309 77:-1.1249059 78:-0.90698719 79:1.176623 80:0.2091741 81:-0.046295181 82:0.74849248 83:-0.87745529 84:0.36787239 85:0.35094309 86:-1.1249059 87:-0.90698719 88:-1.029012 89:-1.3615969 90:-0.8358022 91:1.3906879 92:0.60724622 93:1.526247 94:0.02602301 95:-0.93124878 96:0.057246719 97:-1.6023999 98:-0.55469412 99:-0.63518971 100:-1.029012 101:-1.3615969 102:-0.8358022 #
-0.073331932994787102364497854978254 1:-1.6023999 2:-0.55469412 3:-0.63518971 4:0.85170239 5:-2.883954 6:0.1931455 7:0.92050898 8:0.93538678 9:0.7173264 10:0.02602301 11:-0.93124878 12:0.057246719 13:-1.881449 14:0.69869518 15:0.290216 16:1.3906879 17:0.60724622 18:1.526247 19:0.02602301 20:-0.93124878 21:0.057246719 22:0.74849248 23:-0.87745529 24:0.36787239 25:-1.816465 26:1.9628429 27:0.54907078 28:1.3906879 29:0.60724622 30:1.526247 31:-0.46709111 32:0.47276241 33:1.44212 34:-1.816465 35:1.9628429 36:0.54907078 37:1.3906879 38:0.60724622 39:1.526247 40:-1.029012 41:-1.3615969 42:-0.8358022 43:-1.029012 44:-1.3615969 45:-0.8358022 46:-1.029012 47:-1.3615969 48:-0.8358022 49:0.85170239 50:-2.883954 51:0.1931455 52:0.85170239 53:-2.883954 54:0.1931455 55:1.176623 56:0.2091741 57:-0.046295181 58:-1.029012 59:-1.3615969 60:-0.8358022 61:1.230139 62:0.77938551 63:0.54259938 64:-1.6023999 65:-0.55469412 66:-0.63518971 67:-0.53207511 68:1.247389 69:0.0054757739 70:0.85170239 71:-2.883954 72:0.1931455 73:-0.46709111 74:0.47276241 75:1.44212 76:0.35094309 77:-1.1249059 78:-0.90698719 79:1.176623 80:0.2091741 81:-0.046295181 82:0.35094309 83:-1.1249059 84:-0.90698719 85:0.35094309 86:-1.1249059 87:-0.90698719 88:-1.029012 89:-1.3615969 90:-0.8358022 91:1.3906879 92:0.60724622 93:1.526247 94:0.02602301 95:-0.93124878 96:0.057246719 97:-0.53207511 98:1.247389 99:0.0054757739 100:-0.53207511 101:1.247389 102:0.0054757739 #
